5371 16
酒店 -0.382122 0.414567 -1.586213 -0.120493 1.293759 -0.155033 -0.211805 -0.724028 0.129947 0.340678 -1.387317 -1.867715 1.388243 -0.181277 0.115160 -1.686498
房间 0.938193 0.176593 -0.831302 -0.497502 -2.456021 -0.210437 0.100674 -0.522750 -0.684690 1.214919 -2.601089 -2.881046 -1.641780 -1.109245 1.629389 0.677544
服务 0.762517 0.332410 -1.580538 0.767390 0.551760 -0.003541 -0.107330 -2.300946 -0.356096 1.137881 -1.044477 -1.938841 1.120307 0.029839 2.283170 -1.975162
住 -0.908985 0.740914 -2.321763 -0.968912 0.391115 -0.430170 -0.098531 -0.170904 0.036096 0.642190 -0.990624 -2.282403 1.402334 -0.856290 -0.699969 -1.221417
不错 -0.505750 0.806433 -2.781989 -0.407646 -0.088344 -0.768408 1.441942 -1.474027 -0.933227 1.229562 -1.396489 -2.703138 -0.627754 -0.711864 1.723139 -1.702353
入住 -0.122845 0.191914 0.351142 -0.357747 1.053850 0.485696 -1.498792 -0.734783 0.171783 0.687289 -1.778747 -2.046983 2.827667 -0.995211 -0.834033 -0.937957
说 0.616375 1.775142 2.198890 -0.230115 0.423548 1.203548 -1.290071 -1.066283 -0.448160 1.156484 -2.183596 -2.238436 0.705121 0.195472 1.765869 1.279104
前台 1.292985 1.139750 2.651143 0.475968 0.367976 0.987057 -1.067235 -1.950340 -0.863480 1.547075 -2.751776 -2.405251 1.021745 0.318034 2.431903 0.782911
比较 0.321827 0.971893 -3.078787 -0.518507 -0.961817 -0.559810 1.455630 -0.951480 -0.818241 1.015202 -1.296204 -3.046516 -2.336593 -1.283277 1.034510 -1.227135
早餐 0.617299 3.097634 -1.054670 -0.774192 -0.007105 0.162270 1.131178 -1.144248 -1.033398 0.220710 -0.704637 -1.250305 -1.568127 -0.050203 1.376384 -1.883111
感觉 -0.093396 0.264000 -2.622811 -0.383058 -0.618661 -0.636605 0.192086 -0.675981 -0.288225 0.961599 -1.423722 -2.343291 -0.249145 -0.861802 0.915961 -1.343849
携程 0.362007 0.239299 0.170513 -2.009025 1.230685 1.543654 -1.085043 -0.847981 -0.484668 0.557251 -2.496244 -2.244000 5.267722 -0.931715 -0.147839 -0.326866
服务员 1.227624 2.044103 1.795750 1.016367 0.288612 1.056970 -1.013404 -1.475927 -0.784397 1.112576 -2.051830 -2.377834 -1.354555 0.618291 3.106012 0.682720
宾馆 0.156385 1.281849 -1.886749 -0.470010 1.550015 0.379489 -0.582817 -0.645548 0.464643 0.266181 -0.981585 -1.896021 1.794956 -0.330189 -0.617370 -1.643695
! -1.081345 4.808688 -1.575693 -2.389648 1.604878 -1.752232 -0.493517 -2.350672 -0.388453 2.966458 0.153693 -0.917097 1.774187 2.213373 1.082478 -1.769483
设施 0.778221 -0.193383 -3.788168 -0.400260 -1.844500 -1.135554 0.588243 -1.104108 -0.587320 1.626164 -2.138501 -3.423315 -1.808588 -1.901857 2.133740 -1.100824
月 1.079125 3.591087 0.132212 -1.514396 4.344142 0.911152 -4.569449 0.132118 1.946160 0.368998 -3.111953 -3.498397 3.797355 -2.402755 -4.841682 -3.280572
方便 -1.160653 2.451045 -2.770856 -0.150851 1.427717 0.226814 2.258159 0.279549 -0.108083 0.004631 0.024615 -3.479454 -3.008448 -0.913393 -0.187985 -1.544871
客人 0.369961 0.796520 0.680630 0.433326 1.473534 1.209465 -2.344588 -1.177099 0.156173 0.060290 -1.673355 -2.097811 1.944875 0.342659 0.425963 -0.446084
日 0.728719 2.375449 0.564702 -0.791376 3.785760 1.015150 -4.029588 -0.481324 1.340611 -0.152194 -3.001143 -3.259872 3.320043 -1.759105 -4.531194 -2.471839
价格 0.034142 0.998225 -2.435658 -2.460166 -0.367129 -0.084825 1.648920 -0.444755 -0.787460 0.829347 -1.043493 -2.168418 1.456779 -1.554420 0.186826 -1.955621
差 0.797842 1.761982 -3.199137 -0.567521 -0.389934 -0.888771 1.219797 -1.761983 -0.202463 1.100287 -1.052031 -1.751933 -0.772248 -1.028808 2.744371 -1.680526
元 0.881594 2.233955 1.515418 -2.770787 -0.281923 0.646659 -0.776481 0.621909 -0.373973 0.652841 -1.668694 -1.868895 1.322630 -1.309774 -2.090566 -1.143551
没 0.557082 2.600945 1.207240 0.170798 0.193519 1.046526 -0.930470 -0.685519 -0.112992 0.393194 -1.591919 -2.076244 -1.296416 0.474942 1.613593 0.930191
晚上 1.155625 1.971744 0.626407 0.095862 -0.130344 0.417035 -0.968532 -0.142183 0.077513 -0.117363 -1.302703 -2.165529 -2.586286 -0.669703 -0.184400 0.167624
房 -0.116993 -0.854943 -0.410249 -2.915074 -2.744398 -0.209843 -0.387111 0.256998 -1.247847 2.700111 -4.420878 -3.332983 1.719659 -2.270020 0.700230 2.117648
年 1.069391 3.634621 -1.298081 -0.879536 4.708244 0.922383 -4.336539 -0.568271 1.820526 -0.250327 -2.881758 -3.760131 3.460435 -2.253771 -5.156956 -3.878552
时 0.877843 1.308242 3.125449 0.245684 0.479620 1.564223 -2.267622 -1.373718 -0.168185 0.598215 -2.631529 -2.575367 1.511940 -0.003496 0.519377 0.464133
环境 -0.110010 0.803489 -3.503749 -0.403860 -0.113117 -0.765095 1.381965 -1.223437 -0.724010 1.060583 -1.083040 -2.812977 -0.975220 -0.846130 1.204640 -1.965377
里 0.617505 0.713184 -1.268358 0.121495 -1.589644 0.063412 -0.599047 -0.521161 -0.649479 0.767395 -1.658569 -3.181385 -2.845043 -0.772281 1.695201 0.581695
太 0.692645 1.943356 -2.648450 -0.434260 -0.452310 -0.546376 1.071108 -1.494094 0.051718 0.849858 -0.958184 -2.124506 -1.132937 -0.793452 2.101092 -1.280020
知道 0.373183 1.359178 0.568762 -0.216890 0.235931 0.913320 -0.835974 -0.759725 -0.407247 0.551715 -1.427112 -2.102184 0.184497 -0.111598 1.217283 0.507538
下次 -1.685521 2.274539 -3.152117 -0.317679 1.364412 0.216910 0.342005 0.014977 1.147298 0.411953 -0.659409 -2.219262 2.769552 0.299642 -1.051982 -2.389201
不好 0.605419 1.135786 -1.624046 0.230478 -0.556668 -0.334764 0.736482 -1.225061 -0.629635 0.938992 -1.292007 -2.402180 -1.879848 -0.525118 2.488460 -0.303519
干净 0.163087 0.603396 -2.740298 -0.244944 -2.146861 -0.736316 0.983551 -1.000972 -1.041755 1.545786 -1.961572 -3.584140 -2.606412 -1.229337 2.472437 -0.409371
2008 1.148812 4.084575 -1.593870 -1.829798 5.128227 0.902916 -3.534939 -0.133878 2.140335 0.057976 -2.815368 -3.931953 3.536923 -2.129100 -4.601178 -3.717465
点 1.462035 2.732836 2.270840 -0.215178 0.958919 0.663524 -1.742687 -0.551524 0.388031 -0.261439 -1.456827 -1.649257 -1.182815 -0.783545 -1.239769 -0.831122
这家 -0.908854 0.730177 -3.141770 -0.581658 1.705315 0.092453 0.351420 -0.552762 -0.080994 0.319810 -0.592351 -2.388348 2.677327 -0.854455 -0.695908 -2.216205
点评 0.183814 2.646240 -1.148329 -0.740460 3.786534 0.373902 -2.434978 -0.012223 1.692699 -0.381571 -1.278463 -2.135115 2.770729 -1.341115 -3.148222 -2.921109
问题 0.596099 1.180871 0.272545 0.433074 0.959667 0.657414 -1.814801 -0.983416 0.273441 0.174745 -1.039280 -1.687159 0.501039 0.381315 0.687969 -0.325118
有点 0.639277 0.951072 -1.940781 -0.073578 -1.164301 -0.316830 0.319230 -0.618739 -0.520143 0.533185 -1.458240 -2.822063 -2.776606 -1.110609 1.156369 -0.729042
装修 0.705401 -0.210224 -2.238003 -0.295605 -1.005262 -0.568101 -0.311904 -0.468094 -0.004360 0.716961 -1.599685 -2.051533 -1.321448 -1.785470 0.703459 -1.021526
免费 -0.348202 -0.049089 -0.006495 -1.408632 -1.245011 0.635777 -1.827015 -0.079776 -1.690361 1.707080 -1.861372 -2.959296 2.419058 -0.248571 0.746306 0.688624
卫生间 1.023659 1.172045 -2.264070 -0.144883 -2.309304 -0.640866 -0.163967 -0.669038 -0.424174 0.999247 -2.059649 -3.354215 -3.667195 -0.962769 2.276256 0.084254
吃 0.026613 4.215581 -0.127946 -0.252704 1.378412 0.914340 0.483800 -0.917629 -0.423545 -0.409850 -0.188672 -1.293385 -2.222375 0.557407 0.976877 -1.518276
地方 -0.365855 1.924023 -1.837259 -0.289211 0.552215 0.014473 0.599534 -0.470611 -0.383295 0.291390 -0.447127 -2.237669 -1.052559 0.047715 0.575040 -0.726051
态度 0.714653 1.226338 0.553239 0.722676 0.269834 0.193778 0.239043 -2.267651 -0.512815 1.523630 -1.603374 -1.942301 0.181392 0.513604 3.367135 -0.539415
已经 0.540312 1.144488 0.786122 -0.116826 0.434643 0.785608 -1.514484 -0.407681 0.160248 0.301065 -1.629453 -2.163767 0.395105 -0.574033 0.031501 0.069809
实在 0.198325 1.872173 -1.967122 -0.832971 0.012828 -0.357135 0.420507 -0.967215 -0.265995 0.816948 -0.954472 -1.704270 -0.306789 -0.370302 1.316507 -0.902082
位置 -0.146350 1.232623 -2.848828 -0.212610 0.361207 -0.230587 1.357555 -0.802465 -0.673853 0.584096 -0.427776 -2.897851 -1.662729 -0.825636 0.319954 -1.352474
退房 0.929402 2.098166 3.043276 0.288539 0.973821 1.323705 -2.098184 -0.988341 -0.044044 0.743521 -2.197843 -2.520063 0.643558 0.150415 0.479088 0.383195
空调 1.008731 2.024703 -0.184917 0.230786 -0.863520 0.348810 -0.928910 -0.195025 0.413533 0.353148 -1.524233 -2.531443 -3.189485 -0.303068 1.428998 0.696918
发现 0.782529 1.016742 0.789916 0.085183 -0.663980 0.412228 -1.037698 -0.723543 -0.344236 0.867264 -1.937309 -2.483873 -1.200747 -0.463237 1.011617 0.751875
选择 -1.147899 1.359113 -2.664136 -0.556979 1.523322 0.124368 -0.150533 -0.133984 0.651801 0.168853 -0.634693 -2.246287 2.194436 -0.559043 -1.387214 -2.148752
大堂 0.689980 0.909639 -0.252504 0.352760 -0.273717 0.073641 -0.565103 -1.282277 -0.673725 0.953697 -1.609458 -2.357186 -1.181329 -0.092288 2.023059 0.198293
以后 -0.811314 1.606391 -1.732394 -0.437271 0.783778 0.403688 -0.063781 -0.221106 0.526525 0.236641 -0.942414 -2.034577 1.999884 0.001823 -0.202801 -1.318516
10 1.072259 2.971087 2.032043 -1.094215 1.109486 1.079922 -1.723281 0.168979 0.293051 -0.228022 -1.334931 -1.970491 -0.400958 -0.912763 -2.912557 -1.261691
交通 -0.519306 2.572213 -3.753520 -0.191502 1.018880 0.419159 2.502766 -0.956496 -0.778419 0.500130 0.354569 -3.954406 -2.553887 0.317398 -0.570824 -1.077480
餐厅 0.646628 2.109735 -0.613716 0.248321 0.697504 0.469875 0.121127 -1.031641 -0.434614 -0.005173 -0.859591 -1.745420 -1.448598 -0.195272 1.054603 -1.267245
预定 0.293306 0.069325 1.580145 -1.479915 0.408339 1.172504 -1.216187 -0.709260 -0.538627 1.074177 -2.527196 -2.384476 3.299217 -1.018597 -0.127571 0.440617
问 0.911169 2.237813 2.703432 0.106632 0.288083 1.396017 -1.524065 -1.260583 -0.447736 0.906385 -2.382029 -2.711749 -0.449586 0.471286 1.910261 1.520819
电话 0.939488 1.791693 2.494742 -0.151996 0.790164 1.476303 -1.919709 -1.017052 -0.265256 0.359943 -2.204374 -2.524271 0.451545 0.048753 0.871301 0.994129
要求 0.698861 0.756243 1.364273 -0.490369 -0.307535 0.894732 -1.476981 -0.532543 -0.145283 1.004530 -2.284347 -2.333184 0.714055 -0.526170 0.838533 0.767263
建议 -0.641682 0.996709 -1.485204 -0.638568 1.108356 0.557626 -0.520425 -0.418261 0.205305 0.161165 -0.814942 -2.172317 2.071111 -0.167894 -0.447249 -1.115076
算 -0.177051 1.038836 -2.832369 -0.801207 -0.502021 -0.589333 1.524723 -0.798077 -0.836909 1.130966 -1.230483 -2.803950 -1.107869 -0.913408 0.959076 -1.387372
人员 0.898485 0.383423 0.180781 0.944463 0.561071 0.465549 -0.398356 -1.891054 -0.788258 1.288504 -1.962844 -2.155928 0.656705 0.093151 3.045989 -0.415359
找 0.480908 2.278637 0.869651 0.565774 0.652999 0.902581 -0.528154 -1.115696 -0.601660 0.643655 -1.146963 -2.453360 -1.432547 0.541345 2.010219 0.618003
补充 0.324891 1.810110 -1.393054 -0.785810 2.136508 0.177655 -1.489782 0.055961 1.258128 -0.014215 -1.328707 -1.361021 1.182074 -0.979362 -2.391743 -2.197537
希望 -0.546688 1.006491 -1.074732 -0.387431 2.045275 0.924213 -1.604713 -0.770201 0.405326 -0.029431 -1.035252 -2.281100 3.455361 0.052480 -0.604713 -1.603699
楼 0.767400 0.328231 0.461962 -0.713320 -0.530907 0.323098 -1.610858 0.184514 0.181390 0.798128 -2.251568 -1.787508 -0.500204 -1.537634 -0.890692 0.041861
一点 0.367008 0.790166 -1.023962 -0.407469 0.060341 -0.018246 0.061020 -0.591600 -0.302537 0.579157 -1.281596 -1.914098 -0.337242 -0.633194 0.627394 -0.687463
朋友 -0.346711 1.574162 -0.372218 -0.557197 1.298894 0.863123 -0.758148 -0.213904 0.389527 0.360974 -1.295650 -1.961258 2.032504 -0.166244 -0.575726 -0.825061
特别 0.310605 0.962782 -1.918547 0.021738 -0.233455 -0.224837 0.218891 -1.039667 -0.440899 0.659570 -1.114912 -2.431482 -1.030442 -0.476840 1.576004 -0.990444
大床 -0.247717 -1.025730 -0.419339 -2.902609 -2.719888 -0.101414 -0.272703 0.355421 -0.939469 2.189463 -4.109292 -3.411428 1.269120 -2.367816 0.583133 1.169229
标准 0.159326 -0.456577 -3.043944 -1.253978 -0.166696 -0.673593 -0.273695 -0.285364 -0.352149 0.922621 -1.682631 -2.318415 0.126811 -1.945520 0.677226 -1.690126
想 0.154728 1.620423 0.112556 0.070707 0.624351 0.722419 -0.800702 -0.538716 -0.121517 0.110734 -1.115082 -2.112102 -0.176167 -0.000769 0.491549 -0.121359
总体 -0.288209 0.727755 -2.555448 -0.447318 -0.219683 -0.647770 0.984529 -0.768872 -0.430413 0.931863 -1.306042 -2.392710 0.140071 -0.758816 0.960483 -1.700673
分钟 0.579207 3.090364 2.031359 -0.848762 1.415430 1.263290 -1.490136 0.378759 0.396236 0.272776 -0.804410 -2.216843 -1.103942 -0.297899 -2.489406 -0.727893
隔音 1.177931 1.619457 -3.036101 -0.165153 -1.495380 -0.702334 0.884166 -1.088287 -0.182704 0.921421 -1.354636 -2.919300 -3.155582 -1.351389 2.253067 -0.734932
时间 0.624882 2.192748 1.540605 -0.233555 1.067237 1.017932 -1.846271 -0.746700 0.267518 0.234357 -1.673153 -2.243597 0.433782 -0.026194 -0.401145 -0.307065
高 -0.023828 1.026769 -2.682904 -1.576960 -0.342685 -0.579171 0.885916 -0.398665 -0.358165 0.590407 -1.422023 -2.165155 0.527232 -1.244525 0.279965 -1.470077
第二天 0.832062 2.191116 1.792136 -0.074433 0.444950 0.864507 -1.564802 -0.753966 -0.181013 0.360239 -1.758044 -2.368986 -0.594045 -0.067045 0.374641 0.503149
应该 0.001197 0.967647 -1.648814 -0.549608 0.579146 0.058363 -0.189912 -0.527671 -0.146643 0.427856 -0.984759 -2.019890 0.689954 -0.615324 0.090103 -1.220171
打电话 1.087573 2.127427 2.742158 0.013983 0.669357 1.455166 -1.774568 -1.213471 -0.416835 0.945273 -2.238959 -2.441276 0.273199 0.277829 1.541328 1.284659
~ -2.649521 5.329863 -1.574618 -2.725049 -0.474608 1.902003 1.804951 2.158654 2.974527 0.950192 -0.633798 -2.834541 1.251484 -1.042051 1.145802 0.228650
做 0.262107 1.501758 -0.089184 -0.120442 0.812439 0.684014 -1.009027 -0.804386 0.004093 0.277127 -1.319100 -1.865732 0.466168 0.080725 0.549122 -0.631690
订 -0.243313 -0.120187 0.192780 -1.695910 -0.272161 0.542759 -0.631697 -0.072514 -0.415251 1.054431 -2.323618 -2.281479 2.234738 -1.407997 -0.335442 0.386365
星 0.114883 0.300136 -3.062766 -0.872244 0.104921 -0.694757 0.184886 -0.687391 -0.343635 0.821346 -1.102804 -2.128931 0.255300 -1.553172 0.783402 -1.922558
反馈 0.320349 2.026489 -1.773656 -0.337362 2.646572 0.543055 -1.954263 -0.750584 1.087399 -0.055603 -0.509693 -2.211854 2.833871 -1.180089 -2.424009 -2.421016
换 0.318885 0.645341 0.401929 -0.402740 -1.076303 0.260337 -0.616082 -0.530319 -0.457364 1.124538 -2.061329 -2.461204 -0.765500 -0.568642 1.292437 1.006228
看到 0.234658 1.317054 -0.064025 -0.254345 0.420952 0.443053 -1.021548 -0.498384 0.090940 0.588993 -1.395553 -2.181061 -0.130838 -0.245736 0.264716 -0.221073
性价比 -0.359246 1.326874 -3.424963 -1.441318 -0.027553 -0.522663 1.380572 -0.625633 -0.372085 0.903062 -1.054285 -2.502459 0.483258 -1.193849 0.784767 -2.237286
提供 -0.059785 0.501994 -0.674020 -0.451101 0.470849 0.634087 -1.141332 -0.680713 -0.459870 0.530030 -1.169460 -2.221035 1.714146 -0.269397 0.268149 -0.794927
客房 0.610358 0.561891 -0.458701 -0.044809 -0.495807 0.110256 -0.564868 -1.204576 -0.500632 0.929134 -1.941852 -2.220458 -0.574263 -0.336836 1.880854 -0.170550
旧 0.587036 0.318216 -2.622328 -0.374838 -1.743645 -0.878646 0.512480 -0.777449 -0.736095 0.892825 -1.696860 -2.735796 -2.550052 -1.466921 1.747424 -0.889743
陈旧 0.531002 0.573083 -3.008279 -0.396280 -1.659933 -0.862387 0.428806 -0.768960 -0.266256 1.124289 -1.670622 -2.820906 -2.096898 -1.624533 2.006701 -0.966774
舒服 0.034933 0.869170 -2.043539 -0.412059 -1.167541 -0.526496 0.494792 -0.903904 -0.758516 1.109329 -1.691370 -2.746034 -1.456148 -0.627242 1.803358 -0.533381
推荐 -0.688809 1.125470 -2.144450 -1.094953 1.146323 0.100378 0.230696 -0.806351 -0.136952 0.584154 -1.024154 -2.369315 2.261274 -0.547416 0.038859 -1.662336
满意 -0.228123 0.729429 -1.627914 -0.358419 0.429248 -0.065139 0.055683 -0.791740 -0.191891 0.652699 -1.043476 -1.971632 0.796189 -0.588984 0.467398 -1.216411
走 0.271986 2.393866 0.365551 -0.020773 0.743255 0.809615 -0.584255 -0.296313 -0.043401 0.276559 -0.837725 -2.380888 -1.250115 0.064944 -0.154646 0.044594
觉得 -0.062626 1.142288 -1.612490 -0.592633 0.237392 -0.114934 0.094159 -0.453262 -0.109263 0.275003 -1.055415 -2.016475 0.041898 -0.582281 0.156264 -1.143722
服务态度 0.309419 1.162058 -1.439152 -0.093952 -0.156463 -0.236171 0.538548 -1.293488 -0.401102 1.064735 -1.076415 -1.973730 -0.632930 -0.208760 1.703148 -0.989790
很大 0.294255 0.367186 -2.294427 -0.418646 -1.518807 -0.513928 0.314257 -0.693722 -0.584515 1.169739 -1.750239 -2.803176 -1.840169 -1.049537 1.480098 -0.303478
只能 0.395799 1.333162 -0.507957 -0.315877 -0.367968 0.387578 -0.437074 -0.443568 -0.370522 0.667077 -1.547246 -2.460103 -1.030947 -0.498862 0.978468 0.177371
真的 -0.090210 1.129214 -1.857679 -0.368533 0.343685 -0.102995 0.124623 -0.717020 -0.158178 0.558167 -1.104900 -1.974020 0.193793 -0.511481 0.593280 -1.150006
豪华 -0.277252 -1.024758 -1.000501 -2.252839 -2.108153 -0.205504 -0.236033 0.091128 -0.947201 1.951346 -3.308092 -3.012539 1.290128 -2.022546 0.288250 0.458767
小时 0.677302 2.372927 2.056926 -0.148332 0.786028 1.269286 -2.035813 -0.479897 0.184380 0.149008 -1.830889 -2.492541 -0.386384 -0.078809 -0.206284 0.273968
东西 0.328376 2.899615 -0.100761 -0.030976 0.550420 0.793792 0.039462 -0.726907 -0.294025 0.030765 -0.802716 -1.941813 -1.761289 0.265049 0.868731 -0.510062
根本 0.562234 1.176648 -0.770433 -0.409042 -0.369327 0.192852 -0.403341 -0.680282 -0.431586 0.758715 -1.592873 -2.429695 -0.942323 -0.581912 1.293126 -0.124920
四星 0.217634 0.357548 -2.898970 -0.737710 -0.331438 -0.497611 0.190056 -0.974149 -0.615283 1.109343 -1.330864 -2.452030 -0.265341 -1.264608 1.484888 -1.286136
需要 0.316443 1.500496 0.410791 -0.221376 0.523710 0.727998 -1.122518 -0.581651 -0.064448 0.288856 -1.371478 -2.314613 0.188777 -0.085119 0.012197 -0.292265
更 0.166896 1.177731 -1.057375 -0.440137 0.371473 0.346446 -0.716419 -0.803523 -0.063483 0.597165 -1.284155 -2.147433 0.693036 -0.335510 0.573292 -0.834238
地理位置 -0.194553 1.371045 -3.015157 -0.403966 0.335290 -0.283273 1.275071 -0.847672 -0.512524 0.808632 -0.828487 -2.916758 -0.970998 -0.719671 0.555671 -1.602579
味道 0.580241 1.189369 -1.659302 -0.287083 -1.108539 -0.152208 0.066392 -0.883016 -0.606686 0.769431 -1.613812 -2.629584 -1.899987 -0.772263 1.765551 -0.452874
里面 0.318826 1.334320 -1.542987 -0.227834 -0.860011 -0.157071 0.187214 -0.721778 -0.571831 0.967250 -1.353221 -2.681862 -1.858526 -0.484341 1.715218 -0.223237
上网 0.050772 0.609891 0.104872 -0.825923 -1.442330 0.324639 -0.920782 0.090879 -1.145827 1.338881 -1.596121 -2.762526 0.305782 -0.435822 0.910212 0.525209
饭店 0.044187 1.412021 -1.723723 -0.209830 0.710534 -0.054450 -0.171806 -0.585009 -0.004510 0.481995 -0.925078 -2.100414 -0.120006 -0.390216 0.186948 -1.419687
硬件 0.260470 0.586561 -2.952113 -0.376653 -0.168554 -0.691486 0.348233 -1.062815 -0.243302 0.935355 -1.248235 -2.300158 -0.312261 -0.987341 1.437823 -1.760783
床 0.420148 0.739177 -2.099354 -0.774800 -1.902811 -0.450329 0.290983 -0.499303 -0.718418 1.367177 -2.235563 -3.181726 -2.166550 -1.177879 1.782190 0.229707
… -1.843324 1.355114 0.160935 -1.696551 1.354704 0.417098 -0.696041 -2.650700 -0.545369 -4.764062 -2.633250 -2.977104 -2.369693 1.543251 0.568387 -0.831708
早上 0.836014 2.393453 1.213809 -0.022775 0.356706 0.656921 -1.059980 -0.692870 -0.179397 0.219344 -1.247225 -2.118267 -1.566300 -0.075618 0.390777 0.018341
送 0.433472 2.053972 0.680215 -0.167155 0.214898 0.729921 -0.901294 -0.900379 -0.602752 0.649697 -1.309943 -1.977019 -0.235426 0.195444 1.207223 -0.042274
商务 -0.213739 -0.621269 -1.225531 -1.829327 -1.885327 0.023976 -0.263748 -0.012964 -0.894688 1.749825 -3.187354 -3.267775 0.819779 -1.758852 0.538321 0.501938
中 0.128117 1.230430 -1.319809 -0.399929 0.893646 0.034289 -0.572779 -0.839988 -0.119187 0.506650 -1.178380 -2.120661 0.609749 -0.377896 0.234135 -1.254527
开 0.673898 2.028984 0.628336 0.063676 -0.160185 0.765698 -1.101905 -0.344950 0.166032 0.193174 -1.466429 -2.318286 -2.062605 -0.227701 0.852615 0.622005
房价 0.334906 1.227806 -0.997047 -1.325908 0.002295 0.080172 -0.040602 -0.537296 -0.348680 0.800659 -1.413488 -2.023541 0.894055 -0.875842 0.321470 -1.087585
电梯 0.638100 1.024787 -0.673774 0.016044 -0.545349 0.277881 -0.633425 -0.684689 -0.284388 0.678182 -1.651785 -2.447329 -1.618584 -0.679816 1.063329 -0.032327
一家 -0.291343 1.150984 -2.187910 -0.483993 0.822321 -0.133033 0.120228 -0.670296 -0.139638 0.549905 -0.806105 -2.174169 0.788732 -0.601572 0.153018 -1.436833
挺 0.045476 1.320071 -2.324039 -0.230745 -0.539992 -0.228175 0.963923 -0.873043 -0.640997 0.869953 -1.327467 -2.956162 -1.805842 -0.579114 1.260691 -0.845413
不到 0.522689 1.372557 -0.443608 -0.474684 0.259379 0.287189 -0.240569 -0.723219 -0.424247 0.597658 -1.289245 -2.138394 -1.080028 -0.497134 1.145388 -0.425705
门口 0.092637 1.974772 -0.822613 0.043533 0.492278 0.480093 0.245169 -0.665662 -0.324605 0.462510 -0.687568 -2.463632 -1.726426 -0.083543 0.542387 -0.289628
很差 0.377668 1.014366 -1.760998 -0.111690 -0.178472 -0.413407 0.677552 -1.215030 -0.495968 0.705234 -1.024083 -1.855954 -1.156652 -0.615319 1.680628 -0.967889
便宜 -0.037427 1.480142 -2.061745 -1.412437 0.057758 -0.200992 0.943307 -0.667100 -0.517777 0.655520 -0.998479 -2.126597 0.684679 -0.781885 0.306016 -1.418494
小姐 0.907659 1.599856 1.623683 0.180248 0.453850 1.054277 -1.126015 -1.410360 -0.503394 1.103475 -2.159834 -2.299733 0.383038 0.178340 1.830933 0.420713
间 0.221311 -0.449649 -0.569626 -1.676144 -1.622042 -0.016235 -0.518465 -0.186338 -0.930540 1.679032 -3.149810 -2.914672 0.916056 -1.718481 0.430022 0.572117
经理 0.978714 1.749347 1.899187 0.446403 0.707385 1.066536 -1.939253 -1.221071 -0.418994 0.998911 -2.038352 -2.449216 0.000996 0.562256 1.474664 0.753973
提出 0.497285 1.608615 0.507743 -0.124249 2.340891 1.170761 -2.901645 -0.947489 0.711198 0.009608 -1.733311 -2.394844 2.614598 -0.026647 -1.240467 -1.199580
真是 0.037771 1.611889 -0.711272 -0.516825 0.506849 0.299629 -0.371017 -0.808746 -0.153872 0.623549 -1.348568 -2.259517 0.149312 -0.199857 0.718160 -0.585791
声音 0.924545 1.812682 -0.983162 0.089835 -0.897437 0.147760 -0.425018 -0.686138 -0.073551 0.368063 -1.398351 -2.654338 -2.904608 -0.673266 1.564915 0.071880
窗户 0.760592 1.059335 -1.134949 -0.325380 -1.510921 -0.071926 -0.156486 -0.537170 -0.395356 0.959575 -1.844764 -2.896048 -2.450299 -0.940085 1.607005 0.336957
12 1.079283 2.432041 1.636983 -0.497995 1.722316 0.908170 -2.386698 -0.143636 0.752213 -0.205221 -1.786191 -2.074026 0.654734 -0.943553 -2.366228 -1.037834
附近 -0.147485 1.940229 -2.113697 -0.335054 0.840523 0.239770 0.705767 -0.454186 -0.257962 0.180462 -0.535095 -2.683984 -1.188018 -0.472093 -0.000875 -1.246545
热情 0.598428 0.794935 -0.239027 0.516797 0.006660 0.162811 0.069670 -1.684394 -0.616894 1.073858 -1.563270 -2.059444 -0.493536 0.082377 2.479273 -0.420228
吵 0.680770 1.453606 -1.130576 -0.153301 -0.506717 -0.104248 0.265147 -0.627869 -0.307463 0.393522 -1.031807 -2.312551 -2.314965 -0.784892 0.946294 -0.423533
告诉 0.637304 1.375820 1.651056 -0.398335 0.094572 1.126576 -1.154907 -0.783318 -0.480792 0.852910 -2.115263 -2.469908 0.537814 -0.202809 1.043110 0.670469
结帐 0.678559 1.679782 1.971369 -0.218258 0.536865 1.083718 -1.577452 -0.823778 -0.254841 0.584510 -2.087147 -2.389638 0.472883 -0.154389 0.548076 0.127939
毛巾 0.658257 1.422225 -1.082240 -0.015733 -0.939717 0.050544 -0.406550 -0.834162 -0.434046 0.778931 -1.678407 -2.699206 -2.007651 -0.309143 1.722507 -0.041415
天 0.169775 1.734615 0.431148 -1.038584 0.423269 0.602991 -1.076799 -0.149845 0.022859 0.597107 -1.611245 -2.112174 1.159040 -0.472096 -0.652290 -0.440661
现在 0.049482 1.513557 -0.426500 -0.552611 0.665940 0.577424 -0.834478 -0.377697 0.131047 0.303450 -1.312229 -2.083236 0.778813 -0.378409 0.071346 -0.447146
行李 0.689319 1.603511 1.070578 0.150741 0.444567 1.032816 -1.458266 -0.826550 -0.081490 0.693113 -1.897097 -2.476912 -0.378395 -0.150045 0.715602 0.347031
两个 0.544774 1.176280 0.084185 -0.279636 -0.377026 0.502254 -0.669909 -0.675064 -0.392863 0.840050 -1.788765 -2.473289 -0.514431 -0.449346 1.034788 0.182049
星级 0.006616 0.559066 -2.396775 -0.667603 0.409343 -0.297848 -0.177572 -0.832532 -0.284167 0.643400 -1.219208 -2.162502 0.645198 -0.970727 0.554592 -1.504710
感谢您 0.175050 2.539014 -0.562501 -0.546539 3.534390 1.021364 -3.382305 -0.714954 1.101741 0.022841 -2.016297 -3.149415 3.524428 -0.468274 -2.920196 -2.609459
地毯 0.711693 0.547586 -1.636859 -0.129110 -1.583522 -0.342331 -0.229195 -0.489620 -0.353237 0.901513 -1.756992 -2.643564 -2.134915 -1.048530 1.487584 -0.045784
楼层 0.470279 0.361503 0.224548 -0.628566 -0.877530 0.320884 -0.869021 -0.583875 -0.531755 1.221644 -2.499856 -2.547909 -0.041482 -0.832368 1.001630 0.354252
好像 0.368582 1.255832 -0.739079 -0.261684 -0.207862 0.260439 -0.239349 -0.667456 -0.264064 0.557276 -1.308414 -2.147821 -0.782153 -0.476071 0.899770 -0.314844
帮 0.380960 1.440875 1.173436 0.000640 0.400727 1.038485 -1.160948 -0.801067 -0.304914 0.730864 -1.725529 -2.287241 0.343637 0.186509 1.208858 0.678827
收费 0.158367 1.486482 -0.146028 -0.860300 -0.198122 0.435655 -0.743521 -0.120551 -0.450045 0.664822 -1.177140 -2.294094 0.133009 -0.293348 0.213293 -0.377482
新 0.438952 0.505098 -1.489795 -0.357720 -0.610323 -0.278756 -0.099403 -0.559270 -0.298301 0.749091 -1.612786 -2.291748 -0.890415 -1.071706 0.816800 -0.630042
唯一 0.056085 1.308447 -1.488374 -0.269707 0.200110 0.018635 0.370421 -0.654297 -0.365324 0.513088 -0.994529 -2.202675 -0.712603 -0.383733 0.671983 -0.826237
客户 0.078052 1.039255 -0.167028 -0.697827 1.098823 0.836253 -1.136976 -0.487773 0.210935 0.459816 -1.629696 -2.211325 2.039386 -0.473063 -0.369808 -0.695857
失望 -0.074810 0.754611 -1.912000 -0.491235 0.440571 -0.146391 -0.086792 -0.634133 -0.007011 0.542422 -1.038491 -1.946097 0.835374 -0.781563 0.228825 -1.251415
情况 0.231970 1.100489 -0.116755 -0.242535 0.866603 0.706135 -1.270866 -0.749172 -0.022947 0.394044 -1.427582 -2.156754 1.233291 -0.226538 0.114266 -0.524804
告知 0.621189 1.555736 2.008491 -0.485287 0.571612 1.286761 -1.894887 -0.614791 -0.123394 0.649467 -2.291746 -2.568860 0.965763 -0.348965 0.096681 0.548119
宽带 0.078071 0.833431 -0.263303 -0.812566 -0.972611 0.300401 -0.667768 -0.064748 -0.995289 1.124713 -1.329765 -2.527858 0.272510 -0.326170 0.811274 0.220978
机场 0.066419 1.979552 -0.411116 -0.366836 1.300883 0.680216 -0.357045 -0.383146 -0.105931 0.164609 -0.521168 -2.206265 -0.151946 -0.192401 -1.053321 -0.765360
预订 0.167708 0.470505 0.860406 -0.873669 0.442109 0.924140 -1.239946 -0.602552 -0.285696 0.687160 -1.843209 -2.155334 2.188943 -0.640455 -0.017957 0.081023
吃饭 0.144135 2.079462 -1.213236 0.141339 0.879009 0.446321 0.389347 -0.713093 -0.417101 0.045075 -0.453395 -2.446468 -1.940628 -0.051461 0.110059 -0.781955
这种 -0.058401 1.235742 -1.044083 -0.654164 0.764031 0.302620 -0.584592 -0.650720 -0.104102 0.486982 -1.123623 -2.002383 1.065525 -0.349136 0.248381 -0.837232
品种 0.098624 2.441834 -1.960723 -0.385556 0.153473 -0.035700 0.743070 -1.378359 -0.625254 0.482144 -0.889261 -1.901745 -1.463016 -0.383864 1.528750 -1.873065
20 0.385573 2.167624 1.057174 -0.977090 0.699224 0.893687 -1.086523 0.113412 0.264831 0.137085 -1.119734 -1.694238 0.440361 -0.437132 -1.531568 -0.689569
水 0.718056 1.388465 -0.293231 -0.073370 -0.819081 0.265324 -0.583260 -0.610690 -0.397806 0.613426 -1.692976 -2.748361 -1.874945 -0.396635 1.404930 0.323084
很小 0.270365 0.642913 -1.960206 -0.620530 -1.607184 -0.442534 0.307966 -0.444617 -0.550506 1.101960 -1.731094 -2.696861 -1.750239 -1.126899 1.408006 -0.115542
安静 0.110683 1.193238 -1.881217 -0.304331 -0.433283 -0.320309 0.667408 -0.689082 -0.402191 0.882379 -1.120748 -2.519197 -1.462636 -0.713518 0.832295 -0.784111
近 -0.062565 1.639370 -1.562184 -0.339140 0.528327 0.088553 0.475860 -0.488183 -0.219499 0.412269 -0.702252 -2.352631 -1.056800 -0.434678 -0.044815 -1.110359
总台 0.822438 1.727749 1.502685 0.119595 0.435557 0.826468 -1.294807 -1.133657 -0.366569 0.789346 -1.974859 -2.398368 -0.268694 0.158697 1.177595 0.527352
当时 0.492201 1.279447 0.685241 -0.251796 0.530428 0.760178 -1.149422 -0.549447 -0.085751 0.325677 -1.693984 -2.037958 0.511590 -0.390529 0.069361 -0.187890
15 0.552631 2.303936 1.417003 -1.030822 1.113101 0.993922 -1.626683 0.065429 0.383286 0.157047 -1.413215 -2.046401 0.483913 -0.681804 -2.091447 -0.654876
热水 0.745800 1.574800 0.092129 0.024984 -0.367371 0.370399 -0.789554 -0.382004 -0.030108 0.487474 -1.527219 -2.271570 -1.592518 -0.393615 0.688283 0.204555
30 0.795470 2.493650 1.442824 -0.604640 1.197198 0.984366 -1.732639 -0.265995 0.233471 0.032015 -1.377183 -2.019730 0.191466 -0.449050 -1.485806 -0.762603
定 -0.028993 0.111789 -0.185184 -1.415902 -0.232562 0.344399 -0.573183 -0.171010 -0.353381 0.841272 -2.059066 -2.202247 1.635106 -1.227601 -0.187468 -0.030328
评价 -0.085706 1.104030 -0.997590 -0.449708 1.115571 0.270880 -0.594948 -0.467540 0.261122 0.357327 -1.051837 -1.682203 1.383510 -0.442366 -0.297525 -1.189539
电视 0.435043 1.347804 -1.200074 -0.409328 -0.903626 0.194611 -0.086918 -0.266768 0.017822 0.698238 -1.426961 -2.503992 -1.525501 -0.803635 1.080733 0.077926
第一次 -0.239679 0.932904 -0.994303 -0.369371 0.642212 0.282822 -0.402179 -0.413809 -0.015103 0.453459 -1.060376 -1.948149 1.105820 -0.410651 -0.119537 -0.811640
最好 -0.091177 1.042955 -1.650121 -0.389478 0.532133 0.042787 -0.143901 -0.574136 -0.177919 0.491228 -1.016843 -2.144883 0.405077 -0.581671 0.209947 -1.092977
四星级 0.121506 0.778492 -2.090782 -0.466991 0.433440 -0.190743 -0.187277 -0.704104 -0.201213 0.614050 -1.045413 -2.144506 0.196430 -0.963204 0.395745 -1.332471
少 0.335889 1.789003 -1.255202 -0.182689 -0.013555 0.141308 0.565588 -0.934638 -0.430432 0.306866 -0.849457 -1.801879 -1.224357 -0.294340 1.201204 -0.980910
安排 0.210372 0.462057 0.615642 -0.414730 -0.022366 0.827557 -1.084630 -0.447072 -0.169034 0.752260 -1.879112 -2.095905 0.933959 -0.640570 0.448816 0.365067
请 0.159116 1.464412 0.272202 -0.232133 0.962726 0.783276 -1.227584 -0.774094 -0.041466 0.436664 -1.486031 -2.200033 0.989660 -0.052865 0.311264 -0.271426
喜欢 0.029956 1.055188 -1.667275 -0.377215 -0.122578 -0.044521 0.006655 -0.638930 -0.295040 0.708980 -1.368944 -2.519920 -0.410601 -0.623975 0.768091 -0.744214
外面 0.579842 1.772511 -0.630580 -0.181349 -0.118230 0.184546 -0.393150 -0.605042 -0.175869 0.362647 -1.174771 -2.320506 -1.655939 -0.420895 0.743339 -0.319571
11 0.831088 1.872827 1.121595 -0.489674 1.493141 0.828709 -2.210642 -0.054115 0.662633 -0.025986 -1.704580 -1.921619 0.819844 -0.997162 -2.118441 -0.867409
钱 0.307765 1.937239 0.326071 -0.665061 0.486482 0.721322 -0.823127 -0.369642 -0.153269 0.465685 -1.272682 -2.132295 0.464922 -0.173241 -0.035767 -0.390684
直接 0.404537 1.220549 0.636108 -0.339739 -0.042279 0.860915 -0.892758 -0.559567 -0.247198 0.652938 -1.738124 -2.493274 0.291832 -0.296892 0.681895 0.363514
无法 0.493729 1.293088 -0.269711 -0.188500 -0.021208 0.406890 -0.746470 -0.685061 -0.156487 0.541141 -1.473109 -2.296553 -0.401184 -0.409682 0.759543 -0.210071
旁边 0.112594 1.713139 -1.572290 -0.344948 0.405669 0.060000 0.196370 -0.697440 -0.322959 0.587666 -0.852956 -2.515569 -1.053478 -0.382019 0.456179 -0.774828
招待所 0.152139 0.972123 -2.257411 -0.559414 -0.310838 -0.507678 0.333184 -0.706701 -0.248603 0.776069 -1.072860 -2.128102 -0.892365 -0.771836 1.059518 -1.019317
方面 0.157608 0.870176 -1.678866 -0.179524 0.466505 -0.170014 -0.207852 -0.964350 -0.220804 0.646742 -1.116752 -2.004423 0.179124 -0.426931 0.764732 -1.207759
本来 0.211377 1.187499 -0.578767 -0.580400 0.110447 0.303563 -0.498478 -0.493941 -0.235061 0.636271 -1.571949 -2.266898 0.154191 -0.517706 0.420663 -0.280353
洗澡 0.613761 1.549368 -0.753909 -0.116215 -0.577344 0.207099 -0.463764 -0.557221 -0.200636 0.489147 -1.504081 -2.614126 -1.862466 -0.445561 1.017548 0.014764
出租车 0.181279 1.859362 -0.529720 0.016940 0.745283 0.585592 -0.150392 -0.703875 -0.324805 0.382161 -0.801530 -2.429303 -0.883672 -0.092604 0.402196 -0.285483
升级 -0.052381 -0.227915 -0.016878 -1.305375 -1.263555 0.208694 -0.832038 -0.297170 -1.085245 1.613498 -2.451672 -2.726645 1.385265 -1.005517 0.839392 0.529876
考虑 -0.484023 1.276450 -1.776984 -0.454918 0.759797 0.214106 -0.082767 -0.406809 0.127103 0.386991 -0.774292 -2.123351 1.147679 -0.266426 -0.181517 -1.251276
贵 0.186464 1.257710 -1.550472 -0.848516 0.049019 -0.136880 0.304117 -0.512597 -0.366358 0.435030 -1.089998 -1.983212 -0.048399 -0.743530 0.284258 -1.202379
老 0.248413 0.583988 -2.232612 -0.328636 -0.501319 -0.464331 0.493337 -0.781269 -0.410652 0.757674 -1.113951 -2.230871 -0.990965 -0.985560 1.172762 -1.009189
火车站 -0.100050 1.612892 -1.795735 -0.371932 0.538793 0.050923 0.732591 -0.437551 -0.271305 0.368756 -0.439296 -2.326441 -1.281645 -0.463155 -0.276346 -1.015262
一间 0.219392 0.018945 0.101769 -1.345128 -1.242737 0.362454 -0.541703 -0.106000 -0.620466 1.290081 -2.635063 -2.635761 0.543282 -1.150256 0.673039 0.726700
相当 0.071888 1.342780 -2.174718 -0.351963 -0.008523 -0.298151 0.638374 -1.016057 -0.387044 0.835822 -1.045596 -2.469357 -0.705809 -0.470084 1.262302 -1.150613
值得 -0.353236 1.430545 -2.044812 -0.828188 0.363875 -0.194500 0.400133 -0.733722 -0.202429 0.711310 -0.942143 -2.094929 0.532286 -0.365100 0.723620 -1.343141
周围 -0.042831 1.601975 -2.031065 -0.221568 0.388031 -0.065154 0.767882 -0.597146 -0.392123 0.365941 -0.678813 -2.520859 -1.650445 -0.444125 0.425215 -1.027836
上海 0.103996 1.529360 -1.011391 -0.482030 0.742396 0.323037 -0.428344 -0.467454 0.071339 0.375136 -1.160298 -2.178250 0.497580 -0.508107 -0.109601 -0.971506
员工 0.484180 1.197322 -0.486135 0.156855 1.198907 0.553757 -1.321005 -1.089412 0.029979 0.491944 -1.353583 -2.215018 0.947397 -0.061074 0.409936 -1.012434
坏 0.657209 1.434416 -0.238709 -0.109377 -0.858815 0.398054 -0.655412 -0.585462 -0.265303 0.841255 -1.866498 -2.856086 -1.575126 -0.508981 1.597065 0.458022
还会 -1.162557 1.863660 -2.454733 -0.464104 1.009126 0.208068 0.157066 -0.419891 0.323501 0.524470 -0.914675 -2.596628 1.625818 -0.100098 -0.174664 -1.705446
香港 -0.164681 1.475854 -1.624233 -0.564888 0.615171 0.229955 -0.125738 -0.336079 -0.038472 0.468726 -1.200572 -2.614308 0.168978 -0.697951 -0.123552 -1.008200
联系 0.976850 1.804280 1.293785 -0.377584 1.969673 1.510280 -2.384462 -0.701684 0.269264 0.269794 -2.125139 -2.413106 2.041856 -0.343523 -0.970732 -0.207758
打车 0.079278 2.062066 -0.814914 -0.325612 0.902794 0.431362 0.309121 -0.390794 -0.110331 0.210955 -0.471166 -2.308169 -0.980480 -0.213761 -0.602909 -0.868671
五星 0.040126 0.623483 -2.213356 -0.656035 0.190377 -0.347567 -0.123749 -0.654727 -0.271948 0.856228 -1.128831 -2.094887 0.282819 -0.933384 0.674630 -1.243511
2007 0.643023 2.189205 0.027107 -0.798850 2.714808 0.681604 -2.505631 0.145957 1.325620 -0.208280 -1.564981 -1.976084 1.810454 -1.104416 -2.822293 -1.830442
速度 0.360537 1.064168 0.243447 -0.240610 -0.416965 0.560641 -0.709223 -0.586140 -0.663988 0.925963 -1.620111 -2.427052 -0.175122 -0.205721 1.161635 0.051141
电脑 0.331863 0.813610 -0.244780 -0.547014 -0.830686 0.417625 -0.816844 -0.408720 -0.675828 0.945833 -1.906736 -2.886808 -0.332296 -0.604314 0.942792 0.381707
几个 0.385221 1.664910 -0.120596 -0.092123 0.484766 0.531874 -0.748651 -0.629023 -0.073806 0.372910 -1.231545 -2.137034 -0.354452 -0.140436 0.415634 -0.344216
隔壁 0.748238 1.440497 -1.263286 0.009839 -0.488768 -0.042518 0.036645 -0.940226 -0.169795 0.449572 -1.149167 -2.284931 -1.925014 -0.589784 1.305959 -0.304965
服务生 0.520680 1.476848 0.144284 0.001378 0.112635 0.572763 -0.653630 -0.911918 -0.344860 0.704089 -1.596393 -2.282775 -0.458681 -0.146869 1.232707 -0.112735
投诉 0.551196 1.637122 0.988501 -0.215252 0.900303 0.958784 -1.459411 -0.824925 -0.082578 0.548762 -1.680263 -2.187235 0.594020 0.073302 0.540500 0.096061
带 0.275138 1.231722 -0.004020 -0.261615 0.331895 0.600825 -0.915111 -0.375233 -0.057710 0.480230 -1.493872 -2.231971 0.122461 -0.403484 0.226780 -0.173310
回来 0.578873 2.011468 0.783250 -0.149273 0.581674 0.784275 -1.243330 -0.606530 -0.033998 0.413289 -1.570703 -2.437340 -0.483734 -0.183485 0.252339 0.093356
家 -0.022735 1.155941 -1.680243 -0.394706 0.486054 0.022134 -0.194793 -0.646215 -0.022313 0.539494 -1.159356 -2.272387 0.379434 -0.509939 0.297153 -1.175470
工作 0.182267 1.738680 -0.504569 -0.130339 1.216622 0.472189 -1.264811 -0.902415 0.136758 0.454781 -1.275188 -2.193581 0.848185 0.068701 0.060191 -0.955355
尤其 0.244847 0.912736 -1.336158 -0.237482 -0.223371 0.029888 -0.029784 -0.806206 -0.326268 0.709226 -1.460436 -2.411703 -0.697352 -0.640100 1.108620 -0.707549
三星 0.110908 0.396469 -2.511036 -0.675670 -0.073100 -0.394472 0.189677 -0.627104 -0.332824 0.752172 -1.111844 -2.137990 -0.126859 -1.142881 0.816292 -1.265862
走廊 0.781027 1.042919 -1.131437 -0.058957 -0.914787 -0.012422 -0.297443 -0.818624 -0.375770 0.742910 -1.698803 -2.682507 -1.874264 -0.775707 1.450040 -0.104178
说明 0.629290 0.951737 0.139479 -0.648817 1.396932 1.307386 -1.622616 -0.690093 0.048355 0.506438 -1.617209 -2.211375 2.714504 -0.574803 -0.495785 -0.657889
确实 0.244466 1.189325 -1.562199 -0.418661 0.060062 -0.188192 -0.009668 -0.727883 -0.222872 0.723252 -1.114805 -2.117211 -0.373585 -0.549611 0.720986 -0.886508
标间 0.202564 0.194156 -0.589101 -1.230877 -1.179390 -0.021849 -0.128427 -0.265181 -0.704144 1.159420 -2.130953 -2.350809 0.181458 -1.070344 0.505981 0.252235
最差 -0.166902 0.601873 -1.889741 -0.499126 0.341747 -0.182504 0.161106 -0.548653 -0.181917 0.623029 -0.903862 -1.704906 0.650250 -0.654617 0.321768 -1.092135
五星级 0.053583 0.828188 -2.049615 -0.550121 0.623211 -0.172395 -0.306689 -0.702083 -0.182208 0.617226 -1.045397 -2.048486 0.484156 -0.941566 0.209254 -1.388304
下午 0.682512 1.905736 1.468426 -0.317541 0.839234 0.830056 -1.656337 -0.513802 0.052011 0.402567 -1.649673 -2.068388 0.277366 -0.294597 -0.486854 -0.220592
整个 0.422158 1.006732 -1.018647 -0.201523 -0.343818 0.040045 -0.306398 -0.729816 -0.304475 0.627411 -1.385585 -2.356786 -1.022052 -0.599669 0.929728 -0.465857
水果 0.253273 1.551397 -0.206858 -0.243954 0.109620 0.373703 -0.610426 -0.849574 -0.659874 0.857159 -1.411464 -2.193731 0.111552 0.096844 1.046492 -0.153254
店 -0.037308 1.559411 -1.042085 -0.439767 1.378051 0.380692 -0.749939 -0.538665 0.310695 0.205077 -1.207096 -2.205226 1.201231 -0.356502 -0.632166 -1.379084
行政 0.141974 -0.171793 -0.255487 -1.352215 -1.236542 0.108025 -0.728495 -0.060631 -0.693707 1.423959 -2.641097 -2.539481 0.746125 -1.310999 0.360393 0.266622
倒 0.134810 1.515085 -0.897700 -0.311525 0.036704 0.275759 0.031767 -0.637529 -0.349993 0.558789 -1.116225 -2.290265 -0.914728 -0.315452 0.866799 -0.379321
进行 0.590502 1.104384 -0.214328 -0.089480 1.365547 0.575463 -1.850334 -0.828438 0.332807 0.227455 -1.524502 -2.061600 1.368237 -0.323844 -0.352219 -1.048900
信用卡 0.578571 1.475769 1.321807 -0.393447 0.492712 1.068936 -1.663821 -0.602965 -0.176256 0.625751 -2.007790 -2.345429 0.935448 -0.345302 0.207064 0.268945
半天 0.620937 1.917754 0.983684 -0.202838 0.421772 0.780419 -1.207495 -0.659056 -0.153981 0.611050 -1.734063 -2.450466 -0.386406 -0.039182 0.686914 0.285544
太小 0.250689 0.721405 -1.469604 -0.525256 -1.062254 -0.247667 0.397825 -0.591283 -0.516399 0.984138 -1.439870 -2.231951 -1.254760 -0.742213 1.313562 -0.125933
车 0.335984 1.677103 -0.358876 -0.171179 0.647611 0.574073 -0.461987 -0.589849 -0.199546 0.335286 -1.124444 -2.371552 -0.582747 -0.294184 0.184858 -0.356592
出差 -0.392682 1.233221 -1.361998 -0.449457 0.885169 0.224952 -0.387238 -0.333832 0.159363 0.425026 -1.045579 -2.055010 1.117600 -0.404177 -0.363970 -1.004216
打开 0.647267 1.308003 -0.337511 -0.129474 -0.628030 0.307614 -0.686590 -0.503495 -0.195104 0.684225 -1.694317 -2.529280 -1.436057 -0.542687 1.164254 0.369988
远 0.035057 1.406414 -1.632756 -0.348246 0.251409 -0.047150 0.500493 -0.466243 -0.185529 0.452533 -0.707307 -2.265164 -1.166904 -0.493437 0.161199 -0.893265
睡 0.504302 1.415394 -0.552957 -0.300982 -0.346089 0.102447 -0.393191 -0.658615 -0.243983 0.485800 -1.463811 -2.375675 -1.319937 -0.465434 0.849864 -0.151379
打扫 0.616756 1.091107 0.527206 0.137694 -0.252346 0.328311 -0.644069 -0.877532 -0.290397 0.762683 -1.437284 -1.881634 -0.748128 -0.107034 1.264324 0.270447
分 0.489139 1.704464 -0.092224 -0.451684 1.049620 0.552747 -1.319031 -0.445035 0.226473 0.320506 -1.539071 -2.263727 0.587053 -0.650885 -0.671220 -0.945416
标准间 0.169513 0.123216 -0.784452 -1.095203 -0.933717 -0.004588 -0.297848 -0.162192 -0.490965 1.039658 -2.055300 -2.323777 0.491588 -1.229493 0.227492 -0.077193
主动 0.522539 1.130160 0.944546 0.037617 0.391970 0.836313 -1.128704 -0.941396 -0.304156 0.639046 -1.706390 -2.003182 0.234899 0.051659 1.050565 0.274233
管理 0.296608 1.056584 -0.978743 -0.071362 0.776139 0.215762 -0.567156 -0.930666 -0.073875 0.493733 -1.129954 -1.928760 0.491693 -0.287241 0.542273 -1.020837
肯定 -0.191038 1.504431 -1.121286 -0.346775 0.834811 0.223108 -0.455588 -0.626408 0.127402 0.377897 -1.067983 -2.116029 0.738895 -0.133094 0.024798 -0.972169
还好 0.124411 1.332075 -1.077536 -0.268501 0.042386 0.010403 0.086316 -0.640102 -0.294690 0.622297 -0.943863 -1.985097 -0.787046 -0.273581 0.846341 -0.573291
左右 0.618401 2.098434 1.048540 -0.573104 0.705836 0.725465 -1.162716 -0.339052 0.195102 0.208722 -1.253094 -1.825375 0.057010 -0.506539 -0.932535 -0.615994
海景 0.045961 1.120831 -1.229929 -0.576160 0.322635 0.163816 -0.592086 -0.565045 -0.042802 0.770352 -1.617894 -2.500820 0.455922 -0.708009 0.207678 -0.840778
没什么 0.025706 1.702894 -1.497943 -0.514313 0.174311 -0.054364 0.412377 -0.709007 -0.260160 0.476620 -0.805133 -1.788488 -0.654247 -0.242998 0.664254 -1.037302
原因 0.178517 1.374120 -0.570692 -0.387081 0.519032 0.297378 -0.657191 -0.687497 -0.145636 0.473590 -1.286846 -2.150070 0.364414 -0.323564 0.277236 -0.612323
卫生 0.243676 1.081179 -1.629665 -0.171217 -0.428088 -0.183622 0.281473 -0.939166 -0.397984 0.909966 -1.259271 -2.342848 -0.900315 -0.435086 1.425174 -0.788670
出 0.377179 1.626046 -0.486668 -0.291316 0.565886 0.537545 -0.834152 -0.678103 0.002150 0.414495 -1.447867 -2.503156 -0.081903 -0.366801 0.354694 -0.569895
门 0.533547 1.159451 -0.549106 -0.064521 -0.625168 0.155034 -0.332592 -0.689024 -0.425192 0.695719 -1.553995 -2.518900 -1.602497 -0.403020 1.425061 0.240485
浴室 0.479826 1.194701 -1.180096 -0.331867 -0.673768 -0.038614 -0.345857 -0.549041 -0.352205 0.733943 -1.646293 -2.682141 -1.478495 -0.707682 1.071445 -0.211821
设备 0.329830 0.713397 -1.884863 -0.424887 -0.704400 -0.296602 0.124594 -0.650739 -0.311515 0.823574 -1.398925 -2.359398 -0.862732 -0.908557 1.129864 -0.671603
之后 0.311674 1.206750 0.049705 -0.384635 0.143640 0.533988 -0.940873 -0.523658 -0.124565 0.597046 -1.785828 -2.323476 0.291723 -0.480166 0.350685 -0.071600
房间内 0.386538 0.908692 -1.152700 -0.272483 -0.731572 -0.045701 -0.251112 -0.556253 -0.393615 0.712987 -1.567601 -2.547612 -1.084720 -0.673436 1.110664 -0.290151
完全 0.269186 1.233325 -1.084977 -0.423855 0.194148 0.024231 -0.316277 -0.856770 -0.224447 0.749379 -1.242972 -2.016016 -0.041538 -0.382565 0.793812 -0.728873
不知 0.295129 1.305759 -0.489611 -0.346694 0.410862 0.346208 -0.713424 -0.609415 -0.133607 0.510851 -1.321667 -2.214806 0.135107 -0.416788 0.355455 -0.495170
解决 0.531928 1.435673 0.536317 -0.009305 0.797884 0.813887 -1.300714 -0.751009 0.031544 0.319424 -1.305564 -1.944323 0.513123 0.087219 0.452069 -0.217285
床单 0.535503 1.271562 -0.674416 -0.180953 -0.673992 0.179947 -0.460855 -0.642983 -0.290265 0.803034 -1.660873 -2.558434 -1.153553 -0.454861 1.220066 -0.035616
办法 0.503586 1.679340 0.407513 -0.177017 0.143322 0.762741 -0.737864 -0.694016 -0.262944 0.692648 -1.586577 -2.229222 -0.533073 0.049909 1.066719 0.354002
套房 0.046312 0.367008 -0.860524 -0.964219 -0.738212 0.070833 -0.454346 -0.262047 -0.522722 1.082212 -2.094608 -2.559261 0.466028 -1.014740 0.398168 -0.043945
大酒店 -0.129889 1.380617 -1.149147 -0.622863 1.139974 0.166355 -0.919158 -0.411330 0.321548 0.413854 -1.157210 -2.010155 1.360070 -0.475029 -0.786088 -1.307024
整体 0.126796 0.581698 -1.941796 -0.220204 -0.307417 -0.444899 0.406403 -0.785708 -0.349358 0.792214 -1.041643 -2.045568 -0.650617 -0.645013 1.018494 -1.012960
房费 0.354740 1.714635 0.252280 -0.644541 0.422442 0.632271 -0.928289 -0.422100 -0.129250 0.561515 -1.517434 -2.298230 0.463816 -0.429094 -0.040676 -0.335497
脏 0.432118 1.113022 -1.645622 -0.172215 -0.901780 -0.229078 0.241089 -0.667812 -0.363394 0.848890 -1.444981 -2.510462 -1.771600 -0.657336 1.480588 -0.342362
缺点 0.317478 1.094073 -1.234896 -0.237532 -0.432991 -0.186830 0.285112 -0.782868 -0.478735 0.760311 -1.063496 -2.089040 -1.242866 -0.408101 1.207676 -0.466594
这是 0.094889 1.150563 -0.605495 -0.364794 0.537975 0.241761 -0.537628 -0.582008 -0.113313 0.558423 -1.101851 -1.928523 0.359231 -0.360287 0.188067 -0.587410
改进 0.123180 1.227197 -0.779256 -0.305661 0.856231 0.397195 -1.013020 -0.706351 0.108563 0.304842 -1.041093 -1.753577 0.942545 0.046212 0.060976 -0.952199
每次 0.019247 1.255615 -0.692213 -0.351922 0.450163 0.394060 -0.552297 -0.438883 -0.041446 0.541023 -1.384883 -2.222884 0.564609 -0.392101 0.101690 -0.634661
一张 0.373778 1.019476 -0.055829 -0.626693 -0.703088 0.383636 -0.593124 -0.360329 -0.347006 0.846433 -1.910218 -2.429446 -0.374760 -0.605923 0.743024 0.317789
被子 0.424130 1.529021 -0.724556 -0.138260 -0.515559 0.144533 -0.431768 -0.684825 -0.282733 0.756693 -1.562661 -2.567678 -1.399170 -0.361097 1.285094 -0.112040
效果 0.756282 1.203696 -1.975078 -0.117890 -0.721175 -0.412428 0.545940 -1.032410 -0.172669 0.616893 -1.126191 -2.067556 -1.862598 -0.782268 1.636852 -0.601471
意见 0.210469 1.274158 0.002662 -0.297695 1.676304 0.719894 -2.007802 -0.682315 0.443805 -0.050588 -1.171721 -1.863379 1.779684 0.002818 -1.000925 -1.060939
事情 0.219086 1.427360 -0.118331 -0.380541 0.784687 0.523228 -0.972440 -0.621934 -0.006124 0.498720 -1.299337 -2.012969 0.812921 -0.241415 0.094671 -0.502812
估计 0.215551 1.260318 -0.894803 -0.365626 0.209648 0.189235 -0.526944 -0.537764 -0.068125 0.432982 -1.206099 -2.054022 -0.110987 -0.462173 0.369802 -0.545654
门童 0.416927 1.456076 -0.127383 0.025445 0.411498 0.414368 -0.472263 -0.974668 -0.350711 0.758916 -1.411314 -2.228993 -0.434132 -0.079619 1.092804 -0.315401
算是 0.042035 1.061326 -2.037927 -0.507779 0.056019 -0.224837 0.367467 -0.596829 -0.301600 0.671325 -1.034073 -2.165213 -0.329811 -0.758747 0.600457 -1.120009
对面 0.115162 1.611310 -1.674942 -0.240788 0.448373 0.122678 0.163971 -0.695833 -0.308568 0.488854 -0.897765 -2.593413 -0.993088 -0.560683 0.300121 -0.969381
号 0.398555 1.534463 0.726036 -0.603921 1.346140 0.619829 -1.726364 -0.172673 0.445068 0.183409 -1.520511 -1.819838 1.254372 -0.691531 -1.745652 -0.949512
办理 0.333224 1.198414 1.217991 0.035833 0.277331 0.757668 -1.133115 -0.899912 -0.090695 0.729392 -1.696253 -2.044305 0.614581 -0.138121 0.391696 0.035399
冷 0.480818 1.432390 -0.333432 -0.140608 -0.235181 0.285059 -0.455662 -0.441061 -0.061739 0.426766 -1.379533 -2.134186 -1.321733 -0.414426 0.731552 -0.084818
洗手间 0.460096 1.003529 -1.398755 -0.205670 -0.862714 -0.081125 -0.108025 -0.719935 -0.436854 0.817720 -1.674300 -2.682007 -1.569484 -0.712409 1.340824 -0.222782
原来 0.406128 1.123210 -0.601089 -0.460106 -0.011268 0.292567 -0.612879 -0.480625 -0.205902 0.576527 -1.573627 -2.372088 -0.196286 -0.677479 0.460571 -0.284428
接待 0.559341 1.449545 0.572585 0.080050 0.496404 0.651720 -0.928068 -1.148004 -0.200506 0.709767 -1.628574 -2.144553 0.141635 0.064773 1.121472 -0.201467
如家 0.013093 1.010069 -1.273205 -0.456658 0.590575 0.053714 -0.200873 -0.480685 -0.079666 0.472143 -0.958008 -1.834643 0.752400 -0.472178 0.001546 -1.038572
半夜 0.689795 1.532688 -0.290904 -0.089303 -0.093626 0.343171 -0.721459 -0.682574 -0.083580 0.553162 -1.542257 -2.403079 -1.075030 -0.524212 0.778369 -0.153359
到达 0.466787 1.225158 0.875961 -0.331452 0.536600 0.780453 -1.114914 -0.435001 -0.014145 0.334006 -1.361323 -1.916924 0.303735 -0.399208 -0.406189 -0.119180
前 0.293383 1.556613 0.238266 -0.371666 0.728046 0.648477 -1.220225 -0.419881 0.187028 0.404330 -1.557883 -2.195671 0.641034 -0.348531 -0.338067 -0.420668
check 0.519978 1.514743 0.835539 -0.243996 0.379307 0.651724 -1.011706 -0.766034 -0.222651 0.786905 -1.703561 -2.104644 0.212673 -0.238124 0.770871 0.025351
很近 -0.077573 1.523748 -1.613979 -0.381777 0.492891 0.142517 0.269441 -0.578327 -0.172454 0.463387 -0.807029 -2.491640 -0.761369 -0.412955 -0.049568 -0.941282
站 0.316526 1.865626 -0.134447 -0.175345 0.688665 0.739976 -0.829248 -0.552663 -0.135561 0.407001 -1.295747 -2.559438 -0.516285 -0.214274 0.138012 -0.336508
光临 -0.125299 2.004994 -0.759632 -0.564751 1.878723 0.426221 -1.677170 -0.657453 0.492927 0.337472 -0.990705 -1.769077 2.023289 0.273600 -1.082278 -1.506775
舒适 -0.023514 0.835272 -1.783461 -0.452955 -0.414398 -0.203750 0.211093 -0.741135 -0.423631 0.866020 -1.333408 -2.369414 -0.567399 -0.577928 0.894299 -0.662130
一股 0.506325 0.679484 -1.392432 -0.240008 -1.120423 -0.123616 -0.152302 -0.664367 -0.490993 0.857087 -1.715633 -2.564787 -1.677347 -0.840875 1.374171 -0.050836
进 0.460181 0.927595 -0.227222 -0.179419 -0.438841 0.243567 -0.507294 -0.650779 -0.276742 0.721198 -1.617252 -2.209808 -0.788356 -0.533549 0.923554 0.125960
找到 0.430483 1.489606 0.039941 -0.205461 0.244421 0.500756 -0.576515 -0.706802 -0.300230 0.609287 -1.408812 -2.206609 -0.486248 -0.230858 0.735328 -0.016900
司机 0.255647 1.722019 0.156466 -0.170036 0.780844 0.679095 -0.593356 -0.612185 -0.273713 0.375170 -1.095986 -2.091036 -0.201308 -0.016953 0.462037 -0.117820
期间 0.125400 1.313921 -0.149772 -0.479134 1.003059 0.452326 -1.238413 -0.507146 0.211290 0.363547 -1.381195 -1.997617 1.261409 -0.321708 -0.653118 -0.895915
丰富 0.114332 1.720552 -1.611389 -0.477336 0.042914 -0.039247 0.437747 -1.047059 -0.602360 0.673986 -1.015867 -2.066926 -0.724633 -0.443194 1.080179 -1.273471
出门 0.139213 1.844482 -0.887944 -0.251510 0.493266 0.310400 0.089159 -0.650931 -0.320726 0.492915 -0.834716 -2.386231 -1.064186 -0.155415 0.304611 -0.522857
很快 0.478392 1.236732 0.432624 -0.016638 -0.030599 0.535911 -0.774488 -0.829580 -0.483025 0.842594 -1.570923 -2.262393 -0.137417 -0.072416 1.190685 0.015552
以前 -0.054423 1.033688 -0.899131 -0.335517 0.521026 0.219781 -0.388960 -0.446250 0.010383 0.392872 -1.087020 -1.773870 0.624312 -0.372834 0.020899 -0.786939
之前 0.218544 1.302477 0.237543 -0.523850 0.939212 0.587296 -1.069599 -0.362341 0.150812 0.335054 -1.350310 -1.739594 1.056357 -0.392792 -0.474608 -0.547882
使用 0.230423 1.327278 -0.152180 -0.267740 -0.065612 0.566048 -0.743486 -0.454847 -0.189323 0.582943 -1.320577 -2.277479 -0.097938 -0.243378 0.646397 -0.067580
晚 0.302746 1.311785 0.220883 -0.506799 0.312390 0.459208 -0.702999 -0.304844 -0.035146 0.304743 -1.274821 -1.730163 0.272223 -0.453640 -0.261007 -0.458463
距离 0.034349 1.336822 -1.470747 -0.398037 0.413705 0.010164 0.219963 -0.487663 -0.238645 0.472185 -0.700282 -2.156450 -0.849990 -0.500153 -0.011998 -1.011629
影响 0.364661 1.520513 -0.518689 -0.350218 0.576761 0.524114 -0.903488 -0.562911 0.015062 0.359041 -1.365016 -2.328776 0.075190 -0.392419 0.227140 -0.606257
条件 0.161941 1.117300 -1.519687 -0.446697 0.038892 -0.053063 0.081697 -0.709695 -0.276361 0.567903 -1.122677 -2.119330 -0.267086 -0.601236 0.676442 -0.902762
放 0.473735 1.468327 -0.185826 -0.225476 -0.289246 0.415964 -0.480059 -0.553767 -0.268987 0.578264 -1.527785 -2.383796 -1.124968 -0.309713 0.921552 0.142958
收 0.422858 1.742884 0.604550 -0.513326 0.549416 0.697699 -1.035549 -0.400203 -0.078509 0.453278 -1.323307 -2.047665 0.376675 -0.264172 -0.032710 -0.263511
价钱 0.085443 1.226570 -1.519558 -0.635783 0.084518 -0.058664 0.233017 -0.601804 -0.279806 0.647519 -1.117178 -2.155075 -0.011469 -0.565982 0.552349 -0.978899
真 0.105847 1.446925 -0.521677 -0.347809 0.521753 0.382810 -0.505379 -0.651827 -0.074118 0.370876 -1.191834 -2.064430 0.087564 -0.179961 0.264254 -0.522380
遇到 0.073129 1.027005 -0.535847 -0.329184 0.717969 0.358045 -0.770999 -0.716818 -0.005453 0.358398 -1.108894 -1.847330 0.917358 -0.194151 0.190210 -0.711877
每天 0.321293 1.506144 -0.181161 -0.418577 0.280289 0.443463 -0.685279 -0.454253 -0.226740 0.390041 -1.184848 -1.932016 -0.014810 -0.323033 0.260990 -0.477717
解释 0.460224 1.559143 0.588216 -0.170969 0.646395 0.793797 -1.250903 -0.713109 -0.116791 0.573627 -1.465044 -2.130428 0.360876 -0.068676 0.508590 -0.009345
买 0.242738 1.950385 -0.374887 -0.307350 0.583710 0.556673 -0.395169 -0.652374 -0.178944 0.311115 -1.176969 -2.353467 -0.587688 -0.107278 0.388097 -0.512245
太差 0.122681 0.975548 -1.406420 -0.298149 0.080809 -0.297997 0.220432 -0.674042 -0.160495 0.559201 -0.717849 -1.397130 -0.207938 -0.393981 0.688759 -0.825801
温馨 0.132485 0.827273 -1.350170 -0.369254 -0.387619 -0.155935 -0.079476 -0.804343 -0.481187 0.935503 -1.426732 -2.359819 -0.460064 -0.524084 1.001031 -0.664135
十分 0.145315 1.420691 -0.970024 -0.194334 0.701481 0.283184 -0.339276 -0.638771 -0.059748 0.442129 -1.099902 -2.225938 0.020035 -0.280900 0.156685 -0.809378
一晚 0.150850 1.451272 -0.658131 -0.539319 0.240938 0.274933 -0.488846 -0.324067 -0.018749 0.472195 -1.368368 -2.211126 0.139005 -0.521497 0.010436 -0.614235
只好 0.378422 1.706390 0.441234 -0.356880 0.513136 0.714579 -0.985361 -0.489739 -0.069776 0.443813 -1.491320 -2.314432 -0.063887 -0.226755 0.226370 0.071569
特色 0.054238 1.150091 -1.189597 -0.576443 0.059488 -0.021574 -0.151613 -0.692593 -0.394371 0.750393 -1.152373 -1.986579 -0.163409 -0.422976 0.633948 -0.724437
所谓 0.079542 0.645228 -1.041693 -0.715394 -0.124646 0.011351 -0.388661 -0.456374 -0.317294 0.692820 -1.491440 -2.097197 0.128023 -0.714782 0.444315 -0.484941
有人 0.455740 1.563306 -0.282842 -0.230730 0.266259 0.445470 -0.763761 -0.712500 -0.135760 0.528229 -1.371539 -2.268585 -0.453831 -0.300058 0.593388 -0.316766
休息 0.334887 1.345368 -0.164954 -0.167411 0.286215 0.431432 -0.765442 -0.427011 -0.017259 0.249611 -1.115096 -1.922931 -0.405197 -0.288039 0.240154 -0.339089
质量 0.267192 1.245072 -1.627416 -0.320227 -0.089627 -0.150262 0.144575 -0.742787 -0.265836 0.475821 -1.059976 -1.934765 -0.753914 -0.516979 0.904154 -1.012980
普通 0.094695 0.343507 -0.993369 -0.965166 -0.731297 -0.075376 -0.193644 -0.306429 -0.440687 0.936074 -1.793972 -2.195774 0.117346 -0.977486 0.482979 -0.257764
消费 0.394171 1.630828 0.530555 -0.406821 0.632609 0.780547 -1.109677 -0.412127 -0.033043 0.425920 -1.475310 -2.169521 0.505332 -0.289529 -0.040233 -0.295157
不太 0.195137 1.195579 -1.025533 -0.095281 0.099779 0.201897 0.064949 -0.546960 -0.254020 0.387416 -0.820832 -2.042166 -0.969222 -0.207068 0.511330 -0.450887
同事 0.175602 1.250120 -0.110680 -0.349466 0.430334 0.566912 -0.773444 -0.352576 0.011609 0.456776 -1.418004 -1.996837 0.545291 -0.381379 0.003381 -0.338287
过来 0.427593 1.602877 0.649849 -0.120415 0.532784 0.751909 -0.986478 -0.638839 -0.153711 0.451344 -1.456209 -2.071824 0.040131 -0.020037 0.443891 0.083319
停车 0.098112 1.401132 -0.603755 -0.284380 0.529141 0.311729 -0.292047 -0.473627 -0.223713 0.472655 -0.710572 -1.841296 0.004203 -0.075222 0.169578 -0.557582
处理 0.446753 1.375203 0.591039 -0.162256 0.654354 0.734057 -1.257083 -0.840200 -0.052179 0.461213 -1.586438 -2.111717 0.479840 -0.008070 0.496891 -0.136544
中午 0.659912 1.735243 0.945750 -0.285755 0.862636 0.714414 -1.382733 -0.535044 0.149451 0.132565 -1.520063 -1.969045 0.135346 -0.431042 -0.375020 -0.418463
噪音 0.446834 1.108800 -1.107698 -0.099473 -0.041416 0.017232 -0.388283 -0.442219 0.036131 0.326656 -1.048852 -1.949228 -0.983599 -0.640945 0.353796 -0.562753
马路 0.370769 1.252650 -1.139934 -0.319897 -0.287744 0.040004 -0.051127 -0.531907 -0.237897 0.470476 -1.150043 -2.341730 -1.329002 -0.638774 0.493587 -0.459957
淋浴 0.540102 1.126947 -1.047242 -0.135270 -0.796297 0.036233 -0.261392 -0.494318 -0.302123 0.654816 -1.393017 -2.461101 -1.572626 -0.532599 1.215398 -0.032208
一位 0.404195 1.267540 0.315434 -0.137189 0.654617 0.694434 -1.043542 -0.770378 -0.111797 0.488686 -1.445322 -2.050939 0.605006 -0.170931 0.275978 -0.407717
市中心 -0.139102 1.295641 -1.777943 -0.289051 0.474395 -0.018139 0.534135 -0.512969 -0.309960 0.439099 -0.714966 -2.310267 -0.855385 -0.504777 0.118192 -1.012900
接受 0.282429 1.213166 -0.519144 -0.454141 0.239176 0.343972 -0.442444 -0.559451 -0.209897 0.480157 -1.240624 -2.023560 0.216658 -0.341484 0.409686 -0.416968
行 0.117132 1.000858 -0.866522 -0.290848 -0.059586 -0.032305 0.031065 -0.679303 -0.268120 0.640426 -1.107248 -1.805793 -0.368966 -0.385424 0.774139 -0.561430
极差 0.416936 0.968338 -0.775451 -0.141066 -0.137376 -0.015388 -0.063340 -0.710804 -0.297840 0.612522 -1.113026 -1.727986 -0.645865 -0.445044 1.044902 -0.442767
取消 0.256248 1.250174 0.342962 -0.489566 0.873670 0.763845 -1.101701 -0.659964 -0.101138 0.420985 -1.381630 -1.978475 1.221711 -0.219968 -0.057350 -0.316615
不足 0.382303 1.116089 -0.818205 -0.245116 0.090664 0.198826 -0.419113 -0.596801 -0.213205 0.434272 -1.236974 -2.128299 -0.516725 -0.511806 0.471312 -0.570644
市区 -0.014167 1.571690 -1.149026 -0.444326 0.693979 0.317335 -0.044390 -0.400493 -0.073761 0.408737 -0.883134 -2.265080 -0.194661 -0.400758 -0.397569 -0.871143
浴缸 0.449475 0.920316 -0.805117 -0.152524 -0.711749 0.091120 -0.400977 -0.463573 -0.311256 0.646702 -1.368752 -2.220065 -1.276261 -0.430094 1.020409 0.042403
印象 -0.017998 1.227149 -1.057959 -0.309424 0.599657 0.185936 -0.392390 -0.504420 0.128398 0.406861 -0.969374 -1.911340 0.459958 -0.423610 0.045595 -0.930651
确认 0.391211 1.319056 1.078469 -0.731775 0.494447 0.799747 -1.170046 -0.711048 -0.182958 0.755654 -1.842833 -2.023406 1.131299 -0.279368 0.328942 0.195323
自助 0.218215 1.748629 -0.621682 -0.513665 0.489904 0.317379 -0.278563 -0.636815 -0.252003 0.200180 -0.961302 -1.522098 -0.220639 -0.372452 0.204313 -1.144636
楼下 0.293003 1.536480 -0.955665 -0.314894 0.136563 0.209055 -0.142276 -0.564668 -0.250960 0.437699 -1.109160 -2.339647 -1.026335 -0.418325 0.428996 -0.531776
优点 -0.037502 0.988596 -1.447074 -0.286084 0.091445 -0.131828 0.364082 -0.471688 -0.294617 0.498537 -0.748454 -1.924439 -0.778546 -0.448059 0.425204 -0.708693
清楚 0.307456 1.248763 -0.399155 -0.187686 -0.017304 0.425248 -0.412718 -0.507335 -0.066348 0.479611 -1.268679 -2.028451 -0.424477 -0.342148 0.819440 -0.066913
坐 0.213769 1.777633 -0.372645 -0.335125 0.581041 0.517810 -0.625826 -0.529503 -0.098749 0.521189 -1.182733 -2.381560 -0.271309 -0.351510 0.026486 -0.458313
工作人员 0.372740 1.281115 0.019304 -0.181732 0.506649 0.540756 -0.783730 -0.779712 -0.192045 0.618814 -1.498940 -2.087762 0.317516 -0.223765 0.712499 -0.305896
网上 0.059394 0.826513 -0.234028 -0.740650 0.576067 0.417096 -0.668811 -0.153924 0.035552 0.400833 -1.185503 -1.510438 1.185056 -0.572043 -0.464297 -0.426820
整洁 0.219557 0.666335 -1.492228 -0.224982 -0.672234 -0.214678 0.333612 -0.694268 -0.506521 0.910318 -1.344801 -2.211767 -0.947398 -0.519578 1.119199 -0.514465
― 0.216916 1.281658 -0.667654 -0.354984 0.626232 0.494222 -1.156479 -0.376490 0.110940 0.346903 -1.249816 -2.137496 0.470846 -0.604016 -0.307509 -0.430798
刚 0.377703 1.049741 -0.201328 -0.289545 0.017752 0.325670 -0.760971 -0.454534 -0.096208 0.561703 -1.489271 -2.093972 -0.076904 -0.557689 0.231382 -0.362184
面积 0.332402 0.586846 -1.258166 -0.660942 -0.768115 -0.079375 -0.250139 -0.537658 -0.379726 1.024918 -1.834447 -2.496638 -0.531288 -1.038556 0.804502 -0.323724
北京 -0.072013 1.325514 -0.899768 -0.406655 0.544481 0.164802 -0.180983 -0.323630 0.136010 0.309824 -0.726966 -1.588934 0.352739 -0.304472 0.059864 -0.738283
步行 0.216490 2.115039 -0.114651 -0.497447 0.844212 0.631908 -0.422777 -0.269755 0.091947 0.148093 -0.731247 -2.173300 -0.850844 -0.300565 -0.940284 -0.845324
过去 0.256236 1.444884 0.095088 -0.277375 0.467130 0.502578 -0.689883 -0.442002 -0.021109 0.428215 -1.163475 -1.904952 0.007781 -0.209155 0.160515 -0.177667
有个 0.174612 1.385793 -0.838407 -0.367124 0.212008 0.213917 -0.267220 -0.577024 -0.211601 0.478621 -1.116719 -2.246571 -0.523713 -0.366366 0.418620 -0.477578
两天 0.166433 1.372251 -0.135919 -0.420591 0.549007 0.474120 -0.808458 -0.315297 0.040845 0.411659 -1.299456 -1.969365 0.559874 -0.397845 -0.200814 -0.436052
是否 0.407792 1.376796 0.450877 -0.232221 0.408070 0.608240 -0.954469 -0.628296 -0.225375 0.488278 -1.537931 -2.165080 0.275251 -0.105727 0.539522 0.013000
明显 0.342300 1.032535 -0.918829 -0.393937 -0.195802 0.131157 -0.509640 -0.591354 -0.175559 0.585896 -1.465806 -2.265485 -0.441344 -0.592071 0.655383 -0.487162
洗 0.378017 1.373396 -0.482872 -0.059749 -0.266788 0.327478 -0.469485 -0.641827 -0.242720 0.553902 -1.354729 -2.213423 -0.983187 -0.207367 1.057868 -0.034119
机会 -0.382124 1.420462 -1.242064 -0.326131 0.914432 0.380640 -0.519581 -0.452643 0.257417 0.161415 -0.813524 -1.889536 1.056567 -0.033217 -0.218934 -1.140840
网络 0.335003 0.894879 -0.296291 -0.311238 -0.008095 0.308678 -0.628093 -0.521946 -0.222664 0.593518 -1.430586 -2.070565 0.145444 -0.350679 0.548616 -0.250163
25 0.334896 1.756313 0.561717 -0.557963 1.290941 0.613886 -1.317293 -0.175551 0.452783 0.071592 -1.066264 -1.502368 0.875737 -0.467943 -1.434999 -0.928692
睡觉 0.490104 1.558064 -0.358559 -0.155804 0.042724 0.247464 -0.571015 -0.623645 -0.089165 0.397146 -1.237062 -2.177105 -1.072381 -0.425622 0.586760 -0.276532
快 0.387329 1.530154 -0.081749 -0.291848 0.293897 0.349364 -0.732752 -0.516329 -0.091385 0.537522 -1.299939 -2.148424 -0.305914 -0.334635 0.224298 -0.381272
登记 0.504683 1.197241 0.724743 0.075855 0.542217 0.678027 -1.092377 -0.816467 -0.138453 0.641967 -1.613599 -2.124011 0.398796 -0.181364 0.555832 -0.157517
换房 0.405788 1.200954 0.370707 -0.238340 -0.054136 0.569057 -0.824953 -0.614930 -0.211858 0.758946 -1.723922 -2.202737 -0.194498 -0.231674 0.841832 0.312220
水平 0.185548 1.034253 -1.399578 -0.393850 0.058962 -0.061503 -0.028701 -0.654327 -0.140118 0.566708 -0.936046 -1.783608 -0.197081 -0.529374 0.723045 -0.931480
霉味 0.407585 0.725918 -1.150332 -0.233308 -0.850376 -0.109342 -0.218602 -0.587113 -0.354037 0.776980 -1.535861 -2.314204 -1.211169 -0.724766 1.149490 -0.141487
低 0.145292 0.994674 -1.324977 -0.622459 -0.040678 -0.052947 0.019978 -0.562191 -0.237930 0.567726 -1.192675 -1.912319 -0.037114 -0.672964 0.417598 -0.765752
地铁 0.015856 1.626457 -1.217269 -0.316359 0.671103 0.253957 0.056921 -0.513064 -0.116461 0.335996 -0.760899 -2.304866 -0.757327 -0.327704 -0.166004 -0.823109
到位 0.224298 0.867871 -1.011510 -0.131880 0.341683 0.015213 -0.187534 -0.931189 -0.245159 0.599998 -1.001335 -1.740794 0.060999 -0.300441 0.834116 -0.802778
刷卡 0.470890 1.570606 0.760006 -0.282799 0.696300 0.860816 -1.274504 -0.478035 0.026003 0.385018 -1.520814 -2.135201 0.489844 -0.272317 -0.060266 -0.149004
介绍 0.063395 1.115166 -0.738915 -0.393413 0.535300 0.374504 -0.427022 -0.462203 -0.052959 0.425204 -1.093038 -1.927052 0.538664 -0.431589 0.156248 -0.665114
期待 -0.021028 1.612604 -0.484446 -0.408395 1.526816 0.436247 -1.750515 -0.677830 0.553073 0.195564 -1.048517 -1.772891 1.671203 0.026922 -0.963461 -1.369816
意识 0.367710 0.833221 -0.810886 0.048020 0.574933 0.161145 -0.359213 -0.926768 -0.138097 0.501833 -1.120489 -1.728617 0.320388 -0.165061 0.911467 -0.870592
离开 0.360055 1.416589 0.207266 -0.183914 0.844788 0.528797 -1.079585 -0.508721 0.109060 0.332112 -1.228684 -1.873403 0.324387 -0.285580 -0.210702 -0.485913
马桶 0.350136 1.262072 -1.061737 -0.274536 -0.634451 0.054054 -0.180342 -0.507329 -0.263841 0.599610 -1.375571 -2.423609 -1.455606 -0.547220 1.118334 -0.176280
中心 0.233521 1.158455 -0.749257 -0.272870 0.283538 0.227904 -0.267510 -0.639696 -0.215933 0.515012 -1.134263 -2.051720 -0.310410 -0.350545 0.496558 -0.452217
菜 0.391558 1.970745 -0.272385 -0.251515 0.411138 0.456329 -0.363621 -0.714929 -0.241898 0.361657 -1.135390 -1.897397 -0.539429 -0.037624 0.686850 -0.582446
便利 -0.469161 1.464226 -1.981312 -0.434709 0.326942 -0.082566 0.908701 -0.207647 -0.177256 0.435687 -0.754429 -2.495348 -1.249370 -0.695293 0.332907 -1.008699
城市 0.123266 1.219103 -1.122700 -0.419073 0.557169 0.181236 -0.309075 -0.522811 -0.084442 0.398287 -1.034638 -2.062338 0.202138 -0.454196 0.150781 -0.950699
回 0.304912 1.439760 0.062395 -0.225058 0.463385 0.536110 -0.811004 -0.602162 -0.087064 0.452800 -1.314980 -2.054597 -0.053558 -0.280783 0.322916 -0.217923
听 0.316260 1.320978 -0.466676 -0.219010 0.129427 0.251556 -0.374857 -0.712646 -0.208927 0.535260 -1.172036 -1.865220 -0.408824 -0.188817 0.785294 -0.236845
一楼 0.254104 1.223946 -0.562521 -0.301640 -0.101150 0.229717 -0.239393 -0.511896 -0.328224 0.603107 -1.258810 -2.095789 -0.640567 -0.381767 0.686096 -0.291848
停车场 0.145193 1.184086 -1.108494 -0.298493 0.073623 0.118841 -0.051799 -0.554728 -0.305809 0.514586 -1.020627 -2.136091 -0.612619 -0.415688 0.533995 -0.539239
提前 0.276843 1.272869 0.757253 -0.426373 0.757961 0.704582 -1.047087 -0.465419 0.071188 0.299876 -1.209084 -1.650296 0.726103 -0.185215 -0.248680 -0.133610
地点 0.169724 1.225704 -1.324000 -0.280882 0.225560 0.089118 0.112573 -0.500907 -0.251905 0.448452 -0.823852 -2.052977 -0.701797 -0.434257 0.218820 -0.768911
手续 0.350842 1.124859 1.016625 -0.090167 0.337125 0.718764 -1.179507 -0.591403 -0.065645 0.628117 -1.490986 -1.903317 0.676053 -0.137432 0.051738 -0.044673
购物 -0.060837 1.703058 -1.744929 -0.331902 0.665019 0.236437 0.429093 -0.647644 -0.299137 0.404314 -0.731441 -2.581578 -0.874543 -0.310977 0.002387 -0.923425
好象 0.291851 1.320225 -0.473806 -0.315716 0.267112 0.228759 -0.439826 -0.520066 -0.107922 0.412948 -1.073038 -1.790254 -0.212028 -0.348521 0.326142 -0.501640
不住 -0.225730 1.164213 -1.011095 -0.277972 0.551330 0.155637 -0.235303 -0.425569 0.131880 0.302948 -0.752653 -1.604814 0.680728 -0.168850 0.146946 -0.782658
简单 0.190679 0.959409 -1.152641 -0.319530 -0.071540 -0.050095 -0.068422 -0.517053 -0.167732 0.477210 -0.955341 -1.729350 -0.382978 -0.456218 0.619104 -0.712986
锦江 -0.074525 1.049011 -1.251938 -0.491547 0.512324 0.091738 -0.274714 -0.289503 0.001332 0.301921 -0.919403 -1.816419 0.588565 -0.510011 -0.100861 -0.900444
适合 0.055391 1.088132 -1.015768 -0.400973 0.151266 0.158484 -0.109526 -0.380106 -0.130664 0.510623 -1.012839 -2.023814 -0.221858 -0.468753 0.193255 -0.610083
当天 0.420973 1.326287 0.721963 -0.248724 0.570052 0.644065 -1.113041 -0.544401 -0.056480 0.411062 -1.416381 -1.884362 0.520660 -0.238614 -0.019961 -0.194441
不行 0.403809 1.269871 -0.257631 -0.228769 -0.001900 0.387040 -0.457028 -0.610863 -0.203774 0.584711 -1.402512 -2.171793 -0.483912 -0.415574 0.735334 -0.182539
酒店设施 0.214173 0.711699 -1.334599 -0.233367 -0.197034 -0.212165 0.226797 -0.591365 -0.179954 0.528850 -0.900925 -1.671334 -0.605276 -0.502106 0.714599 -0.697408
块 0.363914 1.736722 0.060448 -0.449245 0.651866 0.573565 -0.945576 -0.295365 0.039466 0.333869 -1.220068 -2.055543 0.090806 -0.381681 -0.324555 -0.530590
注意 0.283070 1.116121 -0.031359 -0.216755 0.400168 0.517412 -0.816931 -0.519791 -0.055444 0.446455 -1.280063 -1.996604 0.171240 -0.331954 0.241406 -0.243560
周到 0.245864 0.899444 -0.868137 -0.153446 0.281979 0.146245 -0.296627 -0.868982 -0.315329 0.642207 -1.278774 -2.024521 0.046444 -0.280569 0.928642 -0.668591
住宿 0.188270 1.009516 -0.711387 -0.313034 0.440505 0.160632 -0.411826 -0.521565 -0.071580 0.375656 -0.993700 -1.763755 0.207397 -0.438858 0.048998 -0.703014
不算 0.185924 0.999505 -1.418906 -0.619106 -0.120715 -0.091166 0.233017 -0.424637 -0.262813 0.519627 -1.059389 -1.952875 -0.370811 -0.666102 0.468298 -0.775155
得到 0.284763 1.279393 -0.035232 -0.217128 0.586922 0.588742 -0.904560 -0.573648 0.041662 0.391808 -1.252993 -1.933803 0.494546 -0.213986 0.242704 -0.400252
飞机 0.422504 1.600996 0.454586 -0.191647 0.613505 0.542614 -0.984246 -0.536153 0.007939 0.193863 -1.235682 -1.862973 -0.246192 -0.236075 -0.029256 -0.314945
郁闷 0.026132 1.262314 -0.476664 -0.459318 0.172946 0.283171 -0.350935 -0.399159 0.003327 0.528389 -1.045214 -1.768868 0.111886 -0.381174 0.355392 -0.353671
简陋 0.219990 0.883434 -1.584572 -0.339988 -0.643060 -0.216012 0.151719 -0.582525 -0.273341 0.655730 -1.200334 -2.074084 -1.049928 -0.704965 1.106323 -0.661221
24 0.244136 1.074313 0.256896 -0.418071 0.820060 0.510949 -1.238511 -0.028646 0.474293 0.153355 -1.080571 -1.322775 0.635962 -0.580462 -0.976684 -0.520017
是不是 0.297456 1.284646 -0.284076 -0.223874 0.315917 0.489886 -0.576894 -0.645444 -0.228734 0.417660 -1.321593 -2.084199 -0.042834 -0.162418 0.757097 -0.208672
周边 -0.002782 1.351012 -1.490211 -0.288524 0.370011 0.068670 0.362324 -0.579779 -0.209382 0.450228 -0.773403 -2.116480 -0.845445 -0.380074 0.307370 -0.873162
主要 -0.036320 0.988196 -1.304880 -0.293163 0.026087 -0.031558 0.283256 -0.445671 -0.224404 0.518690 -0.738609 -1.746188 -0.431389 -0.316801 0.482422 -0.636340
反映 0.340639 1.004242 0.108069 -0.142240 0.608945 0.544535 -0.979775 -0.633672 0.077211 0.332320 -1.184182 -1.713119 0.650358 -0.077894 0.192245 -0.382058
公司 0.164074 1.444199 -0.642668 -0.443929 0.692675 0.492730 -0.763338 -0.456999 0.044766 0.395387 -1.366023 -2.302716 0.518635 -0.490631 -0.183300 -0.719474
点多 0.604579 1.537619 0.685342 -0.143164 0.636982 0.558146 -1.148410 -0.391611 0.098272 0.130609 -1.189645 -1.741131 -0.339223 -0.418960 -0.356397 -0.232301
听到 0.575006 1.195163 -0.501204 -0.027454 -0.296732 0.223347 -0.357965 -0.643558 -0.205011 0.420682 -1.251441 -2.010916 -1.316746 -0.413496 1.043180 -0.083443
象 0.342646 1.121867 -0.800413 -0.256759 -0.016643 0.110896 -0.409916 -0.607215 -0.225296 0.495139 -1.258239 -2.147602 -0.564596 -0.470975 0.638517 -0.442629
通知 0.604505 1.321945 1.153372 -0.248774 0.607666 0.894099 -1.378337 -0.570284 -0.005427 0.387335 -1.561018 -1.894273 0.539514 -0.245559 0.096863 0.086549
房卡 0.407928 1.355991 0.344091 -0.111206 0.284874 0.532062 -0.802962 -0.624628 -0.155979 0.525177 -1.351270 -1.939437 -0.260320 -0.107378 0.612970 -0.049461
回答 0.456570 1.234025 0.556413 -0.192885 0.141165 0.627401 -0.859331 -0.716546 -0.251169 0.654769 -1.605283 -2.017130 0.034671 -0.145067 0.813004 0.241033
宽敞 0.198008 0.666908 -1.167079 -0.364849 -0.748314 -0.145016 0.040867 -0.529345 -0.419533 0.885102 -1.418380 -2.263052 -0.860856 -0.671316 0.950861 -0.353604
路 0.179273 1.517741 -0.653974 -0.381813 0.505670 0.353899 -0.322612 -0.456344 -0.085190 0.407923 -0.998662 -2.218910 -0.391953 -0.387638 -0.053885 -0.552572
开门 0.416743 1.346995 0.161625 -0.057380 0.164944 0.521995 -0.721493 -0.682473 -0.130808 0.406027 -1.314497 -2.062753 -0.504138 -0.145281 0.644247 0.024223
弄 0.268909 1.309239 -0.472247 -0.322404 0.120393 0.340294 -0.572230 -0.469136 -0.098646 0.539183 -1.334180 -2.118487 -0.281328 -0.429258 0.418115 -0.305015
层 0.174213 0.920627 -0.434068 -0.683648 0.074865 0.213689 -0.707680 -0.223023 0.025903 0.543375 -1.416110 -1.877670 0.286919 -0.718829 -0.156707 -0.424547
更好 -0.058389 1.028627 -0.885728 -0.282864 0.725635 0.218355 -0.464696 -0.527751 0.070263 0.370756 -0.824887 -1.509312 0.952455 -0.088769 0.117583 -0.953255
字 0.217682 1.300991 -1.088003 -0.339311 0.081356 0.086703 -0.010147 -0.566238 -0.015472 0.507095 -0.916025 -1.795750 -0.174255 -0.337384 0.720311 -0.585623
糟糕 0.150091 1.050389 -1.093136 -0.332798 0.151857 0.061095 -0.166506 -0.511526 -0.070610 0.521271 -1.026621 -1.747637 -0.142676 -0.432215 0.502167 -0.627663
早 0.328695 1.317161 -0.237553 -0.450595 0.317750 0.345466 -0.481204 -0.536293 -0.087744 0.308142 -1.109751 -1.669355 -0.103680 -0.288224 0.243346 -0.526645
后面 0.213717 1.294360 -0.473731 -0.276250 0.188993 0.304337 -0.388631 -0.562608 -0.189764 0.498147 -1.079442 -1.878736 -0.300201 -0.263194 0.539853 -0.363485
热 0.408555 1.449815 0.029538 -0.225862 0.023703 0.343576 -0.632148 -0.401154 -0.021323 0.277070 -1.189440 -1.799009 -0.984631 -0.205401 0.458727 -0.070991
空间 0.156158 0.934674 -1.231255 -0.414588 -0.484458 -0.100669 0.021437 -0.551556 -0.308338 0.720910 -1.233079 -2.081035 -0.813618 -0.557498 0.799848 -0.364437
事 0.399653 1.460933 0.122361 -0.196859 0.443211 0.589183 -0.925408 -0.613198 -0.138209 0.458325 -1.431846 -2.099462 -0.020812 -0.190422 0.492801 -0.143495
够 0.129278 0.731104 -1.001512 -0.382233 -0.313395 -0.039727 -0.045008 -0.434756 -0.230668 0.641553 -1.090790 -1.775680 -0.551221 -0.557295 0.612533 -0.458653
提醒 0.304288 1.329344 -0.068013 -0.248351 0.507340 0.484692 -0.757468 -0.592218 -0.031539 0.407488 -1.294708 -2.011307 0.065053 -0.256531 0.225235 -0.329130
准备 0.289175 1.176649 0.011568 -0.253476 0.237439 0.468916 -0.746183 -0.566814 -0.198766 0.499355 -1.353439 -1.989896 0.075618 -0.309653 0.421967 -0.160094
几次 0.227867 1.218677 -0.353579 -0.113579 0.377408 0.332088 -0.518245 -0.494222 -0.094489 0.462295 -1.128072 -1.819760 0.154678 -0.167063 0.381139 -0.350787
国际 0.114373 1.215878 -0.877320 -0.446635 0.710813 0.318276 -0.684273 -0.440278 0.053927 0.421647 -1.155995 -2.002504 0.659728 -0.524189 -0.325650 -0.925300
旅游 -0.013161 1.225633 -0.843495 -0.420216 0.626541 0.310364 -0.442716 -0.405549 0.015076 0.360529 -1.082826 -1.962818 0.284029 -0.430797 -0.072170 -0.695538
我订 0.227959 0.371221 -0.273909 -0.702734 -0.470730 0.106132 -0.322608 -0.366530 -0.448252 0.853846 -1.658213 -1.877206 0.172474 -0.713838 0.571680 0.099790
结账 0.476145 1.560396 0.525371 -0.214215 0.541098 0.676394 -1.037530 -0.658739 -0.067869 0.337541 -1.500822 -2.183114 -0.004235 -0.191318 0.353098 -0.248082
发生 0.322461 1.451438 -0.212548 -0.258984 0.798481 0.515735 -1.071157 -0.587073 0.031959 0.414483 -1.232871 -1.993142 0.628735 -0.237375 0.039424 -0.651976
不想 0.118913 1.412441 -0.565587 -0.359431 0.490474 0.276279 -0.445774 -0.487058 -0.019671 0.428830 -1.035042 -1.848416 0.107209 -0.199304 0.284923 -0.543599
电视机 0.294739 0.995382 -0.902890 -0.401493 -0.387628 0.068345 -0.279061 -0.455743 -0.190832 0.626372 -1.332930 -2.108233 -0.689499 -0.567380 0.706552 -0.255358
及时 0.317674 1.202278 0.086802 -0.099577 0.693860 0.510746 -0.960962 -0.647876 0.001119 0.408179 -1.200161 -1.820046 0.497343 -0.066961 0.274582 -0.490332
搞 0.303537 1.163382 -0.226932 -0.324828 0.234149 0.340338 -0.557839 -0.592481 -0.158773 0.510994 -1.189293 -1.777327 0.034759 -0.280360 0.453525 -0.305055
培训 0.339049 0.910989 -0.404319 0.013619 0.786189 0.360115 -0.943602 -0.761494 -0.005939 0.326392 -1.113914 -1.626598 0.765746 -0.071937 0.332562 -0.799875
规定 0.413043 1.382753 0.346301 -0.283288 0.712189 0.716196 -1.144391 -0.590321 -0.055862 0.472399 -1.420926 -2.031056 0.640539 -0.187030 0.174860 -0.225785
价位 0.059525 1.237013 -1.434521 -0.466386 0.233022 -0.074985 0.059873 -0.577363 -0.208183 0.510979 -0.936850 -1.986348 -0.155868 -0.496616 0.332925 -0.967378
不太好 0.271329 0.905708 -1.075645 -0.070028 -0.112277 -0.082325 0.098334 -0.696459 -0.310387 0.445542 -0.905515 -1.833604 -0.963604 -0.410282 0.995883 -0.484853
稍微 0.313854 1.097507 -0.972183 -0.374958 -0.191592 -0.049928 0.014728 -0.549835 -0.284940 0.526698 -1.026469 -1.805322 -0.726054 -0.537118 0.587936 -0.607231
家具 0.305109 0.824524 -1.473505 -0.328068 -0.645884 -0.270951 -0.029822 -0.550858 -0.218159 0.638434 -1.300896 -2.090692 -1.148088 -0.670822 0.951598 -0.548527
地段 0.010622 1.027570 -1.340553 -0.384056 0.194163 -0.072906 0.212171 -0.458310 -0.180446 0.428120 -0.843584 -1.795172 -0.265201 -0.435556 0.275944 -0.860922
前面 0.269916 1.106551 -0.475965 -0.262313 0.401315 0.311190 -0.548224 -0.428243 0.003586 0.415158 -1.101424 -1.840217 0.019418 -0.373827 0.266859 -0.427206
携程网 0.248118 0.909161 -0.003699 -0.533491 0.744423 0.541400 -0.972862 -0.439047 0.094064 0.276843 -1.271352 -1.609901 1.244289 -0.467271 -0.316658 -0.563474
游泳池 0.207474 1.071406 -0.866567 -0.357887 -0.013807 0.124462 -0.306238 -0.578477 -0.287441 0.563988 -1.147117 -2.054901 -0.359576 -0.397401 0.643656 -0.478276
跑 0.343602 1.384382 -0.161499 -0.154969 0.262341 0.435755 -0.510240 -0.575804 -0.204039 0.551378 -1.265516 -2.077237 -0.419975 -0.195909 0.602086 -0.168078
挂 0.348457 1.230633 -0.605348 -0.246100 0.055927 0.243421 -0.436688 -0.603182 -0.220009 0.534136 -1.188514 -2.022828 -0.519138 -0.304419 0.730905 -0.314803
三星级 0.147441 0.736809 -1.136746 -0.323477 0.134440 -0.036135 -0.213297 -0.573875 -0.158096 0.508203 -0.997749 -1.770502 -0.125260 -0.576447 0.456829 -0.713834
礼貌 0.370229 0.983595 0.045514 -0.018711 0.251466 0.369463 -0.541486 -0.833718 -0.180175 0.593675 -1.209425 -1.679327 -0.023325 -0.048161 0.928514 -0.285138
实际 0.210421 1.084731 -0.723194 -0.534472 0.344499 0.191617 -0.357189 -0.404787 -0.132519 0.445553 -0.995972 -1.710496 0.241128 -0.458989 0.108684 -0.699592
看看 0.226669 1.229123 -0.313977 -0.380959 0.379827 0.396751 -0.694560 -0.463669 -0.044539 0.502001 -1.263215 -1.928742 0.168237 -0.332535 0.238496 -0.366057
合作 0.576025 1.505819 -0.174630 -0.702738 1.768279 1.053891 -1.771449 -0.440782 0.263796 0.219628 -1.669163 -2.159525 2.198078 -0.523404 -1.259419 -0.951253
押金 0.455732 1.557764 0.661877 -0.205647 0.553850 0.633760 -1.079823 -0.585633 -0.114124 0.431438 -1.398098 -1.939938 0.308242 -0.136165 0.170754 -0.105934
授权 0.405404 1.846173 0.973092 -0.409427 0.749187 0.847805 -1.365141 -0.543431 -0.093941 0.553027 -1.406311 -2.018997 0.696988 -0.086591 -0.066775 -0.151438
相对 0.160093 0.774968 -1.458795 -0.464482 -0.146600 -0.190607 0.246636 -0.439759 -0.263761 0.486495 -0.861091 -1.766490 -0.454612 -0.605086 0.410575 -0.793816
厕所 0.340631 1.058698 -0.882310 -0.256512 -0.494394 0.091767 -0.159052 -0.511958 -0.248127 0.595319 -1.296407 -2.120270 -1.115070 -0.493942 0.959355 -0.131097
内部 0.261334 0.721630 -1.190684 -0.221073 -0.094241 -0.049660 -0.088123 -0.626972 -0.189491 0.504076 -1.015768 -1.747425 -0.321118 -0.599923 0.581693 -0.697775
不便 0.008794 1.270581 -0.601214 -0.274492 0.982783 0.324621 -0.795625 -0.304205 0.159522 0.218361 -0.895458 -1.779058 0.464915 -0.298708 -0.442822 -0.890925
100 0.215610 1.234008 -0.246804 -0.765240 0.141204 0.323790 -0.332768 -0.287754 -0.127959 0.372888 -1.019576 -1.552114 0.324422 -0.350227 -0.053964 -0.549616
那天 0.341778 1.452373 -0.007902 -0.206226 0.526961 0.463564 -0.863547 -0.519854 -0.008758 0.378139 -1.285970 -2.025500 -0.029063 -0.348551 0.065781 -0.414059
加 0.376550 1.354060 0.126814 -0.387887 0.053225 0.380026 -0.638019 -0.485026 -0.217547 0.449623 -1.295734 -1.749943 -0.250156 -0.252624 0.417262 -0.211033
询问 0.461762 1.301776 0.629853 -0.150088 0.342238 0.659704 -0.956024 -0.672286 -0.167935 0.575783 -1.466967 -1.910682 0.089360 -0.134104 0.526070 0.079578
发票 0.436856 1.417545 0.485768 -0.206526 0.512051 0.626924 -1.054278 -0.567470 -0.065033 0.321631 -1.392594 -1.984544 0.146084 -0.163985 0.337252 -0.089325
不用 0.253857 1.489915 -0.117209 -0.389760 0.163663 0.466767 -0.476239 -0.457578 -0.099840 0.513923 -1.276276 -2.017631 -0.014652 -0.257551 0.570592 -0.159681
写 0.274693 1.231623 -0.172180 -0.460612 0.635797 0.486991 -0.794692 -0.432519 0.037064 0.310740 -1.319402 -1.923404 0.449909 -0.410688 -0.119068 -0.493175
千万 -0.133916 1.251418 -0.941033 -0.399428 0.522464 0.210428 -0.290564 -0.361710 0.079715 0.432864 -0.921907 -1.708781 0.553806 -0.247195 0.040874 -0.678664
顾客 0.287323 1.250338 -0.296829 -0.243321 0.604221 0.432077 -0.775682 -0.589350 0.059950 0.433072 -1.251042 -1.919822 0.447034 -0.245614 0.142880 -0.573990
一句 0.251931 1.358942 0.053907 -0.219369 0.483649 0.473311 -0.717468 -0.509879 -0.038327 0.418813 -1.184321 -1.779830 0.110058 -0.114703 0.263410 -0.189787
交涉 0.416872 1.249134 0.234748 -0.290534 0.323123 0.598360 -0.947322 -0.651351 -0.193115 0.606269 -1.527516 -2.166492 0.190368 -0.312122 0.493721 -0.014111
超市 -0.006797 1.389276 -1.248164 -0.230112 0.316213 0.120634 0.285806 -0.437111 -0.227173 0.310650 -0.588654 -1.858729 -0.878989 -0.257552 0.301779 -0.704045
设计 0.315915 0.926212 -1.018840 -0.198528 -0.192890 -0.015678 -0.289051 -0.543843 -0.200398 0.571761 -1.074968 -1.947222 -0.670386 -0.515773 0.716236 -0.415371
正在 0.405286 1.000434 -0.269124 -0.167542 0.326125 0.300145 -0.780728 -0.451213 0.015586 0.270632 -1.135208 -1.728844 -0.139730 -0.360495 0.105208 -0.389095
住店 0.207750 1.406023 -0.233223 -0.284647 0.749097 0.556190 -0.960048 -0.488251 0.043592 0.380857 -1.202608 -2.050263 0.543098 -0.279898 0.003982 -0.623526
凌晨 0.524267 1.363435 0.191929 -0.330989 0.437707 0.478346 -0.991165 -0.419979 0.047041 0.320637 -1.296357 -1.889659 0.040086 -0.467830 -0.175305 -0.426885
感到 0.223939 0.999331 -0.487311 -0.274893 0.452305 0.274759 -0.631537 -0.595250 -0.053787 0.453918 -1.186968 -1.751571 0.470006 -0.338537 0.274895 -0.554487
能够 0.102978 0.781020 -0.528601 -0.353163 0.620625 0.493864 -0.902015 -0.386997 0.082333 0.238876 -1.088277 -1.726231 1.033910 -0.272441 -0.236413 -0.665006
宝贵意见 0.171905 1.198764 -0.174956 -0.340876 1.610642 0.560682 -1.740483 -0.495858 0.445076 0.030153 -1.053036 -1.705704 1.645725 -0.169466 -1.185338 -1.107177
没想到 0.056563 0.977244 -0.546187 -0.509349 0.202265 0.271048 -0.413305 -0.342563 -0.008658 0.326615 -1.127928 -1.755234 0.184190 -0.387706 0.166314 -0.445236
严重 0.355586 1.127974 -0.674232 -0.255874 0.180788 0.194287 -0.544656 -0.498003 -0.105324 0.460192 -1.126798 -1.975059 -0.353985 -0.453650 0.411813 -0.450944
保安 0.352608 1.589075 0.022435 -0.199193 0.502055 0.554953 -0.809018 -0.543530 -0.072493 0.426946 -1.188861 -2.032279 -0.146745 -0.150973 0.390785 -0.200569
一条 0.274222 1.318297 -0.674733 -0.265035 0.071324 0.231640 -0.507867 -0.497467 -0.131695 0.485462 -1.099572 -2.116650 -0.521772 -0.387812 0.387583 -0.344674
尊敬 0.255438 1.641631 0.084115 -0.387281 1.949305 0.688338 -2.013397 -0.310838 0.595675 -0.005688 -1.341762 -1.926178 1.728870 -0.455382 -1.688752 -1.219611
宾客 0.209683 1.640355 -0.263925 -0.399681 1.573549 0.583411 -1.626130 -0.547760 0.371315 0.185787 -1.349989 -2.144207 1.375729 -0.370812 -1.016457 -1.202802
这点 0.184315 1.000341 -0.524387 -0.304542 0.123571 0.192811 -0.317341 -0.470553 -0.224107 0.481425 -1.044717 -1.773882 -0.041814 -0.268748 0.407992 -0.372759
不值 0.063986 1.050468 -0.895303 -0.685156 0.014619 0.001285 0.017831 -0.459646 -0.157927 0.404783 -0.847485 -1.432748 0.090281 -0.374512 0.333297 -0.669729
不远 -0.058178 1.540282 -1.139421 -0.412315 0.451942 0.252360 0.150641 -0.433037 -0.165580 0.406320 -0.749834 -2.102048 -0.572161 -0.317385 0.168401 -0.772490
刷 0.445899 1.538878 0.535697 -0.280060 0.524422 0.728989 -1.148578 -0.528037 -0.069489 0.520906 -1.502813 -2.147356 0.268056 -0.252581 0.121969 -0.108078
不爽 0.088570 1.267733 -0.405045 -0.406580 0.224009 0.135282 -0.369765 -0.459689 -0.146842 0.597897 -0.842592 -1.567209 -0.026496 -0.162178 0.327291 -0.400551
反正 0.074793 1.263302 -0.903531 -0.393901 0.413083 0.096594 -0.303886 -0.548302 -0.008808 0.300649 -0.869626 -1.671683 0.039829 -0.280270 0.172900 -0.677828
水准 0.166845 0.970689 -1.259110 -0.360205 0.298873 -0.044504 -0.219481 -0.671960 -0.128912 0.529047 -1.012559 -1.760683 0.134514 -0.485659 0.638671 -0.945602
慢 0.314930 0.857128 -0.327325 -0.200727 -0.100093 0.211811 -0.402008 -0.559555 -0.287517 0.554668 -1.084832 -1.794654 -0.345570 -0.336399 0.663578 -0.220802
愉快 0.154014 1.304130 -0.235505 -0.340956 1.033655 0.435327 -1.119250 -0.395862 0.257171 0.221543 -1.067691 -1.689115 0.904269 -0.287409 -0.595556 -0.821656
档次 0.128897 0.840191 -1.290967 -0.403214 -0.053245 -0.127403 -0.040761 -0.596774 -0.241271 0.608798 -0.993115 -1.791097 -0.216807 -0.541746 0.572791 -0.744450
窗外 0.282662 1.208706 -0.779097 -0.422875 -0.086167 0.149133 -0.292178 -0.480313 -0.116467 0.590166 -1.191036 -2.037800 -0.549273 -0.500938 0.493888 -0.333823
地铁站 -0.015821 1.501887 -0.893746 -0.382768 0.443409 0.272856 0.045812 -0.269315 -0.032957 0.270404 -0.611000 -1.972758 -0.784766 -0.369769 -0.210149 -0.630464
订房 0.196564 0.932332 -0.005188 -0.480008 0.589306 0.521350 -0.851930 -0.431370 0.013480 0.389891 -1.277641 -1.753833 0.988333 -0.424172 -0.164488 -0.395216
未 0.343655 1.041198 -0.075334 -0.232225 0.458170 0.446185 -0.894515 -0.509255 -0.019921 0.404698 -1.218926 -1.802830 0.281637 -0.342983 0.095185 -0.323383
外 0.243611 1.175193 -0.906528 -0.306573 -0.002053 0.128674 -0.167891 -0.587584 -0.241801 0.479852 -1.067883 -1.974131 -0.640953 -0.439938 0.629925 -0.475824
一份 0.335403 1.657270 0.124625 -0.396836 0.438608 0.516541 -0.790988 -0.501362 -0.128469 0.382851 -1.203897 -1.722512 -0.030355 -0.201867 0.138179 -0.522521
齐全 0.207855 0.858603 -1.334141 -0.334095 -0.388259 -0.113678 0.036508 -0.672853 -0.333350 0.701765 -1.300041 -2.136379 -0.685849 -0.589742 0.942101 -0.594860
专业 0.366192 0.994412 -0.528096 -0.066860 0.242595 0.217461 -0.372367 -0.819002 -0.236796 0.617776 -1.199723 -1.819558 -0.139528 -0.217884 0.930576 -0.450139
素质 0.161561 0.962409 -0.718361 -0.138166 0.291510 0.071692 -0.037445 -0.757815 -0.178813 0.509370 -0.838768 -1.471238 0.034303 -0.147382 0.928231 -0.591061
您好 0.191820 1.345326 0.015361 -0.341246 1.726883 0.496069 -1.707598 -0.379551 0.477630 0.003986 -1.025819 -1.548845 1.601805 -0.272469 -1.378946 -1.119866
支持 0.127777 1.270415 -0.521985 -0.353150 1.281274 0.356353 -1.153362 -0.546283 0.259056 0.191635 -0.935950 -1.610942 1.201838 -0.250654 -0.691186 -1.062052
很脏 0.369206 0.706885 -1.123459 -0.220171 -0.754621 -0.119167 -0.045078 -0.512019 -0.355734 0.668905 -1.240219 -2.011558 -1.152149 -0.533075 1.080473 -0.145704
同样 0.137857 0.943646 -0.568971 -0.430125 0.168597 0.271062 -0.407070 -0.488499 -0.174205 0.497027 -1.171450 -1.893956 0.170995 -0.367315 0.356375 -0.412850
会员 0.051174 1.064655 -0.559298 -0.681401 0.851915 0.474500 -0.766324 -0.548604 0.037855 0.344947 -1.135321 -1.814651 1.323422 -0.451618 -0.229037 -0.803509
道 0.379602 1.200419 -0.715117 -0.186510 0.097967 0.286998 -0.420758 -0.551761 -0.155989 0.431188 -1.155488 -2.211376 -0.729237 -0.443567 0.469309 -0.367078
早饭 0.273374 1.648178 -0.536584 -0.267195 0.512649 0.359512 -0.231880 -0.555757 -0.139780 0.261624 -0.993046 -1.773415 -0.310876 -0.240215 0.296796 -0.768941
米 0.266190 1.265129 -0.356917 -0.495012 0.150050 0.400454 -0.633877 -0.249567 -0.047988 0.444921 -1.217517 -2.012243 -0.263254 -0.460585 -0.009302 -0.355154
网站 0.029038 0.928464 -0.776357 -0.779419 0.820003 0.586838 -1.140804 -0.525336 -0.090188 0.604986 -1.002273 -2.008537 2.157230 -0.304395 -0.364095 -0.720479
提高 0.212485 1.073728 -0.779347 -0.131461 0.699433 0.186146 -0.703834 -0.691236 0.108262 0.341042 -0.925842 -1.630934 0.625293 -0.157027 0.153205 -0.886226
海景房 0.155218 0.963742 -0.639705 -0.553424 0.104866 0.095738 -0.495664 -0.430785 -0.167248 0.693293 -1.270470 -1.929927 0.150324 -0.531801 0.171217 -0.361132
靠近 0.006969 0.880397 -1.025734 -0.284539 0.082004 0.098932 0.120786 -0.303342 -0.134555 0.386526 -0.712804 -1.680925 -0.446525 -0.504301 0.154202 -0.472486
大厅 0.348683 1.000848 -0.575139 -0.110201 0.078669 0.192438 -0.382862 -0.553556 -0.206155 0.467894 -1.131973 -1.803200 -0.399212 -0.404779 0.585452 -0.334363
先 0.254778 1.114634 0.061796 -0.244031 0.288881 0.461068 -0.811800 -0.522771 -0.150564 0.515536 -1.263067 -1.888585 0.220397 -0.287538 0.269509 -0.118242
实惠 0.092630 0.858117 -1.204132 -0.489622 -0.006914 -0.118406 0.195168 -0.497234 -0.276035 0.494062 -0.940422 -1.653815 -0.156438 -0.433341 0.380382 -0.782356
自助餐 0.288815 1.343913 -0.608544 -0.389754 0.230419 0.203815 -0.305690 -0.553229 -0.288092 0.407568 -0.994188 -1.739449 -0.266281 -0.336593 0.362678 -0.658577
也许 0.181498 1.030598 -0.544633 -0.238846 0.225705 0.248262 -0.390884 -0.449003 -0.055206 0.422487 -0.948618 -1.656238 0.014280 -0.321788 0.337852 -0.434232
表示 0.288302 1.516327 -0.040159 -0.371974 1.101457 0.686671 -1.291981 -0.562256 0.182054 0.355218 -1.399440 -2.105643 1.022778 -0.256780 -0.313862 -0.730920
新装修 0.086084 0.374284 -0.761512 -0.225146 -0.222859 -0.068942 -0.133120 -0.307632 -0.096435 0.536133 -0.938468 -1.344106 -0.157052 -0.505592 0.295607 -0.328048
相信 0.140734 1.230193 -0.522906 -0.380379 0.737526 0.389446 -0.672644 -0.526742 0.066447 0.277036 -0.984391 -1.712042 0.619456 -0.227479 0.018715 -0.706125
那种 0.258425 0.989558 -0.896273 -0.331361 -0.140918 0.130758 -0.324284 -0.574851 -0.208901 0.598903 -1.309760 -2.089306 -0.384319 -0.476029 0.628182 -0.386000
异味 0.402184 0.817067 -0.909970 -0.199916 -0.499626 0.001684 -0.277258 -0.561013 -0.278558 0.606750 -1.344572 -2.135119 -1.006295 -0.642881 0.819934 -0.232266
帮忙 0.272372 1.242938 0.284813 -0.094349 0.207311 0.478604 -0.608328 -0.626402 -0.153320 0.555199 -1.100632 -1.677558 -0.144716 0.021331 0.755955 0.084592
拖鞋 0.314345 1.226132 -0.540658 -0.297426 0.015092 0.146139 -0.432200 -0.559583 -0.178920 0.568809 -1.075833 -1.874332 -0.326021 -0.203826 0.642379 -0.319951
享受 0.093378 0.949198 -0.679425 -0.354112 0.441014 0.210028 -0.524051 -0.476042 -0.102518 0.427665 -1.058024 -1.758633 0.457383 -0.384845 0.132567 -0.614882
餐饮 0.074113 1.027461 -1.113689 -0.425947 0.292052 -0.032884 -0.041468 -0.607530 -0.254939 0.436153 -0.837797 -1.715055 -0.100074 -0.363497 0.347768 -0.780059
高级 0.037798 0.285731 -0.531878 -0.902864 -0.645419 0.072849 -0.306971 -0.225921 -0.409541 0.908804 -1.599425 -1.871359 0.254871 -0.807444 0.425504 -0.003676
二楼 0.200720 1.198192 -0.567837 -0.312086 0.300372 0.283228 -0.420768 -0.551700 -0.172017 0.376126 -1.155561 -1.942785 -0.245095 -0.416039 0.333702 -0.547984
青岛 0.271623 1.569947 -0.511767 -0.348499 0.852316 0.449795 -0.884824 -0.551503 0.065766 0.419046 -1.337827 -2.242981 0.525353 -0.446901 -0.099281 -0.814675
终于 0.331825 1.583722 0.173341 -0.334997 0.573214 0.662940 -0.929733 -0.435431 0.109044 0.418245 -1.410678 -2.108001 0.209199 -0.315373 -0.040888 -0.266234
房型 0.080033 0.515281 -0.099112 -0.597448 -0.002351 0.356605 -0.649756 -0.263973 -0.201632 0.516408 -1.424522 -1.783992 0.680956 -0.516491 0.167105 -0.066481
出行 -0.037000 1.240364 -1.309040 -0.206771 0.362006 0.175255 0.350154 -0.435290 -0.134907 0.354667 -0.549951 -1.924202 -0.676273 -0.221188 0.036009 -0.565719
完 0.355048 1.336295 0.046469 -0.187814 0.386196 0.489008 -0.647251 -0.498065 -0.093495 0.321016 -1.140524 -1.689929 -0.145607 -0.203897 0.381112 -0.313246
至少 0.122947 1.154166 -0.344734 -0.444991 0.428412 0.311678 -0.543205 -0.296765 -0.033249 0.241971 -0.903951 -1.539819 0.229352 -0.280593 -0.178409 -0.514003
重新 0.296796 0.865772 -0.463863 -0.266551 0.429081 0.224293 -0.793366 -0.373868 0.107634 0.304745 -1.057935 -1.515600 0.250403 -0.473494 -0.052316 -0.566814
单人间 0.028319 0.433888 -0.644337 -0.819718 -0.473658 0.049179 -0.345295 -0.172034 -0.311772 0.749073 -1.449853 -1.795133 0.235278 -0.741449 0.216135 -0.045056
加强 0.236908 0.971932 -0.411565 -0.091662 0.789829 0.317232 -0.802336 -0.696839 0.061637 0.304878 -0.890755 -1.497454 0.701085 -0.109093 0.214598 -0.801227
周围环境 0.130008 1.060682 -1.223600 -0.167151 0.315710 0.006585 0.017786 -0.611791 -0.139164 0.447642 -0.774497 -1.724718 -0.474295 -0.425284 0.364153 -0.781468
14 0.298619 1.203669 0.258896 -0.433759 1.154325 0.580629 -1.263213 -0.170655 0.447097 0.061612 -1.045181 -1.385221 1.058379 -0.493653 -1.050577 -0.694830
感受 0.076449 1.111519 -0.707026 -0.353421 0.680619 0.228265 -0.661046 -0.547045 -0.011066 0.361530 -1.036225 -1.791192 0.571071 -0.298323 -0.020807 -0.775448
总是 0.181434 0.987395 -0.135938 -0.246593 0.170518 0.336843 -0.546358 -0.568464 -0.190782 0.440148 -1.119945 -1.624310 0.069185 -0.213131 0.467937 -0.223445
样子 0.267648 0.796600 -0.651933 -0.192393 -0.062274 0.126267 -0.243460 -0.369817 -0.185666 0.427785 -0.927733 -1.611178 -0.562784 -0.390496 0.410719 -0.322554
可惜 0.165583 1.133891 -0.809412 -0.331318 0.159901 0.107902 -0.293602 -0.518304 -0.138046 0.501944 -1.071797 -1.869476 -0.234233 -0.391804 0.360338 -0.547245
早晨 0.446276 1.405539 0.086265 -0.289819 0.240659 0.415711 -0.777474 -0.596832 -0.095763 0.459122 -1.415104 -2.041760 -0.201430 -0.345064 0.335283 -0.272033
继续 0.084647 1.395501 -0.251739 -0.342530 0.813934 0.452145 -0.901110 -0.408430 0.149384 0.323802 -1.078662 -1.811285 0.755028 -0.182589 -0.314863 -0.677658
蛮 0.205262 0.973219 -1.007443 -0.274899 -0.079430 -0.024984 0.044037 -0.612010 -0.325545 0.536044 -0.952575 -1.684346 -0.427751 -0.350431 0.653352 -0.648671
三个 0.359899 1.191851 -0.268745 -0.284816 0.100858 0.302986 -0.533427 -0.578238 -0.147200 0.494925 -1.219472 -1.882885 -0.187871 -0.347103 0.472435 -0.303193
好多 0.062635 1.215412 -0.908816 -0.381665 0.263227 0.124486 -0.200441 -0.395098 -0.038496 0.416074 -0.875888 -1.724749 -0.064998 -0.328138 0.207837 -0.625603
认为 0.149440 1.039198 -0.690444 -0.397372 0.279089 0.212933 -0.423599 -0.440117 -0.150949 0.441823 -1.107745 -1.806274 0.246508 -0.380756 0.228966 -0.594707
床上 0.297207 1.040698 -0.677438 -0.261338 -0.086424 0.190893 -0.397276 -0.477021 -0.132966 0.508363 -1.183444 -2.002473 -0.483141 -0.446238 0.525600 -0.282110
ctrip 0.452697 1.461317 -0.024079 -0.496239 1.515397 0.681757 -1.534069 -0.190958 0.411591 0.089588 -1.344574 -1.815283 1.319779 -0.446781 -1.333121 -0.850373
200 0.228350 1.170989 -0.282964 -0.639383 0.216999 0.301211 -0.385395 -0.172816 -0.105523 0.327636 -1.065928 -1.661694 0.270974 -0.462206 -0.161111 -0.470988
超级 0.210998 1.052042 -0.770022 -0.337725 -0.051420 0.114924 -0.123676 -0.445971 -0.163368 0.471943 -1.053262 -1.809734 -0.470348 -0.413376 0.511144 -0.381921
玻璃 0.331510 1.101886 -0.908335 -0.307114 -0.108716 0.113550 -0.338052 -0.438650 -0.125251 0.499948 -1.186784 -2.086432 -0.720212 -0.501289 0.547079 -0.339893
16 0.326057 0.902726 0.418929 -0.303724 0.811044 0.434081 -1.146637 -0.078487 0.354918 0.079315 -0.998545 -1.095425 0.729589 -0.557049 -0.972032 -0.549583
第二次 -0.042966 0.852375 -0.565353 -0.314610 0.264002 0.170602 -0.327525 -0.433167 -0.062965 0.531121 -1.001420 -1.567828 0.521888 -0.241962 0.154578 -0.466224
次 0.261725 0.939231 -0.044633 -0.286084 0.246892 0.298539 -0.600433 -0.396917 -0.069580 0.410211 -1.137195 -1.598934 0.139894 -0.351688 0.185909 -0.214041
安全 0.127595 0.937170 -0.721101 -0.207100 0.197135 0.176506 -0.347171 -0.460775 -0.068009 0.275085 -0.957583 -1.678556 -0.179854 -0.281490 0.283291 -0.518008
没法 0.166324 1.178505 -0.749341 -0.284921 0.044152 0.215331 -0.215472 -0.389527 -0.053826 0.406273 -0.921842 -1.740874 -0.442354 -0.319274 0.440794 -0.374150
服务质量 0.169743 1.048129 -0.900814 -0.209925 0.593223 0.151486 -0.434754 -0.616836 -0.000726 0.390721 -0.954706 -1.733796 0.348234 -0.240560 0.228680 -0.894965
银行 0.394133 1.544282 0.535289 -0.448683 0.915469 0.763343 -1.236746 -0.392172 0.133498 0.250800 -1.385146 -1.873862 0.722885 -0.289917 -0.514963 -0.364851
18 0.255504 1.106430 0.058679 -0.525776 0.714600 0.383016 -0.860931 -0.161645 0.243957 0.159146 -0.977001 -1.277009 0.720101 -0.531914 -0.864486 -0.644239
不高 -0.003241 0.909808 -0.957075 -0.406695 -0.086662 -0.142893 0.190493 -0.367898 -0.108812 0.379821 -0.683382 -1.260072 -0.102696 -0.330009 0.385647 -0.573205
之星 0.038283 1.023457 -1.045142 -0.381921 0.539405 0.113826 -0.361122 -0.327696 -0.025358 0.335456 -0.968110 -1.778259 0.352587 -0.455458 -0.000920 -0.759602
一看 0.298978 1.005404 -0.418896 -0.335558 -0.198401 0.198261 -0.418597 -0.495876 -0.273373 0.655248 -1.316907 -1.949383 -0.502900 -0.436255 0.646302 -0.090532
奇怪 0.223708 0.858425 -0.486973 -0.281481 0.107921 0.228163 -0.416075 -0.407552 -0.172485 0.437529 -1.043409 -1.707719 -0.213874 -0.396861 0.336966 -0.296581
号楼 0.257093 0.659072 -0.425910 -0.348375 -0.149256 0.132988 -0.300208 -0.406239 -0.182228 0.588545 -1.127088 -1.733914 -0.180094 -0.471750 0.358890 -0.159184
衣服 0.295508 1.153518 0.034060 -0.098445 0.202301 0.384252 -0.593321 -0.531705 -0.178500 0.337883 -1.080431 -1.707248 -0.419634 -0.043472 0.592645 -0.027059
心情 0.243852 1.184190 -0.212966 -0.270706 0.426014 0.360141 -0.643024 -0.459636 -0.021170 0.384172 -1.087085 -1.704600 0.174516 -0.231156 0.161324 -0.402102
久 0.369281 1.070771 0.014623 -0.134503 0.151327 0.394297 -0.632166 -0.421441 -0.049183 0.418039 -1.125187 -1.648223 -0.321575 -0.258081 0.319983 -0.102089
经历 -0.044440 1.275071 -0.342194 -0.410385 0.992424 0.306878 -0.924959 -0.472090 0.210339 0.233311 -0.964794 -1.539300 0.983991 -0.157385 -0.402209 -0.884582
订单 0.310665 1.093809 0.240544 -0.580173 0.640884 0.611367 -1.006832 -0.377133 0.085242 0.376515 -1.284411 -1.701607 0.969020 -0.437124 -0.276589 -0.334866
恶心 0.245229 1.181915 -0.627176 -0.192911 0.157150 0.137264 -0.375232 -0.596385 -0.102289 0.474456 -0.863253 -1.596630 -0.320270 -0.167945 0.585945 -0.401518
细节 0.227081 0.864022 -0.704931 -0.144757 0.269949 0.141400 -0.473436 -0.498854 -0.055184 0.375223 -1.048621 -1.659649 -0.043863 -0.359260 0.333772 -0.593321
收到 0.351800 1.155279 0.366292 -0.309642 0.619261 0.619028 -1.091643 -0.454601 0.008189 0.357567 -1.287483 -1.754658 0.622845 -0.327054 -0.081099 -0.191558
台 0.324146 1.072793 -0.256959 -0.339876 -0.044323 0.404041 -0.677653 -0.451871 -0.120769 0.607106 -1.467012 -2.084001 -0.141290 -0.470976 0.452657 -0.064236
送来 0.401304 1.376036 0.252957 -0.081118 0.303358 0.495684 -0.776775 -0.594859 -0.115072 0.476928 -1.263259 -1.856060 -0.271169 -0.131502 0.498363 -0.107170
更换 0.278115 0.756955 -0.333959 -0.187429 0.028457 0.206831 -0.648244 -0.389533 -0.050298 0.367685 -1.012184 -1.621829 -0.029010 -0.365275 0.307289 -0.246330
蚊子 0.327022 1.149307 -0.515847 -0.307438 -0.058204 0.174638 -0.424733 -0.417328 -0.127428 0.510485 -1.132379 -1.865973 -0.502858 -0.427486 0.498221 -0.298911
明明 0.261880 0.847683 -0.067472 -0.367132 0.251358 0.411592 -0.596180 -0.415463 -0.141020 0.474182 -1.162269 -1.648177 0.375100 -0.353763 0.269909 -0.227430
住客 0.197997 1.222917 -0.555347 -0.333679 0.344945 0.248112 -0.572164 -0.532542 -0.081294 0.489289 -1.124914 -1.890579 0.097342 -0.347272 0.407753 -0.528241
晕 0.138070 1.172062 0.039821 -0.339861 0.263882 0.314190 -0.535013 -0.387310 -0.037090 0.386515 -0.925160 -1.440793 0.018482 -0.123748 0.292493 -0.131346
办事 0.027573 0.940270 -0.485551 -0.215912 0.436111 0.301895 -0.207406 -0.280250 -0.016476 0.239131 -0.631024 -1.400711 0.036334 -0.234751 -0.206135 -0.402670
留下 0.271969 1.244507 -0.509410 -0.262598 0.447972 0.339573 -0.719105 -0.508320 0.000787 0.402549 -1.175597 -1.963089 0.141974 -0.345408 0.161794 -0.568135
不怎么样 0.104501 0.712986 -0.845917 -0.119882 0.085570 0.019089 0.027318 -0.471927 -0.132078 0.416680 -0.665772 -1.319395 -0.203917 -0.284752 0.532935 -0.453328
进入 0.282637 0.931832 -0.414265 -0.225633 0.052258 0.275089 -0.509639 -0.474760 -0.122730 0.483557 -1.228905 -1.901853 -0.264254 -0.424619 0.412542 -0.261943
半小时 0.416649 1.331192 0.380218 -0.176722 0.307212 0.563645 -0.805659 -0.557199 -0.084524 0.402649 -1.258704 -1.867828 -0.167945 -0.098267 0.426876 0.014199
听说 0.179580 1.053339 -0.371806 -0.270922 0.296874 0.368523 -0.464257 -0.460333 -0.117685 0.470204 -1.115942 -1.853333 0.053995 -0.356260 0.329561 -0.362156
破 0.198835 1.020706 -0.682895 -0.231093 0.044131 0.124966 -0.357999 -0.444570 -0.181625 0.382928 -0.978171 -1.745773 -0.470403 -0.366298 0.465070 -0.299147
令人 0.174729 0.944591 -0.916024 -0.378666 0.190326 0.144800 -0.288328 -0.455176 -0.085924 0.424910 -1.096102 -1.766363 0.062760 -0.525440 0.370917 -0.601705
度 0.314429 1.432139 -0.031027 -0.312431 0.512958 0.451178 -0.995661 -0.222382 0.228118 0.249921 -1.120445 -1.724988 -0.075662 -0.415286 -0.293664 -0.401053
温度 0.306858 1.170947 -0.292582 -0.291043 0.209262 0.282215 -0.647317 -0.251475 0.154568 0.310625 -0.987694 -1.512762 -0.446516 -0.399224 -0.051785 -0.372213
经济 0.100149 0.752480 -0.731720 -0.546716 -0.048697 0.056259 -0.207391 -0.412934 -0.256040 0.567021 -1.046872 -1.625736 0.076193 -0.511576 0.289564 -0.423080
暖气 0.271554 1.119120 -0.371976 -0.198346 -0.000107 0.212610 -0.440919 -0.470963 -0.059680 0.485440 -1.041859 -1.629426 -0.449455 -0.224553 0.522434 -0.165300
差点 0.172842 1.160916 -0.424794 -0.270415 0.231327 0.292952 -0.447619 -0.412323 -0.020594 0.397440 -0.968234 -1.617310 -0.141554 -0.221915 0.390698 -0.344953
中央空调 0.341859 1.283473 -0.424824 -0.276656 -0.139322 0.300933 -0.364572 -0.256114 0.061087 0.371722 -1.095182 -1.851398 -0.852961 -0.368434 0.524624 -0.064005
骚扰电话 0.242726 1.081795 -0.626948 -0.190880 0.206941 0.114683 -0.277248 -0.466381 -0.089181 0.318356 -0.788840 -1.480372 -0.381151 -0.316210 0.265510 -0.508412
符合 0.110531 0.489335 -1.345623 -0.439836 -0.079327 -0.144196 -0.008605 -0.455728 -0.170595 0.545750 -0.937333 -1.599795 -0.090376 -0.659690 0.551577 -0.701684
温泉 0.227298 1.224186 -0.678292 -0.287476 0.298721 0.274972 -0.542072 -0.430810 0.007458 0.407178 -1.058432 -1.851792 -0.096473 -0.393193 0.153389 -0.603754
块钱 0.221748 1.253929 -0.123672 -0.481085 0.478309 0.326161 -0.564548 -0.190721 0.039894 0.296548 -0.824086 -1.457800 0.134408 -0.327875 -0.334214 -0.570105
偏 0.050932 0.832403 -1.031776 -0.225000 0.197664 0.023990 0.273955 -0.430128 -0.256105 0.342191 -0.619965 -1.580441 -0.664592 -0.371711 0.328800 -0.489164
无烟 0.213955 0.304517 0.076021 -0.600292 -0.354418 0.264761 -0.551827 -0.258160 -0.288550 0.665530 -1.523113 -1.644133 0.358908 -0.602416 0.418093 0.164865
旅馆 0.104098 1.000647 -0.793819 -0.294202 0.206173 0.134679 -0.249781 -0.457878 -0.102553 0.446973 -0.926534 -1.638238 -0.011207 -0.319561 0.337848 -0.504603
边上 0.088265 1.208355 -0.866528 -0.343467 0.213815 0.201694 -0.134415 -0.435242 -0.177452 0.427060 -0.871818 -1.834178 -0.455691 -0.329124 0.252971 -0.506197
号称 0.141051 0.633048 -0.671707 -0.318537 0.261713 0.160068 -0.423674 -0.404660 -0.065111 0.386702 -0.907752 -1.575351 0.295054 -0.432269 0.204287 -0.500260
