5371 10
酒店 0.285740 -1.122979 -3.192107 1.265491 -0.220972 -0.325506 1.214956 0.230021 0.885797 -0.769925
房间 1.346182 -3.371219 -0.168011 -0.486943 -0.854297 2.025774 1.027700 -3.242264 0.207824 -1.058761
服务 0.395837 -2.624968 -2.433408 0.635243 0.872305 -0.731692 0.538574 0.299507 -0.220643 -2.654441
住 -0.010870 -1.329431 -2.324525 3.000861 -1.520652 -0.648504 1.246652 -0.800986 1.042550 -0.920993
不错 1.522775 -4.303267 -1.075647 1.671238 0.000997 -0.311502 1.709675 -0.633692 0.594649 -1.886228
入住 -1.007546 1.180898 -3.117729 2.526381 -0.048290 0.437210 0.466989 -1.756594 0.041723 -1.397569
说 1.136849 0.858570 -2.222204 -1.154102 2.044749 2.233134 0.707422 -2.582135 1.167149 -2.077209
前台 0.890859 0.183624 -2.131906 -1.497868 2.587613 3.012488 0.685654 -2.443408 0.625308 -3.261589
比较 1.439012 -5.403030 -0.507386 0.809603 0.806330 -0.566572 2.042956 -0.746798 0.970499 -0.394871
早餐 3.153229 -2.680778 -0.633284 0.517203 1.665473 -1.179934 0.400403 -0.809882 1.508829 0.087272
感觉 0.872305 -3.501900 -1.347481 1.762341 -1.282294 -0.173910 0.995064 -1.247575 -0.134653 -1.189602
携程 -1.550729 2.055283 -4.753598 1.292400 -0.240082 0.391094 2.553276 -1.114367 2.537457 -1.682709
服务员 2.311768 -0.871202 -1.343762 -1.640984 3.010899 2.117411 -0.364583 -2.609784 0.042520 -2.115983
宾馆 -1.238384 -1.356703 -2.931248 1.916902 0.572183 -1.470880 0.388037 -0.936592 0.641639 0.021633
! 2.998939 -0.387316 -3.516897 3.148892 -1.707325 1.385240 -2.800627 -0.392193 2.414758 -3.397205
设施 1.229680 -6.477507 -0.569670 1.159128 -1.163479 0.431214 1.906555 -2.157628 -0.094115 -1.038459
月 -2.944598 1.223619 -6.878995 5.740185 1.229184 -2.625454 -0.259510 -5.604096 -0.207384 1.899848
方便 1.609203 -4.558778 -0.739120 1.045201 3.675410 -1.336391 1.544592 0.445378 3.313754 1.304822
客人 -0.142500 1.022060 -4.007190 0.290951 1.321864 0.442066 -0.102366 -1.362975 -0.024555 -0.727143
日 -2.875120 1.751052 -5.813543 4.463038 0.948273 -1.834148 0.215674 -4.788819 0.162163 1.724577
价格 0.715470 -2.362310 -1.797087 1.563850 -0.646788 -1.124796 3.740968 -0.272241 2.561875 -0.537482
差 1.962189 -4.855782 -0.908480 1.027397 -0.362939 -0.111290 -0.264974 -0.437114 1.293662 -1.703390
元 0.474960 1.626315 -1.767216 1.167752 1.362195 -0.208331 2.887777 -3.088666 3.113446 1.527315
没 1.959569 -0.461097 -1.348766 -1.072109 2.018422 1.823846 -0.775750 -2.803400 0.915155 -1.164835
晚上 1.101410 -1.448836 -1.001385 -0.186879 1.051646 1.068724 -0.897570 -3.328052 -0.561357 0.927469
房 1.292732 -0.447187 -0.593549 1.251914 -3.503474 3.908188 2.701468 -5.738645 1.622883 -1.636377
年 -3.197818 -0.169089 -7.302193 6.477368 1.065864 -3.496119 -0.486620 -4.807313 0.303505 2.000112
时 0.357474 1.823059 -3.083929 -0.415257 2.277510 2.414578 0.770965 -3.045106 0.318256 -1.641171
环境 1.091901 -5.074492 -1.326344 1.490475 -0.266418 -0.767719 1.330792 -0.334720 0.686620 -1.173990
里 1.640599 -3.896207 -0.412266 -0.740491 0.292724 1.587046 0.457076 -2.909364 -0.546094 -0.271636
太 1.547532 -4.498300 -0.968735 0.542010 0.181069 0.167496 -0.195272 -0.968247 0.944635 -1.266539
知道 1.203547 -0.315245 -2.040727 -0.731277 1.084785 1.334893 0.570464 -1.629501 0.982269 -0.979604
下次 -0.495739 -0.893201 -4.239229 3.192513 0.172456 -1.245014 1.128829 1.160033 2.426797 -1.810934
不好 1.772522 -3.862688 -0.375639 -0.147140 0.602935 1.355287 0.129621 -1.444920 0.275619 -1.519162
干净 1.850332 -5.678977 0.205466 0.372108 -0.132237 1.079831 1.803362 -2.147828 0.093088 -1.224512
2008 -3.150807 -0.665054 -7.122324 5.374066 1.800915 -4.565412 -0.553300 -4.800456 0.317918 1.733950
点 0.481072 0.707867 -1.969823 0.481520 2.336538 0.361939 -0.962859 -3.452137 0.174962 1.102044
这家 -0.275624 -1.581548 -3.748904 2.662399 -0.363403 -1.491312 1.751352 1.050897 1.498867 -1.424651
点评 -2.712993 0.425153 -4.640160 4.514180 0.538378 -2.587675 -0.361126 -2.506335 0.121917 0.927405
问题 0.270037 0.002583 -2.689723 -0.126936 1.402541 0.399897 -0.433660 -1.182764 -0.035314 -0.971404
有点 1.169086 -4.645989 -0.421839 0.214670 0.290217 0.167778 0.979372 -1.981120 0.071082 -0.102957
装修 0.134826 -3.396199 -0.719655 1.326624 -1.096131 -0.135619 1.262623 -2.336309 -1.179654 0.159629
免费 0.779967 0.669129 -1.537372 0.975673 -0.646002 1.734439 1.971903 -3.064726 2.033917 -0.566143
卫生间 1.893246 -5.776689 0.007587 -0.194092 -0.396000 1.316661 0.135002 -3.668718 -0.530922 -0.520309
吃 3.362833 -1.193069 -1.367765 0.040322 3.105058 -1.314862 -0.811895 -0.920067 1.705000 0.507497
地方 1.518867 -2.992372 -1.461259 0.326654 0.940928 -0.311526 0.576955 -0.238083 1.409069 -0.098802
态度 1.315682 -1.909408 -1.425423 -0.967682 2.588928 1.471772 0.091909 -0.884637 0.334192 -3.456789
已经 -0.165897 0.196167 -2.267529 0.460858 1.057057 0.798523 0.354175 -2.295764 0.166290 -0.481773
实在 1.600569 -2.573326 -1.356266 0.749248 -0.319501 0.219785 0.098091 -0.971086 1.299526 -1.139475
位置 1.219162 -4.298481 -1.477386 0.743323 1.404591 -1.160317 1.695347 0.222042 1.454542 -0.161919
退房 0.711735 1.719292 -3.074048 -0.352592 2.887952 1.941073 -0.109256 -3.154408 0.786722 -1.000591
空调 1.851712 -2.808103 -0.533896 -0.761448 0.869903 1.696915 -0.977364 -3.389939 -0.408165 -0.381983
发现 1.045602 -1.281796 -1.191476 -0.667088 0.643794 2.265992 0.062412 -3.363097 -0.247753 -0.762880
选择 -0.452387 -1.155342 -3.565685 3.129317 0.128054 -1.877994 1.156087 0.511868 1.540604 -0.885674
大堂 1.468344 -2.088412 -1.207542 -0.690548 1.166071 1.228890 0.544329 -1.978379 -0.352570 -1.296873
以后 0.191983 -0.690744 -3.153266 1.590490 -0.071387 -0.131880 0.934196 0.350880 1.991172 -1.535041
10 -0.316485 1.287804 -2.984296 0.880766 2.675508 -1.019634 0.280409 -2.786790 1.410249 2.675004
交通 1.255792 -4.743495 -1.791242 0.832322 3.458462 -2.123642 2.342081 1.045639 2.281424 -0.784270
餐厅 1.827910 -2.376406 -1.195937 -0.172272 2.299640 -0.801968 -0.114039 -1.370308 0.394038 0.178174
预定 -0.467651 2.138020 -3.092460 0.817688 0.287740 1.954185 2.270004 -2.435378 1.613536 -1.350214
问 1.652176 0.622288 -2.359868 -1.656826 2.736945 2.722370 0.058410 -3.263541 1.157883 -1.768692
电话 0.347256 1.234217 -3.014053 -0.980960 2.527105 1.644896 -0.106561 -2.972654 0.862876 -1.255647
要求 0.321421 0.521233 -1.962880 0.002167 1.100373 1.588322 0.820659 -3.065341 0.301261 -1.141661
建议 -0.048627 -0.445320 -3.343100 1.671533 0.075891 -0.294497 1.132020 0.128529 1.611495 -0.815154
算 1.308593 -4.162301 -0.773929 1.154431 0.384245 -0.562871 1.957963 -0.575947 1.298463 -0.797078
人员 0.730142 -1.740076 -1.402594 -0.421148 2.303785 1.129175 0.116300 -1.188961 -0.004873 -2.936570
找 2.159825 -1.143065 -1.754999 -1.817321 2.769516 1.369585 0.695927 -1.331892 1.262049 -0.800195
补充 -1.337529 -0.742791 -3.359462 3.242270 0.408435 -2.011236 -0.406734 -1.481961 0.009108 0.060369
希望 -0.703498 0.638420 -4.637318 2.337307 0.746643 -0.876334 0.834232 0.106422 1.362902 -1.425680
楼 0.245003 -0.756105 -0.884914 1.214356 -0.590851 0.859486 0.385639 -3.991102 -0.749671 0.904200
一点 0.541593 -1.884410 -1.374723 0.457033 0.497597 0.144282 1.011976 -1.210870 0.499279 -0.376043
朋友 0.023098 0.412383 -3.166695 1.615528 0.683276 -0.194538 0.938843 -0.656742 1.430894 -1.065446
特别 1.321502 -3.265913 -1.565373 0.485573 0.366870 0.156415 0.491000 -0.786728 0.316026 -1.135971
大床 0.858925 -1.121011 -0.828183 1.397846 -3.094831 4.177022 2.094849 -5.211055 1.055785 -1.151854
标准 0.963863 -3.255092 -1.680807 1.509556 -2.392766 -0.331751 2.344964 -1.804017 0.375169 0.313246
想 0.854463 -0.559990 -2.279113 -0.168030 1.254259 0.571994 0.053404 -1.450189 0.751497 -0.606714
总体 0.825688 -3.206275 -1.310312 1.730048 -0.627378 -0.129329 1.229600 -0.780853 0.667879 -1.793332
分钟 0.294341 1.445758 -2.286013 0.227229 3.925706 -0.841258 0.538254 -2.751844 2.368008 2.258998
隔音 2.076016 -6.305946 -0.529962 0.220597 -0.347312 1.216669 -0.075816 -2.132657 0.119375 -0.688232
时间 0.249351 1.006877 -3.067242 0.239570 2.183922 0.773048 -0.061962 -2.401824 1.027446 -0.205470
高 0.403061 -2.939615 -1.664859 1.632776 -0.486284 -0.895031 2.101017 -0.535126 1.227673 -0.812862
第二天 1.278763 0.249384 -2.017757 -0.342964 1.824232 1.757158 -0.379129 -3.234151 0.623480 -0.552793
应该 0.309838 -1.689837 -2.014324 0.973508 0.112148 -0.492224 1.150397 -0.697461 0.789024 -0.720642
打电话 1.328266 1.168219 -2.604024 -1.352666 2.588200 2.494668 0.194410 -3.129129 1.010047 -1.707973
~ -1.063092 -1.861579 -0.047464 4.488645 3.091402 -1.218515 -2.291180 -1.940083 4.668223 -4.160606
做 0.309824 -0.262661 -2.743977 0.554925 1.218796 0.025190 -0.217269 -1.219094 0.469856 -0.772599
订 -0.007202 0.802749 -2.054777 1.470515 -0.991740 1.733900 2.110786 -2.264740 1.463195 -1.111114
星 0.625249 -3.325393 -1.751707 1.544447 -1.139373 -0.898870 1.830145 -0.686922 0.555848 -0.389453
反馈 -1.653451 -0.691139 -4.017291 3.720077 0.532532 -3.448886 0.098587 -1.685114 0.334702 1.102522
换 1.198603 -1.189164 -0.804608 -0.403369 0.170552 2.281475 0.563775 -3.077101 0.159845 -1.415702
看到 0.444263 -0.845570 -1.872770 0.665319 0.616302 0.629821 0.172406 -2.128900 0.306585 -0.300145
性价比 0.766009 -3.534152 -2.025713 1.947939 -0.640685 -1.399872 2.110982 -0.290187 1.793860 -1.391330
提供 0.117459 -0.542520 -2.544894 0.887512 0.530098 -0.153621 0.857859 -1.012545 0.956022 -0.625755
客房 0.903399 -1.947183 -1.400822 -0.333859 0.602403 1.018899 0.387713 -2.342627 -0.168133 -1.091435
旧 1.190049 -5.278972 -0.305692 0.417675 -0.592002 0.388748 1.100338 -2.188388 -0.307547 -0.481448
陈旧 1.145168 -5.662995 -0.334934 0.461873 -0.722016 0.453167 1.081052 -2.077688 0.175540 -0.762768
舒服 1.816156 -3.844374 -0.794039 0.468168 -0.567586 0.944728 0.984279 -1.817946 0.205366 -1.231296
推荐 0.259770 -1.194060 -3.178386 1.947527 -0.476578 -0.481421 1.714940 0.141679 1.921452 -1.560651
满意 0.387713 -1.853734 -1.830844 1.552324 -0.268002 -0.380227 0.877241 -0.556924 0.848082 -1.154243
走 1.201890 -0.864473 -1.786197 -0.427277 2.599010 0.327246 0.364665 -1.656050 1.377472 0.438661
觉得 0.605143 -2.117662 -1.796236 1.100218 0.197070 -0.426005 0.793432 -0.928917 0.618807 -0.775166
服务态度 1.178559 -2.692801 -1.204157 0.324981 0.546896 0.420284 0.588472 -0.684251 0.555254 -1.806820
很大 1.446730 -4.462636 -0.353302 0.483958 -0.662318 0.943364 1.122278 -2.210994 -0.256333 -0.767623
只能 1.418050 -1.563303 -1.248694 -0.034629 0.855159 1.038543 0.603612 -2.144679 0.872371 -0.516232
真的 0.807400 -2.046073 -1.834714 1.118748 0.127792 -0.162824 0.536164 -0.780141 0.646059 -0.965092
豪华 0.763703 -1.280375 -1.014796 1.572008 -2.987978 2.877724 2.306349 -4.096620 1.104447 -0.923477
小时 0.607664 0.560577 -2.705240 -0.460893 2.520384 1.008883 -0.400221 -3.040468 0.827823 -0.026947
东西 2.367954 -1.841773 -1.282648 -0.311832 2.220176 -0.030132 -0.196579 -1.300786 1.181160 -0.119010
根本 1.464159 -2.157525 -1.448471 -0.322806 0.493519 0.827600 0.897817 -2.091881 0.641243 -0.571763
四星 1.406227 -3.771663 -1.788269 0.897533 -1.103131 -0.283359 2.160799 -1.063769 0.452767 -0.582130
需要 0.293135 -0.063735 -2.530031 0.351520 1.652622 0.247396 0.390658 -1.676202 1.112164 -0.288994
更 0.284174 -1.208963 -2.718180 0.845802 0.513897 0.030021 0.548575 -1.057041 0.800675 -0.843237
地理位置 1.075736 -4.153187 -1.680496 1.291937 0.947013 -1.226146 1.322519 -0.182439 1.364856 -0.623279
味道 1.603284 -4.085961 -0.668214 0.239697 0.129393 0.433415 0.468025 -2.225627 0.108419 -0.582897
里面 1.882157 -3.822293 -0.688161 0.132098 -0.045407 0.997721 0.604997 -1.972421 0.436467 -0.742028
上网 1.012193 -0.719970 -0.529907 -0.224408 0.236315 1.523486 1.261059 -3.151427 1.441073 -0.654206
饭店 0.662939 -2.223650 -2.291400 1.218790 0.410085 -0.873322 0.761021 -0.458226 0.920766 -0.281638
硬件 0.661861 -4.157876 -1.596993 1.145131 -0.727046 -0.605653 1.004365 -0.811512 0.124603 -0.845895
床 1.953734 -4.357148 -0.419372 0.350780 -0.950530 1.660895 0.966501 -3.194984 0.107473 -0.848508
… -2.067012 -3.943827 -5.202748 -2.294220 1.244136 -1.086661 -3.711397 0.252079 -0.041815 -2.494945
早上 1.390676 -0.618250 -1.658887 -0.536170 2.071737 0.811426 -0.561163 -2.727457 0.220000 0.022017
送 1.959091 -0.345827 -1.492334 -0.294906 1.748583 0.923848 0.408295 -2.179629 0.915285 -0.578663
商务 0.758054 -1.466277 -1.199199 1.322954 -2.141497 2.361075 2.037847 -3.439762 0.937109 -0.974951
中 0.469578 -1.663263 -2.626624 1.031530 0.209991 -0.492489 0.784650 -0.865689 0.843994 -0.526102
开 1.285248 -1.591846 -1.130409 -0.770447 1.221313 1.313338 -0.656212 -3.165684 -0.014642 -0.297621
房价 0.690442 -1.259600 -1.912832 1.094274 0.037306 -0.148741 1.741607 -1.427140 1.605384 -0.284176
电梯 1.291090 -2.667765 -0.754564 -0.159963 0.782914 1.056136 0.225500 -2.618567 -0.115695 -0.279658
一家 0.432567 -2.161635 -2.375949 1.562192 -0.157036 -0.948385 0.983928 -0.372405 1.051223 -0.737121
挺 1.335049 -3.807698 -1.071125 0.899643 0.779240 -0.252497 1.020729 -1.241669 0.685201 -0.703919
不到 1.854184 -1.687669 -1.592696 -0.662308 0.794116 0.633139 1.168593 -1.585271 0.932507 0.004635
门口 1.293350 -2.190141 -1.285692 -0.171282 2.391555 -0.070550 0.469766 -0.810187 1.228574 -0.343445
很差 1.389915 -3.616752 -0.644464 0.397222 0.187330 0.218003 0.167202 -1.019489 0.321646 -0.939644
便宜 0.675096 -2.177999 -1.918546 1.292270 0.250436 -0.807455 2.078756 -0.365194 1.877740 -0.703095
小姐 1.197831 0.334655 -2.222486 -0.584092 2.314598 2.038205 0.264175 -2.763352 0.619706 -1.795870
间 0.810987 -0.924127 -1.099343 0.724349 -1.721914 2.333851 2.108234 -3.814677 0.809050 -0.802281
经理 1.185086 0.559652 -2.679474 -0.943645 2.610207 1.552382 0.083550 -2.755355 0.348299 -1.397104
提出 -0.878677 1.673605 -5.098678 1.854388 1.495430 -0.457537 -0.074023 -1.787156 0.446658 -0.350270
真是 0.754980 -1.175559 -2.384893 0.945593 0.477762 0.270394 0.272996 -1.479291 0.863010 -0.886585
声音 1.766522 -3.641168 -0.662054 -0.596273 0.759716 1.453001 -0.491230 -2.861122 0.014944 -0.289915
窗户 1.787920 -3.755234 -0.535012 -0.272471 -0.072824 1.741461 0.314005 -3.165689 0.066296 -0.560934
12 -0.834100 1.316206 -3.654337 1.624133 1.919799 -0.497026 -0.553798 -3.574808 0.197783 1.162846
附近 1.111958 -2.945490 -1.699395 0.929940 1.757120 -1.288656 1.123141 -0.308097 1.578950 0.214095
热情 1.226889 -2.058418 -1.282431 -0.501655 1.745639 0.973416 0.370228 -1.072225 0.091365 -2.051353
吵 1.499119 -3.386750 -0.449674 -0.132031 0.754677 0.564383 -0.130820 -1.979615 0.028440 -0.238266
告诉 0.802122 1.008087 -2.382874 -0.497303 1.864705 1.860282 0.950069 -2.543931 1.140093 -1.343271
结帐 0.540811 0.860439 -2.625693 -0.255387 2.246493 1.403990 0.355284 -2.654747 0.852169 -0.869579
毛巾 1.665552 -3.460238 -0.966088 -0.605313 0.677758 1.166319 0.228974 -2.349626 0.147940 -0.796430
天 0.381048 0.457246 -2.361150 1.034758 0.534559 0.796484 0.809328 -2.265306 1.372457 -0.342736
现在 0.203447 -0.419335 -2.410522 1.044203 0.670731 -0.002618 0.424379 -1.572212 1.025714 -0.736408
行李 0.817130 -0.304335 -2.218754 -0.394027 2.151446 1.157317 0.050513 -2.606230 0.479872 -0.833856
两个 1.141115 -1.124169 -1.373784 -0.155645 0.805665 1.496458 0.400410 -2.612119 0.579822 -0.724632
星级 0.570221 -2.547860 -2.225827 1.391153 -0.716962 -0.495412 1.613405 -0.722969 0.673945 -0.653063
感谢您 -1.588718 1.298185 -6.694914 3.818861 1.174502 -1.778426 0.105359 -2.115123 0.763320 0.239051
地毯 1.373644 -4.228326 -0.373602 0.288193 -0.435806 1.167291 0.400591 -2.692121 -0.446566 -0.652174
楼层 0.749737 -0.866924 -1.448306 -0.033270 -0.163309 1.819380 0.870373 -3.383262 0.213173 -0.938084
好像 1.089449 -2.154308 -1.263111 0.177504 0.597688 0.476094 0.446317 -1.751370 0.318097 -0.594905
帮 1.003906 0.405259 -2.153168 -0.631839 1.734265 1.965949 0.450519 -2.258442 0.927105 -1.544362
收费 0.948139 -0.573379 -1.587846 0.058564 0.921146 0.597584 0.998043 -1.891054 1.529780 -0.081120
新 0.480954 -2.939705 -1.172288 0.940478 -0.316672 0.067649 0.982469 -1.794104 -0.072338 -0.320326
唯一 1.205140 -2.700478 -1.306858 0.520946 0.693640 -0.081613 0.740870 -0.929672 0.919752 -0.608220
客户 -0.395294 0.517718 -3.384058 1.432837 0.659001 0.095029 0.857877 -1.411231 1.205237 -0.817176
失望 0.076339 -1.782520 -2.062820 1.567067 -0.189157 -0.660565 0.784187 -0.668213 0.869528 -0.650170
情况 0.157506 -0.074589 -2.923795 0.600303 0.900242 0.461597 0.791623 -1.476158 0.879104 -0.823629
告知 0.357729 1.246773 -2.765034 0.056113 1.486088 1.767967 0.571029 -3.240291 1.038672 -0.999304
宽带 0.998918 -0.966308 -0.833506 0.109766 0.083890 1.244085 1.196455 -2.611271 1.549398 -0.528949
机场 0.386056 -0.634817 -2.390882 0.637400 2.513781 -0.976872 1.151768 -0.484424 1.882582 0.765305
预订 -0.407966 1.220893 -2.807619 0.755207 0.383580 1.236268 1.357953 -1.853927 1.167032 -0.917818
吃饭 1.338255 -2.888398 -1.528621 -0.079602 2.291662 -0.814054 0.555689 -0.485713 1.262184 0.162279
这种 0.344670 -0.972069 -2.566294 1.095865 0.179978 0.014839 0.646196 -0.880812 1.036712 -0.879308
品种 2.403361 -3.571951 -1.172908 0.796532 1.172525 -1.036670 0.430908 -1.022806 1.085615 -0.198286
20 -0.011767 0.866657 -2.382057 0.771653 1.734652 -0.267269 0.592026 -2.093507 1.506981 1.169345
水 1.364494 -2.540980 -1.090914 -0.596584 0.951558 1.267885 0.054439 -2.780728 0.119293 -0.515160
很小 1.559499 -3.847956 -0.113440 0.355875 -0.724138 1.399109 0.888472 -2.638509 0.237567 -0.575218
安静 1.123351 -3.550569 -0.753097 0.775296 0.225589 0.116162 0.897129 -1.495375 0.413451 -0.524961
近 1.020235 -2.369209 -1.591666 0.682761 1.551036 -0.806493 0.955382 -0.537200 1.436649 0.097233
总台 1.037284 0.024081 -2.212310 -0.721586 1.961405 1.695432 0.205359 -2.674504 0.617270 -1.158704
当时 0.317131 0.299470 -2.295676 0.161109 1.480034 0.828124 0.503493 -2.142569 0.632000 -0.739369
15 -0.278520 1.167186 -2.777335 1.013339 1.927614 -0.308633 0.377308 -2.549225 1.425114 1.396986
热水 0.883788 -1.714580 -1.137702 -0.416390 1.051030 1.079346 -0.186882 -2.794047 0.054154 -0.271348
30 0.063686 1.193712 -2.977977 0.771740 2.306321 -0.164314 0.094242 -2.743862 0.955142 1.214626
定 0.091018 0.038837 -1.785270 1.240790 -0.675677 1.351165 1.549900 -2.214163 1.097877 -0.774848
评价 -0.145745 -0.722265 -2.472075 1.466608 0.108228 -0.613943 0.669443 -0.804546 0.755417 -0.498416
电视 1.322078 -3.207636 -0.509269 0.203887 0.442411 0.973897 0.038329 -2.476770 0.525497 -0.755052
第一次 0.189118 -0.586044 -2.261717 1.241078 -0.061526 0.020288 1.055680 -0.767113 1.130904 -0.720795
最好 0.478461 -1.818833 -2.045667 1.065475 0.112320 -0.404500 1.065580 -0.672244 0.931970 -0.526745
四星级 0.455572 -2.479871 -1.965103 1.312749 -0.456532 -0.588571 1.113988 -1.129899 0.585782 -0.369041
少 1.909272 -2.741090 -0.914637 0.204705 1.233189 -0.405839 0.434558 -0.824008 1.023046 -0.263159
安排 0.190807 0.076065 -1.831661 0.518785 0.523935 1.296427 0.760737 -2.245159 0.491800 -0.957158
请 0.494670 -0.079624 -2.926302 0.428970 1.182687 0.514394 0.506681 -1.504996 1.003617 -0.980560
喜欢 1.006825 -2.457755 -1.743919 1.025660 0.183727 0.073780 0.885788 -1.211131 0.693614 -0.822158
外面 1.507228 -2.448436 -1.262900 -0.112815 0.987773 0.764729 -0.038664 -2.270546 0.424102 -0.265166
11 -0.819039 1.145362 -3.080725 1.565824 1.208880 -0.037176 -0.369633 -3.422063 -0.034672 0.853806
钱 0.831558 -0.188179 -2.244853 0.357089 1.345996 0.353946 0.815950 -1.639475 1.493654 -0.372707
直接 0.673836 -0.253846 -1.926164 -0.182743 1.378011 1.257301 0.599901 -2.181352 1.020386 -0.920171
无法 0.868071 -1.520386 -1.501724 0.059872 0.664196 0.880434 0.093119 -2.385123 0.241549 -0.572865
旁边 1.247233 -2.593598 -1.656632 0.576701 1.286376 -0.257850 0.837606 -1.027235 1.167924 -0.257510
招待所 1.084813 -3.568898 -1.128403 0.808544 -0.457233 0.038531 0.746062 -1.096146 0.424914 -0.608395
方面 0.548153 -2.179048 -2.096541 0.991079 0.329641 -0.270718 0.691868 -0.653006 0.540806 -0.790649
本来 0.531390 -0.945110 -2.079400 0.632783 0.281691 0.721196 0.698522 -1.874218 0.900822 -0.744967
洗澡 1.211061 -2.883518 -0.844319 -0.231916 0.745189 0.974294 -0.094845 -2.624847 -0.024124 -0.304047
出租车 1.191747 -1.618995 -1.834630 -0.084277 2.185699 -0.115156 0.873367 -0.871730 1.435419 0.001875
升级 0.566465 -0.218478 -1.493330 0.499510 -1.160467 2.186728 1.510471 -3.346659 0.754421 -1.043262
考虑 -0.000605 -1.036190 -2.603362 1.814094 0.514299 -0.827249 0.980270 -0.110833 1.353225 -0.936298
贵 0.748717 -2.227239 -1.537276 1.101307 0.277326 -0.677851 1.228827 -0.897996 1.028771 -0.452148
老 1.005066 -3.669026 -0.906539 0.590883 -0.086872 -0.196335 1.100940 -1.121945 0.459112 -0.439472
火车站 0.971335 -2.596849 -1.505029 0.716353 1.553373 -0.966824 1.138197 -0.086323 1.631280 0.270622
一间 0.706751 -0.577905 -1.066697 0.532958 -0.883792 2.301978 1.299585 -3.229612 0.865257 -1.027997
相当 1.170978 -3.350701 -1.335288 0.811797 0.516709 -0.114080 0.809175 -0.840888 0.792184 -1.093994
值得 0.786004 -2.242058 -2.086820 1.567210 -0.060732 -0.597346 0.838272 -0.335675 1.326699 -1.192786
周围 1.320076 -3.512060 -1.255433 0.717284 1.275264 -0.778739 0.911450 -0.511843 1.061680 0.082573
上海 0.317527 -1.031533 -2.447460 1.164033 0.710360 -0.329895 0.672505 -1.100434 0.995624 -0.561495
员工 0.231561 -0.882170 -3.136661 0.839969 1.324939 -0.282272 0.119709 -1.031901 0.365915 -0.970386
坏 1.358547 -2.337069 -1.006432 -0.566656 0.999005 1.765760 0.078444 -2.927685 0.427725 -1.001491
还会 0.050889 -1.357664 -3.184588 2.690809 0.670816 -1.112913 1.087600 0.167901 1.785840 -1.750865
香港 0.376793 -2.000420 -2.359789 1.452945 0.678658 -0.510777 0.957425 -0.961436 1.262518 -0.559456
联系 -0.846619 1.411902 -4.169574 0.870210 2.059963 -0.112860 0.196166 -2.456004 0.911112 0.072427
打车 0.752352 -1.567073 -1.756246 0.556101 2.375228 -0.899274 0.960905 -0.474256 1.708217 0.362161
五星 0.551476 -2.487116 -2.075777 1.363660 -0.945447 -0.470564 1.551742 -0.882710 0.623878 -0.405669
2007 -1.777400 0.306250 -4.161573 2.898629 1.347580 -1.882171 -0.381750 -2.915196 0.068096 0.981840
速度 1.087044 -0.884796 -1.305387 -0.144779 1.170632 1.318775 0.547545 -2.195274 0.954709 -1.109730
电脑 0.982899 -1.470929 -1.283501 -0.090983 0.246024 1.719430 0.975969 -3.015146 0.797717 -0.852169
几个 0.929627 -1.038846 -1.867116 0.202562 1.367871 0.448536 0.259469 -1.702069 0.718468 -0.432137
隔壁 1.498194 -3.442816 -0.826952 -0.243279 0.597737 0.833796 0.001938 -1.792934 0.136618 -0.529132
服务生 0.962845 -1.000552 -1.751139 -0.080186 1.585246 0.689440 0.181418 -2.001466 0.412942 -0.875988
投诉 0.472170 0.360683 -2.827256 0.073979 1.698765 0.842313 0.313252 -2.181739 0.778870 -0.869078
带 0.439784 -0.913341 -1.905836 0.584611 0.960768 0.461122 0.495607 -1.929830 0.623481 -0.454576
回来 0.876051 -0.232304 -2.280198 -0.010343 1.684259 1.047977 0.013590 -2.509535 0.651338 -0.554209
家 0.529401 -1.765257 -2.209071 1.315616 0.134180 -0.287447 0.870165 -1.021804 0.700823 -0.755310
工作 0.383008 -0.507858 -3.081402 0.999933 1.069712 0.089031 -0.006522 -1.402258 0.581991 -0.742265
尤其 0.940436 -2.984187 -1.339884 0.445993 0.329987 0.359804 0.742557 -1.435067 0.263275 -1.133651
三星 0.814183 -3.102209 -1.589188 1.012548 -0.876335 -0.445915 1.416224 -0.896692 0.478401 -0.328857
走廊 1.436660 -3.432445 -0.908448 -0.284969 0.448314 1.204005 0.344883 -2.510989 0.004863 -0.620420
说明 -0.942928 0.465068 -3.585533 0.984185 1.429144 -0.205481 0.676712 -1.420949 1.276098 -0.394330
确实 0.758549 -2.374196 -1.510508 0.803021 0.230127 -0.082004 0.577764 -1.149647 0.623766 -0.684815
标间 0.948743 -1.307385 -1.025820 0.603240 -0.854516 1.577180 1.652873 -2.658924 0.910289 -0.639983
最差 0.408514 -1.813117 -1.714584 1.267057 -0.547089 -0.291660 0.988102 -0.334909 0.789012 -0.763544
五星级 0.440143 -2.154604 -2.198054 1.365257 -0.251890 -0.713201 1.084436 -1.125252 0.652990 -0.318075
下午 0.434646 0.817644 -2.619775 0.415020 1.590533 0.966373 0.042041 -2.728432 0.568260 -0.287550
整个 1.133451 -2.817328 -1.081242 0.222452 0.284997 0.709914 0.468063 -2.013691 0.064680 -0.647097
水果 1.368768 -0.761160 -1.803681 0.274547 0.917007 0.851119 0.561630 -1.761700 0.766674 -0.679891
店 0.032640 -0.699700 -3.244348 1.648678 0.652853 -0.676744 0.727822 -0.843054 1.029209 -0.518819
行政 0.500358 -0.840845 -1.280932 0.823181 -1.271703 2.065234 1.395536 -3.618963 0.613160 -0.710350
倒 1.145069 -2.223825 -1.225585 0.181184 1.124397 0.284335 0.581440 -1.549385 0.690075 -0.541070
进行 -0.410128 -0.083801 -3.443369 1.348725 0.936656 -0.363943 0.028984 -1.556470 0.207613 -0.400725
信用卡 0.265893 0.900144 -2.639299 0.264179 1.564452 1.379697 0.639706 -2.484182 1.097273 -0.758388
半天 1.030189 -0.312194 -2.117512 -0.273602 1.746180 1.311865 0.174832 -2.553948 0.893758 -0.591700
太小 1.234494 -2.725825 -0.493517 0.301742 -0.116228 0.740086 0.834106 -1.777075 0.396851 -0.572275
车 0.873365 -1.311177 -1.993276 0.076996 1.742676 0.223169 0.711062 -1.362695 1.104707 -0.175181
出差 0.169452 -0.941905 -2.360528 1.436602 0.258058 -0.227293 0.752864 -0.773854 1.044083 -0.678602
打开 1.198275 -2.089664 -1.047477 -0.297083 0.638543 1.320165 0.142640 -2.660429 0.243865 -0.633900
远 0.902465 -2.846936 -1.264682 0.620600 1.118626 -0.697024 0.997453 -0.620641 1.172805 0.129664
睡 1.202039 -2.359243 -1.353394 0.074388 0.451078 0.965292 0.127794 -2.306695 0.184344 -0.591819
打扫 0.978949 -0.776193 -1.155713 -0.405721 1.076222 1.595969 0.176513 -2.188670 0.010292 -1.045780
分 0.063033 -0.323080 -2.764218 1.105148 1.156564 -0.391790 0.212104 -2.115353 0.647138 0.225186
标准间 0.486269 -1.232276 -1.105505 0.788525 -0.873448 1.127938 1.553417 -2.582004 0.618529 -0.436479
主动 0.728962 -0.021555 -2.056094 -0.346969 1.729564 1.092376 0.116670 -1.798191 0.501936 -1.072107
管理 0.394939 -1.391348 -2.278425 0.868289 0.625070 -0.287850 0.481813 -0.778251 0.520086 -0.639813
肯定 0.192984 -1.082769 -2.543119 1.481825 0.617212 -0.437057 0.505086 -0.666151 1.098259 -1.004375
还好 1.127658 -2.182298 -1.128257 0.246675 0.781973 0.234954 0.406458 -1.165128 0.596950 -0.611858
左右 0.331766 0.572640 -2.320089 0.522247 1.677602 0.204833 0.063725 -2.420637 0.895332 0.476632
海景 0.504764 -1.667961 -2.268967 1.389190 -0.055847 0.086024 0.820106 -1.802550 0.691130 -0.535236
没什么 1.312824 -2.323937 -1.375695 0.723807 0.628958 -0.395875 0.415174 -0.899437 0.880891 -0.288437
原因 0.496107 -0.858842 -2.309770 0.610546 0.782048 0.281745 0.661064 -1.284068 0.838829 -0.767244
卫生 1.230865 -3.165725 -1.083920 0.530374 0.208730 0.551753 0.651362 -1.311358 0.391322 -1.305146
出 0.687369 -1.292680 -2.336894 0.564848 1.037032 0.335343 0.407631 -1.936430 0.718574 -0.518927
门 1.312643 -2.793017 -1.092044 -0.388757 0.681449 1.063908 0.146513 -2.272155 0.136808 -0.603135
浴室 1.173650 -3.023074 -1.199486 0.130669 0.184375 0.811472 0.355207 -2.456881 0.182753 -0.489778
设备 0.845380 -3.281237 -0.902628 0.682117 -0.407499 0.379227 0.730697 -1.606649 0.277360 -0.776416
之后 0.595945 -0.653480 -2.058082 0.338604 0.653187 1.050977 0.548112 -2.198608 0.743544 -0.779835
房间内 0.954580 -2.640807 -1.164097 0.221659 0.210791 0.646011 0.659884 -2.087729 0.352053 -0.495633
完全 0.818599 -1.616945 -1.818241 0.771430 0.214387 0.353358 0.437484 -1.407332 0.613780 -0.850574
不知 0.558717 -1.076571 -2.105377 0.488991 0.750459 0.228220 0.614354 -1.631713 0.814272 -0.562940
解决 0.388604 0.019171 -2.663546 0.312607 1.310469 0.469581 0.115063 -1.619234 0.662408 -0.745300
床单 1.163343 -2.353676 -1.049002 -0.071523 0.515269 1.151927 0.359071 -2.323967 0.271621 -0.775051
办法 1.409552 -0.758914 -1.608342 -0.589074 1.309577 1.241772 0.148454 -2.139023 0.843021 -1.075623
套房 0.775106 -1.611005 -1.325321 0.782284 -0.724874 1.325902 1.447458 -2.597330 0.735038 -0.770750
大酒店 -0.289969 -0.568954 -3.058731 1.907381 0.228413 -0.571207 0.556056 -1.193762 0.962776 -0.341006
整体 0.925788 -3.100496 -1.092621 0.949023 -0.235711 -0.097728 0.755910 -0.875766 0.301118 -1.029193
房费 0.495944 0.021266 -2.383047 0.512796 1.270790 0.617939 0.645367 -2.141078 1.244322 -0.326729
脏 1.334970 -3.553495 -0.763500 0.250892 0.210391 0.639895 0.534472 -1.774910 0.357038 -0.804971
缺点 1.389625 -2.704715 -0.855060 0.176935 0.506695 0.352195 0.632926 -1.339939 0.673305 -0.565573
这是 0.438819 -0.838633 -2.113302 0.648713 0.577535 0.117131 0.687208 -1.062233 0.849267 -0.545761
改进 0.192464 -0.412562 -2.957699 1.107856 0.608848 -0.362183 0.137990 -0.700779 0.662827 -0.516603
每次 0.507583 -0.982876 -2.156767 0.971235 0.360570 0.312911 0.770012 -1.274977 0.890057 -0.680409
一张 1.162271 -1.262357 -1.253778 -0.012067 0.396040 1.588178 0.785817 -2.821134 0.653351 -0.729626
被子 1.492603 -2.401236 -1.407785 -0.058651 0.638266 1.115270 0.202125 -2.354086 0.405362 -0.989549
效果 1.692774 -4.226634 -0.573212 -0.097391 -0.035589 0.875569 -0.095546 -1.506007 0.364293 -0.641246
意见 -0.752643 0.902500 -3.879739 1.613034 0.921414 -0.726249 -0.113670 -1.285605 0.385812 -0.012960
事情 0.347973 -0.255229 -2.517838 0.835046 0.840841 0.389161 0.267594 -1.684832 0.811367 -0.773436
估计 0.517292 -1.405096 -1.741293 0.625870 0.476345 0.189119 0.380378 -1.419405 0.597297 -0.500479
门童 1.059821 -1.493873 -1.632305 -0.073688 1.632116 0.680422 0.372519 -1.542970 0.511185 -1.150054
算是 0.895918 -2.869288 -1.395925 0.981420 0.020926 -0.470621 1.136133 -0.777665 0.875897 -0.530011
对面 1.035219 -2.765817 -1.749963 0.769294 1.086767 -0.388054 0.814634 -1.061392 0.920800 -0.307078
号 -0.868881 1.128113 -2.986971 1.806827 0.872823 -0.303862 0.183094 -2.415858 0.566717 0.652536
办理 0.301164 0.643465 -2.373796 0.258447 1.360968 1.393754 0.443948 -2.158235 0.636877 -1.028115
冷 1.028053 -1.693741 -1.284955 -0.085306 0.820365 0.834606 -0.110869 -2.302639 0.136871 -0.435666
洗手间 1.368172 -3.579061 -0.957895 0.096247 0.117494 0.955456 0.543517 -2.307492 0.080810 -0.792562
原来 0.768782 -1.383752 -1.798082 0.462820 0.446844 0.646184 0.578962 -2.134233 0.599839 -0.496028
接待 0.654847 -0.513734 -2.070037 -0.167934 1.750791 0.805019 0.201950 -1.632497 0.492171 -1.411134
如家 0.193502 -1.380474 -1.995098 1.192484 0.114897 -0.450855 1.026763 -0.728281 0.842755 -0.421883
半夜 1.044141 -1.910311 -1.445593 0.002060 0.814420 0.946996 0.013881 -2.371674 0.287424 -0.447201
到达 0.173435 0.337180 -2.099264 0.293205 1.509153 0.579257 0.444444 -1.904137 0.736584 -0.189169
前 0.313210 -0.340108 -2.487254 0.866597 0.885982 0.367144 0.366958 -1.919786 0.811410 -0.411400
check 0.766480 -0.147405 -2.104755 -0.010601 1.422733 1.172647 0.266233 -2.376998 0.742693 -0.882369
很近 0.832076 -2.352998 -1.787673 0.773538 1.313098 -0.659392 1.037380 -0.687426 1.314716 -0.068694
站 0.926776 -1.209247 -2.312245 0.196715 1.903640 0.205486 0.503701 -1.656489 1.132316 -0.134370
光临 -0.449000 0.554862 -3.963230 2.077670 0.878441 -0.740658 -0.030454 -1.100878 0.841927 -0.582147
舒适 0.974129 -2.897273 -1.251105 0.781998 -0.198802 0.287182 0.952775 -1.286630 0.380309 -0.870966
一股 1.323240 -3.264897 -0.654430 0.027657 0.012828 1.260839 0.566039 -2.473770 -0.022920 -0.516966
进 0.779916 -1.477954 -1.217101 0.105386 0.479320 1.076326 0.411385 -2.245742 0.130511 -0.508047
找到 1.013349 -0.992054 -1.818485 -0.189928 1.407242 0.693079 0.443347 -1.840192 0.828590 -0.647840
司机 1.054902 -0.751630 -2.085663 -0.186951 1.841694 0.525582 0.610651 -1.179688 1.293503 -0.429798
期间 -0.166732 0.188912 -2.845303 1.299166 0.680634 -0.024041 0.527149 -1.640649 0.801280 -0.212918
丰富 1.705976 -2.769436 -1.281577 0.870575 0.767798 -0.590788 0.722058 -1.021814 0.917305 -0.582360
出门 1.068101 -1.987487 -1.722623 0.359377 1.683532 -0.237243 0.655100 -0.886407 1.231118 -0.214707
很快 0.957266 -0.659629 -1.679064 -0.237370 1.400697 1.133757 0.269909 -1.973838 0.697341 -1.124712
以前 0.199153 -1.060196 -2.064451 1.050964 0.133276 -0.109608 0.560420 -0.912155 0.801248 -0.658244
之前 0.019921 0.243618 -2.423501 0.969978 0.757701 0.218082 0.522775 -1.504173 0.772250 -0.444622
使用 0.586204 -1.006795 -1.604704 0.322118 1.004746 0.595772 0.404434 -1.917902 0.800427 -0.611038
晚 0.575448 -0.298820 -1.754974 0.480385 0.920747 0.426562 0.685993 -1.828840 0.764886 -0.157003
距离 0.716301 -2.228192 -1.559380 0.731709 1.074006 -0.676467 0.903291 -0.600242 1.072749 0.121774
影响 0.405731 -1.078738 -2.344157 0.651302 0.932709 0.198824 0.401093 -1.567181 0.619449 -0.408663
条件 0.752163 -2.544384 -1.526995 0.823584 0.035529 -0.006191 0.950482 -0.937523 0.749392 -0.697150
放 1.085313 -1.690805 -1.283910 -0.172179 1.047912 0.860133 0.255568 -2.286023 0.511375 -0.355965
收 0.488644 0.175245 -2.321733 0.437863 1.346531 0.389151 0.643195 -1.964034 1.197053 -0.087942
价钱 0.683746 -2.262511 -1.634932 0.924641 0.168921 -0.360913 1.118928 -0.897721 1.124861 -0.541609
真 0.638250 -1.373303 -2.034625 0.549895 0.720934 0.011982 0.370938 -1.134960 0.811556 -0.535454
遇到 0.253243 -0.591945 -2.284267 0.816489 0.487912 0.178748 0.469219 -0.977236 0.825510 -0.762773
每天 0.820424 -0.823209 -1.735117 0.515487 0.873823 0.245892 0.499642 -1.878222 0.787011 -0.054635
解释 0.594078 -0.180280 -2.371051 0.192376 1.460772 0.732535 0.468444 -1.931908 0.833205 -0.795390
买 1.118848 -1.343665 -1.886069 0.123290 1.663360 0.087095 0.467391 -1.395304 1.051305 -0.421266
太差 0.826286 -2.125150 -1.057516 0.673844 -0.187564 0.140229 0.314359 -0.763349 0.459601 -0.684271
温馨 0.860129 -2.354198 -1.339759 0.859615 0.135339 0.309880 0.763434 -1.547435 0.289257 -0.855982
十分 0.574547 -1.675531 -2.098096 0.729163 1.228006 -0.215219 0.582698 -1.111573 0.712843 -0.636373
一晚 0.443008 -1.073597 -2.018388 0.982815 0.310735 0.371617 0.594494 -1.695992 0.805380 -0.401233
只好 0.757614 -0.417527 -2.238012 0.106092 1.257432 0.820188 0.330480 -2.125800 0.933747 -0.379462
特色 0.888778 -1.758942 -1.573556 0.973148 0.085096 0.253934 0.513118 -1.465347 0.706436 -0.655456
所谓 0.753581 -1.530675 -1.598579 0.731934 -0.399433 0.580055 0.846394 -1.916718 0.603249 -0.381860
有人 0.828277 -1.217454 -1.943864 0.215548 1.122483 0.556867 0.233850 -1.933306 0.590039 -0.522304
休息 0.586823 -0.947854 -1.635223 0.300723 0.855121 0.318668 -0.000047 -1.551729 0.371052 -0.300025
质量 0.964925 -2.691636 -1.360906 0.731829 0.311711 -0.191452 0.490058 -1.202457 0.610458 -0.393150
普通 0.719895 -1.727081 -1.122889 0.808248 -0.625997 0.892657 1.276538 -2.046815 0.723112 -0.570846
消费 0.583314 0.131341 -2.309245 0.425698 1.595220 0.516694 0.664305 -1.913963 1.098925 -0.302876
不太 0.967809 -2.388644 -0.947714 0.069781 1.012771 0.055155 0.567210 -0.985329 0.600529 -0.425685
同事 0.375665 -0.495114 -1.940528 0.751119 0.669750 0.389299 0.525855 -1.702279 0.681903 -0.546870
过来 0.694845 -0.200171 -2.084286 -0.026939 1.641993 0.689740 0.384677 -1.873903 0.775902 -0.555191
停车 0.743959 -1.164373 -1.576040 0.335331 1.055700 0.127177 0.551362 -0.948550 1.029331 -0.411961
处理 0.464868 0.094183 -2.538300 0.269683 1.324621 0.808499 0.169381 -2.019323 0.674290 -0.818635
中午 0.210245 0.215392 -2.420316 0.376896 1.655690 0.431121 -0.016562 -2.314629 0.432899 -0.112829
噪音 0.720707 -2.377504 -1.215037 0.595265 0.247800 0.146273 0.124016 -1.658125 0.201146 -0.240553
马路 0.969731 -2.531289 -1.013931 0.388935 0.562636 0.329724 0.416593 -1.619863 0.488977 -0.207635
淋浴 1.151945 -2.999211 -0.886660 0.013807 0.435716 0.832071 0.133004 -2.089762 0.172179 -0.572187
一位 0.445550 -0.088495 -2.446415 0.357281 1.502813 0.390765 0.233780 -1.670832 0.674898 -0.659532
市中心 0.904196 -2.801570 -1.426962 0.731588 1.255941 -0.704535 1.091626 -0.394562 1.179671 -0.098615
接受 0.516857 -0.886800 -1.987352 0.589022 0.530066 0.334236 0.705994 -1.408730 0.837930 -0.655026
行 0.802779 -1.898742 -1.070759 0.616210 0.422516 0.138202 0.584842 -1.036553 0.646290 -0.703400
极差 1.074288 -2.078495 -0.942031 0.104959 0.461024 0.656022 0.175325 -1.399608 0.299035 -0.600181
取消 0.094159 0.397958 -2.767705 0.699122 1.057311 0.511891 0.659209 -1.554265 1.118465 -0.670202
不足 0.883278 -1.977700 -1.424796 0.320172 0.651654 0.148592 0.599093 -1.620909 0.484332 -0.310767
市区 0.515785 -1.536824 -2.078899 0.987006 1.110836 -0.531486 0.971833 -0.870147 1.289939 0.040741
浴缸 1.004012 -2.686984 -0.772789 -0.059747 0.278001 0.951643 0.225176 -2.066130 0.080307 -0.406502
印象 0.237618 -1.533860 -1.935048 1.164438 0.685761 -0.520701 0.341523 -0.976776 0.799495 -0.539714
确认 0.453808 0.615440 -2.455763 0.377689 0.955675 1.352388 0.737588 -2.408740 1.116008 -0.902728
自助 1.141284 -1.650029 -1.513817 0.887802 1.014461 -0.746004 0.364513 -1.142618 0.902681 0.134621
楼下 0.812575 -2.118373 -1.514390 0.489793 0.942977 0.035354 0.482644 -1.524598 0.691504 -0.255015
优点 0.879017 -2.336928 -0.959409 0.469067 0.650426 -0.337959 0.876643 -0.634222 0.708413 -0.222880
清楚 0.835270 -1.221615 -1.387110 0.042074 1.033957 0.723274 0.186734 -1.703017 0.688474 -0.665427
坐 0.823453 -1.146979 -2.099541 0.452278 1.504909 0.141472 0.476627 -1.569451 1.084754 -0.236847
工作人员 0.547262 -0.573675 -2.054302 0.398498 1.065657 0.672456 0.422966 -1.740004 0.631814 -0.888051
网上 -0.069263 0.020122 -2.215389 1.100390 0.172201 -0.007575 0.774721 -1.173868 0.989272 -0.368717
整洁 1.027990 -3.149892 -0.750195 0.470812 0.208875 0.390601 0.852642 -1.363990 0.351632 -0.931482
― 0.056383 -0.837724 -2.460426 0.678592 0.776783 -0.205239 0.610762 -1.586430 0.892931 0.008687
刚 0.546927 -1.099592 -1.691993 0.547831 0.454014 0.685723 0.525072 -1.900728 0.406864 -0.422750
面积 0.987932 -2.546848 -1.191777 0.583764 -0.200220 0.890326 1.022141 -2.453673 0.375058 -0.514267
北京 0.231236 -0.991336 -1.727403 1.099702 0.629544 -0.536441 0.560788 -0.623464 0.960658 -0.423314
步行 0.550228 -1.020821 -1.982482 0.460612 2.172375 -0.632612 0.709177 -1.101853 1.690914 0.912778
过去 0.594753 -0.590164 -1.742109 0.212379 1.187330 0.434800 0.441139 -1.532936 0.888532 -0.504252
有个 0.876921 -2.002342 -1.600619 0.388982 0.765018 0.225050 0.461927 -1.432690 0.592679 -0.521563
两天 0.284847 -0.297603 -2.062427 0.975003 0.456017 0.348786 0.600416 -1.628573 0.818372 -0.374165
是否 0.578594 -0.192213 -2.289651 0.157108 1.244031 0.957814 0.459321 -1.959891 0.827723 -0.700694
明显 0.600397 -1.966532 -1.635601 0.559172 0.337213 0.411314 0.567317 -1.785264 0.334799 -0.532876
洗 1.049255 -1.743735 -1.364382 -0.188751 0.943639 0.806130 0.108381 -1.817788 0.425011 -0.694148
机会 0.074637 -0.866482 -2.623706 1.457867 0.558187 -0.595824 0.498867 -0.345193 1.139363 -0.937904
网络 0.504575 -1.037888 -1.606362 0.269684 0.500709 0.685493 0.509511 -1.624415 0.608189 -0.644557
25 -0.356189 0.744531 -2.579005 1.392102 1.093229 -0.380011 -0.002310 -1.818527 0.696514 0.557759
睡觉 0.916113 -1.646616 -1.459363 0.122979 0.762357 0.586801 -0.023101 -2.134764 0.215396 -0.300469
快 0.616696 -0.890411 -1.738551 0.383026 1.180627 0.526843 0.343047 -1.882813 0.666451 -0.368198
登记 0.368334 0.120378 -2.229726 0.195256 1.357159 0.924077 0.388544 -1.859841 0.521962 -0.874480
换房 0.795864 -0.579989 -1.537049 -0.127995 0.929727 1.288267 0.377063 -2.259411 0.474966 -0.901404
水平 0.759081 -2.273839 -1.355970 0.657352 0.150688 -0.155154 0.687793 -1.077546 0.479479 -0.594650
霉味 0.999859 -2.685778 -0.805216 0.153566 -0.139581 1.049678 0.458881 -2.262170 0.103056 -0.610039
低 0.656501 -1.902283 -1.380892 0.736277 0.103453 0.036864 0.955132 -1.167122 0.781633 -0.678993
地铁 0.768818 -1.839527 -1.680416 0.622014 1.486969 -0.512570 0.778892 -0.783508 1.234409 0.019702
到位 0.590729 -1.923169 -1.471856 0.721236 0.671164 -0.106854 0.389834 -0.858907 0.496137 -0.871261
刷卡 0.270036 0.260666 -2.517311 0.325332 1.620460 0.594031 0.307861 -2.081675 0.772207 -0.444790
介绍 0.390683 -1.038601 -1.966690 0.908328 0.701421 -0.046859 0.804746 -0.934354 1.015042 -0.604119
期待 -0.619645 0.631712 -3.625390 1.761596 0.663093 -0.401211 -0.100395 -1.321549 0.687486 -0.322820
意识 0.381377 -1.831864 -1.847506 0.610044 0.893368 -0.118757 0.162683 -0.763029 0.443500 -0.869647
离开 0.040574 0.047507 -2.268378 0.672582 1.196207 0.059265 0.181614 -1.656835 0.500552 -0.180327
马桶 0.913724 -2.717331 -0.952729 0.169625 0.527022 0.572308 0.183121 -1.893913 0.356718 -0.597406
中心 0.747506 -1.498803 -1.657395 0.325771 0.796956 0.132461 0.622461 -1.262261 0.693706 -0.353141
菜 1.346218 -1.240587 -1.739877 0.052403 1.331530 0.094136 0.073782 -1.434552 0.762476 -0.387423
便利 0.867625 -2.972817 -1.215990 0.950907 1.296829 -0.574927 1.049133 -0.289931 1.670179 -0.009215
城市 0.386059 -1.826329 -2.116647 0.925609 0.466229 -0.459340 0.647076 -0.958047 0.771775 -0.365102
回 0.593318 -0.493862 -2.046078 0.336428 1.022051 0.451991 0.359192 -1.809111 0.610521 -0.597062
听 0.844730 -1.438843 -1.430219 0.083939 0.772672 0.618352 0.273595 -1.372178 0.624600 -0.679981
一楼 1.001673 -1.650746 -1.199220 0.145423 0.892975 0.452426 0.651606 -1.744944 0.561794 -0.405119
停车场 0.907461 -2.132398 -1.332773 0.498155 0.523872 0.161853 0.547047 -1.297848 0.668442 -0.572475
提前 0.199135 0.404487 -2.111815 0.430322 1.175687 0.480873 0.283387 -1.537502 0.854668 -0.479421
地点 0.755264 -2.438766 -1.328409 0.572975 0.848704 -0.322411 0.757403 -0.847528 0.658917 -0.352529
手续 0.132897 0.684816 -2.169812 0.472966 0.985895 1.022322 0.434859 -1.851135 0.583907 -0.622959
购物 0.826362 -2.598104 -1.821716 0.798781 1.580972 -0.723378 1.063777 -0.669941 1.244157 -0.061655
好象 0.810136 -1.554394 -1.486664 0.455911 0.761057 0.090252 0.425764 -1.310656 0.655969 -0.466094
不住 0.373724 -0.959492 -1.701248 1.001209 0.410637 -0.221625 0.418152 -0.443453 0.850205 -1.019260
简单 0.796894 -1.953375 -0.905775 0.362253 0.216393 0.155031 0.364478 -1.058253 0.449945 -0.539963
锦江 0.257217 -1.205153 -2.006835 1.193336 0.168632 -0.461682 0.647737 -0.792099 0.888518 -0.261026
适合 0.580850 -1.797060 -1.518706 0.768211 0.477498 -0.084199 0.628881 -1.145379 0.613907 -0.274019
当天 0.370946 0.046771 -2.213927 0.421687 1.122119 0.580747 0.376138 -1.794247 0.695024 -0.374745
不行 0.911680 -1.605710 -1.362578 0.030207 0.863839 0.704085 0.478693 -1.729212 0.698785 -0.600433
酒店设施 0.657981 -2.254446 -0.913677 0.501714 0.111794 0.050291 0.704852 -0.755574 0.397889 -0.427872
块 0.461353 -0.445631 -1.991027 0.578318 1.308343 -0.046142 0.401151 -1.805916 0.990566 0.198645
注意 0.397928 -0.343030 -1.970769 0.277283 1.012971 0.429914 0.407190 -1.428687 0.656234 -0.517671
周到 0.590298 -1.886982 -1.722426 0.603300 0.830920 0.063287 0.488809 -1.052536 0.548914 -1.024379
住宿 0.317216 -1.179142 -1.750130 0.884380 0.486831 -0.151051 0.386612 -1.020532 0.475575 -0.358487
不算 0.718170 -2.310046 -1.183661 0.630125 0.189706 -0.152268 1.039200 -1.031583 0.876214 -0.367586
得到 0.328498 -0.593735 -2.151770 0.602942 0.900509 0.180031 0.258221 -1.369002 0.707666 -0.603233
飞机 0.547069 -0.380803 -2.001021 0.221771 1.237760 0.463390 0.015700 -1.855398 0.457479 -0.188795
郁闷 0.405354 -0.773920 -1.538204 0.645962 0.612139 0.241639 0.149211 -1.263793 0.785196 -0.561562
简陋 0.974087 -2.945079 -0.887435 0.424165 0.121068 0.190302 0.386017 -1.483409 0.325828 -0.553432
24 -0.511126 0.071857 -1.932293 1.234436 0.594535 -0.410799 -0.039361 -1.994431 0.177679 0.444406
是不是 0.735354 -0.708731 -1.930588 0.088951 0.838611 0.638963 0.466309 -1.387169 0.815491 -0.707961
周边 0.841732 -2.581486 -1.268526 0.765259 0.899015 -0.600718 0.708734 -0.644210 0.834529 -0.192237
主要 0.684369 -1.865233 -1.240251 0.736474 0.513413 -0.130800 0.656719 -0.588095 0.811576 -0.546566
反映 0.160996 -0.071439 -2.375753 0.460297 0.916793 0.232038 0.228210 -1.319672 0.480969 -0.514476
公司 0.432695 -0.964144 -2.468843 0.966316 0.796934 -0.014498 0.740967 -1.404837 0.999026 -0.473280
点多 0.299157 -0.229504 -1.756371 0.413758 1.134405 0.356453 -0.101043 -2.101097 0.174531 0.185642
听到 1.224299 -2.274283 -0.948551 -0.304675 0.854215 0.945228 0.038877 -1.805612 0.320743 -0.510510
象 0.782380 -1.904147 -1.530865 0.474790 0.469160 0.203295 0.409368 -1.603644 0.398691 -0.430705
通知 0.287737 0.437378 -2.292363 0.151148 1.441494 0.714213 0.299363 -2.067304 0.721636 -0.430677
房卡 0.758702 -0.621789 -1.716180 -0.022961 1.222205 0.887862 0.231893 -1.821406 0.530347 -0.733226
回答 0.754940 -0.518912 -1.622181 -0.091470 1.065168 1.031330 0.309447 -1.858317 0.720275 -0.887079
宽敞 0.941771 -2.582330 -0.816425 0.483416 -0.015204 0.554215 0.971772 -1.588156 0.273469 -0.644549
路 0.555255 -1.222715 -1.957134 0.590197 1.309841 -0.280859 0.564352 -1.215424 1.057236 -0.010633
开门 0.660414 -0.932808 -1.589829 -0.179751 1.215198 0.772990 0.033237 -1.767066 0.402554 -0.581778
弄 0.809856 -1.441722 -1.607325 0.466660 0.689996 0.523259 0.402325 -1.794362 0.637340 -0.566836
层 0.207734 -0.737363 -1.608352 0.991753 0.036743 0.417762 0.398622 -2.072212 0.425317 -0.084426
更好 0.147998 -0.636193 -2.134734 1.086497 0.577689 -0.249071 0.239247 -0.547128 0.780760 -0.791377
字 0.760973 -1.809729 -1.443972 0.748523 0.283823 0.137736 0.150468 -1.111743 0.811894 -0.754099
糟糕 0.450655 -1.703289 -1.394702 0.801486 0.271485 0.087585 0.300071 -1.202603 0.469370 -0.563694
早 0.647441 -0.737447 -1.719261 0.503724 0.877586 0.119753 0.372844 -1.448428 0.759249 -0.217539
后面 0.689240 -1.081785 -1.435101 0.331936 0.795749 0.306060 0.358591 -1.408306 0.608592 -0.400652
热 0.821928 -1.136230 -1.369031 -0.073647 1.039123 0.616833 -0.083512 -1.941202 0.371483 -0.226363
空间 0.958480 -2.418507 -0.881815 0.493601 -0.016409 0.653170 0.644653 -1.663800 0.447040 -0.666588
事 0.622505 -0.491698 -2.102507 0.221411 1.221237 0.537891 0.170362 -1.873241 0.606219 -0.451209
够 0.725509 -1.936839 -0.909850 0.484581 0.170911 0.301137 0.713600 -1.325254 0.364069 -0.467806
提醒 0.366573 -0.660323 -2.073840 0.504093 1.029491 0.206405 0.281068 -1.503055 0.666562 -0.442522
准备 0.594075 -0.703370 -1.732003 0.314794 0.778340 0.538149 0.330574 -1.761147 0.517063 -0.532818
几次 0.658833 -0.955263 -1.714089 0.452579 0.641861 0.377836 0.471523 -1.312331 0.661693 -0.707199
国际 0.104105 -0.728581 -2.490052 1.183087 0.589883 -0.256077 0.617947 -1.303378 0.808937 -0.200521
旅游 0.248295 -1.096903 -2.041754 0.984978 0.608394 -0.328447 0.555676 -1.059493 0.778661 -0.231110
我订 0.595207 -1.052490 -0.930966 0.360031 -0.192630 1.164098 0.942014 -2.011512 0.515512 -0.583559
结账 0.433713 -0.295459 -2.177243 0.230143 1.433257 0.575024 0.132935 -1.927256 0.702062 -0.375743
发生 0.201765 -0.341393 -2.506523 0.834245 0.858047 0.016216 0.241515 -1.555725 0.605200 -0.476545
不想 0.567380 -0.952917 -1.846659 0.620219 0.724853 0.128649 0.382810 -1.241758 0.886736 -0.547402
电视机 0.763438 -2.136389 -1.166089 0.357735 0.206417 0.487190 0.578151 -1.758068 0.436259 -0.394079
及时 0.362359 -0.426503 -2.197734 0.524683 1.050988 0.236039 0.186060 -1.486151 0.364302 -0.480942
搞 0.561937 -0.756821 -1.676934 0.333632 0.794875 0.436093 0.304067 -1.507947 0.663752 -0.610223
培训 0.346270 -0.892289 -2.334613 0.699012 0.907859 -0.176596 0.080063 -0.796439 0.373883 -0.717009
规定 0.241569 -0.120040 -2.389907 0.537262 1.273896 0.274076 0.303928 -1.822513 0.808368 -0.403827
价位 0.651702 -1.969232 -1.631919 1.026167 0.323124 -0.440283 0.852626 -0.791661 0.795994 -0.446801
不太好 1.022158 -2.386388 -0.899502 0.176378 0.497036 0.214241 0.424795 -0.944773 0.457022 -0.494055
稍微 1.006641 -2.015271 -1.089054 0.368913 0.284454 0.235862 0.450869 -1.326055 0.362320 -0.509684
家具 0.787506 -3.151113 -0.819428 0.484100 -0.069589 0.250199 0.548661 -1.763668 0.025447 -0.422107
地段 0.600160 -1.943418 -1.300945 0.803760 0.532951 -0.382415 0.781725 -0.705770 0.864711 -0.298245
前面 0.482981 -1.080076 -1.623964 0.584071 0.567439 0.148795 0.353056 -1.229644 0.508542 -0.503626
携程网 -0.273445 0.185288 -2.252723 1.015020 0.416597 -0.112187 0.524452 -1.187644 0.645257 -0.357918
游泳池 0.795965 -1.918942 -1.407923 0.379321 0.486565 0.340550 0.451782 -1.607571 0.442127 -0.422201
跑 0.910611 -0.959849 -1.572862 0.080796 1.150343 0.641239 0.317647 -1.605116 0.658299 -0.582536
挂 0.747546 -1.559716 -1.456861 0.178798 0.508965 0.473732 0.476215 -1.655788 0.490540 -0.409229
三星级 0.526901 -1.755203 -1.403898 0.757248 -0.042497 -0.023461 0.740579 -1.059681 0.317162 -0.367768
礼貌 0.710120 -1.014260 -1.498178 0.030009 1.080212 0.549177 0.239834 -1.290373 0.374886 -0.956781
实际 0.422530 -1.002066 -1.669122 0.774186 0.276592 0.032712 0.703507 -1.085242 0.736993 -0.289831
看看 0.412774 -0.713401 -2.022268 0.583832 0.736457 0.266524 0.491973 -1.473969 0.710146 -0.530327
合作 -0.952426 0.636560 -3.983792 1.341151 1.243237 -0.732930 0.560170 -1.441955 1.223928 0.223978
押金 0.555106 -0.024859 -2.185379 0.245249 1.295259 0.779680 0.395188 -1.964171 0.820008 -0.513456
授权 0.396461 0.541618 -2.619411 0.436205 1.661519 0.836224 0.314784 -1.959093 1.127131 -0.454709
相对 0.619924 -2.255250 -0.962085 0.719100 0.079951 -0.217913 0.869730 -0.798680 0.547358 -0.420952
厕所 0.922926 -2.125121 -1.047213 0.078904 0.416961 0.646732 0.213964 -1.686889 0.369770 -0.581008
内部 0.560419 -2.167390 -1.179890 0.648097 0.116200 -0.009045 0.491068 -1.006329 0.370733 -0.516621
不便 0.188732 -0.702844 -2.261055 1.050974 0.868560 -0.377613 0.317149 -0.901172 0.700446 -0.013127
100 0.555681 -0.561802 -1.539623 0.574510 0.544326 0.201255 0.807996 -1.113513 1.075945 -0.303615
那天 0.475533 -0.745005 -1.964487 0.506434 1.018065 0.388716 0.214924 -1.724657 0.651582 -0.337667
加 0.885737 -0.898005 -1.297673 0.054892 0.705927 0.663220 0.435773 -1.964608 0.562745 -0.232420
询问 0.537309 -0.057096 -1.851151 -0.018667 1.321013 0.888185 0.310000 -1.988347 0.625003 -0.649565
发票 0.473214 -0.184293 -2.019883 0.048787 1.326716 0.513544 0.260416 -1.757077 0.641814 -0.510047
不用 0.795461 -0.927885 -1.594307 0.315774 0.991917 0.537293 0.389016 -1.529093 0.905465 -0.748959
写 0.266488 -0.514722 -2.102038 0.727933 0.860467 0.165344 0.483267 -1.444181 0.703149 -0.368156
千万 0.475141 -0.975590 -1.822270 0.887220 0.297517 0.049432 0.472551 -0.755040 0.993077 -0.698134
顾客 0.365869 -0.825815 -2.168007 0.628708 0.929847 0.034769 0.357206 -1.391584 0.530336 -0.576503
一句 0.508590 -0.330891 -1.962520 0.245351 1.061174 0.319688 0.315652 -1.405595 0.791011 -0.488165
交涉 0.562366 -0.626243 -1.958548 0.192081 0.896561 0.800080 0.574092 -1.850830 0.678228 -0.750728
超市 0.942996 -2.150216 -1.213122 0.446360 1.184599 -0.378263 0.512577 -0.661742 0.857608 -0.170658
设计 0.853335 -2.336367 -1.098006 0.389988 0.317412 0.238690 0.445968 -1.617885 0.129997 -0.406776
正在 0.443378 -0.919047 -1.568482 0.392548 0.734664 0.253646 0.191444 -1.541470 0.261525 -0.222734
住店 0.322661 -0.460280 -2.409217 0.836311 1.037651 0.056902 0.298170 -1.460679 0.786625 -0.477331
凌晨 0.370095 -0.382789 -1.916023 0.618028 0.887901 0.436302 0.236480 -2.022742 0.393390 -0.180608
感到 0.360346 -0.938301 -1.957981 0.638535 0.612610 0.156361 0.302334 -1.359938 0.534349 -0.616490
能够 -0.066694 -0.088724 -2.473686 1.000490 0.371289 -0.170269 0.493199 -1.011080 0.706792 -0.332921
宝贵意见 -0.428198 0.259917 -3.271044 1.485710 0.634288 -0.547593 0.075614 -1.104494 0.450714 -0.112258
没想到 0.155200 -1.028177 -1.676296 0.679988 0.256281 0.139266 0.315075 -1.188571 0.610611 -0.491187
严重 0.549520 -1.409071 -1.755654 0.408680 0.652831 0.221114 0.313422 -1.660754 0.451075 -0.295731
保安 0.655089 -0.919125 -1.709760 0.164248 1.304118 0.379061 0.207538 -1.671122 0.639479 -0.456611
一条 0.768720 -1.594731 -1.553174 0.323477 0.749715 0.287031 0.467924 -1.619421 0.698050 -0.275436
尊敬 -0.784811 0.416394 -3.550436 1.862833 0.926518 -0.959912 0.168277 -1.882015 0.428747 0.358381
宾客 -0.567853 0.083952 -3.520895 1.789631 0.943401 -0.819201 0.235203 -1.750183 0.507524 0.129479
这点 0.528242 -0.935407 -1.655935 0.444851 0.610929 0.325052 0.452837 -1.423138 0.698670 -0.463770
不值 0.658609 -1.327569 -1.139291 0.734071 0.101952 -0.014859 0.568495 -0.809389 0.913315 -0.611344
不远 0.710209 -1.768917 -1.536928 0.680816 1.186136 -0.520685 0.642563 -0.715176 1.128762 -0.135327
刷 0.446470 -0.188996 -2.169048 0.320828 1.296628 0.616748 0.360789 -1.951287 0.773962 -0.530692
不爽 0.679134 -0.771057 -1.538215 0.584970 0.550699 0.496190 0.275425 -1.424251 0.681466 -0.566147
反正 0.498015 -1.394762 -1.658548 0.719148 0.387351 0.066914 0.368824 -1.023549 0.732422 -0.632975
水准 0.495688 -1.922715 -1.733827 0.786057 0.230505 -0.178528 0.596856 -1.091099 0.590454 -0.448956
慢 0.706322 -1.204214 -1.159646 0.197431 0.685763 0.568574 0.292156 -1.537829 0.464511 -0.542518
愉快 -0.042359 -0.183849 -2.305652 1.157323 0.490781 -0.117484 0.121664 -1.349808 0.489025 -0.320883
档次 0.585680 -1.946763 -1.444586 0.835680 0.083136 -0.065505 0.766951 -0.928441 0.568514 -0.594769
窗外 0.786722 -1.856518 -1.294883 0.565064 0.392426 0.340480 0.237106 -1.691287 0.386579 -0.289998
地铁站 0.607522 -1.676664 -1.365451 0.532968 1.424324 -0.471789 0.635859 -0.791024 1.243293 0.293715
订房 -0.094264 0.044162 -2.166206 0.901114 0.544578 0.332240 0.706346 -1.466847 0.690295 -0.404171
未 0.349229 -0.738342 -1.814936 0.501635 0.659149 0.362045 0.340226 -1.472571 0.386976 -0.395615
外 0.905794 -1.986176 -1.245096 0.483819 0.502674 0.143701 0.413302 -1.475022 0.406763 -0.342285
一份 0.870106 -0.282719 -1.860576 0.474272 1.209856 0.094260 0.475893 -1.682577 0.886292 0.023463
齐全 0.898944 -2.782360 -1.121559 0.524230 0.131342 0.238628 0.841247 -1.379848 0.568747 -0.591292
专业 0.682147 -1.428143 -1.554732 0.244148 0.889142 0.255489 0.285356 -1.271446 0.360456 -0.778747
素质 0.700411 -1.425731 -1.338067 0.234374 0.667280 0.158135 0.316877 -0.694214 0.524154 -0.870897
您好 -0.870512 0.734277 -3.186844 1.757697 0.681911 -0.864875 -0.028843 -1.412610 0.349776 0.247444
支持 -0.313480 -0.036329 -2.741807 1.403770 0.542836 -0.588212 0.155892 -0.996719 0.533939 -0.134751
很脏 0.944876 -2.515620 -0.954606 0.249570 0.020770 0.643332 0.457678 -1.636265 0.164656 -0.652105
同样 0.427433 -1.091455 -1.712190 0.689598 0.405315 0.189461 0.687072 -1.217379 0.698800 -0.647430
会员 -0.053500 -0.272477 -2.560268 1.012243 0.480187 -0.121886 0.856872 -0.948838 1.046517 -0.412362
道 0.712383 -1.840631 -1.428840 0.319437 0.751934 0.373413 0.322904 -1.709039 0.346028 -0.290197
早饭 0.999978 -1.241834 -1.727083 0.493062 1.133930 -0.129101 0.313307 -1.206102 0.764732 -0.153774
米 0.504357 -0.851515 -1.519009 0.500409 0.701299 0.278063 0.427380 -1.902492 0.707800 0.009877
网站 -0.777742 0.069831 -2.725420 1.468937 0.546786 -0.547232 0.691811 -1.454533 1.162062 0.026334
提高 0.214118 -1.006076 -2.065041 0.819968 0.645463 -0.302744 0.079106 -0.875401 0.389581 -0.456746
海景房 0.389389 -0.966646 -1.493912 0.818871 -0.011597 0.528513 0.640179 -1.540603 0.515369 -0.478516
靠近 0.542787 -1.546933 -1.068795 0.606554 0.656276 -0.069428 0.564227 -0.936699 0.631175 -0.164110
大厅 0.675014 -1.589035 -1.245320 0.370624 0.542943 0.329634 0.378813 -1.554037 0.343957 -0.354603
先 0.535209 -0.335092 -1.859056 0.310181 0.844252 0.693064 0.382416 -1.619510 0.651408 -0.547173
实惠 0.549962 -1.670888 -1.131780 0.670289 0.211901 -0.218893 0.836198 -0.829667 0.637664 -0.307565
自助餐 0.805559 -1.081485 -1.611427 0.563826 0.784319 -0.072664 0.330484 -1.335275 0.704863 -0.117203
也许 0.510565 -0.887405 -1.673181 0.557022 0.699574 0.043225 0.345366 -1.248623 0.556604 -0.455274
表示 -0.151504 0.020407 -2.912310 1.103034 1.098458 -0.297773 0.269295 -1.519166 0.707805 -0.183505
新装修 0.309399 -1.342696 -0.789514 0.690335 -0.219135 0.243012 0.548172 -1.133501 0.148290 -0.425020
相信 0.229584 -0.588500 -2.203647 0.835391 0.596571 -0.087593 0.347016 -0.975311 0.804423 -0.540137
那种 0.728019 -1.723535 -1.500056 0.501447 0.431805 0.504841 0.377211 -1.676331 0.496724 -0.611579
异味 0.784189 -2.278683 -1.145191 0.225878 0.276685 0.578811 0.453155 -1.841680 0.155509 -0.421795
帮忙 0.561076 -0.375133 -1.772767 -0.138268 1.393888 0.726176 0.125992 -1.518599 0.559051 -0.778574
拖鞋 0.771443 -1.346928 -1.428205 0.225864 0.504670 0.504018 0.285490 -1.497538 0.524833 -0.515143
享受 0.441690 -1.006862 -1.732039 0.715214 0.303211 0.065417 0.425589 -1.234962 0.612251 -0.394644
餐饮 0.621777 -1.666303 -1.384935 0.653245 0.367521 -0.192507 0.547240 -0.673254 0.634354 -0.429815
高级 0.586756 -0.819884 -1.099088 0.655217 -0.656716 1.264635 0.826988 -2.278349 0.587717 -0.566156
二楼 0.663176 -1.647299 -1.477518 0.471836 0.686279 0.032468 0.399648 -1.280893 0.548136 -0.350069
青岛 0.417156 -0.946015 -2.539183 1.125412 0.837556 -0.075975 0.491006 -1.623330 0.859435 -0.527188
终于 0.338246 -0.383369 -2.117276 0.556381 1.158190 0.380541 0.187431 -1.919237 0.719114 -0.282025
房型 0.264002 -0.329946 -1.665348 0.698778 -0.073728 0.780235 0.781344 -1.579724 0.697050 -0.642634
出行 0.561895 -1.863704 -1.289009 0.575426 1.147186 -0.523185 0.712418 -0.398187 0.927351 -0.269789
完 0.772035 -0.755344 -1.545696 0.339374 0.997012 0.248815 0.058555 -1.465589 0.588251 -0.338061
至少 0.482457 -0.761271 -1.714521 0.634174 0.577888 0.071052 0.525871 -1.212202 0.698620 -0.236124
重新 0.137881 -0.825719 -1.546202 0.688460 0.417133 0.076362 0.148625 -1.425134 0.135669 -0.212046
单人间 0.558487 -0.979594 -1.111725 0.572778 -0.401725 0.892020 0.861653 -1.838178 0.586195 -0.360987
加强 0.194890 -0.686680 -2.134039 0.775352 0.775097 -0.290979 0.145055 -0.864962 0.441246 -0.537392
周围环境 0.617473 -2.089629 -1.179691 0.612650 0.522845 -0.149076 0.406223 -0.797407 0.546477 -0.409323
14 -0.580362 0.383280 -2.296178 1.258488 0.712713 -0.310321 0.106818 -1.719436 0.413141 0.360030
感受 0.286275 -0.703295 -2.149963 0.998064 0.433925 -0.048122 0.446526 -0.994113 0.702443 -0.511071
总是 0.460958 -0.872566 -1.675182 0.426562 0.678800 0.290039 0.332055 -1.324248 0.508634 -0.548773
样子 0.678160 -1.575925 -1.053203 0.321149 0.338546 0.121969 0.477206 -1.177996 0.330762 -0.189547
可惜 0.632653 -1.584816 -1.564969 0.661093 0.505428 0.119927 0.481086 -1.388525 0.558722 -0.402389
早晨 0.601785 -0.851819 -1.743940 0.410407 0.901243 0.493207 0.257304 -1.816807 0.503835 -0.485855
继续 0.156783 -0.208976 -2.355343 0.966459 0.854741 -0.090695 0.344502 -1.131071 0.835330 -0.457273
蛮 0.882575 -2.162911 -1.187582 0.575509 0.253706 0.097559 0.588719 -1.094999 0.545897 -0.536813
三个 0.505813 -0.994419 -1.544527 0.351578 0.658936 0.353316 0.253580 -1.576892 0.528773 -0.401647
好多 0.569435 -1.143901 -1.571227 0.803316 0.462773 0.009104 0.309449 -1.080113 0.776426 -0.635363
认为 0.315810 -0.970966 -1.920833 0.714369 0.482112 0.020879 0.761151 -1.252859 0.772384 -0.418740
床上 0.857055 -1.700110 -1.279364 0.278084 0.306831 0.600162 0.288434 -1.703460 0.465196 -0.438895
ctrip -0.691977 0.291136 -2.964641 1.451037 0.994603 -0.819397 0.185638 -1.775745 0.490885 0.449729
200 0.397979 -0.710528 -1.652335 0.612860 0.543724 0.021021 0.823848 -1.197171 0.895681 -0.047915
超级 0.838562 -1.793659 -1.087143 0.398686 0.430114 0.331445 0.572229 -1.290789 0.541480 -0.360875
玻璃 0.754081 -2.064540 -1.128222 0.393307 0.298489 0.390172 0.339140 -1.765700 0.258156 -0.238020
16 -0.538335 0.582819 -1.785318 1.096994 0.528762 -0.223745 -0.095968 -1.680775 0.146273 0.499977
第二次 0.407477 -0.595741 -1.431029 0.621368 0.156333 0.433218 0.534633 -0.842990 0.695577 -0.717790
次 0.429685 -0.519607 -1.552683 0.400202 0.707698 0.439668 0.270961 -1.492278 0.628871 -0.450044
安全 0.483411 -1.478752 -1.447894 0.590840 0.512576 -0.017965 0.246760 -1.066228 0.415864 -0.338340
没法 0.706344 -1.433186 -1.182574 0.421058 0.509620 0.257922 0.256093 -1.405106 0.513167 -0.333116
服务质量 0.249915 -1.230954 -1.902994 0.790573 0.528185 -0.262530 0.302033 -0.960835 0.433594 -0.567422
银行 -0.058267 0.294170 -2.527416 0.593125 1.184195 0.068205 0.170249 -1.863448 0.772855 -0.092403
18 -0.292725 0.071464 -1.865492 1.065830 0.553097 -0.206300 0.295047 -1.505522 0.546387 0.246855
不高 0.505749 -1.393831 -0.924739 0.529912 0.238090 -0.075863 0.445816 -0.670731 0.594494 -0.634844
之星 0.364079 -1.334386 -1.793340 1.072423 0.267835 -0.311656 0.694076 -0.816502 0.685897 -0.414342
一看 0.724929 -1.185550 -1.302222 0.222358 0.443681 0.663302 0.409663 -1.861857 0.437164 -0.383614
奇怪 0.526097 -1.088681 -1.503392 0.471771 0.507942 0.228493 0.408221 -1.347815 0.494139 -0.315573
号楼 0.508079 -1.201843 -0.996267 0.374861 0.131588 0.768512 0.614173 -1.572964 0.381805 -0.560209
衣服 0.644515 -0.918248 -1.547945 -0.017935 0.970640 0.542801 0.114527 -1.505733 0.407137 -0.535085
心情 0.304719 -0.586409 -1.774101 0.531492 0.795191 0.142141 0.114195 -1.418339 0.480469 -0.421446
久 0.586090 -0.915016 -1.337673 0.205009 0.857567 0.494481 0.229883 -1.730440 0.418498 -0.321789
经历 -0.164678 -0.264265 -2.457329 1.205966 0.469977 -0.288771 0.182286 -1.105931 0.689611 -0.381404
订单 0.039960 0.096708 -2.071248 0.562798 0.752390 0.382818 0.541909 -1.563368 0.727865 -0.481824
恶心 0.750281 -1.344577 -1.257834 0.271914 0.458445 0.249354 0.186850 -1.112420 0.516644 -0.548373
细节 0.486617 -1.353781 -1.645045 0.682240 0.458560 0.037617 0.378551 -1.172106 0.444300 -0.397696
收到 0.041638 0.084210 -2.178246 0.580874 0.905562 0.265631 0.346644 -1.641753 0.660970 -0.424403
台 0.539675 -1.088943 -1.504668 0.397880 0.654308 0.554200 0.290698 -1.871200 0.414225 -0.423125
送来 0.682261 -0.539372 -1.733768 0.000186 1.241947 0.638285 0.062359 -1.801148 0.490656 -0.466020
更换 0.435610 -0.910521 -1.360852 0.315928 0.442551 0.455462 0.291988 -1.493233 0.296495 -0.426482
蚊子 0.501330 -1.157671 -1.389463 0.440035 0.412413 0.407591 0.148165 -1.770852 0.366653 -0.272017
明明 0.453532 -0.388975 -1.632875 0.384584 0.669583 0.642228 0.557503 -1.402640 0.730944 -0.607259
住客 0.582625 -1.085588 -1.674051 0.427636 0.586214 0.366772 0.328292 -1.484402 0.643019 -0.469871
晕 0.382183 -0.472811 -1.413775 0.310575 0.717868 0.384097 0.149070 -1.364804 0.664189 -0.585188
办事 0.347118 -0.854131 -1.233103 0.463154 0.806330 -0.122579 0.566067 -0.669577 0.608133 -0.236371
留下 0.334368 -1.120988 -2.012144 0.683479 0.736378 0.004601 0.329596 -1.498494 0.596709 -0.365244
不怎么样 0.542112 -1.479902 -0.957118 0.454115 0.292621 0.028454 0.341418 -0.660241 0.390166 -0.631150
进入 0.481261 -1.106691 -1.491046 0.366908 0.639129 0.335525 0.411388 -1.523751 0.423835 -0.401958
半小时 0.639966 -0.485607 -1.583186 0.006727 1.183103 0.614266 0.203919 -1.610153 0.536214 -0.528162
听说 0.428384 -0.991958 -1.519057 0.520775 0.627630 0.233178 0.495084 -1.163167 0.623399 -0.523698
破 0.770143 -1.768914 -1.231057 0.266820 0.388132 0.287866 0.305804 -1.360427 0.417500 -0.340138
令人 0.361591 -1.292041 -1.605942 0.707665 0.283224 -0.050217 0.423147 -1.171486 0.507625 -0.350223
度 0.109205 -0.535043 -1.819516 0.771472 0.900591 0.050794 -0.069455 -1.981809 0.382950 0.083795
温度 0.362372 -0.951345 -1.295251 0.412396 0.609408 0.157408 0.031971 -1.669857 0.350205 -0.124213
经济 0.617459 -1.193420 -1.272549 0.683735 -0.003781 0.405617 0.558992 -1.351665 0.513714 -0.382359
暖气 0.726584 -1.132363 -1.057780 0.149516 0.496968 0.614973 0.129874 -1.534318 0.344648 -0.482541
差点 0.610265 -0.973586 -1.496060 0.412010 0.748455 0.242307 0.163735 -1.273883 0.598240 -0.502602
中央空调 0.646233 -1.272351 -1.200061 0.340381 0.454160 0.516513 -0.023153 -1.698900 0.390268 -0.343646
骚扰电话 0.516776 -1.167369 -1.146863 0.473909 0.472321 0.076667 0.130206 -1.255680 0.431132 -0.201430
符合 0.583785 -1.820916 -1.166290 0.650288 -0.340730 -0.059165 0.866580 -1.016453 0.379338 -0.242783
温泉 0.515624 -1.468910 -1.645094 0.596433 0.638514 -0.049613 0.326463 -1.248852 0.541736 -0.380872
块钱 0.365094 -0.231046 -1.411676 0.540000 0.882573 -0.016784 0.424920 -1.281586 0.844577 0.102864
偏 0.712315 -1.868505 -0.990844 0.417621 0.684480 -0.310755 0.765285 -0.376995 0.825769 -0.109931
无烟 0.408978 -0.345848 -1.076379 0.369518 -0.115615 1.226632 0.443742 -1.975178 0.464310 -0.592147
旅馆 0.421498 -1.218905 -1.443112 0.642477 0.261239 -0.002330 0.398561 -1.005162 0.570323 -0.449354
边上 0.621190 -1.558336 -1.428739 0.566581 0.732666 -0.018918 0.580926 -1.130447 0.664140 -0.249668
号称 0.353942 -1.148841 -1.560325 0.752480 0.085673 0.098116 0.649746 -1.134154 0.483284 -0.373300
50 0.476225 -0.221403 -1.693068 0.417171 0.840849 0.148882 0.623319 -1.324545 1.032387 0.028221
用餐 0.806933 -1.152614 -1.451188 0.351077 1.071270 0.017950 0.259900 -1.239741 0.510106 -0.120510
同意 0.401150 -0.086075 -1.638557 0.289428 0.937849 0.524719 0.451774 -1.629449 0.642952 -0.353734
每个 0.301616 -0.621773 -1.862102 0.662324 0.735338 0.044681 0.378836 -1.405635 0.531542 -0.247931
不敢 0.531812 -1.329594 -1.818081 0.706232 0.561994 0.175874 0.384328 -1.317198 0.636406 -0.586255
40 0.364130 0.092655 -1.923771 0.366591 1.225240 0.189353 0.469525 -1.566191 0.886870 0.247240
真诚 -0.306638 0.008382 -2.755131 1.134920 0.849852 -0.553542 0.210707 -0.937472 0.561681 -0.233343
我要 0.388467 -0.358583 -1.859251 0.491889 0.888664 0.396617 0.408849 -1.643353 0.746466 -0.474398
掉 0.614776 -1.177065 -1.598554 0.377775 0.779191 0.503824 0.322444 -1.647973 0.518295 -0.465943
决定 0.314307 -0.531264 -1.899233 0.725593 0.578764 0.105830 0.380812 -1.213807 0.656937 -0.456393
理由 0.494989 -0.826532 -1.765911 0.659571 0.678196 0.161243 0.349116 -1.197028 0.687940 -0.558274
出现 0.491328 -0.812912 -1.966904 0.416116 0.749726 0.251524 0.258673 -1.391789 0.548018 -0.516676
感谢 -0.104585 -0.134051 -2.083449 0.878697 0.673119 -0.227944 0.099377 -1.071657 0.448837 -0.251596
风景 0.502744 -1.236747 -1.360726 0.747984 0.375149 0.024893 0.380172 -1.129454 0.448104 -0.352353
遗憾 0.405436 -1.034180 -1.451994 0.417014 0.482057 0.026389 0.367114 -0.901455 0.511691 -0.344239
提 0.228471 -0.421992 -1.686174 0.469054 0.664719 0.059135 0.210760 -1.174566 0.383711 -0.207826
几天 0.243043 -0.741964 -1.526925 0.615144 0.467942 0.194197 0.364383 -1.263879 0.517217 -0.323844
放在 0.664950 -1.392442 -1.538972 0.326843 0.717511 0.466304 0.404588 -1.662056 0.596724 -0.328907
卡 0.425818 -0.136237 -1.647557 0.175976 1.084358 0.657456 0.329924 -1.610330 0.731052 -0.631573
道歉 0.264880 -0.185345 -2.247606 0.647513 1.069579 0.066851 0.291683 -1.449874 0.621474 -0.334902
冰箱 0.585371 -1.113821 -1.157865 0.114428 0.747902 0.528086 0.320504 -1.385395 0.437492 -0.454411
属于 0.445049 -1.538027 -1.485606 0.612886 0.375575 -0.253416 0.595804 -0.782412 0.535089 -0.325937
第一天 0.519918 -0.872471 -1.134805 0.325595 0.389657 0.486852 0.379101 -1.289206 0.324355 -0.358713
用品 0.641316 -1.725188 -1.313913 0.374793 0.492601 0.269232 0.366195 -1.319634 0.552555 -0.538950
花 0.401730 -0.516066 -1.642426 0.437748 0.844545 0.131126 0.337921 -1.225953 0.749605 -0.150146
想象 0.584416 -1.588260 -1.030995 0.361117 0.128704 0.133645 0.499356 -0.861360 0.425395 -0.484223
比较满意 0.218543 -1.189544 -1.217843 0.717778 0.382611 -0.202967 0.428167 -0.717410 0.595310 -0.467250
信息 -0.000094 0.132225 -1.791006 0.620534 0.724349 0.210261 0.453290 -1.053037 0.672932 -0.526858
看见 0.630053 -1.192041 -1.448289 0.466874 0.678400 0.396133 0.407554 -1.537407 0.489944 -0.395235
回复 0.039341 0.161429 -1.857648 0.515039 0.611637 0.177504 0.132491 -1.340813 0.429742 -0.305562
入睡 0.563172 -1.037310 -1.267215 0.290541 0.433776 0.402048 0.168257 -1.387319 0.392756 -0.491132
网速 0.673115 -1.343159 -0.706699 0.307837 0.462662 0.327518 0.259683 -1.042463 0.640281 -0.431668
广场 0.578423 -1.528179 -1.393813 0.599621 0.796934 -0.266782 0.454056 -0.892222 0.820365 -0.175959
正好 0.548292 -1.155356 -1.286710 0.378860 0.713515 0.206689 0.306649 -1.229796 0.364456 -0.299354
选 0.348535 -0.909460 -1.537785 0.813168 0.433472 -0.090814 0.465467 -1.006102 0.717712 -0.272203
孩子 0.430251 -0.900188 -1.556103 0.550404 0.568280 0.216346 0.349356 -1.526574 0.474980 -0.226029
是因为 0.327643 -0.830233 -1.482835 0.656308 0.442684 -0.014219 0.415187 -0.847586 0.561851 -0.487067
00 -0.062866 0.275082 -2.009329 0.711297 0.914865 0.200953 0.044618 -1.752464 0.377470 0.114709
两次 0.472930 -0.804706 -1.692228 0.496268 0.657323 0.299105 0.361793 -1.489144 0.499686 -0.504076
沟通 0.202099 -0.059079 -1.973988 0.466284 0.953023 0.344303 0.305579 -1.181840 0.770818 -0.594402
说话 0.785907 -1.562397 -0.978475 0.023094 0.665141 0.541606 0.175099 -1.262290 0.399473 -0.520759
烟味 0.644218 -1.752304 -0.940093 0.282072 0.136937 0.477921 0.415763 -1.518009 0.308243 -0.439145
中国 0.492758 -1.008715 -1.930816 0.684744 0.751743 0.140060 0.435154 -1.490699 0.578057 -0.324769
退 0.315761 0.005194 -1.474211 0.387805 0.771992 0.608890 0.337851 -1.657568 0.640566 -0.345429
怀疑 0.347000 -0.682831 -1.702498 0.596580 0.546645 0.094669 0.475726 -1.041540 0.610787 -0.466025
麻烦 0.619470 -0.985865 -1.649202 0.327210 0.788984 0.325093 0.414524 -1.407135 0.655526 -0.420342
最大 0.458662 -1.358822 -1.333746 0.479066 0.487943 0.163322 0.424313 -1.242770 0.347833 -0.332104
努力 -0.027918 -0.380383 -2.286752 0.947851 0.555016 -0.327750 0.217343 -0.852932 0.572748 -0.359849
好吃 0.714945 -1.408410 -1.428181 0.592298 0.718560 -0.190765 0.374405 -0.940722 0.705817 -0.359635
优惠 0.207447 -0.143247 -1.489225 0.568093 0.364023 0.067159 0.846205 -0.864660 0.881294 -0.245807
开车 0.428578 -0.604502 -1.486796 0.333842 0.794571 0.126756 0.327387 -1.049375 0.581487 -0.218417
大厦 0.217119 -1.022943 -1.646478 0.779662 0.530557 -0.113372 0.418255 -1.066465 0.566342 -0.297881
见 0.616009 -0.821951 -1.431975 0.217896 0.779140 0.390562 0.297080 -1.308077 0.466578 -0.523625
白天 0.694280 -1.657922 -1.084010 0.175317 0.519537 0.330674 0.007586 -1.607385 0.247185 -0.248006
办 0.204409 0.041753 -1.521706 0.387810 0.644377 0.391426 0.340465 -1.217720 0.475782 -0.354132
上次 0.214135 -0.540979 -1.596557 0.600818 0.361765 0.115941 0.385845 -1.079965 0.545328 -0.360438
欢迎您 -0.096696 -0.034775 -2.272950 1.260009 0.452930 -0.264959 0.035836 -0.878888 0.635019 -0.564841
部分 0.407382 -0.993051 -1.520926 0.489469 0.544450 0.229566 0.382533 -1.601526 0.415142 -0.222727
中餐厅 0.726979 -1.080540 -1.569810 0.255168 0.900299 0.260163 0.331969 -1.422233 0.518916 -0.545093
带来 -0.010223 -0.285053 -2.230653 0.978327 0.718853 -0.232599 0.173837 -1.159485 0.508962 -0.127561
桌子 0.576778 -1.238285 -1.410852 0.283281 0.710502 0.377459 0.397253 -1.562014 0.437641 -0.394228
相关 0.087874 -0.372171 -2.157179 0.669851 0.776332 0.007974 0.233595 -1.283141 0.414507 -0.465081
13 -0.402185 0.420386 -1.830716 1.038137 0.543653 -0.229505 -0.057792 -1.382529 0.255801 0.302297
显得 0.602600 -1.897335 -0.981714 0.316483 0.275581 0.265644 0.378759 -1.469317 0.242244 -0.449994
空气 0.431299 -1.488648 -1.214802 0.563151 0.395164 0.127856 0.295332 -1.302573 0.273716 -0.321894
最近 0.250692 -0.878991 -1.227150 0.630421 0.328679 -0.187625 0.400140 -0.782282 0.397818 -0.228522
周边环境 0.571768 -1.711687 -0.884781 0.535217 0.406485 -0.131010 0.545898 -0.564475 0.510605 -0.331856
合理 0.484192 -1.491381 -0.989611 0.469516 0.324670 0.025604 0.542698 -0.749953 0.485858 -0.466637
气味 0.584161 -1.684591 -0.955768 0.359127 0.295365 0.302560 0.346921 -1.400682 0.154582 -0.228682
28 -0.464347 0.439556 -1.546184 1.076946 0.450252 -0.469518 -0.013599 -1.159601 0.196768 0.518040
水龙头 0.678719 -1.585293 -1.121497 0.148606 0.548793 0.384190 0.191821 -1.602576 0.256800 -0.274175
总 0.328358 -1.253636 -1.525808 0.767380 0.285459 0.035013 0.441704 -1.181822 0.428272 -0.514144
达 0.779521 -1.568080 -0.772423 0.330253 -0.249750 -0.066776 0.989316 -0.595057 0.371498 -0.115041
预 0.376603 0.646608 -2.085099 0.376157 1.243102 0.635768 0.248381 -1.497244 0.879654 -0.452994
关系 0.222709 -0.708508 -1.648658 0.599045 0.457082 0.089102 0.526356 -1.159209 0.568457 -0.321026
一会 0.709007 -0.779092 -1.629240 0.101793 0.957577 0.593932 0.269139 -1.808632 0.488011 -0.535875
见到 0.430582 -0.734088 -1.313691 0.160698 0.756950 0.280368 0.202931 -1.048215 0.384379 -0.523799
花园 0.377244 -1.313522 -1.731150 0.949010 0.467232 -0.158119 0.405361 -1.123081 0.517165 -0.460288
正常 0.466413 -0.930682 -1.474291 0.341690 0.590831 0.241532 0.366385 -1.267760 0.431664 -0.352420
讲 0.501724 -0.986316 -1.521026 0.387697 0.671621 0.293905 0.306641 -1.382110 0.590154 -0.509197
值班 0.290574 0.047007 -1.585353 -0.007376 1.188688 0.453264 0.026213 -1.663216 0.278509 -0.276328
再也 0.369404 -0.736021 -1.711577 0.866209 0.545597 -0.071158 0.328717 -0.804595 0.835721 -0.753518
优势 0.328737 -0.912267 -1.315698 0.586072 0.392625 -0.127024 0.682684 -0.577314 0.742858 -0.245384
勉强 0.617074 -1.047826 -1.167939 0.333841 0.418656 0.335347 0.448988 -1.182563 0.486385 -0.382197
目前 0.222987 -0.939535 -1.505241 0.821746 0.424970 -0.199922 0.350695 -1.162483 0.554902 -0.238625
长 0.496796 -0.916383 -1.133115 0.199109 0.758249 0.374570 0.248054 -1.291555 0.446950 -0.322433
22 -0.437377 0.313853 -1.576903 1.078277 0.271036 -0.273158 0.031423 -1.184763 0.145297 0.321744
第一 0.264582 -0.485697 -1.459134 0.459036 0.616267 0.028414 0.244038 -1.042911 0.352544 -0.256224
改善 0.201234 -0.703527 -1.750453 0.682765 0.509926 -0.108251 0.112254 -0.925706 0.517224 -0.420595
碰到 0.422212 -0.858812 -1.502034 0.473430 0.638312 0.118860 0.219504 -1.048620 0.468345 -0.397814
.... 0.594778 -1.057196 -1.420668 0.617876 0.599411 0.165555 0.240687 -1.207532 0.689627 -0.614096
17 -0.411068 0.462398 -1.413646 0.773241 0.442895 -0.180642 0.091402 -1.314772 0.148429 0.306417
太贵 0.528460 -1.048712 -1.503684 0.591411 0.621375 -0.129460 0.700995 -0.909918 0.858891 -0.236503
可怜 0.774161 -1.676272 -0.701280 0.287569 0.254171 0.157127 0.383753 -1.085316 0.438553 -0.244400
半个 0.585405 -0.371484 -1.233631 -0.090754 0.913112 0.654402 0.154633 -1.448584 0.488056 -0.300760
23 -0.510428 0.580993 -1.492336 0.927905 0.350246 -0.146262 -0.025013 -1.462768 0.045899 0.342206
景点 0.417013 -1.298871 -1.386451 0.579421 0.831737 -0.267042 0.522705 -0.600129 0.780561 -0.331678
度假 0.337129 -1.124887 -1.983087 0.956614 0.446313 0.005857 0.491233 -1.243479 0.700246 -0.430918
19 -0.393517 0.238549 -1.576770 1.011088 0.426116 -0.142455 0.050472 -1.390579 0.214024 0.258304
.. 0.403480 -0.974492 -1.251776 0.543778 0.671899 0.014488 0.246192 -0.959959 0.786603 -0.319453
海边 0.545676 -1.350509 -1.417770 0.606925 0.651122 -0.205685 0.455335 -0.907976 0.626172 -0.186808
担保 0.186219 0.474410 -1.480390 0.200592 0.743973 0.740535 0.412731 -1.435532 0.517930 -0.404086
地板 0.583960 -1.490411 -0.807123 0.298406 0.340515 0.310327 0.236946 -1.268438 0.269153 -0.211217
费用 0.536712 -0.498997 -1.618454 0.333099 0.725001 0.391637 0.393026 -1.328701 0.707989 -0.344286
致电 0.332660 -0.174127 -2.005004 0.304286 0.955033 0.428973 0.511018 -1.489081 0.680164 -0.638714
网线 0.407624 -0.517399 -1.246991 0.089980 0.676412 0.492033 0.301809 -1.523718 0.418536 -0.264439
维修 0.547121 -1.181139 -1.202394 0.057713 0.792974 0.558659 0.236189 -1.322342 0.337016 -0.743994
停 0.610226 -1.212573 -1.315181 0.269049 0.861792 0.181949 0.313700 -1.111661 0.601611 -0.217621
回到 0.366744 -0.489128 -1.560232 0.253516 0.854890 0.380486 0.274507 -1.454992 0.453454 -0.346620
硬 0.672316 -1.407342 -0.719575 0.245150 0.240109 0.439607 0.270880 -1.148082 0.295976 -0.375471
０ -0.004358 0.228141 -1.959321 0.584057 0.924277 -0.082108 0.485852 -1.489344 0.807865 0.300653
淋浴房 0.728847 -1.957278 -1.148468 0.300763 0.386246 0.470089 0.273138 -1.730915 0.297761 -0.411634
１ 0.035987 -0.096179 -1.858665 0.711443 0.808236 -0.163997 0.399303 -1.386312 0.554314 0.155008
房门 0.648621 -1.457946 -1.361646 0.217145 0.511601 0.570354 0.312843 -1.735228 0.336763 -0.360964
地上 0.657788 -1.499569 -1.363673 0.219860 0.610352 0.365969 0.195357 -1.552344 0.385636 -0.406859
垃圾 0.539933 -1.126522 -1.127815 0.401753 0.233460 0.181241 0.229182 -0.905034 0.406524 -0.503519
商场 0.509826 -1.477228 -1.093107 0.441205 0.985110 -0.272997 0.351674 -0.775048 0.751233 -0.160111
一层 0.477977 -1.205029 -1.313466 0.456013 0.348213 0.273102 0.387079 -1.364596 0.350299 -0.290038
头 0.469248 -0.873440 -1.233082 0.445503 0.361450 0.376767 0.343245 -1.271292 0.507047 -0.298290
处 0.514647 -1.194640 -1.456170 0.512703 0.615160 -0.066001 0.561737 -0.930851 0.602965 -0.338086
收拾 0.515766 -0.973496 -1.244062 0.018776 0.788582 0.348374 0.034421 -1.299886 0.315593 -0.421039
位于 0.398067 -1.349839 -1.255561 0.548209 0.550163 -0.145445 0.627791 -0.949382 0.581491 -0.101872
一种 0.219507 -0.909523 -1.444389 0.500016 0.521818 0.041503 0.269333 -1.145203 0.384204 -0.325229
谢谢 0.264495 -0.252397 -1.670764 0.670670 0.488788 0.109130 0.054339 -0.947292 0.512039 -0.467374
接机 0.185774 -0.275296 -1.230445 0.394792 0.561126 0.157052 0.329541 -0.806605 0.551484 -0.343276
特价 0.350126 -0.626649 -0.585541 0.524711 -0.408181 0.777812 0.584126 -1.283787 0.484263 -0.287279
含 0.650182 -0.863941 -1.332668 0.462854 0.716740 0.081310 0.486767 -1.302333 0.776699 -0.322777
全是 0.698735 -1.413416 -1.185338 0.357541 0.523906 0.323043 0.247133 -1.219258 0.547465 -0.415564
按摩 0.588535 -0.916526 -1.576318 0.253590 0.695049 0.403249 0.395848 -1.558633 0.563879 -0.437760
下楼 0.781570 -0.806068 -1.354639 0.136908 0.799245 0.657048 0.302402 -1.377804 0.587546 -0.676899
看着 0.561122 -0.844503 -1.332516 0.361516 0.722152 0.261481 0.268791 -1.444925 0.459053 -0.364239
27 -0.394212 0.379553 -1.638361 0.929276 0.612019 -0.213416 -0.101039 -1.326766 0.165013 0.385326
施工 0.368934 -0.748225 -1.336944 0.402258 0.742930 0.122018 0.093618 -1.334406 0.362007 -0.084747
查房 0.562006 -0.173036 -1.519925 -0.058311 1.160770 0.584737 0.162900 -1.500243 0.470334 -0.439685
包括 0.465817 -0.969907 -1.227902 0.359070 0.454536 0.258487 0.273172 -1.222198 0.381925 -0.344617
气愤 0.502491 -0.808076 -1.438064 0.380571 0.605589 0.247704 0.261301 -1.092586 0.601610 -0.542057
合适 0.407739 -1.143223 -1.096115 0.586175 0.301151 -0.100446 0.517411 -0.612046 0.520749 -0.251696
繁华 0.447414 -1.497293 -1.124820 0.606026 0.573835 -0.322481 0.454572 -0.554407 0.629000 -0.238071
不敢恭维 0.563349 -1.173377 -0.628895 0.170761 0.366434 0.160959 0.336915 -0.614249 0.307739 -0.524210
晚餐 0.624456 -0.865581 -1.417338 0.548132 0.745841 -0.180510 0.336318 -1.178535 0.593708 -0.031685
满 0.513112 -1.008399 -1.086602 0.440323 0.193574 0.295169 0.385180 -1.189877 0.425345 -0.370418
亲切 0.530266 -0.920891 -1.293255 0.233637 0.712492 0.250561 0.228740 -0.938870 0.441892 -0.595618
走路 0.523090 -1.088103 -1.295566 0.267243 1.042679 -0.097684 0.484697 -0.980886 0.837396 0.192001
班车 0.554251 -0.576491 -1.677025 0.340379 0.978199 0.280913 0.418518 -1.249197 0.809864 -0.357060
喝 0.577134 -0.763721 -1.458981 0.267673 0.775455 0.289226 0.309617 -1.407788 0.507205 -0.201038
乱 0.682741 -1.735258 -0.977752 0.441672 0.406645 -0.030636 0.346145 -0.869849 0.504378 -0.359950
小心 0.385802 -0.931629 -1.617764 0.605023 0.511068 0.205157 0.254169 -1.125928 0.696061 -0.545053
21 -0.298685 0.194452 -1.532827 0.874903 0.362931 -0.164708 0.022487 -1.269503 0.205054 0.167012
理论 0.516156 -0.521022 -1.466168 0.096219 0.920525 0.496007 0.304700 -1.327641 0.566999 -0.512747
手机 0.455984 -0.395618 -1.806404 0.230508 0.917364 0.496429 0.232405 -1.555196 0.561553 -0.518848
物品 0.504389 -0.946265 -1.139032 0.276592 0.440046 0.335197 0.451115 -1.171641 0.357103 -0.411032
答复 0.303013 -0.024674 -1.892963 0.393146 0.853566 0.215620 0.209589 -1.372308 0.568268 -0.352338
软件 0.329628 -1.671398 -1.458975 0.671397 0.259414 -0.245318 0.453469 -0.761403 0.396484 -0.294908
小孩 0.591951 -0.648561 -1.386707 0.257765 0.768398 0.324379 0.282843 -1.344236 0.465275 -0.372013
改造 0.354334 -1.098363 -1.276676 0.536619 0.245265 0.024923 0.303464 -1.030013 0.310618 -0.353333
黑 0.456566 -1.064671 -1.389786 0.487654 0.449501 0.206354 0.458942 -1.167886 0.559745 -0.356310
明白 0.480414 -0.833264 -1.519031 0.332099 0.503198 0.307414 0.242999 -1.132543 0.592237 -0.481148
竞争力 0.198625 -0.677559 -0.988178 0.494952 0.268057 -0.049911 0.806076 -0.435798 0.694774 -0.366804
差劲 0.439738 -1.074530 -1.002853 0.468884 0.140315 -0.031260 0.273191 -0.588356 0.504748 -0.405686
烂 0.506243 -1.193965 -1.183186 0.483935 0.249250 0.103786 0.416987 -0.801421 0.548584 -0.469088
再也不会 0.226720 -0.690688 -1.372397 0.868769 0.131907 -0.241082 0.354152 -0.414645 0.638104 -0.423076
恶劣 0.637746 -0.897999 -0.974482 0.157417 0.650176 0.475653 0.278870 -0.931265 0.429678 -0.955674
稍 0.552681 -1.439133 -1.135635 0.445260 0.351459 0.198081 0.514669 -1.131390 0.461222 -0.355807
清洁 0.632033 -1.363937 -1.093735 0.119288 0.570066 0.426899 0.235984 -1.365436 0.236148 -0.522942
部门 0.126381 -0.119217 -2.018523 0.584958 0.783724 0.039895 0.100099 -1.182523 0.407906 -0.264006
给予 -0.061185 0.086829 -1.800217 0.595634 0.531608 0.053663 0.318033 -1.179039 0.530097 -0.286008
单间 0.566162 -1.087713 -1.136073 0.433017 -0.242352 0.792866 0.874367 -1.746239 0.455783 -0.425822
赠送 0.450817 -0.468390 -1.506760 0.369608 0.671575 0.329648 0.395461 -1.441396 0.654649 -0.353733
专门 0.346419 -0.548692 -1.517112 0.332857 0.602704 0.349831 0.313508 -1.313836 0.402361 -0.492018
均 0.451880 -1.117185 -1.425382 0.484360 0.430891 0.202786 0.412076 -1.457182 0.411648 -0.313679
一流 0.515336 -1.510843 -1.128099 0.511328 0.372875 -0.005909 0.361605 -0.849784 0.461950 -0.582161
话 0.400369 -0.553581 -1.400162 0.254476 0.853916 0.244780 0.147147 -1.130173 0.586463 -0.416966
关 0.595350 -1.131268 -1.267146 0.158679 0.662741 0.393237 0.004854 -1.728184 0.313579 -0.199272
外观 0.347405 -1.509314 -0.954071 0.547714 0.120479 -0.140984 0.424033 -0.661601 0.214002 -0.303998
修 0.594487 -1.207730 -1.327801 0.358706 0.754487 0.316453 0.141550 -1.219689 0.493927 -0.458477
协议 0.207930 -0.568920 -1.726195 0.709348 0.368114 -0.082815 0.750305 -0.617420 0.876349 -0.496007
灯光 0.582869 -1.444745 -0.748173 0.375396 0.099230 0.249474 0.191458 -1.110189 0.148312 -0.291662
接 0.276593 -0.099865 -1.541434 0.276044 0.842122 0.206822 0.184282 -1.096313 0.617248 -0.303160
似乎 0.467219 -1.031536 -1.360480 0.367604 0.619327 0.147427 0.318648 -1.105073 0.539404 -0.525122
部 0.409808 -0.723784 -1.554776 0.450461 0.864313 0.182560 0.250654 -1.317035 0.532913 -0.389988
忘 0.275348 -0.303430 -1.443128 0.348857 0.851084 0.256426 0.062047 -1.297541 0.313745 -0.289502
评论 0.178681 -0.569004 -1.649888 0.743906 0.281700 -0.124924 0.440636 -0.742757 0.689125 -0.330906
楼上 0.621766 -1.196978 -0.964410 0.162844 0.526493 0.351057 0.247642 -1.242086 0.391903 -0.272581
注册 -0.638646 0.178223 -1.781656 1.074984 0.144918 -0.450947 0.253347 -1.034231 0.673579 0.168454
导航 -1.039687 0.291515 -2.374258 1.266701 0.551214 -0.742141 0.345459 -0.952287 0.771511 0.204479
索引 -1.245105 0.304531 -2.404419 1.201952 0.713321 -0.968929 0.334298 -0.512743 0.800590 0.146110
标房 0.258468 -0.737446 -1.083461 0.550574 -0.066027 0.594130 0.548727 -1.499929 0.477284 -0.276883
重 0.628043 -1.608092 -0.822308 0.226517 0.241563 0.375433 0.384492 -1.282145 0.263131 -0.356637
连锁 0.254577 -0.943349 -1.360882 0.785891 0.123621 -0.138440 0.462868 -0.671115 0.490613 -0.292973
较差 0.601297 -1.661286 -0.662991 0.223613 0.272840 0.203153 0.346036 -0.753049 0.238910 -0.358130
房子 0.402219 -1.296392 -0.835939 0.316116 0.254122 0.163928 0.425045 -0.893624 0.355733 -0.351248
景色 0.573538 -1.281075 -1.109118 0.518005 0.188103 0.110708 0.390068 -0.995820 0.434478 -0.280631
太旧 0.361979 -1.362503 -0.614597 0.439693 -0.034041 0.017684 0.384458 -0.762042 0.203074 -0.320273
名字 0.383476 -0.758677 -1.459973 0.448852 0.516690 0.158432 0.389570 -1.056702 0.538788 -0.354532
老旧 0.566865 -1.630625 -0.620395 0.381850 0.110247 0.000375 0.318993 -0.833760 0.227368 -0.280596
诚聘 -1.031022 0.256312 -2.757109 0.955908 1.051164 -0.663010 0.460659 -0.689732 0.949943 0.126358
设置 0.450560 -1.208458 -1.068591 0.297461 0.484752 0.289795 0.321055 -1.080613 0.410372 -0.455086
不符 0.470133 -1.023767 -1.024269 0.352537 0.238655 0.118529 0.572495 -0.777335 0.481367 -0.287571
公寓 0.309054 -0.910548 -1.168653 0.648584 0.068462 0.118758 0.532297 -0.905303 0.483581 -0.283188
错 0.327459 -0.665659 -1.527554 0.356604 0.561361 0.160721 0.192522 -1.075124 0.533068 -0.368862
灯 0.679118 -1.247855 -1.312823 0.205801 0.524966 0.493423 0.251754 -1.631738 0.383176 -0.464953
苏州 0.200528 -0.737388 -1.409903 0.735428 0.264574 -0.052963 0.433775 -0.690722 0.494781 -0.350723
有没有 0.483779 -0.503758 -1.411307 0.107706 0.742895 0.440314 0.310946 -1.282806 0.649832 -0.401084
坐在 0.553770 -1.193859 -1.373168 0.391491 0.630762 0.162914 0.210417 -1.297234 0.550847 -0.314054
一半 0.472900 -1.054602 -1.250417 0.245608 0.689666 0.164401 0.271801 -1.289197 0.394135 -0.155311
价 0.226188 -0.292888 -1.366341 0.399374 0.382983 0.235697 0.791815 -0.996539 0.710771 -0.382163
造成 0.225005 -0.450996 -1.905185 0.589614 0.765517 0.069855 0.266788 -1.270177 0.576703 -0.233310
玩 0.390600 -0.828734 -1.417260 0.554416 0.423018 0.092238 0.366565 -0.895243 0.577475 -0.338515
城 0.433415 -1.183034 -1.850264 0.678776 0.716259 -0.086057 0.463298 -1.250095 0.707156 -0.219391
服务水平 0.315853 -0.860145 -1.227000 0.466154 0.395530 -0.068837 0.316021 -0.759903 0.374934 -0.258828
等待 0.358913 -0.331671 -1.926219 0.543509 0.962166 0.259978 0.197703 -1.508959 0.665932 -0.411421
英才 -0.882797 0.317696 -2.724094 0.861796 1.014742 -0.540410 0.355595 -0.929925 0.934208 0.043318
代理 -0.839381 0.299695 -3.086033 0.910196 1.106413 -0.617559 0.405948 -1.208926 0.903902 0.196120
客房部 0.494763 -0.509312 -1.658746 0.117510 0.910764 0.477628 0.268901 -1.470529 0.523492 -0.629744
超过 0.280461 -0.177759 -1.667772 0.438911 0.969950 0.155327 0.334170 -1.538665 0.606768 0.001290
尚可 0.488157 -1.335743 -0.682184 0.250632 0.307788 0.003940 0.426885 -0.632981 0.246357 -0.316274
像是 0.498596 -1.315049 -1.024036 0.400873 0.214853 0.103080 0.356190 -0.807283 0.311518 -0.286288
开窗 0.583358 -1.154394 -0.983369 0.235726 0.496596 0.361010 0.101551 -1.255971 0.349590 -0.377222
恐怖 0.532423 -1.165576 -1.285423 0.528615 0.360160 0.240063 0.212289 -1.210368 0.527441 -0.367414
大小 0.358832 -0.980207 -0.797051 0.334767 -0.023765 0.428579 0.441806 -1.144953 0.198012 -0.289644
导致 0.270992 -0.725714 -1.435028 0.356822 0.551349 0.263983 0.192257 -1.271090 0.380126 -0.338935
之间 0.469203 -1.068462 -1.089034 0.386541 0.412707 0.247074 0.221257 -1.305748 0.351759 -0.217757
需 0.369640 -0.521157 -1.646035 0.493937 0.859321 0.080767 0.340135 -1.226605 0.560938 -0.102941
调整 0.345124 -0.739475 -1.261861 0.370986 0.627153 0.132220 0.249636 -1.133352 0.252934 -0.210436
布置 0.620292 -1.531500 -0.874162 0.359320 0.245783 0.338288 0.270746 -1.151855 0.275699 -0.484186
反应 0.497932 -0.724173 -1.241368 0.102334 0.742649 0.435568 0.216185 -1.269877 0.321485 -0.397413
喜来登 0.301504 -0.942579 -1.536825 0.729476 0.339618 -0.088145 0.413296 -0.916370 0.538949 -0.294467
商务酒店 0.224208 -0.928925 -1.225399 0.665460 0.161587 -0.122693 0.541573 -0.755176 0.540231 -0.268162
微笑 0.303386 -0.811379 -1.484609 0.313185 0.734371 0.159796 0.187260 -1.027908 0.388128 -0.449555
老板 0.413932 -0.926031 -1.813232 0.612166 0.601178 0.104256 0.301911 -1.237806 0.575820 -0.438986
送餐 0.502705 -1.145380 -1.206862 0.320563 0.614049 0.063653 0.202620 -1.007890 0.390566 -0.386580
26 -0.241014 0.009741 -1.293399 0.971446 0.208124 0.007055 0.183261 -1.568402 0.101081 0.148930
开业 -0.171804 -0.377021 -1.580351 0.871052 0.437267 -0.363200 0.196348 -1.023442 0.210970 -0.023712
客服 0.363681 -0.498716 -1.466691 0.126332 0.670753 0.461188 0.435747 -0.975305 0.530137 -0.703857
约 0.270992 -0.447016 -1.421334 0.346051 0.885112 0.079501 0.297118 -1.344789 0.590937 0.205201
发霉 0.703919 -1.690887 -0.782475 0.174265 0.294408 0.327605 0.334576 -1.170496 0.222774 -0.387185
随便 0.437353 -0.625112 -1.459923 0.341356 0.669710 0.258045 0.330997 -1.174782 0.699069 -0.287616
漏水 0.576360 -1.282051 -0.720322 0.078687 0.395758 0.459872 0.143797 -1.317523 0.166920 -0.229267
火车 0.449301 -0.719764 -1.413717 0.338195 0.727702 0.153476 0.272784 -1.204539 0.510426 -0.182307
浴巾 0.585567 -1.138415 -1.100080 0.083884 0.414306 0.393372 0.150828 -1.162382 0.301696 -0.372720
枕头 0.711785 -1.473052 -1.012524 0.291436 0.232478 0.382162 0.262328 -1.119688 0.384102 -0.397005
接到 0.219918 0.149319 -1.537144 0.365647 0.625032 0.437174 0.258456 -1.366892 0.509981 -0.414396
强烈 0.325200 -0.809496 -1.483685 0.636885 0.221467 0.081894 0.484267 -0.964208 0.560820 -0.419098
容易 0.460696 -1.116277 -1.153509 0.379106 0.656228 0.083672 0.303022 -1.086758 0.389825 -0.203822
不断 0.149700 -0.786300 -1.646381 0.687874 0.487580 -0.212189 0.277735 -0.995499 0.281060 -0.144929
29 -0.445896 0.228338 -1.475354 0.949835 0.432233 -0.294267 -0.030125 -1.131352 0.069928 0.302578
很漂亮 0.429269 -1.203397 -0.934658 0.347277 0.446833 0.070307 0.308540 -1.053854 0.236731 -0.298085
表扬 0.297867 -0.545929 -1.024579 0.360369 0.402087 0.070157 0.140668 -0.622400 0.449523 -0.517111
再住 0.148217 -0.808036 -1.188789 0.743583 0.196526 -0.298182 0.444730 -0.232391 0.574667 -0.484926
热闹 0.590381 -1.356773 -0.983196 0.376608 0.726225 -0.120700 0.401913 -0.719735 0.586576 -0.040145
依然 0.412117 -0.911253 -1.309687 0.359853 0.551715 0.240755 0.303094 -1.127060 0.353964 -0.310757
巴士 0.472555 -1.194772 -1.527239 0.570022 1.099592 -0.155796 0.566961 -1.008945 0.839897 -0.072829
打算 0.178597 -0.363997 -1.613677 0.636031 0.390877 0.109400 0.345609 -1.046809 0.537315 -0.214982
广告业务 -0.889611 0.617218 -3.133746 1.173016 1.132422 -0.760150 0.117698 -1.577782 0.668837 0.485828
Copyright1999 -0.922795 0.558020 -2.960732 1.307108 1.069122 -0.791961 -0.084304 -1.645130 0.466243 0.546345
达到 0.274812 -0.952199 -0.975435 0.399306 0.032921 -0.018711 0.433351 -0.864481 0.209226 -0.156619
难 0.696264 -1.229772 -0.846494 0.070468 0.579077 0.262388 0.311158 -0.735421 0.503056 -0.264893
差距 0.352101 -1.263885 -0.841573 0.521232 -0.024409 -0.114357 0.498970 -0.762614 0.194497 -0.214531
矿泉水 0.495675 -0.616529 -1.008375 0.056833 0.461306 0.523051 0.358289 -1.095804 0.551521 -0.358961
饭菜 0.471880 -1.416114 -1.028782 0.442912 0.468245 -0.109782 0.413793 -0.754863 0.411011 -0.378002
一夜 0.573126 -0.819580 -1.272493 0.245312 0.415035 0.387661 0.226470 -1.318223 0.434588 -0.285362
威海 0.262250 -0.725373 -1.317136 0.703402 0.363037 -0.254502 0.402725 -0.385713 0.650201 -0.313306
澡 0.439117 -1.007833 -1.059400 0.088041 0.540908 0.383270 0.010674 -1.344997 0.312136 -0.260118
送到 0.378248 -0.433951 -1.456794 0.276433 0.904241 0.197822 0.269594 -1.197105 0.500948 -0.252504
千万别 0.361471 -0.698990 -1.457387 0.778113 0.197685 -0.050134 0.309109 -0.623790 0.686839 -0.391635
品牌 0.349289 -0.965668 -1.609797 0.675905 0.419879 -0.112885 0.398710 -0.975134 0.566473 -0.295084
十分钟 0.464307 -0.511944 -1.328659 0.180012 0.959767 0.279805 0.284427 -1.237211 0.588553 -0.323753
风格 0.499107 -1.400995 -1.146077 0.412465 0.336951 0.151582 0.486474 -1.187744 0.329192 -0.320017
室内 0.532648 -1.118812 -0.816769 0.379677 0.259984 0.231344 0.280570 -1.160310 0.240416 -0.236914
现金 0.424795 -0.202068 -1.268193 0.177919 0.849634 0.295728 0.343139 -1.148612 0.532969 -0.261903
B 0.301435 -0.877743 -1.544912 0.475862 0.229222 0.431695 0.546679 -1.515891 0.423074 -0.302109
网友 0.026539 -0.347077 -1.270703 0.643273 0.270665 -0.132018 0.232732 -0.613055 0.395923 -0.316056
后悔 0.210625 -0.618321 -1.176921 0.676993 0.250025 -0.109290 0.190420 -0.491747 0.603776 -0.292875
以下 0.057564 -0.180363 -1.413865 0.663766 0.357756 -0.097517 0.281523 -1.045273 0.405560 0.000998
身份证 0.325631 -0.440926 -1.631289 0.405072 0.732533 0.418987 0.385121 -1.357193 0.431305 -0.409825
大门 0.422094 -1.082346 -1.267053 0.380711 0.425256 0.088961 0.288977 -1.109223 0.459874 -0.250558
物有所值 0.386316 -1.071777 -1.158982 0.500954 0.343350 -0.047480 0.532499 -0.829649 0.446007 -0.256350
太高 0.408555 -1.082196 -1.076611 0.447282 0.285282 0.113954 0.634503 -0.919577 0.519607 -0.450787
赶紧 0.465962 -0.512769 -1.340517 0.250878 0.677634 0.400458 0.180163 -1.186073 0.415991 -0.263013
更是 0.470184 -1.137048 -1.419038 0.465898 0.567808 0.139478 0.316401 -1.207966 0.459602 -0.410554
愿意 0.273785 -0.525844 -1.575541 0.600503 0.544828 0.170928 0.283240 -1.026569 0.544757 -0.404217
全 0.332148 -1.042272 -1.083625 0.552284 0.444853 -0.019737 0.234468 -0.852475 0.523656 -0.386755
吵醒 0.574596 -0.965620 -1.111169 0.036234 0.646174 0.414158 0.032441 -1.302987 0.250745 -0.300015
小得 0.647961 -1.590963 -0.855123 0.245531 0.129547 0.475879 0.417767 -1.317446 0.361158 -0.362836
答应 0.372657 -0.213551 -1.326264 0.175729 0.732958 0.599926 0.270368 -1.407137 0.432207 -0.431107
楼道 0.539738 -1.363128 -0.811711 0.120606 0.286256 0.347498 0.233207 -1.223333 0.176961 -0.299357
重要 0.442593 -1.048244 -1.117334 0.415848 0.356485 0.150654 0.344434 -0.966767 0.417321 -0.326427
较大 0.429250 -1.297053 -1.007584 0.382105 0.196343 0.217881 0.437350 -0.957194 0.267911 -0.428525
今后 0.132069 -0.667493 -1.609866 0.624452 0.373213 -0.079989 0.439600 -0.610537 0.601517 -0.412368
感动 0.301923 -0.692890 -1.505972 0.482092 0.628678 0.135661 0.273205 -1.102414 0.468071 -0.397270
人性化 0.386742 -0.983488 -0.902717 0.262456 0.421201 0.093754 0.245143 -0.737273 0.355389 -0.285138
付 0.220752 0.082560 -1.269763 0.199528 0.632388 0.328242 0.311179 -0.938672 0.554900 -0.174429
刚刚 0.243542 -0.615305 -0.862675 0.439681 0.151011 0.078505 0.270739 -0.820674 0.228272 -0.233071
进门 0.424940 -0.883899 -0.996767 0.315410 0.331722 0.275190 0.273487 -1.169692 0.249433 -0.325652
大连 0.222494 -0.942368 -1.461992 0.756520 0.393880 -0.194954 0.385008 -0.765313 0.556711 -0.222594
上午 0.108380 0.009405 -1.691658 0.522443 0.841776 0.118601 0.026013 -1.482031 0.463292 -0.086711
厦门 -0.030547 -0.287926 -1.681627 0.889017 0.511213 -0.391963 0.290594 -0.870373 0.555184 -0.154249
结束 0.346562 -0.234629 -1.182148 0.346547 0.897053 -0.025889 0.071815 -1.120289 0.426748 -0.105968
好好 0.312782 -0.431448 -1.174961 0.254786 0.474006 0.136926 0.277162 -0.805241 0.422506 -0.379159
离店 0.250116 -0.093072 -1.420549 0.190430 0.793829 0.391365 0.080327 -1.162891 0.391573 -0.307134
强烈建议 0.115902 -0.442963 -1.383396 0.586002 0.286198 -0.005731 0.444323 -0.655422 0.561124 -0.269585
相比 0.339218 -1.041556 -1.154276 0.503518 0.273795 -0.178285 0.572321 -0.709117 0.434693 -0.214502
检查 0.262963 -0.374631 -1.215581 0.273400 0.595831 0.329852 0.127140 -1.014146 0.361953 -0.278578
要命 0.602818 -1.207991 -0.968124 0.253637 0.417800 0.278533 0.224026 -1.106265 0.332955 -0.377881
挂牌 0.306211 -1.057609 -1.076061 0.547854 -0.080891 -0.079206 0.441467 -0.679804 0.307739 -0.269117
套餐 0.400161 -0.857101 -1.514724 0.485110 0.604354 -0.057818 0.402429 -1.113027 0.625802 -0.177452
天气 0.316392 -0.752704 -1.217365 0.475896 0.440230 0.157534 0.228435 -1.168748 0.390534 -0.194698
难吃 0.662295 -1.156740 -0.810804 0.353622 0.355621 -0.119886 0.260089 -0.746312 0.439370 -0.169961
临街 0.521075 -1.420228 -0.742475 0.307544 0.150885 0.175251 0.344937 -0.922797 0.242596 -0.212481
气 0.523269 -0.572312 -1.199671 0.238202 0.574255 0.299297 0.199459 -1.160030 0.520859 -0.315342
半 0.452808 -0.729432 -1.659593 0.514326 0.649526 0.323636 0.302765 -1.630753 0.528189 -0.290744
欺骗 0.170347 -0.182177 -1.360911 0.526773 0.293651 0.090823 0.334842 -0.943985 0.449401 -0.213142
折腾 0.542878 -0.554829 -1.162206 0.136141 0.490079 0.564017 0.208572 -1.269622 0.435172 -0.474467
闹中取静 0.460231 -1.414043 -0.949072 0.498533 0.356875 -0.223051 0.456958 -0.540751 0.503899 -0.262417
对不起 0.382837 -0.751149 -1.139347 0.505833 0.331572 -0.025644 0.312557 -0.750884 0.428855 -0.293342
西餐厅 0.348299 -0.696905 -1.255998 0.450376 0.492526 -0.149505 0.197548 -0.791618 0.403903 -0.202635
还给 0.323469 -0.178538 -1.185215 0.137988 0.644878 0.459606 0.282699 -1.213405 0.418289 -0.361121
真正 0.285007 -0.642890 -1.677512 0.549050 0.521977 0.023218 0.243477 -0.951845 0.458193 -0.362468
300 0.265490 -0.418681 -0.999486 0.402102 0.346198 0.027608 0.588063 -0.754598 0.579006 -0.112948
原本 0.244521 -0.408180 -1.250358 0.483726 0.282680 0.205585 0.443210 -1.017312 0.440558 -0.259181
事先 0.244754 -0.120802 -1.169438 0.151257 0.565023 0.450131 0.372443 -1.099116 0.481470 -0.250515
修好 0.384225 -0.276442 -1.109225 0.035311 0.848775 0.414470 0.099375 -1.054594 0.525389 -0.347846
深表歉意 -0.287305 0.197844 -1.853285 0.977777 0.471168 -0.380981 -0.022809 -0.757584 0.386845 -0.100585
rights -0.606892 0.247327 -2.115100 1.119411 0.648937 -0.685229 -0.020186 -1.267175 0.244414 0.398036
成都 0.141523 -0.506131 -1.416269 0.683061 0.321085 -0.169951 0.331545 -0.633067 0.543406 -0.203046
理想 0.382840 -1.103964 -1.335390 0.454087 0.375014 0.078595 0.387738 -0.739541 0.444867 -0.336405
生意 0.343711 -0.825213 -1.202534 0.408699 0.537899 0.179283 0.267883 -1.026076 0.466510 -0.403213
副理 0.445969 -0.395807 -0.954864 -0.129307 0.638747 0.400455 0.195918 -0.947958 0.217761 -0.535769
二 0.471900 -0.964550 -1.161540 0.380358 0.525754 0.223798 0.352770 -1.166040 0.356618 -0.250547
国内 0.418735 -0.877477 -1.224145 0.474538 0.343754 0.072770 0.509847 -0.910116 0.514964 -0.245909
临时 0.200117 -0.289972 -1.107346 0.385435 0.450032 0.206555 0.361974 -0.786695 0.389101 -0.302733
游客 0.431587 -0.819447 -1.412534 0.393165 0.690003 0.024409 0.220550 -0.844517 0.527178 -0.342380
颜色 0.572717 -1.371397 -1.029231 0.374247 0.361005 0.227519 0.202095 -1.125970 0.314283 -0.354277
声 0.454343 -0.944943 -1.136480 0.251379 0.459823 0.271723 0.112511 -1.141559 0.340802 -0.324533
窗帘 0.508328 -1.234541 -1.223276 0.351592 0.365523 0.361552 0.208645 -1.407933 0.431821 -0.271432
仔细 0.474996 -0.683735 -1.139309 0.178457 0.529356 0.333050 0.297649 -1.030332 0.458165 -0.412962
南京 0.361387 -0.785941 -1.082453 0.496248 0.326356 -0.186721 0.419230 -0.461557 0.587411 -0.193017
床垫 0.439683 -1.268396 -1.058504 0.296522 0.354116 0.192136 0.217157 -1.322925 0.215548 -0.277239
受不了 0.409017 -0.800687 -0.915780 0.261906 0.303955 0.180520 0.202287 -0.996603 0.278084 -0.201804
阳台 0.521779 -1.265132 -0.684299 0.313210 0.151966 0.292752 0.239571 -1.020377 0.173440 -0.287662
理解 0.250495 -0.607681 -1.373976 0.555146 0.431845 -0.029076 0.294803 -0.822495 0.458736 -0.247458
早餐券 0.477834 -0.290217 -1.474609 0.299554 0.909092 0.237902 0.216318 -1.238480 0.557040 -0.352590
日本 0.358846 -0.601359 -0.917875 0.284001 0.361976 0.161401 0.192301 -0.651220 0.377657 -0.266002
坚持 0.380196 -0.474338 -1.347392 0.227873 0.593776 0.480453 0.261741 -1.214905 0.450201 -0.370626
街 0.501985 -1.167141 -1.146009 0.477411 0.576868 -0.027216 0.462516 -0.826757 0.558972 -0.188187
老外 0.330550 -0.564575 -1.114048 0.318074 0.455220 0.200083 0.269095 -0.870033 0.427361 -0.322512
害 0.483503 -0.563596 -1.387939 0.178074 0.792452 0.307054 0.178513 -1.197435 0.573830 -0.347199
reserved -0.486171 0.365892 -1.362020 0.790804 0.524810 -0.530404 -0.079106 -0.870405 0.191204 0.310284
龙头 0.568202 -1.228050 -0.835381 0.120113 0.446201 0.393865 0.204855 -1.134393 0.320203 -0.284401
拉 0.422015 -0.759416 -1.043020 0.408318 0.553693 0.164018 0.225302 -1.032097 0.604413 -0.297384
一点点 0.392630 -0.949240 -0.906978 0.279486 0.358531 0.204865 0.361238 -0.942542 0.465415 -0.260571
帮助 0.240723 -0.163204 -1.583002 0.332760 0.705942 0.102747 0.207948 -0.918805 0.469399 -0.472539
无奈 0.408550 -0.516436 -1.221419 0.185833 0.700589 0.370832 0.157247 -1.229631 0.381504 -0.346582
粥 0.613444 -0.977811 -1.537151 0.361175 0.904493 0.089164 0.171599 -1.383093 0.565685 -0.143704
习惯 0.513019 -0.947017 -1.178913 0.431166 0.426639 0.224158 0.390301 -1.028243 0.519040 -0.364025
路上 0.467385 -1.078614 -1.072638 0.278757 0.545907 0.077781 0.254499 -0.998430 0.432199 -0.211769
三天 0.357132 -0.679779 -1.076416 0.508280 0.232518 0.238929 0.337243 -1.108673 0.395895 -0.316119
歉意 -0.036938 -0.157763 -1.949324 0.875402 0.522971 -0.252339 0.169274 -0.974160 0.456172 -0.230109
80 0.413211 -0.640309 -1.058629 0.262935 0.446825 0.132377 0.463597 -0.872893 0.557097 -0.084127
赔偿 0.329226 -0.428414 -1.448299 0.382896 0.672990 0.077521 0.374644 -1.164023 0.491325 -0.233826
抱歉 0.188363 -0.308799 -1.504993 0.534248 0.608765 -0.019891 0.175352 -0.982190 0.343029 -0.219329
黑店 0.332037 -0.480967 -1.729481 0.542608 0.616891 0.067281 0.262775 -1.188120 0.503871 -0.304093
查 0.249541 -0.202632 -1.284748 0.268365 0.481278 0.350674 0.289642 -1.118226 0.448709 -0.332728
饮料 0.352430 -0.342263 -1.055894 0.277350 0.658421 0.253165 0.304478 -1.087136 0.387572 -0.235617
欢迎 0.251743 -0.226804 -1.306285 0.361377 0.634515 0.061833 0.258121 -0.815642 0.465413 -0.325462
那位 0.444502 -0.498184 -1.300632 0.143046 0.800588 0.476474 0.238308 -1.182053 0.418531 -0.517089
服务台 0.481793 -0.534851 -0.809563 0.011708 0.490643 0.495342 0.138083 -1.172201 0.238384 -0.442826
包 0.545829 -0.893056 -1.239523 0.330495 0.610258 0.290930 0.223521 -1.156018 0.451166 -0.393710
忘记 0.227082 -0.242613 -1.187112 0.279161 0.666216 0.284389 0.136070 -1.105611 0.316151 -0.313422
的士 0.407231 -0.504839 -0.984397 0.021541 0.722075 0.135117 0.276686 -0.657282 0.555315 -0.198133
不像 0.384520 -1.201325 -0.962545 0.393957 0.138924 0.027444 0.361018 -0.875326 0.342453 -0.274672
经济型 0.429014 -1.080570 -0.900680 0.498831 0.108556 0.082868 0.454052 -0.717902 0.486005 -0.279639
套间 0.415520 -0.783977 -0.636210 0.194816 -0.142228 0.590651 0.600575 -1.281136 0.266818 -0.374226
快捷酒店 0.183280 -0.758109 -1.092400 0.548616 0.196516 -0.120607 0.411847 -0.824656 0.330996 -0.183806
500 0.260894 -0.331877 -1.314526 0.412193 0.589947 0.185619 0.405842 -1.102366 0.587855 -0.150925
重庆 0.342415 -0.867744 -1.353904 0.628145 0.440766 -0.126206 0.312701 -0.759678 0.629529 -0.283541
曾经 0.049953 -0.472222 -1.353780 0.605713 0.282664 -0.123139 0.216025 -0.699997 0.382979 -0.136477
沙发 0.638242 -1.298843 -0.730361 0.229331 0.206710 0.494343 0.448487 -1.224467 0.306518 -0.344551
保证 0.354922 -1.009403 -1.400907 0.531663 0.507366 0.076063 0.328722 -1.099375 0.452340 -0.347572
主楼 0.298254 -0.735136 -0.975134 0.431751 0.098883 0.276845 0.493303 -1.065310 0.367956 -0.215452
保留 0.205607 -0.132177 -1.458657 0.335153 0.637020 0.310252 0.386192 -1.053243 0.445431 -0.321423
偏僻 0.575426 -1.407626 -0.687164 0.307824 0.402283 -0.099592 0.385276 -0.449804 0.393901 -0.154899
莫泰 0.264328 -0.861488 -1.231109 0.603163 0.335915 -0.076903 0.371471 -0.782835 0.441563 -0.261624
今天 0.260218 -0.333568 -1.432361 0.486478 0.594944 0.086324 0.110014 -1.151036 0.462926 -0.320569
大巴 0.253975 -0.586818 -1.089846 0.328643 0.832691 -0.221087 0.288872 -0.498615 0.655995 0.091120
顺利 0.213547 -0.199641 -1.489222 0.524606 0.489953 0.049353 0.094330 -0.876490 0.501544 -0.335076
牛奶 0.590938 -0.968260 -1.138797 0.369033 0.636075 0.015972 0.235332 -0.979245 0.519446 -0.227524
