5371 75
酒店 -0.060915 -0.099727 -0.212818 0.207610 0.464936 0.366496 -0.242737 -0.195264 1.066617 -0.340920 0.534222 -0.990569 0.044018 -0.062115 -0.748175 -0.310785 -0.417382 0.354654 -0.405721 -0.700649 0.304180 0.477244 -0.214473 0.006412 -0.954087 -0.543193 -0.184366 0.803926 -0.304558 0.946979 0.441302 -0.365282 0.138103 0.262428 0.651403 -0.431772 0.502679 0.781748 0.105302 0.248113 -0.193450 0.019221 0.187562 -0.419459 0.253543 0.005657 0.069138 0.018503 -0.534742 -0.250621 0.183699 0.539763 -0.568825 0.427546 0.380736 0.233565 0.191072 -0.245668 0.501787 -0.267599 -0.428873 -0.571141 -1.539515 -0.138027 -0.470279 0.081304 0.368746 -0.225788 -0.133593 -0.524508 0.306879 -0.762803 0.097155 0.008456 -0.040618
房间 0.437851 1.252632 -0.202634 0.236457 -1.508530 0.471644 -0.277196 0.653975 -0.199407 0.043143 -0.077105 0.544797 0.670783 0.213626 0.111260 0.045001 -0.733208 0.087089 0.163021 -0.850577 -0.124291 0.968076 -0.382563 -0.184742 -0.714596 0.023117 -1.100754 0.096968 0.025852 0.086295 0.096500 0.296519 0.738931 -0.647151 0.635660 -0.604561 0.013018 0.265157 -0.012135 0.108050 -0.399562 -0.322597 -0.965288 0.745633 -0.751665 0.201733 -0.128790 -0.474464 -0.461788 0.385229 -0.249311 -1.115302 -0.403465 -0.159602 -1.567473 -0.320492 -0.603534 -0.754680 0.643567 -0.236331 0.233291 -0.252821 -2.408010 -0.698108 -0.054949 0.064104 -0.052154 0.427084 -0.213488 -1.305325 0.832496 -1.311172 0.090609 -0.487914 -0.328739
服务 0.128051 0.588003 -0.683868 0.078043 -0.050662 0.747651 -0.123654 -0.074814 0.399051 -0.320863 0.174126 -0.246496 0.061068 -0.113284 -0.472567 -0.065964 -0.474265 0.340703 -0.744486 -0.882043 0.438916 0.661094 -0.805111 -0.867766 -1.216104 -0.206737 -0.350803 0.655212 -0.185846 0.766362 0.846812 -0.786763 0.484630 0.258085 0.656351 0.569605 0.235235 0.805155 0.195511 0.476212 -0.502799 -0.511284 -0.110607 -0.292795 0.085603 -0.701382 -0.337801 -0.257602 -0.862622 -0.916274 0.347847 -0.407791 -0.208475 0.674590 -0.031625 -0.234932 -0.178306 0.004335 0.893726 -0.412069 -0.089703 -0.714659 -1.513242 -0.616880 0.127402 0.339787 0.501150 -0.223466 -0.554383 -0.449198 0.362694 -1.166276 0.264530 -0.508658 -0.356372
住 -0.168678 -0.178128 0.127527 0.438695 0.581168 0.044815 -0.759751 -0.000615 1.418146 -0.418836 0.534703 -1.051320 0.130524 0.099785 -0.903975 -0.534956 -0.777605 0.051620 -0.261682 -0.772416 -0.012863 0.425565 -0.076895 0.304424 -0.897481 -0.681024 -0.413380 0.567668 -0.134324 0.980885 0.383577 -0.174103 0.012443 0.502886 0.535477 -1.071526 0.386276 0.199994 0.066730 -0.134930 0.177119 0.297402 0.203544 -0.005185 0.270773 0.430863 0.436077 0.406000 -0.283315 0.146063 0.001542 0.321827 -0.560132 0.397583 0.123471 0.234530 0.229359 -0.779577 0.942311 0.254846 -0.524158 -0.520047 -1.599935 -0.053586 -0.770765 0.054409 0.469612 0.257987 0.101601 -1.044642 0.409341 -0.854649 0.186919 0.201919 -0.131680
不错 -0.229319 0.580067 -0.646626 0.332193 -0.174874 0.630033 -0.465198 0.502397 0.412886 -0.142372 0.239230 -0.256021 0.682355 0.113326 -0.308390 -0.363856 -0.719262 0.348580 -0.667152 -0.817259 0.104107 1.129439 -0.412155 -0.970507 -1.259491 -0.568386 -0.875627 0.339357 0.071949 1.236775 0.168409 -0.186211 0.479156 0.801734 1.013389 -0.453772 0.316420 0.722107 0.063541 0.289772 -0.533105 -0.272777 -0.417735 0.324287 -0.167174 -0.122961 -0.369912 -0.063646 -0.967821 -0.642998 0.217316 -0.465881 -0.130865 0.572118 -0.673862 -0.002295 -0.047178 -0.734029 1.331612 0.079636 -0.553550 -0.683731 -2.011137 -0.599865 -0.324272 0.185629 0.332060 0.578925 -0.495867 -1.328066 1.026771 -1.386221 -0.002305 -0.507243 -0.289826
入住 0.149056 -0.096755 0.161204 0.352451 0.174308 0.161785 -0.226692 -0.388802 1.285112 -0.408896 0.439239 -1.002882 -0.438860 -0.365279 -0.935751 -0.229547 -0.495366 0.288848 0.201917 -0.802861 -0.051670 -0.030838 -0.226101 0.988845 -0.686719 -0.285079 -0.024432 0.866993 -0.491571 0.558907 0.485531 -0.606576 -0.051801 -0.642899 0.004245 -0.633015 0.331634 0.660517 0.133610 0.165973 0.295089 0.128675 0.252693 -0.170480 0.459995 0.472160 0.784841 -0.250800 -0.228518 0.453407 -0.041511 0.963312 -1.354106 0.175443 0.573792 0.282096 0.106590 -0.097410 -0.155742 -0.561543 -0.182847 -0.191044 -1.585697 0.031824 -0.737406 -0.279574 0.316290 -0.958404 0.073721 -0.121056 -0.280469 -0.203118 0.482855 0.583684 -0.223402
说 0.496532 1.306136 -0.176036 0.010952 -1.196398 0.873951 0.238940 -0.257619 0.167995 -0.461633 0.331319 -0.025355 0.115491 -0.326876 -0.240537 -0.051813 -0.401622 0.434420 0.514005 -0.852004 -0.000195 -0.036185 -0.647178 1.124366 -0.411395 0.604708 -0.348854 0.631456 -0.370062 -0.695407 0.920403 -0.190542 0.787311 -1.557588 0.091022 0.250346 -0.113906 0.510355 0.004303 0.542004 -0.345315 -0.209819 -0.773333 -0.023868 -0.052997 0.753674 0.587376 -0.707356 0.034439 0.406595 -0.267505 -0.440669 -1.284639 -0.017410 -0.825478 -0.426608 -0.454030 0.394058 -0.079994 -1.452522 0.720728 -0.007664 -1.662610 -0.983262 0.132867 -0.190255 -0.070100 -1.425423 -0.207435 0.364081 -0.416501 -0.441527 0.941821 -0.198130 -0.252085
前台 0.493316 1.386027 -0.474651 -0.076982 -1.377547 1.030680 0.610887 -0.271080 -0.145778 -0.341029 0.188649 0.232209 -0.072901 -0.475479 -0.121389 0.178079 -0.327691 0.558200 0.362192 -0.935156 0.085591 0.112456 -0.843635 0.631500 -0.708587 0.682841 -0.395447 0.683293 -0.527009 -0.583978 0.890562 -0.577119 0.782768 -1.623343 0.113669 0.682177 -0.033781 0.889892 0.087976 0.701866 -0.450232 -0.610316 -0.737374 0.071660 -0.230392 0.304901 0.292855 -1.130663 -0.365456 0.098088 -0.159180 -0.368429 -1.312153 0.071951 -0.620261 -0.467657 -0.607194 0.493837 -0.229545 -1.544722 0.761219 0.013244 -1.998542 -0.972917 0.195439 -0.188103 -0.053838 -1.627872 -0.393930 0.423182 -0.302936 -0.539985 0.772717 -0.288756 -0.428447
比较 0.021996 0.999011 -0.533149 0.497897 -0.606416 0.683507 -0.618520 0.948777 -0.031810 0.096604 0.048953 0.091458 0.978902 0.150396 -0.108957 -0.504989 -0.720648 0.506321 -0.366942 -0.454636 -0.136069 1.353317 -0.476384 -1.058555 -1.062725 -0.833895 -0.699132 0.123116 0.529632 1.419564 -0.086057 0.225891 0.537987 0.699539 1.036247 -0.865630 0.075202 0.847757 -0.115564 0.342968 -0.859391 -0.003270 -0.766398 0.546652 -0.060822 -0.071144 -0.522888 0.098148 -0.903007 -0.851560 0.379370 -0.489319 -0.095008 0.249471 -1.221345 -0.069051 -0.153994 -0.702651 1.144616 -0.032222 -0.568271 -0.719331 -1.875703 -0.828293 -0.066183 0.079907 0.081090 1.075208 -0.560145 -1.384604 1.062199 -1.580513 0.018398 -0.783793 -0.000615
早餐 0.291774 1.320645 -0.288556 0.544227 -0.625937 0.777997 -0.408061 0.718250 -0.159513 0.011827 0.165054 -0.015914 0.490868 -0.314740 -0.240430 -0.490638 -0.448855 0.390442 -0.101193 -0.177307 0.088522 0.696918 -0.626817 -0.510286 -0.443772 -0.521729 -0.024908 0.268511 0.220843 0.870431 0.508685 0.018652 0.158893 0.390387 0.474084 -0.207795 -0.156354 0.835892 -0.134599 0.620038 -0.470111 0.166772 -0.762487 0.294057 0.288418 -0.082054 -0.403135 0.198617 -0.342166 -1.057371 0.409753 -0.647413 0.069022 0.432878 -0.992775 0.049810 -0.382000 -0.123385 1.073243 -0.386551 0.103379 -0.701669 -0.676129 -1.006746 0.729687 0.119877 0.315664 0.580116 -0.806955 -0.807342 0.076713 -1.316745 0.442719 -0.682202 -0.038071
感觉 0.065335 0.514826 -0.311552 0.328365 -0.261517 0.301843 -0.483810 0.370481 0.564419 -0.202737 0.199349 -0.255819 0.411266 0.204261 -0.447739 -0.231923 -0.740128 0.057698 -0.447178 -0.848872 0.148361 0.869096 -0.339581 -0.551410 -0.986753 -0.365214 -0.808838 0.414445 -0.046287 0.694829 0.315744 -0.113429 0.403339 0.398007 0.786729 -0.494968 0.177893 0.361644 0.108539 0.072720 -0.270701 -0.111119 -0.375964 0.293524 -0.224070 -0.047524 -0.150428 0.031048 -0.654297 -0.178718 -0.023365 -0.644617 -0.164571 0.441529 -0.619042 -0.091980 -0.127076 -0.816447 1.127707 0.070395 -0.262403 -0.631317 -1.967579 -0.477677 -0.253234 0.208201 0.420036 0.596834 -0.241730 -1.267682 0.815981 -1.294962 0.111895 -0.335499 -0.353844
携程 -0.166902 -0.374587 -0.176089 -0.132387 0.396265 0.444227 -0.267577 -0.788941 1.709280 -0.912483 0.773781 -1.301535 -0.176450 -0.429902 -0.711793 -0.237603 -0.633623 0.157847 0.069039 -0.873988 0.402822 -0.086130 0.025452 1.643302 -1.082482 -0.165641 -0.331110 1.093749 -1.002808 0.465989 0.986951 -0.600262 0.280169 -0.828170 0.082382 -0.297623 1.081283 0.517344 0.060074 0.535577 0.401104 -0.226225 0.286940 -0.617299 0.389083 0.826793 1.022592 -0.264147 -0.121776 0.984695 -0.157067 1.230390 -1.353563 0.253528 0.374940 0.282927 0.296713 -0.019119 -0.043891 -1.025112 -0.125966 -0.205074 -2.004610 -0.003683 -1.104517 -0.460196 0.194296 -1.874953 0.197086 0.026451 -0.195290 -0.145952 0.786352 0.634175 -0.131839
服务员 0.759454 1.875351 -0.346752 0.150706 -1.572774 1.074950 0.403782 0.054824 -0.418261 -0.133149 0.079969 0.440208 0.080617 -0.424459 -0.177513 0.029826 -0.227441 0.651423 0.449351 -0.600446 0.002248 0.066926 -1.107891 0.235386 -0.379667 0.485139 -0.162513 0.551122 0.025878 -0.465322 0.872413 -0.302995 0.755563 -1.313015 0.256465 0.670235 -0.455739 0.952607 0.005708 0.638139 -0.757397 -0.252894 -1.033881 0.078015 0.022669 0.064406 0.087252 -0.865147 -0.364897 -0.496684 -0.069184 -0.858392 -1.150506 0.024986 -0.903407 -0.505032 -0.611047 0.677230 -0.069347 -1.577202 0.824335 -0.147869 -1.391339 -1.186786 0.772364 -0.060648 0.037103 -1.024674 -0.647395 0.535457 -0.440688 -0.695178 0.926759 -0.492678 -0.356168
宾馆 0.011246 -0.040642 -0.042907 0.513749 0.360045 0.253251 -0.857610 0.048433 1.266806 -0.363400 0.347745 -1.121445 -0.187782 0.001281 -0.920349 -0.372123 -0.650034 0.222790 -0.046290 -0.209647 0.074137 0.205234 -0.497434 -0.010573 -0.653591 -0.796397 0.194101 0.696080 0.009866 1.270303 0.823481 -0.597240 -0.224083 0.320843 0.381214 -0.823341 0.221190 0.537944 0.171504 -0.108008 0.123203 0.151033 0.115087 -0.446487 0.855985 -0.069966 0.405536 0.280295 -0.265799 -0.463841 0.371974 0.514099 -0.666237 0.410090 0.480701 0.230449 0.096106 -0.430836 0.646990 -0.460965 -0.373549 -0.587371 -1.179468 0.030882 -0.102676 -0.078276 0.722906 -0.011911 -0.169008 -0.351430 -0.190221 -0.632997 0.604133 0.114769 -0.069211
! -0.268351 0.554881 0.090142 0.590535 0.779144 0.620269 -1.389435 -1.168383 1.438975 -1.640520 0.643992 -1.660486 0.079514 0.968955 -1.292294 -0.255979 -1.099052 -0.636285 -0.766764 -1.369408 0.580655 0.059936 -0.221454 0.658489 -0.748872 0.652515 0.061808 1.162072 -0.964970 -0.863237 2.233931 -1.445074 0.239329 0.454115 0.639074 -0.466631 0.061971 -0.993639 0.561116 -0.938020 0.240761 0.685973 -0.078930 -0.993085 0.257717 1.015301 0.757322 0.889913 0.534339 -0.584253 0.551435 -1.473868 0.109589 1.337700 0.673649 -0.894224 -0.494948 -1.199485 2.287351 0.100886 0.788486 -1.020838 -1.611965 -1.087697 1.324069 1.035432 1.089314 -0.747570 0.335797 -1.114378 -0.356908 -1.684523 0.684702 -0.501187 -0.061978
设施 0.329929 1.142679 -0.594402 0.358932 -0.894106 0.607512 -0.654790 0.951622 -0.069845 0.030697 0.010371 0.331802 0.972353 0.345806 -0.197975 -0.067475 -1.062005 0.128893 -0.553993 -0.938012 0.060270 1.530280 -0.526704 -1.252134 -1.278629 -0.543163 -1.199390 0.160203 0.281486 1.036669 0.265722 0.094313 0.747499 0.517857 1.092511 -0.664516 0.089318 0.530458 -0.057592 0.257091 -0.680846 -0.288302 -0.916829 0.700138 -0.656650 -0.254518 -0.482897 -0.077282 -1.069872 -0.576670 0.120529 -1.361053 0.242599 0.298554 -1.543770 -0.325056 -0.376351 -1.135708 1.438596 0.123644 -0.249558 -0.852938 -2.673553 -0.775749 -0.017039 0.398248 0.343336 1.232269 -0.487172 -1.792172 1.314997 -2.010783 -0.049200 -0.939478 -0.195510
月 0.650604 -0.205926 0.697084 1.693767 0.231559 0.406116 -1.633675 -0.177473 3.073857 -0.531940 0.977670 -3.098419 -1.492444 -0.494662 -2.533688 -1.031004 -1.142681 1.017925 1.156017 -0.168866 -0.394107 -0.347333 -1.056760 1.702813 -0.524105 -1.564046 1.560275 1.963576 -0.419831 2.384005 1.566015 -1.500988 -1.103742 -0.927130 -0.336846 -2.800489 -0.096414 1.893680 0.405948 -0.333730 0.524902 1.144627 0.253660 -0.920993 2.765015 0.844274 1.802960 0.179569 0.116054 -0.447854 0.967839 2.650224 -3.158542 0.651985 2.001325 0.970558 0.044822 -0.526208 -0.355357 -1.833435 -0.740554 -1.013466 -2.509314 0.281111 -0.258918 -0.975412 1.399200 -1.248386 -0.122366 0.389253 -1.680281 -0.410646 1.969282 1.114809 0.048967
方便 -0.367834 1.045738 -0.782067 0.658982 -0.120278 1.009081 -0.617979 0.910107 0.078316 0.026926 0.208984 -0.286365 1.100552 -0.209236 -0.031536 -0.956194 -0.236173 1.101606 -0.392618 0.228626 -0.518471 1.217848 -0.741837 -1.127482 -0.812111 -1.061949 -0.134228 0.069309 1.108960 1.970335 -0.225854 0.449121 0.474623 1.236379 1.320087 -0.981355 -0.036661 1.297663 0.005557 0.446836 -1.232965 0.500126 -0.705140 0.243084 0.956168 0.012212 -0.464901 0.283940 -0.804375 -1.668958 0.729283 0.405996 -0.638061 0.309466 -0.951455 0.229509 0.105815 0.237941 1.045822 -0.510880 -0.972424 -0.471612 -0.872986 -0.903158 -0.060876 0.006190 -0.085642 0.830245 -0.742028 -0.488484 0.501808 -1.147710 0.477952 -0.970776 0.238699
客人 0.477117 0.473579 0.084994 0.366847 -0.314091 0.431309 -0.052902 -0.297907 0.897041 -0.399589 0.289725 -0.738310 -0.523907 -0.433348 -0.891279 -0.126671 -0.307411 0.512702 0.427310 -0.508846 0.022373 -0.190563 -0.629658 0.754327 -0.462025 -0.271566 0.185329 0.936382 -0.195475 0.343107 0.811901 -0.577314 0.136257 -0.907868 0.069955 -0.208925 0.049851 0.992319 0.234267 0.256148 -0.014722 0.073777 -0.114971 -0.395584 0.620438 0.166636 0.622151 -0.372303 -0.252020 0.045039 -0.004126 0.524840 -1.497160 0.084440 0.367552 0.097006 -0.062913 0.419346 -0.317669 -1.218027 0.191185 -0.210256 -1.339843 -0.194261 -0.076125 -0.244894 0.404051 -0.985644 -0.170554 0.442504 -0.674442 -0.201409 0.772379 0.346892 -0.276672
日 0.751861 -0.309631 0.655759 1.254624 0.305820 0.178383 -1.274292 -0.195369 2.565639 -0.541636 0.653474 -2.425200 -1.300524 -0.483208 -2.246198 -0.742695 -0.976226 0.823427 1.098966 -0.190443 -0.313060 -0.357675 -0.705952 1.515373 -0.377959 -1.312600 1.365434 1.712799 -0.335380 1.954119 1.243478 -1.389701 -1.053324 -0.915705 -0.284374 -2.255969 -0.181131 1.547506 0.236775 -0.161620 0.598188 0.777840 0.373070 -0.853861 2.203449 0.756487 1.477801 0.135039 -0.044525 -0.107962 0.811168 2.319009 -2.684671 0.326259 1.772195 0.857402 -0.015525 -0.289321 -0.577657 -1.575514 -0.466292 -0.689770 -1.939589 0.255439 -0.341715 -0.858558 1.125788 -1.207387 -0.088162 0.396382 -1.534548 -0.148246 1.463567 1.076323 -0.000206
价格 -0.375777 0.178258 -0.419377 0.153575 0.282013 0.522045 -0.743891 0.227285 0.831989 -0.444481 0.548226 -0.662084 0.692953 -0.002551 -0.217609 -0.569833 -0.672641 0.140778 -0.438132 -0.565341 0.291647 0.972312 0.133692 0.136706 -1.190289 -0.770055 -0.533698 0.479814 -0.342723 1.283025 0.268790 0.015705 0.276964 0.587705 0.661856 -0.687212 0.850468 0.431577 -0.140063 0.556320 -0.131197 -0.038606 -0.083469 -0.038515 0.001858 0.308295 -0.074701 0.291195 -0.556760 -0.015575 0.242870 0.304485 -0.027994 0.501171 -0.519846 0.353122 0.120687 -0.767662 1.046028 0.058111 -0.636983 -0.732943 -1.712599 -0.506699 -0.675939 -0.155704 0.006121 0.042855 -0.150395 -1.281493 0.814530 -1.153981 0.105821 -0.301681 0.115334
差 0.420987 1.049057 -0.645728 0.340469 -0.506416 0.842619 -0.567263 0.405088 0.297183 -0.209860 0.163205 0.038586 0.586260 0.068139 -0.466183 -0.020151 -0.886459 -0.009045 -0.490068 -0.870432 0.300789 0.979473 -0.753713 -0.958179 -1.224526 -0.179298 -0.844364 0.213989 0.096320 0.576499 0.735154 -0.096793 0.373748 0.660101 0.918131 0.126807 0.068051 0.439883 -0.144994 0.275032 -0.477868 -0.076477 -0.524516 0.312194 -0.208150 -0.439822 -0.424819 0.226757 -0.776406 -1.109745 0.219996 -1.277489 0.399692 0.514218 -0.759851 -0.226714 -0.399818 -0.631686 1.484439 0.210452 -0.048734 -0.857332 -1.632378 -0.756940 0.307908 0.621905 0.576802 0.790394 -0.628315 -1.220280 0.660922 -1.919993 0.199876 -0.800704 -0.218651
元 0.050577 0.451438 0.311365 0.457170 -0.316322 0.325352 -0.614009 0.205696 0.702785 -0.267066 0.526458 -0.939574 -0.068827 -0.360939 -0.341226 -0.732801 -0.497820 0.538236 0.906727 0.161748 -0.316591 -0.007464 -0.036586 1.659326 -0.066465 -0.629691 0.682682 0.737805 -0.416935 0.932429 0.368978 -0.119640 -0.319793 -0.910143 -0.368320 -1.642245 0.269921 0.719965 -0.229713 0.548645 0.193467 0.609550 -0.442955 -0.096602 0.940142 1.288870 0.829559 0.011772 0.223822 0.435273 0.452893 1.305874 -1.294699 0.027919 -0.227433 0.560156 -0.250102 -0.283228 -0.215265 -1.020521 -0.195955 -0.359239 -1.116840 -0.443896 -0.136740 -0.797681 -0.189303 -0.937900 -0.041264 -0.117442 -0.638638 -0.147096 0.808413 0.314365 0.348506
没 0.654549 1.472725 -0.064019 0.287700 -1.299106 0.726090 -0.046350 0.204580 -0.036052 -0.208866 0.143739 0.213560 0.214052 -0.212771 -0.290197 -0.090875 -0.415964 0.400820 0.560661 -0.524236 -0.104269 0.096233 -0.750895 0.554269 -0.230101 0.261093 -0.274367 0.353703 0.095003 -0.384476 0.700150 0.059768 0.600302 -1.060683 0.214480 -0.011689 -0.350730 0.493611 -0.037160 0.351589 -0.460480 0.039471 -0.909754 0.197239 0.062823 0.432024 0.346771 -0.427592 -0.059177 -0.004442 -0.211436 -0.789468 -0.969734 -0.076961 -1.014362 -0.360037 -0.433525 0.237612 0.143413 -1.134102 0.616345 -0.136235 -1.248542 -0.966509 0.462527 -0.097819 0.062064 -0.536573 -0.380626 0.098116 -0.338076 -0.683437 0.885239 -0.291529 -0.233216
晚上 0.708076 1.330536 0.171394 0.687834 -1.372043 0.385344 -0.212884 0.474832 -0.150990 0.027242 0.002071 0.236120 0.134647 -0.089750 -0.352020 -0.137580 -0.355244 0.384858 0.716527 -0.257772 -0.337597 0.154940 -0.701862 0.246416 -0.179311 -0.142978 0.031249 0.213629 0.442069 -0.006626 0.159992 0.207627 0.225753 -0.826419 0.072966 -0.637375 -0.605818 0.581317 -0.018877 0.132903 -0.498713 0.409167 -0.885816 0.500422 0.361403 0.256471 0.174143 -0.193696 -0.124687 -0.213851 -0.011301 -0.421494 -0.880125 -0.222489 -0.765017 -0.269218 -0.474512 -0.041996 -0.068808 -0.663669 0.313987 -0.198871 -1.115177 -0.747382 0.456297 -0.179420 0.074926 0.113050 -0.306912 -0.172827 -0.213908 -0.660248 0.638459 -0.191272 -0.159710
房 -0.043724 0.565305 -0.031576 -0.047026 -1.336411 0.127566 -0.568209 0.346268 0.772246 -0.423403 -0.004278 0.078962 0.572730 0.121567 0.156512 -0.067707 -1.075536 -0.289965 0.598592 -1.421180 -0.599085 0.797966 0.462420 1.429882 -0.696410 0.502607 -1.785266 0.030455 -0.919021 -0.291411 0.223446 0.379124 0.927316 -1.533673 0.502193 -1.423052 0.578950 -0.521132 0.120496 -0.114699 0.663970 -0.625265 -0.688586 1.041605 -1.139112 1.870077 0.929854 -0.843353 0.295068 2.489693 -0.738727 -0.496784 -1.315685 -0.172544 -1.982131 -0.050311 -0.716083 -1.381468 0.652198 -0.119512 0.182598 0.338284 -3.603697 -0.617388 -1.290266 -0.249736 -0.427373 -0.308942 0.328508 -1.842326 0.870563 -0.968404 0.363576 0.025506 -0.414237
年 0.831946 -0.187587 0.596789 1.693435 0.465709 0.521218 -1.982891 0.015140 3.179365 -0.658204 0.858767 -2.989058 -1.268209 -0.376257 -2.760218 -1.150791 -1.447774 0.970198 0.913155 -0.237163 -0.340560 -0.072962 -1.039110 1.064610 -0.670775 -1.893116 1.502459 1.939565 -0.087877 2.734506 1.712970 -1.672979 -1.143980 -0.409860 -0.047379 -2.846605 -0.267309 1.831352 0.264899 -0.338101 0.517921 1.026852 0.271699 -0.971099 2.798295 0.567410 1.486079 0.448375 -0.293330 -0.753730 1.179717 2.324363 -2.747025 0.658085 1.967225 0.911043 0.022979 -0.716286 0.070912 -1.599835 -0.754758 -1.257845 -2.347337 0.176797 -0.088247 -0.778785 1.629962 -0.689119 -0.245177 0.009644 -1.499287 -0.721061 1.759544 0.862206 -0.023419
时 0.612378 1.014058 0.030498 0.332775 -1.127458 0.668932 0.392367 -0.316269 0.386607 -0.244402 0.227767 -0.210004 -0.393291 -0.652381 -0.476316 -0.020430 -0.182801 0.694768 0.830426 -0.647288 -0.044445 -0.248678 -0.711271 1.235957 -0.430141 0.197174 0.050780 0.954675 -0.465432 -0.230813 0.648730 -0.464623 0.375785 -1.830497 -0.091181 -0.016791 -0.051264 1.202003 0.167812 0.647069 -0.192962 -0.093061 -0.501554 -0.078336 0.337263 0.513541 0.778773 -0.909568 -0.251861 0.490085 -0.188417 0.476675 -1.925072 -0.090653 -0.188627 -0.070219 -0.345452 0.675859 -0.813901 -1.778621 0.552470 0.106134 -1.820333 -0.609388 -0.048005 -0.545839 -0.007502 -1.653673 -0.205435 0.621716 -0.763551 -0.060862 0.949580 0.324526 -0.342576
环境 -0.090882 0.637563 -0.595688 0.365018 -0.202772 0.591781 -0.629876 0.580674 0.393420 -0.114655 0.165497 -0.168824 0.718996 0.188209 -0.348824 -0.390425 -0.786640 0.284214 -0.637415 -0.716801 0.119986 1.234203 -0.508230 -1.077756 -1.206868 -0.652543 -0.803594 0.264181 0.214020 1.302811 0.239661 -0.105303 0.492226 0.862365 1.073526 -0.527048 0.263365 0.606292 0.016507 0.200024 -0.640059 -0.129878 -0.442009 0.283695 -0.089807 -0.254298 -0.457079 0.149464 -0.906837 -0.832369 0.328000 -0.577686 0.010290 0.526979 -0.793908 -0.058904 -0.084167 -0.728227 1.377838 0.144674 -0.573033 -0.819681 -1.931817 -0.690417 -0.186357 0.271093 0.345019 0.834393 -0.501862 -1.391988 1.041764 -1.586818 0.040338 -0.687154 -0.180741
里 0.558001 1.380434 -0.113532 0.370934 -1.372620 0.512575 -0.270437 0.781058 -0.390385 0.053203 -0.090788 0.542974 0.652560 0.170287 -0.105694 -0.069416 -0.555795 0.300961 0.142978 -0.584972 -0.203001 0.762760 -0.594294 -0.455437 -0.552599 -0.195594 -0.670292 0.175596 0.427665 0.229716 0.159148 0.282503 0.723107 -0.410067 0.641833 -0.558495 -0.344120 0.503691 0.012573 0.203107 -0.688289 -0.009250 -1.096032 0.591953 -0.367552 0.132490 -0.144726 -0.240330 -0.498745 -0.202195 -0.156869 -1.207502 -0.417273 -0.141755 -1.487654 -0.478157 -0.472305 -0.413743 0.578189 -0.508381 0.226123 -0.381948 -1.868420 -0.906147 0.360390 0.110670 0.076994 0.632785 -0.343489 -0.879909 0.516777 -1.188000 0.343427 -0.591876 -0.279390
太 0.496938 1.111181 -0.404096 0.450589 -0.522646 0.751594 -0.597882 0.463381 0.243470 -0.150610 0.097947 0.007195 0.489482 0.083145 -0.440964 -0.171332 -0.829557 0.116921 -0.273943 -0.647304 0.178599 0.867874 -0.720246 -0.773234 -1.005188 -0.338242 -0.647336 0.276809 0.261086 0.588417 0.697835 -0.014337 0.374278 0.455793 0.828562 -0.109997 -0.059266 0.456221 -0.118253 0.193693 -0.489083 0.054124 -0.572524 0.239390 0.007832 -0.283634 -0.338034 0.279852 -0.612093 -0.947549 0.262874 -1.059892 0.131509 0.383196 -0.844681 -0.252495 -0.372981 -0.538147 1.247125 0.016107 0.041731 -0.784749 -1.423654 -0.794746 0.398663 0.418086 0.494646 0.840358 -0.578360 -1.056867 0.470735 -1.758979 0.315453 -0.717706 -0.171964
知道 0.390360 0.915153 -0.122171 0.151629 -0.727874 0.675011 -0.059771 -0.007454 0.284922 -0.307915 0.287465 -0.167084 0.137704 -0.188924 -0.348776 -0.139530 -0.366376 0.382961 0.285494 -0.524093 0.053451 0.151608 -0.540433 0.568993 -0.418171 0.120914 -0.210044 0.545715 -0.128936 -0.057897 0.639759 -0.137474 0.453815 -0.812322 0.253491 -0.033059 -0.036676 0.543363 -0.036227 0.383394 -0.355172 -0.033152 -0.516978 -0.055710 0.117511 0.354277 0.317224 -0.351341 -0.107183 0.003265 -0.035535 -0.221110 -0.893446 0.082243 -0.539346 -0.165018 -0.247678 0.199884 0.130481 -0.984967 0.325136 -0.179767 -1.296353 -0.691173 0.092961 -0.095771 0.080335 -0.691394 -0.255701 0.058824 -0.214456 -0.573773 0.683892 -0.174753 -0.144964
下次 -0.321317 -0.275337 -0.197591 0.461984 1.169876 0.148492 -0.886985 -0.526764 2.035350 -0.903795 0.737626 -1.679005 0.012947 -0.157283 -1.433486 -0.587161 -0.808647 0.237836 -0.455628 -0.967897 0.182114 0.214919 -0.369932 0.455931 -1.171826 -0.938051 -0.428599 0.710367 0.084205 1.171816 1.059237 -0.363400 0.089236 0.926940 0.822099 -0.435346 0.637170 0.463378 0.313102 -0.059008 0.252038 0.444743 0.452635 -0.534393 0.810868 0.103572 0.534248 0.519299 -0.470612 -0.009138 -0.052305 0.541610 -0.683498 0.815238 0.504380 0.388321 0.702585 -0.262775 1.353404 0.099316 -0.670273 -0.629838 -1.214317 0.146153 -0.850457 0.144611 0.841655 0.064773 -0.073542 -0.742172 0.006554 -0.949853 0.510705 0.297473 -0.292371
不好 0.345111 1.195217 -0.460043 0.267109 -0.943875 0.728746 -0.126037 0.442963 -0.137433 -0.124002 0.079433 0.354806 0.581855 0.063222 -0.123674 -0.038111 -0.563812 0.233363 -0.191996 -0.755876 -0.008293 0.777523 -0.653240 -0.634763 -0.887770 -0.011363 -0.822550 0.173304 0.210852 0.190765 0.363606 0.074851 0.658447 -0.015742 0.704975 0.009985 -0.102735 0.509333 0.015330 0.195767 -0.648046 -0.209457 -0.790812 0.481512 -0.390854 -0.073290 -0.331606 -0.251963 -0.630097 -0.500429 -0.064937 -1.101051 -0.217831 0.156907 -1.026557 -0.425549 -0.389324 -0.321578 0.870653 -0.258943 0.122336 -0.440980 -1.767767 -0.849964 0.227778 0.285479 0.175476 0.418955 -0.472193 -0.773220 0.586455 -1.324834 0.237959 -0.600633 -0.369854
干净 0.138986 1.306474 -0.558311 0.364289 -1.117286 0.617285 -0.496259 0.944999 -0.204499 -0.027757 -0.061331 0.452519 1.024327 0.250636 -0.029357 -0.220477 -0.842197 0.228215 -0.364253 -0.897488 -0.120068 1.312763 -0.485984 -0.955159 -1.071657 -0.369652 -1.220487 0.044250 0.356798 0.753852 0.132428 0.271689 0.894492 0.304413 1.074162 -0.630600 -0.022464 0.454618 0.010144 0.203330 -0.704152 -0.264738 -1.081400 0.798522 -0.624138 0.038955 -0.431675 -0.144556 -0.814794 -0.343875 -0.064140 -1.371531 0.014159 0.154962 -1.761199 -0.410611 -0.412890 -0.925800 1.386445 0.000645 -0.167991 -0.622453 -2.421200 -0.962589 0.044551 0.307199 0.166757 1.021457 -0.473382 -1.687381 1.209932 -1.736919 0.050131 -0.850966 -0.346802
2008 0.516124 -0.126457 0.535105 1.604838 0.484696 0.381701 -2.054674 0.066707 3.159811 -0.601192 0.942416 -3.086528 -1.187919 -0.287237 -2.670826 -1.073352 -1.307631 0.939908 0.849132 -0.010575 -0.280096 -0.003653 -1.322933 1.071485 -0.772180 -1.880840 1.554002 1.915926 -0.042830 2.924412 1.819295 -1.638778 -1.190644 -0.168133 0.029598 -2.746327 -0.054789 1.723878 0.350287 -0.311584 0.305198 0.957870 0.233622 -1.094409 2.743525 0.352785 1.563902 0.606276 -0.022165 -1.110154 1.177996 2.213654 -2.724976 0.776631 1.842951 0.826829 0.139608 -0.750876 0.384760 -1.739773 -0.850393 -1.253944 -2.370545 0.144021 -0.075837 -0.823796 1.675424 -0.825294 -0.254112 0.161650 -1.524168 -0.720087 2.012147 0.802618 0.039931
点 0.854563 1.105885 0.307478 0.892798 -1.105930 0.411532 -0.190778 0.291108 0.259284 0.070577 0.174988 -0.269897 -0.358298 -0.453420 -0.697912 -0.331205 -0.297547 0.598733 1.038699 0.014539 -0.271030 -0.189983 -0.771058 0.789670 -0.050502 -0.307394 0.698387 0.623289 0.190859 0.363653 0.324147 -0.199459 -0.222883 -1.099051 -0.300633 -0.782564 -0.578077 1.046481 -0.106203 0.430498 -0.326514 0.611901 -0.633533 0.131733 1.028747 0.326237 0.500167 -0.156311 -0.095284 -0.418480 0.212969 0.503430 -1.372456 -0.116222 -0.102955 0.112468 -0.386062 0.242214 -0.593086 -1.087889 0.248487 -0.212731 -0.770737 -0.581521 0.503533 -0.548769 0.222725 -0.503508 -0.410229 0.414979 -0.820994 -0.313961 0.993479 0.176309 -0.003643
这家 -0.303899 -0.510744 -0.261166 0.328329 1.090986 0.302479 -0.657543 -0.301716 1.697997 -0.482328 0.736906 -1.417590 0.072874 -0.005562 -1.078332 -0.559870 -0.683525 0.312929 -0.687258 -0.847230 0.362060 0.604734 -0.268422 -0.064700 -1.273534 -0.909523 -0.386885 0.815609 -0.201192 1.494744 0.523498 -0.431333 -0.000739 0.942384 0.795231 -0.534666 0.726488 0.752626 0.085016 0.177050 -0.107265 0.146385 0.531139 -0.412464 0.492535 -0.029336 0.181190 0.381195 -0.745122 -0.330465 0.226297 0.792450 -0.605042 0.719269 0.681608 0.444974 0.507270 -0.377172 0.940457 0.095380 -0.846771 -0.706277 -1.571607 0.018618 -0.996980 0.018299 0.573040 -0.008626 -0.127702 -0.807230 0.507332 -0.866691 0.141652 0.166945 -0.147376
点评 0.440285 -0.513608 0.352321 1.090990 0.736903 0.091879 -1.320478 -0.228715 2.371306 -0.556249 0.718537 -2.366416 -1.097032 -0.241637 -1.965178 -0.799752 -0.918423 0.595250 0.466948 -0.053612 -0.082253 -0.251440 -0.587541 0.815373 -0.370208 -1.120706 1.076959 1.223204 -0.219342 1.839793 1.287636 -1.155757 -0.918855 -0.024142 -0.092564 -1.735101 0.003203 1.121882 0.138259 -0.456983 0.575201 0.828532 0.495441 -0.765827 2.045168 0.282711 1.166700 0.565591 -0.123829 -0.645243 0.886170 1.693957 -1.750216 0.611731 1.705908 0.736258 0.306392 -0.538035 0.168640 -0.877967 -0.700557 -0.861900 -1.218208 0.405498 -0.176232 -0.478039 1.291737 -0.540315 -0.139629 0.189035 -0.979878 -0.349856 1.284209 0.681217 -0.046086
问题 0.486725 0.649812 0.017059 0.311620 -0.454088 0.485918 -0.116739 -0.151786 0.450705 -0.355769 0.189753 -0.328458 -0.204714 -0.138959 -0.660457 0.014360 -0.305619 0.247030 0.225303 -0.540207 0.089245 0.026111 -0.533032 0.438853 -0.423536 -0.056637 0.007920 0.633379 -0.130067 0.005930 0.773875 -0.385799 0.283282 -0.648096 0.146512 -0.051684 -0.054494 0.579282 0.167815 0.205370 -0.134874 0.076647 -0.314414 -0.229887 0.253608 0.060960 0.346133 -0.205282 -0.200862 -0.127152 -0.072620 -0.217409 -0.836519 0.104483 -0.008187 -0.190474 -0.173949 0.196493 0.039151 -0.902787 0.340174 -0.315025 -1.173690 -0.414309 0.289299 -0.034503 0.336921 -0.586689 -0.155382 0.173558 -0.355182 -0.452974 0.676643 0.036703 -0.233839
有点 0.354011 1.136428 -0.275990 0.500623 -0.987200 0.543391 -0.495223 0.804003 -0.167946 0.072131 0.024871 0.241790 0.698324 0.239936 -0.192313 -0.260991 -0.622068 0.327249 -0.088863 -0.471197 -0.102382 1.021358 -0.550596 -0.733440 -0.734376 -0.492306 -0.564953 0.227844 0.441282 0.783210 0.067058 0.206805 0.523456 0.152986 0.747187 -0.717258 -0.178468 0.616505 -0.102599 0.190123 -0.762652 0.047893 -0.888160 0.511836 -0.158493 -0.063728 -0.358583 -0.020180 -0.667438 -0.584018 0.174258 -0.868273 -0.205244 0.072121 -1.174547 -0.244609 -0.320456 -0.629840 0.839321 -0.225576 -0.144803 -0.601891 -1.798805 -0.793054 0.284691 0.099210 0.161178 0.855550 -0.415519 -1.107608 0.763854 -1.379004 0.157919 -0.621554 -0.106292
装修 0.291962 0.469437 -0.144712 0.368371 -0.650935 0.153167 -0.511433 0.693328 0.165694 0.146847 0.004632 -0.004573 0.381469 0.213922 -0.316795 -0.044334 -0.669323 0.066692 -0.110082 -0.521189 -0.040408 0.896659 -0.263929 -0.588905 -0.630348 -0.503396 -0.544847 0.171960 0.097685 0.895836 0.009898 0.001906 0.213199 0.140260 0.478078 -0.918519 -0.011421 0.469008 -0.035377 0.054677 -0.274811 -0.097667 -0.432986 0.507618 -0.290040 -0.113928 -0.188842 -0.089909 -0.552044 -0.202078 0.076286 -0.466853 -0.073525 0.094077 -0.690062 -0.059127 -0.242891 -0.883024 0.616151 0.093876 -0.299683 -0.541736 -1.789649 -0.238972 -0.107180 0.013869 0.251108 0.805963 -0.210354 -1.170592 0.746693 -1.089788 -0.025761 -0.322756 -0.120829
免费 -0.049283 0.436121 0.193380 0.099899 -0.668843 0.261583 -0.421288 0.127821 0.450372 -0.335262 0.050348 -0.463404 -0.022310 -0.088146 -0.135443 -0.058400 -0.794576 0.070072 0.376479 -0.659410 -0.259952 0.188788 0.021878 0.826277 -0.388324 0.047896 -0.391218 0.661469 -0.636724 0.162596 0.784549 -0.460264 0.467528 -0.969597 -0.018319 -1.073376 0.370886 0.059437 0.418046 -0.003467 0.570733 -0.314828 -0.547674 0.143840 -0.106011 1.008827 0.704038 -0.331060 0.241717 1.166245 -0.160880 -0.135379 -1.094606 -0.171862 -0.753507 -0.104790 -0.696842 -0.559590 0.444975 -0.829517 0.443338 -0.052249 -2.161173 -0.227885 -0.129962 -0.110448 0.180703 -0.544343 0.082818 -0.846138 -0.124038 -0.409108 0.465218 0.228747 -0.212643
卫生间 0.630710 1.719346 -0.282606 0.475403 -1.581728 0.633258 -0.633300 0.995045 -0.359103 0.045981 -0.163034 0.640313 0.888014 0.364478 -0.085485 -0.102027 -0.858350 0.133979 0.016317 -0.737770 -0.163089 1.153957 -0.700437 -0.790866 -0.720527 -0.220196 -0.980629 0.076786 0.485846 0.340133 0.314144 0.362472 0.784353 -0.162095 0.929075 -0.675467 -0.344645 0.295467 -0.049629 0.032157 -0.730815 -0.055191 -1.309775 0.742927 -0.522981 -0.004677 -0.301528 -0.119053 -0.613925 -0.395716 -0.031793 -1.799647 -0.079102 -0.001911 -1.843386 -0.489625 -0.629776 -0.900892 1.188067 -0.239284 0.201579 -0.640857 -2.268193 -1.007199 0.510644 0.332883 0.210228 1.071142 -0.452636 -1.456427 0.874121 -1.815345 0.269649 -0.887439 -0.297192
吃 0.477414 1.347763 -0.023640 0.677214 -0.625685 0.767946 -0.279467 0.600434 0.054542 0.066392 0.168611 -0.156713 0.214395 -0.466347 -0.484238 -0.597029 -0.295933 0.699868 0.326895 0.131671 -0.046313 0.255037 -0.817165 -0.145263 -0.112561 -0.534638 0.343579 0.376569 0.512649 0.756660 0.486543 0.009767 0.079720 0.112999 0.281339 -0.186203 -0.404866 1.079055 -0.115628 0.564764 -0.573012 0.327670 -0.726609 0.116712 0.734653 0.069286 -0.121857 0.138169 -0.183837 -1.164161 0.368640 -0.226715 -0.519477 0.324653 -0.605898 0.122689 -0.173784 0.348850 0.526814 -0.791317 0.122555 -0.461606 -0.142211 -0.909320 0.754749 -0.158634 0.331414 0.247501 -0.858487 -0.061077 -0.456906 -0.781867 0.782705 -0.369250 -0.006355
地方 0.102412 0.840268 -0.224486 0.388932 -0.289261 0.573594 -0.473813 0.380627 0.289596 -0.157481 0.208432 -0.210784 0.563856 0.085472 -0.321123 -0.473697 -0.489711 0.440447 -0.172217 -0.369439 -0.006263 0.632214 -0.528953 -0.346304 -0.584255 -0.432567 -0.291649 0.275601 0.354701 0.712416 0.314550 0.135601 0.442896 0.350697 0.780596 -0.444917 -0.028216 0.508685 -0.021539 0.156059 -0.620122 0.178664 -0.579926 0.077098 0.213055 0.138230 -0.147973 0.195325 -0.393066 -0.601635 0.251866 -0.437461 -0.361359 0.289466 -0.732681 -0.086864 -0.092126 -0.196619 0.848767 -0.312308 -0.196176 -0.501889 -1.114477 -0.738086 0.118578 0.122364 0.173597 0.443552 -0.417868 -0.634016 0.357769 -1.038209 0.293558 -0.497822 -0.022813
态度 0.339823 1.309405 -0.728318 -0.068964 -0.931908 0.967675 0.336764 0.002532 -0.154841 -0.285898 0.068876 0.283266 0.120911 -0.351185 -0.100090 0.031512 -0.343858 0.487334 -0.180722 -0.865775 0.157355 0.405856 -0.917525 -0.270241 -0.923790 0.442388 -0.562446 0.427937 -0.187020 -0.144583 0.783500 -0.406080 0.765247 -0.635351 0.475400 0.884901 -0.071079 0.770565 0.095268 0.539921 -0.610603 -0.573074 -0.596064 0.051409 -0.173111 -0.134593 -0.132054 -0.713425 -0.584796 -0.522802 0.049834 -0.745500 -0.625923 0.351540 -0.696765 -0.383610 -0.431204 0.362789 0.503387 -0.890410 0.377132 -0.309382 -1.517025 -1.002464 0.258240 0.194255 0.151103 -0.753580 -0.577917 0.005839 0.078763 -0.946711 0.586653 -0.618397 -0.448968
已经 0.414234 0.647544 0.031237 0.340068 -0.604075 0.417298 -0.198913 0.014322 0.506393 -0.254791 0.227338 -0.411056 -0.119482 -0.257433 -0.595557 -0.163383 -0.413056 0.428596 0.439831 -0.451385 -0.102506 0.040166 -0.498512 0.681572 -0.372638 -0.167395 0.020553 0.591867 -0.074032 0.280829 0.560112 -0.236156 0.226274 -0.870495 0.075919 -0.465347 -0.073539 0.715705 0.035646 0.263416 -0.127927 0.108475 -0.383212 -0.066571 0.399355 0.384230 0.509766 -0.311461 -0.139167 0.102224 -0.022390 0.212664 -1.144541 0.008218 -0.203361 -0.003851 -0.152905 0.082035 -0.120884 -0.954795 0.174601 -0.196546 -1.345707 -0.369904 -0.033274 -0.275339 0.201723 -0.663885 -0.164149 0.099640 -0.352657 -0.391971 0.728418 0.112254 -0.155994
实在 0.239998 0.768933 -0.252909 0.340097 -0.353101 0.555562 -0.557407 0.181559 0.509444 -0.339664 0.243998 -0.287600 0.419410 0.115909 -0.466333 -0.199488 -0.708825 0.040788 -0.176959 -0.689085 0.133788 0.583083 -0.461072 -0.138536 -0.791719 -0.160124 -0.533804 0.356171 -0.074855 0.340523 0.645971 -0.079863 0.328604 0.167141 0.643921 -0.305013 0.105954 0.218374 -0.038519 0.118817 -0.283699 0.106441 -0.428253 0.123231 -0.024383 0.148863 0.027605 0.189237 -0.333452 -0.347426 0.122250 -0.716106 -0.145506 0.346383 -0.587779 -0.154539 -0.277097 -0.534630 1.047165 -0.108748 0.003727 -0.568009 -1.474421 -0.655342 0.098422 0.279762 0.351185 0.227927 -0.277424 -0.872760 0.350327 -1.286442 0.344259 -0.421175 -0.099695
位置 -0.152746 0.731368 -0.507192 0.397576 -0.113489 0.722481 -0.526537 0.574445 0.138527 -0.035709 0.155052 -0.224838 0.793365 0.124418 -0.194635 -0.595101 -0.492529 0.629828 -0.529523 -0.350619 -0.040360 1.133519 -0.563500 -0.996814 -0.970808 -0.776689 -0.323344 0.250592 0.482842 1.450378 0.040363 -0.011558 0.454038 0.823823 1.002130 -0.653617 0.108453 0.893813 -0.046321 0.304157 -0.926509 0.068694 -0.472259 0.163126 0.255650 -0.107821 -0.514026 0.192242 -0.774688 -1.130892 0.610114 -0.097560 -0.235151 0.409464 -0.642451 -0.068513 -0.046058 -0.298174 0.990178 -0.163552 -0.616148 -0.696130 -1.433406 -0.820585 -0.019464 0.143767 0.087209 0.699717 -0.528718 -0.925264 0.809178 -1.293994 0.073688 -0.790711 0.073513
退房 0.670928 1.255500 0.070155 0.452544 -1.150792 0.689164 0.249988 -0.221106 0.339292 -0.244486 0.288419 -0.283275 -0.377653 -0.598331 -0.554228 -0.177652 -0.202242 0.762863 0.887431 -0.493949 -0.127673 -0.292854 -0.859109 1.257127 -0.261760 0.184502 0.321963 0.917039 -0.245689 -0.167329 0.737148 -0.415549 0.315473 -1.780872 -0.162722 -0.147881 -0.231599 1.092915 0.053034 0.642656 -0.326205 0.128844 -0.620485 -0.116775 0.590923 0.545250 0.770962 -0.720420 -0.099258 0.172954 -0.057759 0.467966 -1.886865 -0.112880 -0.225987 -0.089485 -0.420148 0.688198 -0.721788 -1.744899 0.598489 0.034173 -1.441697 -0.782926 0.224978 -0.527921 0.047132 -1.566576 -0.311994 0.727014 -0.879257 -0.110920 1.068016 0.192571 -0.198612
空调 0.716861 1.598239 -0.064055 0.450922 -1.381103 0.561954 -0.380237 0.501392 -0.238903 -0.218868 -0.031634 0.361965 0.452140 0.091967 -0.360395 0.030830 -0.635890 0.085141 0.331352 -0.679372 -0.229846 0.414168 -0.706131 -0.069008 -0.443983 0.080957 -0.527016 0.088209 0.460118 -0.335553 0.582741 0.214550 0.641342 -0.500212 0.405290 -0.332230 -0.548806 0.189495 0.051149 0.005492 -0.522699 0.211058 -1.019496 0.503376 -0.143534 0.221873 0.066628 -0.090665 -0.208658 -0.254141 -0.233928 -1.397112 -0.427583 -0.082595 -1.266921 -0.572718 -0.531732 -0.298553 0.674413 -0.485147 0.510302 -0.392479 -1.498671 -0.966996 0.621385 0.245333 0.168711 0.366381 -0.306518 -0.557103 0.080401 -1.250463 0.653829 -0.586903 -0.246500
发现 0.533374 1.194478 -0.027008 0.334222 -1.259219 0.486279 -0.020807 0.230203 -0.051666 -0.119447 0.029970 0.272393 0.182401 -0.103818 -0.205800 -0.037502 -0.364957 0.357513 0.499620 -0.592435 -0.196574 0.228375 -0.571494 0.419256 -0.370776 0.168164 -0.382854 0.402470 0.000026 -0.223640 0.352942 0.014360 0.555080 -1.098184 0.248122 -0.305657 -0.280966 0.522565 0.023541 0.246581 -0.405142 -0.009681 -0.810730 0.325374 -0.098089 0.447736 0.327637 -0.462774 -0.187311 0.239461 -0.217113 -0.528044 -0.995272 -0.136018 -0.908343 -0.337795 -0.457051 -0.013281 -0.035305 -0.902326 0.435557 -0.058704 -1.669470 -0.786950 0.173750 -0.155039 -0.011727 -0.403941 -0.193004 -0.204990 -0.045637 -0.610904 0.577892 -0.175874 -0.266618
选择 -0.206035 -0.256312 -0.079209 0.493438 0.989718 0.207286 -0.751559 -0.199055 1.672418 -0.535696 0.596285 -1.422956 -0.069723 -0.202551 -1.195568 -0.630589 -0.676042 0.337062 -0.335951 -0.626317 0.056832 0.285264 -0.308678 0.208612 -0.972981 -0.994864 -0.182096 0.681749 0.069201 1.402069 0.661820 -0.357175 -0.085414 0.777250 0.622971 -0.761007 0.465616 0.688561 0.141996 0.038413 0.160194 0.366299 0.416725 -0.360338 0.784515 0.132856 0.465185 0.409761 -0.459600 -0.300258 0.157185 0.786147 -0.788276 0.599351 0.564203 0.478225 0.555355 -0.241261 0.916862 -0.073054 -0.697884 -0.601327 -1.177929 0.083378 -0.786102 -0.003907 0.653485 0.086285 -0.121059 -0.571905 0.049198 -0.776475 0.431220 0.247978 -0.152956
大堂 0.357401 1.230324 -0.292059 0.209525 -1.127948 0.702627 -0.044160 0.334111 -0.160473 -0.070224 0.098174 0.294687 0.377124 -0.046115 -0.121320 -0.119129 -0.421382 0.406603 0.047097 -0.687089 -0.007457 0.581213 -0.661652 -0.202581 -0.584474 0.036549 -0.537100 0.366745 0.038384 0.127415 0.341777 -0.062757 0.665292 -0.567236 0.520946 -0.050398 -0.173765 0.650034 0.015667 0.384721 -0.671028 -0.236389 -0.818826 0.236107 -0.223228 0.055036 -0.051146 -0.505287 -0.496485 -0.253547 -0.021816 -0.803434 -0.621029 0.097749 -0.951313 -0.377100 -0.419256 -0.028633 0.395992 -0.789688 0.282437 -0.347053 -1.768107 -0.889008 0.263106 0.042279 0.045109 -0.159971 -0.429527 -0.388486 0.349049 -0.930190 0.414973 -0.528130 -0.248119
以后 -0.053876 0.016976 -0.103787 0.330494 0.495740 0.267421 -0.522707 -0.396366 1.422284 -0.647918 0.572125 -1.113315 0.037218 -0.106749 -0.966860 -0.354336 -0.624853 0.201143 -0.199176 -0.818995 0.194119 0.159397 -0.341839 0.547712 -0.879335 -0.471334 -0.388189 0.700290 -0.130539 0.650266 0.808057 -0.232449 0.195094 0.239019 0.579165 -0.331333 0.485433 0.390290 0.156333 0.076053 0.048647 0.245815 0.154292 -0.355643 0.479470 0.246669 0.490238 0.254604 -0.349901 0.134263 -0.074285 0.310885 -0.725389 0.492915 0.193102 0.209245 0.303450 -0.156970 0.787014 -0.242640 -0.298171 -0.442931 -1.289401 -0.115139 -0.605964 0.054422 0.527516 -0.261907 -0.069612 -0.506282 0.026197 -0.718390 0.459798 0.224270 -0.235835
10 0.382088 0.594711 0.475627 0.773148 -0.593706 0.312114 -0.523288 0.250090 0.532561 -0.003227 0.416716 -0.983488 -0.383281 -0.393733 -0.763479 -0.679166 -0.221987 0.775389 0.999488 0.289280 -0.370682 -0.151606 -0.541567 1.021721 0.061474 -0.711043 1.171880 0.852735 0.101564 1.146712 0.272536 -0.279202 -0.485989 -0.848457 -0.346444 -1.595897 -0.355895 1.100801 -0.150446 0.312402 -0.262209 0.788149 -0.524638 -0.266571 1.410455 0.698640 0.678773 0.060286 0.062965 -0.419026 0.620409 1.306008 -1.554531 -0.036816 0.249652 0.481626 -0.297999 0.121558 -0.628554 -1.229803 -0.155244 -0.394309 -0.710346 -0.444792 0.256863 -0.756734 0.163466 -0.693039 -0.136572 0.395494 -0.860560 0.025132 0.931155 0.261948 0.365914
交通 -0.433926 1.161489 -0.548324 0.505479 0.212377 0.917782 -0.616672 0.750181 0.150550 -0.089457 0.009715 -0.423272 1.175828 0.092893 -0.213159 -1.151332 -0.582432 1.166689 -0.556070 -0.189837 -0.314584 1.052227 -0.794285 -1.328275 -1.136207 -1.373936 -0.202084 0.009388 1.215744 2.127455 -0.028667 0.273124 0.626645 1.313392 1.528212 -0.772205 0.056913 1.334821 -0.092422 0.198141 -1.377985 0.222461 -0.723816 0.076547 0.710421 0.142422 -0.568618 0.558704 -0.902808 -1.569350 0.946666 0.154661 -0.503037 0.356501 -0.858148 -0.017081 0.353496 -0.021662 1.191955 -0.171188 -1.053987 -0.739725 -1.138622 -1.101610 -0.141486 0.217813 -0.027324 1.134647 -0.758953 -0.938523 0.949668 -1.493383 0.026843 -0.996340 0.223804
餐厅 0.372405 1.162024 -0.262666 0.459028 -0.755709 0.725055 -0.239264 0.565142 -0.023970 0.035806 0.121837 0.028289 0.267589 -0.222548 -0.327067 -0.353135 -0.361733 0.547003 0.070104 -0.171001 -0.030462 0.542815 -0.773485 -0.473705 -0.467573 -0.440808 -0.017457 0.347410 0.343356 0.772952 0.383813 -0.104790 0.259482 0.015477 0.469512 -0.188072 -0.231182 0.932200 -0.056815 0.467931 -0.609870 0.056506 -0.673917 0.172635 0.353636 -0.172575 -0.231115 -0.123538 -0.489712 -0.974656 0.317054 -0.375033 -0.464902 0.276247 -0.632491 -0.040572 -0.252400 0.058500 0.550215 -0.666714 0.012027 -0.493145 -0.949004 -0.773429 0.469756 -0.056281 0.246449 0.219889 -0.658289 -0.305573 -0.012904 -0.939789 0.554340 -0.488348 -0.112720
预定 0.096232 0.153804 0.091280 0.081112 -0.359015 0.377354 -0.058007 -0.419085 1.032363 -0.566709 0.506233 -0.737661 -0.151495 -0.365026 -0.435955 -0.187053 -0.491602 0.286938 0.470587 -0.788696 -0.013515 -0.024148 -0.013194 1.621825 -0.632975 0.033412 -0.205294 0.854891 -0.811837 0.115240 0.569792 -0.355669 0.293965 -1.403070 -0.108984 -0.642192 0.532488 0.559181 0.064094 0.457489 0.262882 -0.164455 -0.102971 -0.134116 0.185632 1.057771 0.938375 -0.513197 0.080921 1.134988 -0.194123 0.916369 -1.532417 -0.015171 -0.101867 0.105543 -0.126167 -0.083896 -0.365119 -1.027459 0.130314 0.025723 -2.031749 -0.331135 -0.785524 -0.549470 -0.070980 -1.549922 0.185599 -0.057453 -0.285854 -0.085719 0.679423 0.472199 -0.166317
问 0.671512 1.665908 -0.141802 0.173495 -1.523810 0.959514 0.260356 -0.106735 -0.066711 -0.340268 0.204002 0.140937 0.107141 -0.384938 -0.221138 -0.066359 -0.345831 0.593982 0.702263 -0.711654 -0.088717 -0.032495 -0.844213 1.046111 -0.339560 0.572749 -0.198114 0.657606 -0.208548 -0.653841 0.854356 -0.188695 0.765814 -1.724815 0.122158 0.167493 -0.298204 0.698753 -0.026431 0.549805 -0.540982 -0.107903 -0.958066 0.039785 0.069734 0.708038 0.545999 -0.778634 -0.002958 0.192069 -0.163986 -0.452087 -1.481226 -0.103379 -0.931686 -0.446359 -0.563817 0.489734 -0.248580 -1.659250 0.826150 0.008067 -1.671649 -1.145213 0.384126 -0.220507 -0.115467 -1.397261 -0.314312 0.483235 -0.519729 -0.508596 1.037924 -0.245413 -0.231507
电话 0.638231 1.188579 -0.008463 0.250855 -1.156915 0.758528 0.071145 -0.114354 0.274362 -0.318246 0.254770 -0.182749 -0.125608 -0.380937 -0.428153 -0.152575 -0.319933 0.613742 0.757790 -0.495635 -0.077064 -0.180313 -0.749579 1.083514 -0.293897 0.249461 0.062931 0.774215 -0.228984 -0.200705 0.782739 -0.248460 0.477404 -1.600161 -0.006490 -0.125716 -0.177522 0.794827 -0.035133 0.478838 -0.377650 0.019910 -0.761160 -0.160961 0.460862 0.633622 0.728393 -0.595657 -0.051396 0.219471 -0.043139 0.065225 -1.600787 -0.134331 -0.468857 -0.157355 -0.403034 0.477439 -0.460772 -1.605900 0.532278 -0.084929 -1.484573 -0.831846 0.201991 -0.393424 0.028091 -1.370000 -0.247201 0.591776 -0.601777 -0.232947 1.059197 0.058962 -0.181884
要求 0.396812 0.876301 -0.029953 0.179913 -0.945663 0.519220 0.010669 0.018583 0.306624 -0.269878 0.169988 -0.146393 -0.047238 -0.326261 -0.339890 -0.085932 -0.413666 0.387366 0.552512 -0.619503 -0.160106 0.079541 -0.449632 0.864170 -0.450891 0.092799 -0.219702 0.544937 -0.275926 -0.037771 0.534665 -0.232469 0.448797 -1.258101 0.045373 -0.313786 0.021205 0.643356 0.081327 0.389554 -0.101813 -0.124796 -0.546387 0.093950 0.054835 0.551968 0.552198 -0.591741 -0.127733 0.498046 -0.185887 0.045997 -1.266896 -0.100068 -0.561894 -0.092204 -0.324546 0.106064 -0.192921 -1.076253 0.333415 -0.043339 -1.712881 -0.534737 -0.124468 -0.324722 -0.027323 -0.936755 -0.129308 0.022311 -0.268748 -0.390688 0.691300 0.052743 -0.212570
建议 0.006553 -0.032828 -0.003282 0.370294 0.487290 0.317083 -0.570344 -0.334048 1.377258 -0.586723 0.514946 -1.118080 -0.109767 -0.067712 -0.956540 -0.381356 -0.549263 0.245128 -0.126427 -0.629467 0.174290 0.159680 -0.298983 0.528975 -0.749681 -0.567354 -0.096259 0.795561 -0.184065 0.756002 0.728922 -0.388672 0.064777 0.115130 0.452817 -0.526671 0.413965 0.515850 0.165978 0.088907 0.064595 0.254332 0.177102 -0.472582 0.581925 0.242481 0.494748 0.243639 -0.281766 0.000276 0.092012 0.490153 -0.848416 0.432331 0.403336 0.239001 0.255873 -0.142965 0.542100 -0.399757 -0.283799 -0.482124 -1.272402 -0.121857 -0.455469 -0.048160 0.506193 -0.360889 -0.028682 -0.329057 -0.113688 -0.588660 0.490736 0.250560 -0.139923
算 -0.121886 0.829574 -0.513699 0.342652 -0.347884 0.655900 -0.516967 0.618561 0.184364 -0.074830 0.186883 -0.116580 0.827949 0.077606 -0.172827 -0.500764 -0.645794 0.418531 -0.446824 -0.604272 -0.026311 1.132468 -0.425313 -0.743318 -1.046864 -0.662630 -0.657007 0.217142 0.303262 1.189136 0.131168 0.074315 0.521871 0.626030 0.968787 -0.614946 0.218832 0.701850 -0.035467 0.374731 -0.671046 -0.054433 -0.585462 0.355507 -0.054376 0.039969 -0.396339 0.063041 -0.756269 -0.651875 0.311712 -0.413734 -0.147416 0.373355 -1.007889 -0.065191 -0.089673 -0.573389 1.154552 -0.060210 -0.483444 -0.658097 -1.731597 -0.811083 -0.148793 0.102521 0.086455 0.638086 -0.483144 -1.236541 0.898349 -1.421248 0.078934 -0.685571 -0.068859
人员 0.304748 1.016497 -0.644563 -0.016563 -0.798918 0.857394 0.285266 -0.046914 0.056821 -0.179181 0.144515 0.053664 -0.035659 -0.281277 -0.326157 0.147994 -0.434131 0.390243 -0.079272 -0.779395 0.196751 0.343878 -0.860841 -0.310700 -0.878502 0.228040 -0.530854 0.517646 -0.187110 0.140406 0.796239 -0.596875 0.534731 -0.534375 0.467377 0.634797 0.016925 0.890038 0.093948 0.451290 -0.452296 -0.579351 -0.515696 0.043320 -0.146696 -0.301227 -0.043367 -0.765998 -0.758454 -0.585609 -0.043924 -0.563123 -0.726912 0.322797 -0.329974 -0.258658 -0.351252 0.211211 0.349855 -0.910370 0.336711 -0.275439 -1.684640 -0.624956 0.200759 0.096591 0.308651 -0.739993 -0.568011 0.056356 0.036848 -0.830788 0.505714 -0.389466 -0.454757
找 0.347309 1.350429 -0.302678 0.147230 -0.918581 0.903124 0.033585 0.153669 -0.112891 -0.184576 0.221940 0.075525 0.393030 -0.204105 -0.194533 -0.278061 -0.310212 0.649986 0.151874 -0.471705 0.018752 0.306592 -0.816802 0.176785 -0.419544 0.153849 -0.174079 0.427282 0.134090 0.008938 0.578257 -0.040601 0.691631 -0.633705 0.443017 0.178344 -0.203266 0.701669 -0.062220 0.488912 -0.746747 -0.011596 -0.832478 -0.022088 0.111204 0.267223 0.082521 -0.411314 -0.250770 -0.467046 0.114063 -0.553498 -0.847861 0.110643 -0.844997 -0.338503 -0.325468 0.466764 0.280228 -1.124598 0.378786 -0.290825 -1.205502 -1.079920 0.374605 0.003786 -0.027108 -0.530134 -0.527034 0.188688 -0.057289 -0.716450 0.723175 -0.552571 -0.130802
补充 0.298910 -0.222676 0.135505 0.774517 0.541431 0.175912 -1.014557 0.075916 1.596847 -0.359549 0.436139 -1.555654 -0.590883 -0.030207 -1.367985 -0.584783 -0.688860 0.354086 0.217063 -0.058513 0.005670 0.024313 -0.466409 0.248317 -0.452353 -0.878008 0.561625 0.856370 -0.011767 1.376727 0.847803 -0.653625 -0.632170 0.308071 0.089460 -1.219148 -0.040873 0.679563 0.025359 -0.282205 0.135304 0.479577 0.147816 -0.547291 1.240422 0.188884 0.613806 0.512941 -0.131562 -0.549134 0.562207 0.918257 -0.981269 0.423174 0.932905 0.509121 0.119105 -0.508926 0.382611 -0.447807 -0.567466 -0.752643 -0.921692 0.160919 -0.060864 -0.223912 0.899569 -0.053360 -0.116667 -0.213420 -0.536712 -0.568955 0.722470 0.379124 0.012206
希望 0.039516 -0.164966 0.089599 0.397134 0.720316 0.324026 -0.531874 -0.582409 1.731031 -0.757313 0.616292 -1.510682 -0.477395 -0.262233 -1.303478 -0.399613 -0.581684 0.287793 0.003576 -0.701319 0.195985 -0.095235 -0.347699 0.885436 -0.841186 -0.662467 0.090450 1.071923 -0.340089 0.849068 1.038884 -0.695667 -0.061404 -0.106817 0.267723 -0.522932 0.502205 0.748245 0.260468 0.149010 0.328605 0.230587 0.385454 -0.707708 0.855834 0.246278 0.820889 0.161680 -0.289489 0.050402 0.043571 0.842756 -1.267720 0.461222 0.869053 0.353092 0.362832 0.012268 0.348939 -0.714035 -0.228774 -0.496280 -1.371079 0.077138 -0.550040 -0.136307 0.672327 -0.817264 0.011219 -0.016182 -0.496398 -0.431545 0.724495 0.499298 -0.202087
楼 0.409727 0.533658 0.239291 0.419621 -0.932398 0.096413 -0.309339 0.446477 0.347033 0.051888 0.090165 -0.187263 -0.043986 -0.021422 -0.330704 -0.156837 -0.528101 0.234465 0.569606 -0.367447 -0.326689 0.251693 -0.186089 0.515645 -0.178089 -0.251728 -0.109901 0.335744 -0.105780 0.386828 0.066064 -0.059210 0.095625 -0.844369 0.009209 -1.116558 -0.171573 0.460544 0.047870 0.061064 -0.003552 0.132307 -0.477454 0.380906 0.092033 0.563395 0.394763 -0.356951 -0.032498 0.453914 -0.046065 0.155761 -0.962218 -0.110558 -0.457912 0.062004 -0.395117 -0.518626 -0.120069 -0.455978 -0.030682 -0.119022 -1.641226 -0.213495 -0.201526 -0.342463 0.060691 -0.067435 -0.009614 -0.526087 -0.012794 -0.442852 0.404362 0.127006 -0.122543
一点 0.173195 0.642768 -0.250778 0.279845 -0.430802 0.497163 -0.331985 0.266698 0.327460 -0.157135 0.206820 -0.223796 0.298982 0.027627 -0.296613 -0.280651 -0.499806 0.323067 -0.066897 -0.460515 0.044368 0.574847 -0.404456 -0.125254 -0.670900 -0.247958 -0.306848 0.387864 -0.006668 0.571780 0.334484 -0.106551 0.339128 -0.050433 0.497325 -0.403622 0.075113 0.522615 -0.011650 0.202869 -0.405116 -0.030969 -0.422027 0.112208 0.073090 0.089119 -0.024143 -0.058700 -0.409957 -0.306310 0.159744 -0.208263 -0.455301 0.211306 -0.486330 -0.072667 -0.172633 -0.323225 0.530174 -0.387547 -0.137953 -0.443059 -1.429888 -0.555809 -0.012441 -0.000539 0.158033 0.044290 -0.281005 -0.551046 0.322541 -0.865820 0.319038 -0.323009 -0.107047
朋友 0.069076 0.142559 -0.004895 0.318012 0.191294 0.327762 -0.371712 -0.299582 1.243875 -0.504061 0.537568 -1.004974 -0.122745 -0.281780 -0.872571 -0.402121 -0.520090 0.371773 0.109906 -0.628183 0.028209 0.050572 -0.357115 0.786806 -0.712706 -0.452473 -0.093278 0.736932 -0.192622 0.642268 0.692699 -0.317952 0.132053 -0.261061 0.286792 -0.535289 0.298122 0.692595 0.125495 0.187322 0.024235 0.236098 0.059046 -0.288019 0.552034 0.440927 0.562165 -0.025855 -0.216362 0.174071 -0.011268 0.642492 -1.145162 0.290487 0.225505 0.207084 0.191774 0.008308 0.268951 -0.648780 -0.200018 -0.298697 -1.374559 -0.174243 -0.538128 -0.231825 0.355997 -0.642927 -0.056721 -0.121430 -0.246716 -0.463779 0.615373 0.264565 -0.170808
特别 0.235369 0.882805 -0.332133 0.338120 -0.500115 0.550431 -0.326586 0.355915 0.221560 -0.172087 0.153875 -0.068630 0.381879 0.054272 -0.377808 -0.220206 -0.540158 0.309400 -0.246163 -0.619392 0.083241 0.704529 -0.567096 -0.510294 -0.857413 -0.334099 -0.511984 0.398698 0.178514 0.602848 0.407338 -0.079169 0.467657 0.172039 0.728978 -0.223165 0.023071 0.606406 0.042785 0.192867 -0.529101 -0.054837 -0.536429 0.178093 -0.036269 -0.125479 -0.205625 -0.056420 -0.642407 -0.558558 0.105251 -0.641611 -0.307877 0.310093 -0.646977 -0.162708 -0.188599 -0.332599 0.862848 -0.236169 -0.080828 -0.566714 -1.546636 -0.648977 0.122422 0.193537 0.310452 0.372314 -0.416353 -0.768572 0.467321 -1.163631 0.252974 -0.444799 -0.245695
大床 -0.090493 0.643723 0.081088 -0.012926 -1.173038 0.193358 -0.367634 0.404665 0.705717 -0.581356 0.108888 -0.105696 0.677903 0.137222 0.127573 -0.100041 -1.271281 -0.216299 0.381609 -1.360156 -0.514333 0.596232 0.491217 1.453620 -0.721905 0.505832 -1.509246 0.094558 -0.922495 -0.340517 0.138764 0.129932 0.871872 -1.294100 0.286009 -1.498455 0.510618 -0.494238 0.201385 -0.266511 0.421750 -0.402053 -0.777242 0.931222 -0.987457 1.831682 0.931605 -0.568768 0.351005 2.218958 -0.600977 -0.436034 -1.051490 -0.182152 -1.812183 -0.217596 -0.564286 -1.366816 0.629844 -0.148713 0.018718 0.208559 -3.435654 -0.459452 -1.243062 -0.129789 -0.298447 -0.507161 0.421562 -1.650873 0.733361 -0.933268 0.229609 0.182258 -0.189677
标准 0.070076 0.252277 -0.247347 0.074688 -0.214001 0.401522 -0.593954 0.468728 0.584174 -0.037210 0.360483 -0.481334 0.457348 0.296888 -0.406745 -0.179724 -0.897530 0.050898 -0.361016 -0.867178 0.240659 1.032371 -0.089942 -0.315749 -0.889409 -0.439792 -0.651097 0.399021 -0.364432 0.978580 0.277132 -0.171625 0.242519 0.321799 0.668510 -0.826425 0.387631 0.308838 -0.090183 0.252184 -0.185157 -0.233550 -0.193921 0.224415 -0.455159 0.076185 -0.170306 -0.024577 -0.473308 -0.066709 0.116149 -0.321116 -0.016296 0.333120 -0.604694 0.106518 -0.186326 -1.033940 0.995524 0.121603 -0.435630 -0.679814 -2.134319 -0.276448 -0.456048 0.086467 0.250948 0.496184 -0.193199 -1.424814 0.854413 -1.312803 -0.112319 -0.408553 0.100841
想 0.388643 0.799621 -0.005572 0.383775 -0.558988 0.464839 -0.247965 0.052269 0.486601 -0.248689 0.244383 -0.303028 0.058103 -0.180437 -0.510783 -0.249691 -0.383127 0.384513 0.330917 -0.438189 -0.037908 0.107467 -0.554255 0.450929 -0.374449 -0.172304 -0.119862 0.514945 0.060663 0.209764 0.516961 -0.051737 0.295771 -0.521487 0.287476 -0.288029 -0.081461 0.566571 0.011603 0.248617 -0.303791 0.187377 -0.451691 -0.045013 0.365123 0.292484 0.350920 -0.110138 -0.193173 -0.069293 -0.045961 -0.097986 -0.930729 0.067740 -0.369502 -0.030117 -0.126393 0.094924 0.186158 -0.760163 0.138478 -0.251557 -1.126197 -0.556716 0.043845 -0.111515 0.212052 -0.372070 -0.237442 -0.032812 -0.200669 -0.553990 0.660666 -0.015506 -0.162524
总体 -0.032185 0.384363 -0.411918 0.265862 -0.118554 0.407729 -0.506393 0.282070 0.639514 -0.209272 0.288181 -0.359289 0.380156 0.062804 -0.462610 -0.343641 -0.689803 0.187046 -0.424274 -0.811557 0.102843 0.841230 -0.339078 -0.425847 -1.058263 -0.487093 -0.739214 0.344583 -0.008168 0.960081 0.345870 -0.119040 0.390384 0.441035 0.754201 -0.421742 0.300344 0.456739 0.038116 0.110053 -0.261220 -0.115826 -0.258023 0.201999 -0.081182 -0.032555 -0.121606 -0.015771 -0.656371 -0.204044 0.118236 -0.308744 -0.256380 0.456566 -0.549722 0.034702 -0.033885 -0.593786 1.073197 0.087958 -0.431302 -0.591970 -1.811104 -0.424581 -0.382628 0.118456 0.355016 0.372036 -0.307409 -1.125393 0.761747 -1.223704 0.112784 -0.292374 -0.265088
分钟 0.325951 0.911737 0.236747 0.665447 -0.500765 0.567005 -0.303541 0.285571 0.284281 0.019084 0.299347 -0.725552 -0.093491 -0.319887 -0.439956 -0.839731 -0.133792 1.082789 0.866253 0.411056 -0.493752 -0.116259 -0.704524 0.900654 0.115155 -0.626135 1.157705 0.683879 0.401663 0.996694 0.191953 -0.179373 -0.171031 -0.774790 -0.135649 -1.373732 -0.371283 1.325997 -0.174942 0.416364 -0.556507 0.854174 -0.686244 -0.283869 1.473714 0.796918 0.546823 -0.086416 0.045053 -0.689358 0.779925 1.292152 -1.686713 -0.010166 0.044833 0.254478 -0.242669 0.471032 -0.612074 -1.377082 -0.224512 -0.290939 -0.537563 -0.647765 0.412501 -0.640268 -0.133853 -0.770577 -0.361779 0.762859 -0.855054 -0.005139 0.946067 -0.001853 0.340822
隔音 0.633160 1.547890 -0.419893 0.468245 -1.346397 0.785951 -0.495627 0.906308 -0.226457 -0.097535 -0.110853 0.605658 0.879601 0.223292 -0.145822 -0.020113 -0.920161 0.064420 -0.266026 -0.891627 -0.022160 1.231756 -0.720823 -1.052521 -1.192807 -0.172727 -1.166069 0.024358 0.357370 0.338761 0.283089 0.263045 0.758511 0.171333 0.996814 -0.378325 -0.259732 0.446632 -0.078617 0.120038 -0.827023 -0.054059 -1.065151 0.842616 -0.530850 -0.097495 -0.520014 0.076238 -0.759322 -0.693338 0.052013 -1.635680 0.123177 0.116540 -1.652571 -0.584737 -0.651925 -0.788479 1.325650 0.130041 0.047926 -0.743349 -2.285568 -1.146391 0.331245 0.554207 0.245807 1.253144 -0.523748 -1.585729 1.007338 -2.062203 0.133494 -0.966089 -0.334783
时间 0.525008 0.865707 0.102082 0.555919 -0.649731 0.574770 -0.179400 -0.055459 0.577076 -0.241403 0.272025 -0.582794 -0.258963 -0.388789 -0.691778 -0.336777 -0.301222 0.646205 0.646212 -0.289361 -0.097294 -0.120462 -0.715706 0.848535 -0.286415 -0.233153 0.411722 0.818897 -0.047556 0.378058 0.643527 -0.363992 0.082285 -0.996121 0.036864 -0.548261 -0.174975 0.993704 0.040131 0.376158 -0.275980 0.342329 -0.471157 -0.251641 0.809611 0.423599 0.622597 -0.253006 -0.149023 -0.177528 0.194307 0.514094 -1.483228 0.028764 -0.001463 0.066356 -0.251850 0.358487 -0.338151 -1.294798 0.212507 -0.248702 -1.190226 -0.547974 0.221671 -0.385099 0.214329 -0.927118 -0.277547 0.406480 -0.674550 -0.294115 0.914431 0.151171 -0.049038
高 -0.095473 0.394372 -0.363648 0.295784 0.085191 0.500476 -0.745453 0.285028 0.770183 -0.383848 0.340120 -0.577485 0.520634 0.123380 -0.481045 -0.400316 -0.768601 0.165107 -0.324510 -0.638796 0.182571 0.851572 -0.161302 -0.156344 -1.037628 -0.662048 -0.665477 0.354255 -0.076318 1.074748 0.399477 0.016592 0.259161 0.575086 0.825204 -0.655940 0.515768 0.309917 -0.127327 0.253024 -0.220304 0.038731 -0.234196 0.069615 0.006146 0.212384 0.010987 0.296268 -0.600997 -0.214297 0.196527 -0.198810 -0.110705 0.414071 -0.484812 0.198770 0.083255 -0.744263 1.151543 0.029776 -0.523090 -0.761279 -1.681770 -0.407173 -0.460009 0.094619 0.252462 0.402847 -0.208225 -1.237486 0.739019 -1.282123 0.173825 -0.272199 -0.017532
第二天 0.596793 1.206963 0.093492 0.498572 -1.117400 0.580234 -0.075116 0.019341 0.280696 -0.226960 0.213725 -0.135781 -0.050718 -0.268122 -0.456607 -0.212738 -0.344868 0.505641 0.728712 -0.479869 -0.146699 -0.038087 -0.690402 0.870519 -0.299471 0.088689 0.050443 0.658168 -0.065871 -0.103437 0.563319 -0.173065 0.350211 -1.264610 0.089093 -0.382512 -0.290904 0.712228 0.044035 0.341040 -0.370904 0.174250 -0.690998 0.073591 0.393588 0.574678 0.562166 -0.390396 -0.062913 0.122037 -0.074320 -0.052960 -1.397366 -0.065566 -0.537386 -0.173144 -0.438989 0.207160 -0.222158 -1.241928 0.474559 -0.070119 -1.493092 -0.813737 0.263048 -0.321043 0.078253 -0.854845 -0.238394 0.159939 -0.473381 -0.443519 0.868304 0.015297 -0.178385
应该 -0.001533 0.327447 -0.215603 0.256467 0.061076 0.423892 -0.499332 0.110505 0.698324 -0.285344 0.346046 -0.601159 0.242493 0.025251 -0.549892 -0.345169 -0.577722 0.249745 -0.249207 -0.570019 0.127025 0.554634 -0.310083 -0.058280 -0.772399 -0.499192 -0.313798 0.461552 -0.028674 0.846531 0.468401 -0.195766 0.218801 0.282936 0.551926 -0.503098 0.247370 0.506336 0.019316 0.189787 -0.222547 0.046970 -0.129727 -0.068434 0.174920 0.093635 0.062864 0.098961 -0.410243 -0.300956 0.164595 0.003912 -0.408469 0.358995 -0.190803 0.087964 0.039405 -0.398465 0.739708 -0.218696 -0.298287 -0.556909 -1.388695 -0.344888 -0.246594 0.034431 0.310470 0.074489 -0.183286 -0.684176 0.320036 -0.906921 0.273202 -0.211355 -0.081757
打电话 0.600910 1.377908 -0.094450 0.153323 -1.282761 0.854095 0.217727 -0.229901 0.119428 -0.394676 0.289299 -0.037194 -0.038756 -0.365838 -0.341807 -0.046550 -0.329100 0.549597 0.641179 -0.717725 -0.051728 -0.093504 -0.767235 1.112089 -0.379233 0.490437 -0.096311 0.739487 -0.296105 -0.555126 0.905456 -0.299326 0.678325 -1.681744 0.029887 0.122408 -0.203989 0.730099 0.026225 0.546965 -0.400421 -0.103247 -0.809951 -0.063331 0.187334 0.654628 0.604980 -0.744887 -0.012768 0.236019 -0.151897 -0.241937 -1.475008 -0.044596 -0.645997 -0.398005 -0.489687 0.480190 -0.289340 -1.604280 0.751221 -0.037227 -1.648594 -0.987974 0.293593 -0.276550 -0.024942 -1.497110 -0.262326 0.521119 -0.582611 -0.384838 1.048928 -0.137289 -0.261792
~ -0.024649 1.379234 -1.102300 -0.189627 0.577285 0.665788 -1.879458 0.042506 1.863439 -1.758362 0.078145 -1.264072 0.437449 -0.910408 -1.638517 -0.572164 -1.639328 -0.124001 0.554584 -0.868260 -0.976277 -0.605618 -0.741920 1.505046 -0.773516 -0.304211 -1.488069 -1.095441 1.271296 0.578620 2.336400 0.644843 0.843792 0.550429 0.722889 0.283253 -0.036313 -0.590812 -0.140446 -0.592218 1.225505 0.662846 -0.519217 -0.012070 1.347940 1.143924 1.941004 0.346357 0.486127 0.307952 -0.526526 -1.065592 -0.960354 0.409093 -1.468110 0.617639 1.029473 0.662560 2.526884 -0.064207 -0.218116 -0.298579 -0.030490 0.130358 -1.090205 0.646026 0.972413 0.062649 -0.339177 0.083633 -1.028445 -1.860697 2.413363 -0.077314 -0.393176
做 0.301518 0.622563 -0.069870 0.337429 -0.317773 0.508834 -0.224117 -0.006132 0.587187 -0.292936 0.260266 -0.487662 -0.104338 -0.199927 -0.615733 -0.242573 -0.377231 0.395965 0.186687 -0.422001 0.053992 0.131585 -0.525446 0.348850 -0.469993 -0.243477 0.009921 0.632624 -0.096414 0.417981 0.624307 -0.329706 0.188749 -0.429356 0.253005 -0.255883 0.025932 0.693966 0.065985 0.246615 -0.202543 0.048366 -0.300862 -0.195130 0.422952 0.162325 0.332324 -0.153844 -0.250200 -0.207677 0.118169 0.089781 -0.911787 0.203890 -0.065609 0.039891 -0.110613 0.080301 0.190652 -0.815408 0.053542 -0.345422 -1.171234 -0.438644 0.069816 -0.106664 0.323351 -0.483905 -0.261977 -0.015873 -0.255506 -0.535899 0.625662 -0.008822 -0.158773
订 -0.051397 0.091197 0.021077 0.043049 -0.246213 0.235155 -0.248174 -0.104723 0.948286 -0.476441 0.370319 -0.557577 0.145390 -0.143587 -0.304017 -0.212386 -0.665390 0.088815 0.216663 -0.833006 -0.112951 0.256544 0.152162 1.134645 -0.667679 -0.009841 -0.615416 0.474028 -0.631140 0.231359 0.313935 -0.082093 0.373070 -0.813020 0.148582 -0.776897 0.521092 0.215333 0.055010 0.189060 0.262589 -0.169251 -0.149449 0.148313 -0.104145 1.003098 0.719612 -0.310636 0.021741 1.108856 -0.262294 0.455406 -1.044246 0.050173 -0.457725 0.115186 -0.089003 -0.475529 0.151245 -0.421868 -0.114932 -0.039973 -2.011485 -0.240638 -0.935005 -0.283247 -0.048345 -0.779070 0.180441 -0.629604 0.185853 -0.404028 0.385139 0.282666 -0.161746
星 0.081282 0.259343 -0.292701 0.227724 -0.000671 0.418236 -0.739724 0.369135 0.651816 -0.108547 0.355317 -0.572135 0.344011 0.267236 -0.600076 -0.232223 -0.811203 0.067470 -0.406881 -0.724778 0.284664 0.915253 -0.335523 -0.457733 -0.841725 -0.549119 -0.438015 0.458866 -0.171341 1.079350 0.463769 -0.298087 0.123596 0.568209 0.671192 -0.714201 0.296880 0.410281 -0.066999 0.175811 -0.240144 -0.098070 -0.121024 0.065562 -0.115544 -0.117396 -0.135751 0.133214 -0.559573 -0.486808 0.244667 -0.284746 -0.029849 0.467663 -0.286990 0.090851 -0.135372 -0.834118 1.064781 0.050949 -0.407178 -0.776720 -1.721889 -0.299226 -0.205540 0.127383 0.404805 0.499437 -0.291052 -1.169649 0.652806 -1.280149 0.046661 -0.395651 0.061859
反馈 0.185250 -0.342047 0.201828 0.960551 0.583870 0.297088 -1.364336 -0.088111 1.976683 -0.414868 0.550937 -1.711564 -0.644757 -0.133983 -1.557829 -0.587447 -0.805782 0.381836 0.233373 -0.027654 -0.103555 0.070405 -0.738044 0.289212 -0.464570 -1.276873 0.887943 1.024481 0.071613 1.859646 1.095513 -1.156271 -0.686745 0.206019 0.047108 -1.471835 0.015093 0.850303 0.237817 -0.197319 0.372293 0.559163 0.411928 -0.666542 1.705960 -0.107969 0.779353 0.429653 -0.169357 -0.714177 0.766194 1.339523 -1.262716 0.649459 1.288662 0.453986 0.222431 -0.376430 0.426341 -0.781132 -0.521994 -0.774079 -1.149103 0.225611 -0.140345 -0.449074 1.081753 -0.247864 -0.170308 0.016095 -0.819637 -0.395395 1.045125 0.388596 -0.067686
换 0.345865 1.069867 -0.081734 0.187879 -1.158165 0.431432 -0.081468 0.281738 0.011840 -0.183747 0.054418 0.304627 0.393466 -0.014319 -0.077787 0.003679 -0.561432 0.180705 0.328892 -0.801665 -0.179448 0.362659 -0.358220 0.425192 -0.504842 0.253419 -0.768884 0.229914 -0.097760 -0.251462 0.303418 0.136655 0.725364 -0.925586 0.337067 -0.326399 -0.067386 0.191011 0.022757 0.200316 -0.287390 -0.159603 -0.805803 0.480385 -0.390134 0.564246 0.343339 -0.444335 -0.171327 0.549718 -0.364075 -0.739644 -0.771433 -0.119608 -1.197813 -0.356818 -0.421333 -0.285380 0.290865 -0.616366 0.344062 -0.062516 -1.908355 -0.737113 -0.117903 -0.051900 -0.048049 -0.274773 -0.104887 -0.582948 0.277597 -0.740884 0.463944 -0.185560 -0.303753
看到 0.353068 0.732885 0.016695 0.382672 -0.581054 0.437596 -0.282225 0.163231 0.443600 -0.204355 0.218315 -0.315189 0.061466 -0.073307 -0.481018 -0.250510 -0.442240 0.366156 0.230705 -0.498488 -0.075570 0.242202 -0.468382 0.319451 -0.405848 -0.163346 -0.123024 0.535129 -0.018213 0.310996 0.479224 -0.187045 0.285866 -0.540374 0.268618 -0.546213 -0.118449 0.580943 0.074199 0.147066 -0.238644 0.131124 -0.464408 0.013291 0.237277 0.343327 0.325321 -0.180306 -0.166679 -0.086372 0.035663 -0.109033 -0.874348 0.093173 -0.370059 -0.113406 -0.229252 -0.148931 0.238853 -0.711687 0.094792 -0.289764 -1.418351 -0.510976 0.072736 -0.106894 0.214692 -0.271174 -0.174065 -0.253058 -0.101082 -0.640378 0.549387 -0.090463 -0.165713
性价比 -0.169111 0.324331 -0.459298 0.343517 0.228766 0.536502 -0.961398 0.372770 0.959058 -0.364738 0.406567 -0.651358 0.671313 0.130563 -0.534766 -0.559517 -0.873218 0.175792 -0.537092 -0.708982 0.160250 1.045095 -0.230997 -0.445110 -1.231171 -0.746838 -0.675546 0.370300 -0.029134 1.333064 0.434093 -0.048461 0.334872 0.889422 0.919551 -0.674014 0.542008 0.387288 -0.047543 0.160412 -0.207109 0.118711 -0.115758 0.066496 0.102446 0.036554 -0.120074 0.397328 -0.685381 -0.368157 0.258785 -0.147567 -0.059200 0.560701 -0.511455 0.252460 0.067769 -0.793832 1.433751 0.209415 -0.670254 -0.797045 -1.838692 -0.447953 -0.500256 0.148522 0.357391 0.592079 -0.272032 -1.374472 0.880222 -1.505569 0.205899 -0.413782 -0.034372
提供 0.132021 0.347469 -0.023233 0.302054 -0.141146 0.401846 -0.278302 -0.033380 0.673824 -0.315466 0.233853 -0.663840 -0.123846 -0.176994 -0.613623 -0.208309 -0.494791 0.311501 0.103750 -0.493694 0.012616 0.192696 -0.358049 0.308099 -0.562286 -0.413076 -0.075851 0.680005 -0.200037 0.667230 0.638090 -0.436147 0.161992 -0.326928 0.233435 -0.485074 0.224204 0.690220 0.212485 0.185599 0.034801 -0.016544 -0.179412 -0.161143 0.355968 0.225167 0.342565 -0.116779 -0.292015 0.025949 0.074490 0.225082 -0.888875 0.167331 -0.013184 0.109153 -0.161715 -0.062251 0.279028 -0.729859 -0.000257 -0.333194 -1.399350 -0.220997 -0.100766 -0.049256 0.365373 -0.392885 -0.168960 -0.277869 -0.173192 -0.529256 0.428606 0.083521 -0.154008
客房 0.403223 0.989201 -0.281579 0.221991 -0.917912 0.602943 -0.097265 0.297541 0.092816 -0.094621 0.078669 0.050149 0.194631 -0.049365 -0.269590 -0.077776 -0.492586 0.359333 0.106528 -0.625227 0.021612 0.487512 -0.606758 -0.115799 -0.607955 -0.029213 -0.440044 0.459839 -0.085857 0.294674 0.460063 -0.215566 0.495370 -0.545305 0.480593 -0.150040 -0.043315 0.616094 0.030950 0.291398 -0.428754 -0.243367 -0.642268 0.151986 -0.114261 0.060518 0.048429 -0.438596 -0.477269 -0.203742 0.027770 -0.534429 -0.686096 0.125338 -0.662069 -0.166678 -0.379095 -0.191112 0.346081 -0.677012 0.135742 -0.356849 -1.706468 -0.647101 0.131359 0.018731 0.167334 -0.190734 -0.361967 -0.416581 0.229377 -0.860406 0.415140 -0.316885 -0.234254
旧 0.244122 1.042358 -0.395864 0.359818 -0.994635 0.484356 -0.511295 0.867965 -0.139202 0.107696 -0.064018 0.386441 0.839656 0.341809 -0.070158 -0.165645 -0.755881 0.163454 -0.302215 -0.717875 0.017993 1.235088 -0.418639 -0.948571 -0.847391 -0.328333 -0.977766 0.136360 0.266604 0.757666 0.000788 0.208623 0.634903 0.280945 0.923301 -0.658767 -0.037109 0.418115 -0.119920 0.168218 -0.690464 -0.187972 -0.884860 0.641319 -0.542734 -0.127125 -0.429459 -0.075099 -0.762902 -0.431236 0.071387 -1.169464 0.101874 0.126091 -1.364585 -0.259396 -0.392540 -0.915298 1.108959 0.071177 -0.215627 -0.648392 -2.093522 -0.729591 0.091320 0.240936 0.162748 1.005625 -0.414587 -1.524812 1.169349 -1.569197 -0.061805 -0.723255 -0.224806
陈旧 0.304547 1.120806 -0.503476 0.294030 -1.051577 0.559884 -0.575569 0.904700 -0.124586 0.077936 -0.059636 0.397271 0.897822 0.304585 -0.155759 -0.083272 -0.856803 0.116761 -0.300503 -0.864414 -0.007672 1.311530 -0.530729 -0.957600 -1.003131 -0.356987 -1.044020 0.083423 0.295159 0.766776 0.139025 0.182537 0.702662 0.280474 0.968925 -0.635624 -0.022347 0.453136 -0.130922 0.199077 -0.635186 -0.216835 -0.871251 0.653783 -0.605319 -0.195636 -0.431424 -0.085645 -0.765795 -0.491413 0.030555 -1.277981 0.154134 0.132289 -1.456284 -0.313401 -0.421182 -0.942268 1.263113 0.100154 -0.179804 -0.680719 -2.240471 -0.725320 0.050303 0.328406 0.212615 1.055627 -0.452359 -1.602979 1.148265 -1.744738 -0.015797 -0.825720 -0.204799
舒服 0.152071 0.983369 -0.328322 0.315538 -0.762200 0.515879 -0.453283 0.498966 0.184387 -0.169239 0.109304 0.117064 0.670366 0.212707 -0.216283 -0.217418 -0.720908 0.149334 -0.279814 -0.857822 -0.000578 0.924042 -0.420063 -0.471410 -0.914537 -0.232581 -0.925390 0.265853 0.105333 0.469502 0.299438 0.105638 0.667661 0.087140 0.850765 -0.461808 0.060943 0.334902 0.065418 0.115002 -0.481945 -0.157043 -0.713975 0.453866 -0.412967 0.126334 -0.161345 -0.083751 -0.586026 -0.125126 -0.059013 -1.004563 -0.218404 0.252240 -1.172302 -0.267321 -0.318844 -0.707180 1.135273 -0.079761 -0.063073 -0.500141 -2.068919 -0.774477 -0.020719 0.238013 0.217483 0.572031 -0.330744 -1.271357 0.816685 -1.370070 0.150344 -0.530933 -0.314237
推荐 -0.110982 0.031968 -0.220403 0.261148 0.443744 0.430940 -0.614346 -0.195811 1.288651 -0.606054 0.526867 -0.988682 0.172952 -0.024188 -0.772554 -0.445288 -0.673979 0.225600 -0.342766 -0.784939 0.207448 0.436277 -0.218117 0.289756 -1.050178 -0.552871 -0.431267 0.719958 -0.264962 0.929958 0.657465 -0.312510 0.251429 0.275488 0.644515 -0.468526 0.556278 0.485101 0.073350 0.160915 -0.027004 0.083156 0.118801 -0.305329 0.373080 0.262686 0.381983 0.169147 -0.450813 -0.021912 0.127191 0.333940 -0.652869 0.529754 0.080216 0.212996 0.225438 -0.342312 0.852682 -0.250785 -0.428233 -0.562849 -1.622336 -0.259285 -0.647610 0.006062 0.405001 -0.294561 -0.096393 -0.668373 0.286531 -0.899761 0.399421 0.036334 -0.168323
满意 0.020712 0.309900 -0.201251 0.303023 -0.030566 0.376540 -0.401253 0.069193 0.707055 -0.265565 0.280228 -0.527902 0.152778 -0.024779 -0.531106 -0.252163 -0.545257 0.214697 -0.188708 -0.621348 0.070181 0.447584 -0.336844 -0.044201 -0.763220 -0.372732 -0.344821 0.479274 -0.095496 0.701329 0.446604 -0.266256 0.219369 0.147012 0.491358 -0.416493 0.219921 0.468983 0.095682 0.119613 -0.132891 -0.000586 -0.149985 -0.010315 0.168222 0.098947 0.133888 0.005728 -0.424885 -0.167553 0.094505 -0.016056 -0.515075 0.347309 -0.136753 0.062778 -0.018246 -0.340899 0.648219 -0.229329 -0.237162 -0.439445 -1.415135 -0.289065 -0.259776 0.044433 0.354629 -0.009334 -0.198595 -0.620420 0.261476 -0.786418 0.282062 -0.079918 -0.187767
走 0.303799 1.067019 -0.048395 0.444697 -0.611007 0.629299 -0.273412 0.254586 0.210425 -0.152250 0.204910 -0.287120 0.228226 -0.165332 -0.388943 -0.485523 -0.308763 0.681322 0.364267 -0.174972 -0.241294 0.219023 -0.677942 0.277565 -0.300994 -0.329159 0.206769 0.435698 0.339126 0.535017 0.412119 -0.032193 0.302814 -0.442278 0.365661 -0.579000 -0.264011 0.824200 -0.036963 0.248628 -0.575097 0.320197 -0.646606 -0.037467 0.623538 0.391992 0.238570 -0.096130 -0.165695 -0.507076 0.304677 0.100141 -1.035298 0.081232 -0.475729 -0.057038 -0.195480 0.240297 0.149650 -0.945061 0.022898 -0.284052 -0.977181 -0.775202 0.263049 -0.162902 0.051296 -0.247751 -0.347133 0.078468 -0.263825 -0.604440 0.686371 -0.279199 0.018224
觉得 0.122566 0.411108 -0.169105 0.374614 -0.112359 0.374760 -0.517106 0.194593 0.669019 -0.232513 0.282759 -0.504409 0.188709 0.009581 -0.542112 -0.325775 -0.553705 0.242297 -0.095083 -0.485601 0.087398 0.471530 -0.377024 -0.063353 -0.680274 -0.443090 -0.271636 0.483704 -0.017342 0.759286 0.439204 -0.163032 0.170306 0.163208 0.486711 -0.514553 0.146717 0.476588 0.002254 0.123989 -0.215916 0.091422 -0.242712 -0.022011 0.260624 0.109906 0.120324 0.121683 -0.421752 -0.252737 0.163026 -0.062499 -0.462620 0.308172 -0.232850 0.085712 -0.035248 -0.387858 0.668077 -0.285084 -0.261982 -0.525381 -1.313990 -0.377556 -0.145809 0.005940 0.356054 0.106596 -0.232437 -0.631297 0.252915 -0.836529 0.358059 -0.129327 -0.114503
服务态度 0.178002 0.835449 -0.410276 0.217766 -0.483765 0.613196 -0.220252 0.269061 0.161722 -0.160312 0.117082 0.009462 0.417527 -0.012405 -0.227051 -0.192377 -0.500115 0.326053 -0.287163 -0.649544 0.107860 0.686925 -0.557175 -0.467123 -0.857312 -0.189720 -0.513108 0.338681 0.046152 0.497779 0.381230 -0.130044 0.495503 0.091093 0.660178 -0.022618 0.044919 0.569374 0.010623 0.301660 -0.529928 -0.163524 -0.470589 0.142782 -0.094922 -0.086973 -0.220613 -0.122523 -0.584370 -0.503734 0.154452 -0.527982 -0.281052 0.314937 -0.652180 -0.188277 -0.209431 -0.229686 0.748779 -0.302660 -0.069023 -0.499704 -1.470930 -0.719530 0.053698 0.177717 0.186885 0.161833 -0.403231 -0.666794 0.476590 -1.106634 0.224617 -0.497213 -0.217207
很大 0.180740 0.948078 -0.301998 0.279648 -0.816530 0.480002 -0.429946 0.626791 0.030852 -0.107381 0.009813 0.211907 0.709102 0.217284 -0.170166 -0.145492 -0.742832 0.132786 -0.237540 -0.809010 -0.083268 0.962579 -0.362315 -0.539538 -0.876922 -0.291793 -0.932281 0.121109 0.191271 0.493652 0.186572 0.158033 0.673605 0.089761 0.786627 -0.584122 0.010181 0.347564 0.051687 0.109570 -0.478413 -0.135980 -0.730690 0.553505 -0.473502 0.133635 -0.214280 -0.097332 -0.574166 -0.112011 -0.084466 -1.001726 -0.154827 0.152029 -1.261671 -0.328196 -0.317086 -0.743534 1.030628 -0.038602 -0.088004 -0.481626 -2.044773 -0.722111 -0.040580 0.199203 0.147545 0.709292 -0.287271 -1.282805 0.831744 -1.378764 0.097349 -0.570569 -0.251859
只能 0.343294 1.064626 -0.185662 0.317989 -0.849706 0.601091 -0.261351 0.339985 0.151817 -0.174498 0.156413 -0.018509 0.386152 -0.064910 -0.306059 -0.204490 -0.553603 0.348077 0.158793 -0.588969 -0.068608 0.501592 -0.535595 0.090317 -0.577318 -0.139163 -0.418707 0.366522 0.092188 0.257426 0.465211 -0.000533 0.520220 -0.434002 0.477337 -0.387109 -0.080121 0.552691 0.017287 0.289272 -0.418921 -0.008677 -0.696635 0.244170 -0.046832 0.271690 0.098257 -0.235265 -0.320715 -0.125425 -0.025974 -0.527272 -0.655624 0.074143 -0.882575 -0.210793 -0.316118 -0.203928 0.497395 -0.639879 0.153496 -0.340334 -1.593271 -0.741074 0.127079 -0.007886 0.109216 -0.048732 -0.320675 -0.512155 0.170749 -0.951267 0.491234 -0.362555 -0.171003
真的 0.114227 0.449594 -0.194189 0.330643 -0.105678 0.443893 -0.462174 0.108175 0.671737 -0.298865 0.306144 -0.496965 0.226529 0.039398 -0.560126 -0.285532 -0.600851 0.202925 -0.218706 -0.632734 0.118289 0.516846 -0.399546 -0.119130 -0.756735 -0.342319 -0.364384 0.486758 -0.053596 0.627741 0.526491 -0.237186 0.263463 0.174969 0.547796 -0.411599 0.158762 0.450647 0.055162 0.112428 -0.229351 0.029027 -0.231881 -0.007404 0.127234 0.098109 0.073250 0.066304 -0.415520 -0.307031 0.118382 -0.221624 -0.415821 0.376662 -0.247185 -0.025492 -0.067910 -0.390798 0.773209 -0.228085 -0.162104 -0.520315 -1.445561 -0.429837 -0.113707 0.101713 0.375745 0.086313 -0.242231 -0.670865 0.289269 -0.965304 0.311612 -0.217381 -0.166233
豪华 -0.072953 0.313962 0.050212 0.015014 -0.866223 0.119656 -0.339768 0.409566 0.607407 -0.291434 0.121224 -0.119332 0.523462 0.167193 0.070270 -0.078618 -1.012928 -0.080060 0.206905 -1.104825 -0.310375 0.738762 0.363652 0.871046 -0.715028 0.167817 -1.185892 0.215528 -0.725773 0.112515 -0.004211 0.062353 0.640355 -0.906154 0.327136 -1.351486 0.499389 -0.149738 0.132815 -0.062909 0.258081 -0.391623 -0.525802 0.755396 -0.824363 1.276125 0.544149 -0.482106 0.057783 1.625243 -0.389603 -0.170942 -0.844083 -0.094296 -1.336983 -0.068613 -0.473987 -1.211065 0.482998 -0.056721 -0.112307 0.042899 -2.949391 -0.341135 -1.054560 -0.157417 -0.211278 -0.192563 0.255815 -1.542100 0.823637 -0.827376 0.027414 0.095339 -0.172468
小时 0.635610 1.113587 0.151695 0.555066 -0.995146 0.597426 -0.212594 0.096510 0.338337 -0.152139 0.214591 -0.370223 -0.153141 -0.322489 -0.564390 -0.323611 -0.333320 0.677898 0.823820 -0.222693 -0.184111 -0.118058 -0.783334 0.877732 -0.117660 -0.097398 0.357539 0.763214 0.032483 0.228925 0.602366 -0.186739 0.206541 -1.241470 0.015044 -0.583744 -0.291441 0.840543 -0.015519 0.348129 -0.368725 0.318842 -0.716956 -0.153913 0.770853 0.537036 0.688113 -0.326268 -0.087512 -0.069933 0.162187 0.233814 -1.563547 -0.085896 -0.353858 0.025892 -0.387815 0.320137 -0.355945 -1.451757 0.311256 -0.187251 -1.220595 -0.703307 0.339204 -0.416235 0.154976 -0.872124 -0.310969 0.440772 -0.645503 -0.292791 1.037757 0.081596 -0.049639
东西 0.390398 1.268887 -0.156935 0.481211 -0.752072 0.723337 -0.317426 0.468328 0.031559 -0.079755 0.125558 -0.047710 0.323033 -0.215016 -0.342359 -0.406528 -0.393016 0.519740 0.216032 -0.198963 -0.095156 0.353278 -0.733477 -0.099469 -0.311679 -0.317068 0.002649 0.291643 0.373617 0.505204 0.495925 0.007587 0.323351 -0.157248 0.445995 -0.236421 -0.295141 0.756446 -0.060136 0.380546 -0.574805 0.199539 -0.743949 0.161085 0.398363 0.136926 -0.032927 -0.018071 -0.254105 -0.735040 0.240490 -0.464701 -0.548303 0.191983 -0.772454 -0.101133 -0.241783 0.126512 0.547403 -0.709674 0.151643 -0.379204 -0.799939 -0.865112 0.496360 -0.027755 0.204270 0.147295 -0.582929 -0.216160 -0.155616 -0.898345 0.638128 -0.440774 -0.057489
根本 0.344355 1.058090 -0.205219 0.249357 -0.857346 0.663574 -0.306555 0.326121 0.138448 -0.189293 0.207600 -0.035320 0.400251 0.036232 -0.293386 -0.167597 -0.603106 0.284443 0.091767 -0.706320 0.014649 0.607405 -0.532329 0.034587 -0.630701 -0.065158 -0.463976 0.410707 -0.031116 0.258915 0.524835 -0.062956 0.532696 -0.410831 0.520659 -0.377107 -0.020224 0.471371 -0.006914 0.274790 -0.431949 -0.074394 -0.672943 0.227348 -0.148399 0.261878 0.056688 -0.240308 -0.326685 -0.157908 0.006532 -0.635989 -0.548727 0.129790 -0.891275 -0.231527 -0.408015 -0.306149 0.611407 -0.592759 0.171493 -0.405034 -1.758546 -0.785562 0.151100 0.035386 0.127682 -0.046290 -0.326414 -0.632321 0.283222 -1.077057 0.431165 -0.459967 -0.112531
四星 0.104250 0.573910 -0.360358 0.217075 -0.254878 0.597132 -0.567003 0.422097 0.477704 -0.104586 0.325019 -0.372600 0.508973 0.212797 -0.478111 -0.229356 -0.823731 0.184734 -0.427186 -0.842935 0.274527 1.024678 -0.426179 -0.537988 -0.962156 -0.443292 -0.607205 0.465672 -0.146274 0.979964 0.444584 -0.218533 0.352803 0.426277 0.810237 -0.537529 0.289213 0.517827 -0.063883 0.282193 -0.409006 -0.204687 -0.312357 0.175568 -0.291224 -0.076293 -0.248115 -0.000383 -0.650274 -0.479643 0.182513 -0.514497 -0.085477 0.437326 -0.606173 -0.032688 -0.213942 -0.741957 1.109128 -0.082276 -0.311397 -0.740818 -1.981202 -0.561138 -0.148909 0.165885 0.313344 0.466383 -0.377499 -1.206397 0.791466 -1.418776 0.051390 -0.544088 -0.042994
需要 0.314281 0.688873 0.015511 0.450055 -0.457467 0.492577 -0.318591 0.067801 0.549953 -0.260728 0.257034 -0.522815 -0.040811 -0.200450 -0.593133 -0.362691 -0.378454 0.502681 0.379372 -0.304404 -0.087429 0.102008 -0.554087 0.471354 -0.387845 -0.313755 0.134568 0.676657 -0.000542 0.530706 0.533946 -0.246794 0.174697 -0.561347 0.241650 -0.578605 -0.039675 0.751110 0.053485 0.216951 -0.268829 0.228331 -0.429504 -0.171760 0.612900 0.378342 0.453192 -0.111313 -0.240440 -0.177091 0.190006 0.244195 -1.118767 0.105883 -0.155768 0.080899 -0.167468 0.069572 0.056765 -0.918814 0.014219 -0.319442 -1.221375 -0.500391 0.088254 -0.215992 0.240945 -0.490086 -0.225574 0.029630 -0.307740 -0.465288 0.681351 0.041920 -0.077824
更 0.208853 0.559450 -0.152164 0.351705 -0.179168 0.491823 -0.427243 0.013891 0.728874 -0.398509 0.310233 -0.597274 0.065571 -0.092971 -0.696422 -0.256150 -0.587442 0.269407 -0.008696 -0.623816 0.078687 0.352543 -0.467205 0.185699 -0.742030 -0.354126 -0.236637 0.613295 -0.081890 0.547826 0.724599 -0.331845 0.274862 -0.116915 0.443462 -0.408879 0.154336 0.557275 0.116496 0.146809 -0.147449 0.073314 -0.259895 -0.141190 0.288994 0.127630 0.266228 -0.027641 -0.354511 -0.212688 0.082310 -0.100789 -0.686859 0.290651 -0.150777 0.006201 -0.076290 -0.219155 0.588320 -0.526499 -0.031076 -0.494219 -1.469389 -0.406257 -0.044498 0.036337 0.398348 -0.193959 -0.199456 -0.425210 -0.010489 -0.848100 0.510902 -0.099237 -0.186061
地理位置 -0.100268 0.706102 -0.473533 0.401247 -0.084938 0.667577 -0.591879 0.494422 0.435792 -0.171130 0.209243 -0.384615 0.656378 0.060980 -0.382673 -0.589101 -0.645197 0.537383 -0.447127 -0.515991 -0.037376 0.993891 -0.547931 -0.772182 -1.056793 -0.773021 -0.447173 0.288679 0.362081 1.383187 0.257786 -0.053965 0.432191 0.712520 0.980334 -0.634489 0.178433 0.826459 0.004360 0.214581 -0.682638 0.068018 -0.427094 0.125448 0.263090 -0.034851 -0.317083 0.172950 -0.742090 -0.860322 0.461283 -0.139753 -0.348012 0.432228 -0.619288 0.010114 0.016027 -0.401874 1.089370 -0.137622 -0.583285 -0.705883 -1.613537 -0.699392 -0.155735 0.138126 0.227961 0.598042 -0.491735 -0.979705 0.733045 -1.351596 0.182270 -0.612974 -0.043080
味道 0.346448 1.254448 -0.294787 0.350340 -0.956415 0.614487 -0.411611 0.644961 -0.040066 -0.122314 0.057263 0.206072 0.652875 0.102749 -0.217501 -0.199292 -0.680673 0.234600 -0.079397 -0.685454 -0.043240 0.865811 -0.544605 -0.458567 -0.777285 -0.288888 -0.718839 0.194258 0.230548 0.478154 0.385513 0.133428 0.610470 0.000482 0.751137 -0.413230 -0.076737 0.505412 -0.027745 0.255676 -0.530467 -0.077020 -0.840228 0.445536 -0.286159 0.055916 -0.196466 -0.104324 -0.535870 -0.379265 -0.000819 -1.064730 -0.204816 0.147189 -1.251577 -0.286009 -0.351225 -0.534991 0.978475 -0.288324 0.073226 -0.547784 -1.830537 -0.842942 0.232550 0.198025 0.208831 0.556857 -0.412039 -1.071295 0.588849 -1.445071 0.322759 -0.621753 -0.245228
里面 0.252149 1.093624 -0.300971 0.297249 -0.809488 0.581587 -0.440104 0.501376 0.105778 -0.170156 0.098053 0.096099 0.621857 0.158944 -0.266335 -0.215001 -0.699012 0.223663 -0.148985 -0.745613 -0.025387 0.813228 -0.499709 -0.377013 -0.766116 -0.203522 -0.735952 0.232303 0.190670 0.414702 0.388213 0.078754 0.638862 0.007293 0.751543 -0.433959 -0.063717 0.384078 0.018876 0.145298 -0.516089 -0.055470 -0.758865 0.372858 -0.268281 0.152004 -0.133147 -0.101201 -0.451859 -0.292475 0.011840 -0.961645 -0.280882 0.195292 -1.127041 -0.296269 -0.318428 -0.529884 0.999814 -0.251326 0.020601 -0.492317 -1.817960 -0.793576 0.118606 0.222609 0.191034 0.463829 -0.364477 -1.025856 0.589198 -1.346711 0.278521 -0.577788 -0.226473
上网 0.102852 0.819353 -0.021710 0.124891 -0.865232 0.386637 -0.277629 0.230869 0.022102 -0.256544 0.021523 -0.042105 0.270127 -0.031508 -0.090588 -0.062496 -0.617230 0.123680 0.316625 -0.582139 -0.240282 0.294901 -0.198508 0.446198 -0.392486 0.015577 -0.507093 0.352898 -0.234049 0.087533 0.602109 -0.099252 0.546049 -0.747416 0.180791 -0.629046 0.098519 0.139793 0.219909 0.108204 0.124916 -0.132964 -0.747987 0.295181 -0.201999 0.750762 0.363542 -0.263129 -0.036194 0.623097 -0.169780 -0.569524 -0.732962 -0.157164 -1.063800 -0.196354 -0.593900 -0.314425 0.494632 -0.714891 0.427798 -0.079423 -1.773550 -0.523155 0.103420 0.017515 0.112948 -0.244777 -0.089710 -0.714764 0.045222 -0.710212 0.425500 -0.113466 -0.183381
饭店 0.106997 0.476292 -0.150570 0.433043 -0.036180 0.489909 -0.540684 0.201076 0.677448 -0.223123 0.323550 -0.626492 0.219392 0.032582 -0.651983 -0.396793 -0.565969 0.386373 -0.165704 -0.448546 0.077321 0.534931 -0.488935 -0.183871 -0.703996 -0.593362 -0.095797 0.557524 0.079831 0.940480 0.493648 -0.273068 0.158061 0.272740 0.594149 -0.610639 0.101003 0.669039 0.052661 0.160797 -0.331033 0.168077 -0.222699 -0.136738 0.374113 0.026492 0.025381 0.129674 -0.428442 -0.570995 0.317724 0.017720 -0.508871 0.389493 -0.104693 0.077109 -0.038683 -0.325269 0.726035 -0.357248 -0.266905 -0.605311 -1.351741 -0.440888 0.001222 0.044265 0.378755 0.160183 -0.297434 -0.594069 0.178751 -0.950559 0.329060 -0.245758 -0.022790
硬件 0.106199 0.530652 -0.407856 0.297378 -0.262969 0.509951 -0.575094 0.454529 0.432499 -0.067796 0.189551 -0.271327 0.453019 0.253514 -0.459708 -0.202379 -0.736108 0.159603 -0.460142 -0.727022 0.209825 1.001197 -0.472834 -0.791473 -0.971792 -0.485675 -0.595880 0.382758 0.027470 0.979230 0.370973 -0.234181 0.335488 0.530210 0.834428 -0.494250 0.175982 0.484943 -0.024471 0.130914 -0.456468 -0.162611 -0.344130 0.128267 -0.153866 -0.269101 -0.301518 0.071414 -0.722970 -0.656716 0.254175 -0.594174 -0.022952 0.422222 -0.497317 -0.072744 -0.196542 -0.766890 1.119000 0.030117 -0.344601 -0.757038 -1.820173 -0.485019 -0.048897 0.254712 0.396903 0.621987 -0.393586 -1.197685 0.804408 -1.411121 0.020131 -0.528124 -0.112744
床 0.259657 1.243465 -0.264026 0.284175 -1.171535 0.524135 -0.515344 0.719541 0.011906 -0.145782 -0.020558 0.362305 0.829308 0.292611 -0.040176 -0.175773 -0.858439 0.054865 -0.082321 -0.939983 -0.202429 1.044903 -0.347900 -0.334784 -0.860979 -0.075365 -1.128295 0.089893 0.074054 0.231834 0.228494 0.254594 0.813139 -0.216222 0.866425 -0.743906 -0.014332 0.132976 0.043985 0.005306 -0.443981 -0.194769 -0.969720 0.733726 -0.666638 0.401934 -0.106920 -0.223523 -0.437118 0.183046 -0.174529 -1.279953 -0.286839 0.074779 -1.647354 -0.401880 -0.529845 -0.948624 1.144556 -0.088681 0.074660 -0.423163 -2.439200 -0.919773 -0.023355 0.213515 0.056458 0.671775 -0.266581 -1.520669 0.916410 -1.539177 0.176006 -0.670228 -0.273229
… 1.334648 0.611315 0.229304 1.452554 -1.130551 0.479192 -1.139827 0.638201 1.166239 0.204323 -0.375951 0.447905 0.562453 0.882558 -0.058153 -0.867226 -0.154662 0.528077 1.202608 0.878012 0.726260 -0.263224 -0.722477 -0.292148 0.526574 0.435643 -0.943724 1.488881 -0.028186 0.562433 -0.588055 1.416800 0.216721 -0.885835 1.701511 -0.127694 0.173783 -0.653481 -1.064970 -0.365389 -1.583490 0.750501 -1.639007 -1.003732 1.902791 0.774612 1.731009 1.338105 -1.190985 0.224462 0.745694 -0.894383 -1.645119 -0.408057 -1.069495 1.017459 -0.286092 -0.413854 -0.522044 -1.422678 -0.886614 -0.637344 -0.829853 -1.246097 0.016894 -0.195106 0.632163 -0.055934 -0.668769 0.160811 1.130948 -0.044321 1.235390 1.353269 -0.094517
早上 0.533135 1.323849 0.016818 0.535929 -1.115077 0.613114 -0.076997 0.268992 0.010189 -0.089509 0.124568 0.018928 0.096049 -0.248389 -0.333377 -0.256990 -0.303733 0.565917 0.588560 -0.308356 -0.196372 0.124802 -0.757191 0.403731 -0.275419 -0.061463 0.094396 0.481438 0.156612 0.104213 0.416226 -0.068441 0.319579 -0.909215 0.158110 -0.366467 -0.361618 0.778202 -0.021910 0.373891 -0.533513 0.196243 -0.799519 0.173909 0.403716 0.328131 0.289506 -0.300891 -0.184769 -0.290135 0.107652 -0.188936 -1.084994 -0.064073 -0.631200 -0.196642 -0.418758 0.225002 -0.055514 -1.034165 0.347862 -0.187038 -1.171657 -0.855783 0.432640 -0.242349 0.074093 -0.450145 -0.363672 0.041990 -0.319140 -0.575311 0.739999 -0.202697 -0.130893
送 0.404103 1.144377 -0.058113 0.360366 -0.925969 0.636654 -0.115133 0.214384 0.042632 -0.153786 0.169125 -0.070337 0.126604 -0.230341 -0.337211 -0.207376 -0.393001 0.421100 0.354119 -0.451603 -0.060987 0.212651 -0.592336 0.331346 -0.350880 -0.032965 -0.112239 0.557497 -0.025014 0.150597 0.616541 -0.178101 0.381787 -0.710553 0.202437 -0.228759 -0.180228 0.711865 0.059849 0.425991 -0.325671 -0.007283 -0.698079 0.101189 0.182844 0.333250 0.205445 -0.274828 -0.152969 -0.164816 0.011188 -0.386823 -0.811169 0.081369 -0.692343 -0.157988 -0.431097 0.034925 0.242931 -0.999623 0.354657 -0.283724 -1.284220 -0.786741 0.358023 -0.100376 0.154350 -0.413820 -0.401860 -0.191619 -0.240174 -0.647883 0.660082 -0.223973 -0.165274
商务 -0.011540 0.455898 -0.019725 0.101612 -0.842394 0.191363 -0.381189 0.404820 0.592676 -0.282986 0.101350 -0.114545 0.495971 0.109452 -0.035257 -0.144076 -0.922764 0.005606 0.219161 -0.984467 -0.302068 0.703092 0.162551 0.673894 -0.727943 0.012667 -1.127435 0.218044 -0.481874 0.224492 0.120040 0.119938 0.637877 -0.752441 0.447636 -1.152692 0.404343 -0.015261 0.128561 -0.018945 0.171301 -0.296365 -0.567702 0.634029 -0.604402 1.053527 0.492962 -0.388034 -0.061892 1.329354 -0.342769 -0.280175 -0.861845 -0.076558 -1.302404 -0.037487 -0.396168 -0.986139 0.574201 -0.161536 -0.086250 -0.031007 -2.687649 -0.389903 -0.869956 -0.116791 -0.089967 -0.044329 0.125864 -1.383076 0.717777 -0.880085 0.166272 0.036936 -0.234982
中 0.148663 0.361032 -0.090840 0.416910 -0.035141 0.459526 -0.535061 0.055901 0.849639 -0.319641 0.380511 -0.755606 0.078382 0.033095 -0.736478 -0.367505 -0.579826 0.316152 -0.093401 -0.546341 0.142524 0.418937 -0.432451 0.063113 -0.723049 -0.496054 -0.113810 0.712155 -0.115878 0.837112 0.588163 -0.372015 0.134265 0.054086 0.508254 -0.632058 0.168129 0.622347 0.068932 0.135192 -0.238945 0.150904 -0.182123 -0.223591 0.411774 0.147919 0.221847 0.092495 -0.400335 -0.339043 0.234793 0.106757 -0.684595 0.384472 0.010186 0.097421 -0.033767 -0.330296 0.591600 -0.479296 -0.218356 -0.592125 -1.513754 -0.400679 -0.085885 -0.014107 0.432905 -0.135529 -0.199018 -0.510304 0.109225 -0.820365 0.421394 -0.072283 -0.092982
开 0.624022 1.436292 -0.047035 0.409294 -1.222360 0.606236 -0.227652 0.358301 -0.046071 -0.212016 0.044320 0.178778 0.266953 -0.108921 -0.330049 -0.104119 -0.470566 0.307783 0.513712 -0.497220 -0.236125 0.211188 -0.719956 0.290949 -0.351290 0.053762 -0.280805 0.263725 0.303504 -0.163739 0.536646 0.090591 0.514001 -0.770869 0.267419 -0.265272 -0.397425 0.454570 0.014677 0.166354 -0.460847 0.167840 -0.874059 0.307379 0.133153 0.325652 0.249512 -0.262839 -0.136621 -0.130900 -0.124717 -0.765394 -0.862618 -0.114425 -0.970903 -0.337997 -0.444141 0.010969 0.278048 -0.832974 0.438780 -0.234990 -1.320189 -0.846962 0.391352 -0.027170 0.087535 -0.152849 -0.323562 -0.166651 -0.167305 -0.865746 0.786450 -0.340839 -0.208333
房价 0.035824 0.495392 -0.158794 0.308388 -0.208476 0.486514 -0.539886 0.159384 0.652790 -0.335743 0.396524 -0.558628 0.300880 -0.043529 -0.429777 -0.389435 -0.591731 0.249599 -0.018217 -0.531903 0.080834 0.567401 -0.237651 0.297819 -0.753806 -0.456714 -0.202750 0.564853 -0.220057 0.776880 0.469258 -0.193026 0.203197 -0.059738 0.392665 -0.694396 0.307486 0.520356 -0.030976 0.336583 -0.176352 0.100440 -0.280974 -0.029888 0.193507 0.332204 0.176933 0.048672 -0.325190 -0.097409 0.200540 0.128022 -0.509242 0.292982 -0.352825 0.107258 -0.120219 -0.457328 0.605064 -0.403885 -0.204657 -0.533647 -1.578316 -0.495361 -0.184114 -0.146720 0.157780 -0.191835 -0.165861 -0.695890 0.247089 -0.892189 0.371131 -0.193019 0.006390
电梯 0.445450 1.156685 -0.135538 0.369924 -1.027428 0.561289 -0.261902 0.532008 -0.015178 -0.025712 0.040986 0.144446 0.369358 -0.019484 -0.252178 -0.206119 -0.518300 0.401909 0.221416 -0.475286 -0.190769 0.561549 -0.593426 -0.153026 -0.482128 -0.246615 -0.372617 0.281889 0.273558 0.420368 0.297441 0.052388 0.489233 -0.436196 0.495270 -0.532940 -0.242150 0.640417 -0.004105 0.225364 -0.494806 0.011131 -0.804266 0.343320 -0.016065 0.177207 0.009816 -0.260359 -0.378472 -0.276063 0.040409 -0.600983 -0.658748 -0.002640 -0.951654 -0.214083 -0.378099 -0.202725 0.429008 -0.624410 0.107321 -0.321305 -1.584495 -0.702168 0.191147 -0.019295 0.109573 0.210899 -0.354413 -0.542906 0.202818 -0.993316 0.459355 -0.404689 -0.196834
一家 -0.001034 0.240931 -0.206939 0.348063 0.220148 0.433003 -0.627661 0.094810 0.903260 -0.325609 0.377931 -0.774910 0.199566 0.015958 -0.714302 -0.407748 -0.641169 0.278030 -0.286309 -0.585170 0.089491 0.545595 -0.386460 -0.126642 -0.814359 -0.604251 -0.252728 0.520033 -0.010615 1.030925 0.546752 -0.309901 0.155516 0.416243 0.608400 -0.582091 0.261581 0.542647 0.058757 0.085477 -0.164166 0.110582 -0.068398 -0.144368 0.350993 0.068551 0.112084 0.164437 -0.444100 -0.384388 0.260461 0.104437 -0.495362 0.466700 -0.032973 0.146641 0.079968 -0.389154 0.853729 -0.198081 -0.390666 -0.608955 -1.413806 -0.310196 -0.288217 0.058486 0.425048 0.137048 -0.245483 -0.700890 0.262379 -0.971306 0.327232 -0.155824 -0.071522
挺 0.097443 1.044545 -0.413671 0.384832 -0.622879 0.624231 -0.466762 0.623080 0.128103 -0.073815 0.116551 0.003329 0.680671 0.061221 -0.243408 -0.407063 -0.645979 0.445462 -0.230486 -0.578871 -0.094760 0.945083 -0.582532 -0.664629 -0.895979 -0.531076 -0.627462 0.204033 0.385069 0.934415 0.241116 0.083845 0.555699 0.340688 0.901497 -0.502202 0.005665 0.696268 0.005076 0.240558 -0.656891 -0.051794 -0.718074 0.380583 -0.023240 0.018673 -0.291593 -0.029392 -0.657676 -0.591613 0.194428 -0.618086 -0.343042 0.285607 -1.052554 -0.144319 -0.172654 -0.452647 1.025966 -0.228995 -0.268434 -0.560849 -1.718058 -0.798257 -0.009008 0.118771 0.181049 0.625009 -0.500798 -1.022643 0.694056 -1.355436 0.244734 -0.621290 -0.172178
不到 0.258231 0.950278 -0.184652 0.228595 -0.636290 0.701574 -0.282688 0.289282 0.115822 -0.106058 0.284717 -0.184964 0.391256 0.040272 -0.323472 -0.282438 -0.522061 0.413339 0.058971 -0.518341 0.071371 0.534412 -0.548972 -0.019788 -0.499178 -0.103604 -0.184082 0.479429 -0.022260 0.426213 0.454233 -0.100692 0.384361 -0.254850 0.485083 -0.391575 -0.018555 0.523426 -0.099298 0.363806 -0.536310 0.034874 -0.611060 0.064727 0.023856 0.243137 0.000734 -0.175636 -0.303181 -0.421607 0.194584 -0.418267 -0.503627 0.239274 -0.646550 -0.122338 -0.365479 -0.204498 0.548268 -0.630146 0.083509 -0.446264 -1.408126 -0.793751 0.241426 -0.025595 0.099421 -0.088619 -0.410110 -0.446796 0.204659 -0.935995 0.406494 -0.471628 0.029134
门口 0.185882 1.052403 -0.285311 0.374730 -0.538571 0.715489 -0.281962 0.370794 0.074987 -0.118538 0.138723 -0.134851 0.437141 -0.113002 -0.264603 -0.438087 -0.347733 0.642486 0.053450 -0.254740 -0.159980 0.518806 -0.676196 -0.238041 -0.538402 -0.380298 -0.095025 0.323554 0.419697 0.720412 0.302952 0.009260 0.423788 -0.038558 0.605010 -0.390406 -0.166717 0.859178 -0.016622 0.299537 -0.716670 0.164941 -0.632053 0.066620 0.399523 0.149734 -0.052679 -0.087254 -0.405542 -0.744100 0.330168 -0.124321 -0.731353 0.150546 -0.613866 -0.100482 -0.159536 0.153491 0.461732 -0.705460 -0.102287 -0.369354 -1.077278 -0.808514 0.199943 -0.018012 0.049554 0.052267 -0.458191 -0.191333 0.083778 -0.851322 0.498679 -0.501009 -0.016030
很差 0.251478 0.922190 -0.391096 0.326644 -0.595961 0.635576 -0.306909 0.449039 0.035505 -0.086210 0.096454 0.110579 0.486260 0.078067 -0.202318 -0.153519 -0.560996 0.197157 -0.250821 -0.521825 0.077804 0.747967 -0.544731 -0.684530 -0.781457 -0.192975 -0.550950 0.216366 0.154285 0.483742 0.364332 -0.036835 0.390129 0.272792 0.665683 -0.121690 -0.034809 0.494861 -0.033028 0.203792 -0.525191 -0.120490 -0.579381 0.284203 -0.149520 -0.146094 -0.336962 -0.013891 -0.585054 -0.698791 0.160334 -0.804383 -0.027282 0.294466 -0.734473 -0.227637 -0.325395 -0.421224 0.921588 -0.109270 -0.034865 -0.545135 -1.363737 -0.708137 0.270676 0.253264 0.263638 0.504665 -0.485637 -0.821933 0.492589 -1.244322 0.181020 -0.556574 -0.206569
便宜 -0.159993 0.423202 -0.300953 0.297545 0.109355 0.507690 -0.622351 0.165369 0.776418 -0.420554 0.433136 -0.650421 0.463565 -0.005900 -0.464994 -0.470528 -0.648342 0.264793 -0.281620 -0.584926 0.125403 0.691609 -0.220262 0.057596 -0.972228 -0.624023 -0.402463 0.452805 -0.072607 0.978203 0.446614 -0.089104 0.264766 0.417411 0.657019 -0.623269 0.449110 0.475800 -0.039121 0.316288 -0.241541 0.104292 -0.194496 0.006587 0.200703 0.260320 0.063074 0.223742 -0.460424 -0.257772 0.212631 0.066463 -0.303978 0.424468 -0.395504 0.134204 0.095708 -0.529186 0.978249 -0.156289 -0.417649 -0.633475 -1.514997 -0.492299 -0.365595 0.001068 0.216057 0.079350 -0.205467 -0.921618 0.448437 -1.068781 0.285193 -0.259669 -0.011735
小姐 0.486758 1.256238 -0.235232 0.151359 -1.113571 0.822590 0.191220 -0.152947 0.171554 -0.322733 0.246637 -0.080264 -0.024676 -0.363430 -0.338312 -0.034362 -0.398791 0.523533 0.418377 -0.739424 0.000801 0.067333 -0.763047 0.701828 -0.551908 0.331536 -0.198010 0.706369 -0.304679 -0.234768 0.828714 -0.405877 0.577068 -1.300268 0.176120 0.153382 -0.110708 0.813392 0.053604 0.527768 -0.382445 -0.216616 -0.676835 -0.009564 0.081689 0.404625 0.401758 -0.735687 -0.225220 0.039874 -0.091914 -0.219002 -1.287863 0.072741 -0.520963 -0.282417 -0.430112 0.314575 -0.088264 -1.344806 0.553415 -0.123010 -1.728573 -0.856390 0.194282 -0.173088 0.054602 -1.229647 -0.329696 0.271277 -0.383297 -0.551031 0.832073 -0.176179 -0.303442
间 0.069590 0.555312 -0.008560 0.084068 -0.982269 0.262276 -0.292461 0.353953 0.474500 -0.239802 0.129227 -0.050563 0.405405 0.032403 -0.003737 -0.099722 -0.814902 0.066025 0.311208 -0.978068 -0.302240 0.672221 0.085078 0.793268 -0.654475 0.099783 -0.988496 0.302431 -0.579623 0.137203 0.150628 0.066314 0.598928 -1.006412 0.333885 -1.089396 0.353927 0.108292 0.094008 0.135862 0.135722 -0.324396 -0.608430 0.627253 -0.613666 1.077147 0.487516 -0.555187 -0.045178 1.259655 -0.329542 -0.208402 -0.988055 -0.091478 -1.233573 -0.070766 -0.502083 -0.864814 0.381371 -0.342588 0.051913 -0.004205 -2.701832 -0.511871 -0.718503 -0.202452 -0.192155 -0.253327 0.101362 -1.214983 0.585294 -0.809580 0.233662 -0.031826 -0.240972
经理 0.489121 1.174587 -0.105410 0.204903 -1.055637 0.772045 0.112965 -0.144512 0.179657 -0.264249 0.308392 -0.154795 -0.108317 -0.345129 -0.483958 -0.113754 -0.335300 0.587481 0.498447 -0.628036 -0.037932 -0.007977 -0.798524 0.696927 -0.363684 0.203368 0.007624 0.732806 -0.175617 -0.133774 0.830388 -0.382830 0.502698 -1.285246 0.089375 0.016670 -0.217707 0.871989 0.085995 0.499038 -0.399360 -0.082789 -0.656361 -0.142808 0.226995 0.362012 0.430324 -0.702255 -0.171289 -0.068888 -0.056680 -0.177804 -1.355651 0.060663 -0.424359 -0.268170 -0.388987 0.432530 -0.187510 -1.523754 0.560173 -0.180054 -1.555916 -0.804639 0.342094 -0.259878 0.070892 -1.157677 -0.326293 0.436728 -0.504196 -0.443631 0.924084 -0.149506 -0.257041
提出 0.397589 0.211611 0.277945 0.628456 0.146418 0.432769 -0.494314 -0.465121 1.542091 -0.618420 0.499593 -1.414851 -0.699105 -0.364341 -1.389353 -0.324066 -0.513859 0.524982 0.434877 -0.558884 0.011750 -0.265288 -0.602773 1.124499 -0.508017 -0.591266 0.547789 1.212949 -0.331624 0.759938 1.093877 -0.902818 -0.140737 -0.732311 0.058309 -0.792222 0.117723 0.981347 0.310005 0.116647 0.201105 0.405877 0.133377 -0.700249 1.075086 0.388151 0.911570 -0.081116 -0.146453 -0.033628 0.227632 0.983054 -1.740240 0.325248 0.927872 0.265361 0.077150 0.210409 -0.170821 -1.243883 0.025620 -0.487532 -1.498021 -0.129450 -0.109041 -0.295148 0.636542 -1.124951 -0.047101 0.390487 -0.898817 -0.286265 0.970563 0.534769 -0.146149
真是 0.229358 0.666438 -0.123311 0.381236 -0.345120 0.517069 -0.482571 0.065663 0.691616 -0.374864 0.310633 -0.508642 0.179928 -0.019318 -0.605413 -0.318013 -0.614219 0.295203 0.074002 -0.603925 0.031654 0.347267 -0.473898 0.259836 -0.633272 -0.214388 -0.264244 0.575672 -0.087511 0.455690 0.656102 -0.223538 0.299940 -0.223827 0.466030 -0.473891 0.056554 0.462153 0.041651 0.113096 -0.235089 0.120786 -0.389496 -0.071518 0.276898 0.346188 0.319066 -0.013523 -0.264907 -0.162192 0.126636 -0.197808 -0.745981 0.292458 -0.356320 -0.044907 -0.169790 -0.287871 0.603341 -0.553147 -0.004919 -0.448516 -1.530722 -0.569434 -0.021307 0.019766 0.345019 -0.222197 -0.224742 -0.458016 0.057340 -0.885074 0.571490 -0.129133 -0.134872
声音 0.626338 1.510674 -0.157350 0.478675 -1.314417 0.630241 -0.325192 0.635015 -0.181825 -0.089406 0.006190 0.407121 0.582875 0.088815 -0.224770 -0.078623 -0.613954 0.219433 0.234800 -0.603521 -0.163357 0.675834 -0.692752 -0.291803 -0.649423 -0.130711 -0.632066 0.158182 0.394741 0.068224 0.323263 0.259266 0.587594 -0.336559 0.585700 -0.395328 -0.349101 0.460564 -0.024131 0.144367 -0.658809 0.119369 -0.995506 0.564561 -0.160498 0.104802 -0.116142 -0.109170 -0.406800 -0.356171 -0.087743 -1.124554 -0.443165 -0.091847 -1.260072 -0.410666 -0.507146 -0.334594 0.675661 -0.400541 0.264749 -0.416709 -1.687795 -0.942559 0.396629 0.174730 0.115884 0.541503 -0.386320 -0.759639 0.343590 -1.332118 0.461504 -0.580062 -0.245189
