5371 32
酒店 -1.939762 1.158502 -0.460298 0.684429 0.147971 -0.205376 0.376958 -0.548178 -1.183311 1.144461 -0.907168 -0.759971 0.249302 0.707987 -0.779941 0.148033 -0.704117 -0.695721 0.498398 0.615548 -0.223276 -0.072128 0.110786 -0.358933 -0.024275 -1.034095 0.474253 -0.433576 -1.083672 0.800321 0.819980 -0.379887
房间 -0.139262 1.569789 1.217955 2.356866 -0.159664 0.467478 0.086710 0.392740 0.793318 -0.234238 -1.443210 -0.227687 -0.749365 -1.489772 -0.966940 -0.070450 -0.230372 -1.208202 0.755262 -0.538052 0.473966 -1.546463 1.178424 0.397963 0.812657 0.550254 -0.521176 -0.807851 -1.399327 1.556529 0.626952 1.337367
服务 -1.353503 0.739184 0.289246 1.135133 0.618990 -0.453120 0.816506 -1.438336 -0.597035 0.923437 -1.379857 -0.839516 0.273206 0.337141 -0.090715 0.886070 -1.008366 -1.666651 0.089792 0.748961 -0.439708 -0.849483 -0.166164 -1.021098 1.266174 -0.879062 0.515445 -0.213742 -1.661249 0.631985 0.630837 0.922575
住 -1.859605 2.281133 -0.669852 0.747066 -0.260138 0.023234 0.134444 0.530742 -0.906780 1.373768 -1.108811 -0.301132 0.624081 1.459617 -0.577067 -0.740182 -0.225208 -0.083552 0.474538 0.297010 0.706553 0.027279 0.492241 -0.148849 -0.541976 -0.573415 0.039042 -0.621324 -1.350736 0.750922 1.432537 -0.764094
不错 -2.074030 2.145524 1.346481 1.870900 0.629362 -0.154100 0.628267 -0.226031 -0.400620 0.153538 -1.434927 -0.862019 0.014719 -0.260640 -0.355368 0.056826 -0.470941 -0.992439 0.596376 0.689592 0.125174 -0.781085 0.282584 -0.876179 0.967728 -0.252526 0.734065 -0.472242 -2.313703 0.963784 0.880410 0.747679
入住 -0.932580 1.023889 -1.941428 -0.112980 -0.591555 -0.228433 -0.119134 -0.332191 -0.837599 1.959809 -1.053977 -0.506118 0.796175 0.946488 -1.035165 0.287599 -0.488643 -0.819980 0.679365 -1.081351 0.018583 -0.417704 0.053098 0.780874 -0.289217 -0.900673 0.399901 -0.564505 -0.255870 0.588215 0.966876 -1.455045
说 1.258669 0.060932 -0.797553 1.040340 -0.342167 -0.128780 0.714445 -1.269199 -0.016988 1.903526 -1.620096 -0.335486 -0.448308 -1.009850 -1.586093 1.579473 -0.213643 -1.792918 -0.121822 -1.309990 -0.846494 -1.727730 0.624935 0.861323 -0.652339 -0.909521 -0.461394 -0.894780 0.268935 1.263320 0.139791 0.116673
前台 1.196614 -0.113841 -0.792949 1.339679 -0.056591 -0.125044 0.668554 -1.752816 -0.078935 1.756433 -1.790631 -0.712048 -0.394347 -1.467868 -1.174623 2.300801 -0.461157 -2.445035 -0.163793 -1.438604 -1.126883 -2.027498 0.294672 0.629745 0.429979 -0.885206 -0.206539 -0.827357 -0.229315 1.361150 0.092890 0.354649
比较 -2.147412 2.068278 2.596167 1.531356 0.875460 -0.108858 0.532289 0.432261 -0.344686 -0.590799 -1.115569 -0.756349 -0.070663 -0.583604 -1.345329 -0.332616 -0.570884 -0.468328 0.986615 0.652170 0.280474 -0.575393 0.769153 -0.905877 0.962748 0.437039 0.994416 -0.709303 -2.049791 0.821776 1.025580 1.317024
早餐 -1.161828 0.403313 1.536065 0.545918 0.971696 -0.875127 1.180427 -0.464653 0.152228 0.245048 -0.730050 -0.564103 0.103870 -0.519596 -1.426320 -0.076010 -0.507435 -0.280610 0.914018 0.592370 -0.065937 -1.187089 1.015116 -0.719422 0.017209 0.480469 0.972290 -0.490095 -1.278859 0.645644 0.183950 2.211877
感觉 -1.775862 2.042922 0.783291 1.746752 0.261433 0.262285 0.305027 0.133497 0.027471 0.299760 -1.340743 -0.366103 0.005632 0.199851 -0.206079 -0.315751 -0.469174 -0.854726 0.558508 0.410578 0.602340 -0.665871 0.563287 -0.500080 0.652627 -0.147251 0.101340 -0.581330 -1.906731 1.031168 1.189041 0.741622
携程 -1.362152 0.800449 -2.796259 0.445915 -0.219093 -0.079801 0.467989 -0.632204 -1.622448 3.358548 -1.016545 0.117744 0.209279 1.002089 -0.698256 0.883531 -0.428601 -1.120556 1.162891 -0.913633 -0.042277 -0.718998 -0.425928 1.069241 -1.035863 -2.323806 -0.690312 -1.182162 -0.390841 1.262175 1.055462 -1.797152
服务员 1.590785 -0.184493 0.670861 1.232706 0.177853 -0.059536 0.944968 -1.830996 0.484623 1.008620 -1.861396 -0.673143 -0.466974 -1.508613 -1.633941 1.859314 -0.290249 -2.114411 -0.429802 -0.834738 -1.156026 -2.111710 0.858168 0.216265 0.184831 -0.260517 0.151109 -0.680363 -0.008816 1.290879 -0.002250 1.459713
宾馆 -2.020285 1.077735 -0.116773 -0.216884 0.524206 -0.397145 0.324105 -0.678087 -0.427977 1.340638 -1.113097 -0.365002 0.938161 1.390051 -1.210052 -0.207797 -0.813055 -0.381134 1.160258 0.230556 0.356475 0.050450 0.077112 -0.041624 -0.272159 -0.762462 0.852714 -0.194565 -0.543065 0.257979 1.016782 -0.166976
! 0.133761 3.203818 -0.435490 1.512119 -1.910915 -1.600152 1.609027 -0.727353 0.570510 2.411939 -4.142551 -1.117014 0.369818 2.512266 -0.324124 -0.098324 1.069386 -0.841960 -0.266787 2.407629 -0.964101 -1.016191 -0.088557 -0.519071 -1.942586 -0.361665 -0.029291 0.923782 -1.940685 -0.934139 -0.882359 -0.474740
设施 -2.109396 2.490499 2.612958 2.773458 0.764108 0.418776 0.223845 0.525946 0.793955 -0.526554 -1.904396 -0.414586 -0.424004 -0.806725 -0.719872 -0.515685 -0.784865 -1.134659 1.199801 0.661430 0.596617 -1.367544 1.025015 -0.575333 1.411542 0.564380 0.259690 -0.711755 -2.562151 1.202079 0.961502 1.763218
月 -3.451732 1.633405 -1.946519 -2.649021 -0.555009 -1.609046 -0.261832 -0.523922 -0.359036 3.739942 -2.415853 -0.668105 2.560328 2.757370 -4.886199 -0.453596 -1.821381 -0.709912 3.388855 -1.900491 0.565119 0.050212 0.881941 2.309413 -1.765207 -1.418667 2.654638 -0.531914 0.732173 -0.252894 2.156586 -2.616073
方便 -1.884810 1.915013 3.253305 0.384065 1.261719 -0.542985 1.058735 -0.227908 -1.696113 -0.616872 -0.937006 -0.893613 0.471456 -0.022298 -2.643098 -0.344898 -0.510177 0.203707 0.163793 0.312783 -0.381935 0.798466 0.651756 -1.611466 -0.369221 0.366308 2.268364 -1.022923 -1.100404 0.662008 0.644217 1.138411
客人 0.024752 0.163125 -1.110875 -0.048890 -0.163367 -0.167881 0.311539 -1.454302 -0.542265 1.800088 -1.532279 -0.500910 0.564557 0.612083 -1.322744 1.133627 -0.701067 -1.416074 0.214082 -0.846851 -0.596938 -0.662120 0.410794 0.478464 -0.363059 -0.955582 0.466239 -0.468158 0.505876 0.785886 0.548694 -0.372487
日 -2.635078 0.988433 -1.905986 -2.201926 -0.295433 -1.150471 -0.254689 -0.669394 -0.507087 3.304022 -2.135618 -0.475070 2.086690 2.528552 -3.786628 -0.193263 -1.343222 -0.556211 2.730278 -2.191510 0.509345 -0.161579 0.389178 1.889184 -1.206085 -0.922658 2.215271 -0.325181 0.919468 -0.132320 1.591698 -2.490650
价格 -2.658153 1.720352 0.259908 1.108077 0.578832 -0.425326 0.614182 0.426211 -1.017152 1.009455 -0.525665 -0.237109 -0.037465 0.176707 -0.403987 -0.270673 -0.395308 -0.200208 1.409229 0.693542 0.493189 -0.599204 0.182882 -0.452337 -0.096244 -0.850057 -0.006803 -0.874544 -2.116844 1.110469 0.853195 0.108114
差 -1.347277 1.614198 1.496792 2.011318 0.880098 -0.163518 0.852621 -0.831197 0.564507 0.409805 -1.863342 -0.583987 0.271347 0.107839 -0.140840 -0.239781 -0.721482 -1.015496 0.245156 1.515178 -0.001247 -0.847459 0.915166 -1.374351 0.864096 0.090063 0.145011 -0.166809 -2.144862 0.991794 0.537668 2.243882
元 -1.257496 0.338939 -0.536682 -0.741954 -0.183377 -1.222046 0.249652 0.768438 -0.466811 1.566236 -0.543102 -0.017888 -0.007660 -0.430873 -2.705268 0.008822 -0.149257 0.433070 2.447822 -1.332617 0.356436 -1.211882 0.664281 1.562003 -1.483861 -0.246816 0.152497 -1.466998 -0.112997 0.497911 -0.089211 -0.918420
没 1.344129 0.239600 0.457220 0.940110 -0.080866 -0.034381 0.743973 -1.044484 0.794210 1.176242 -1.772703 -0.111713 -0.302940 -0.755357 -1.828617 0.788304 0.008411 -1.354072 -0.261298 -0.883480 -0.625815 -1.679449 1.224377 0.500949 -0.738730 0.063057 -0.133233 -0.646215 0.392705 1.019912 0.215236 1.221853
晚上 0.651721 0.512460 0.952743 0.338265 -0.376732 0.009604 0.238721 -0.264299 0.781580 0.171094 -1.389242 -0.517355 0.037612 -0.593122 -2.223120 0.017786 -0.301344 -0.683525 0.364412 -0.828680 -0.286991 -1.018296 1.316777 0.465144 -0.373112 0.768631 0.468667 -0.485664 0.301840 0.701176 0.428785 1.160735
房 -0.338880 2.256465 -0.727675 2.995816 -0.929462 0.307915 -0.223051 2.045613 1.121616 1.679421 -1.565666 1.330481 -0.879703 -1.593083 -0.905554 -0.064694 0.669201 -0.571009 1.496942 -2.311630 2.146253 -2.207006 0.960107 2.087543 -0.020405 0.130392 -2.006961 -1.585040 -1.800001 1.958548 0.864374 -0.704399
年 -4.096205 1.952993 -1.024408 -2.644446 0.072553 -1.632370 0.327746 -0.980961 -0.437671 3.967539 -2.917200 -0.732323 2.992566 3.556228 -4.788342 -0.694717 -1.946010 -0.593386 3.389959 -1.490970 0.890336 -0.183597 0.711590 1.428180 -1.548163 -1.134929 2.955332 -0.100630 0.596494 -0.488477 2.128234 -1.959278
时 0.953175 -0.157215 -1.569790 0.466480 -0.564013 -0.112311 0.381499 -1.411253 -0.261148 2.052421 -1.574929 -0.478136 0.030983 -0.778914 -1.901260 1.739843 -0.430789 -1.903549 0.366040 -1.965294 -0.983113 -1.785151 0.528363 1.212029 -0.381697 -0.783682 0.127125 -1.046697 0.668788 1.124627 0.262290 -0.458447
环境 -2.314672 2.167720 1.843138 1.668283 0.723284 -0.114173 0.566709 0.053736 -0.465820 -0.097141 -1.504884 -0.860096 0.115571 0.070506 -0.578958 -0.249855 -0.604238 -0.763931 0.671312 1.055224 0.167303 -0.525223 0.471645 -1.110819 1.008999 -0.058866 0.825620 -0.524618 -2.368230 0.728874 1.018132 1.099328
里 -0.068941 1.275415 2.098323 1.951734 0.100883 0.535188 0.271420 0.130928 0.839938 -0.446522 -1.628958 -0.136820 -0.542649 -1.215489 -1.416817 0.122215 -0.291626 -1.124373 0.549480 -0.524734 0.229590 -1.507459 1.299272 0.166339 0.598578 0.606351 -0.009164 -0.887627 -0.891761 1.157374 0.585330 1.584399
太 -1.098242 1.327244 1.626479 1.592952 0.510047 -0.190712 0.895521 -0.507346 0.492784 0.442959 -1.675607 -0.428341 0.226254 0.155858 -0.673109 -0.155673 -0.562576 -0.952279 0.235146 1.119004 -0.056957 -0.787459 1.102422 -1.024257 0.421956 0.236423 0.192686 -0.356311 -1.684591 0.778425 0.639053 1.977713
知道 0.338775 0.418926 -0.058847 0.859710 -0.080593 -0.071357 0.604490 -0.757922 -0.068607 1.245447 -1.276014 -0.301260 -0.209979 -0.406620 -1.257828 0.743814 -0.230720 -1.156088 0.043737 -0.521181 -0.442678 -1.136816 0.649679 0.297659 -0.516964 -0.589294 -0.179768 -0.686745 -0.121874 0.986528 0.426945 0.396102
下次 -2.244778 2.170814 -1.024445 0.459027 0.263233 -0.267372 0.677642 -0.774593 -1.680824 2.302288 -1.070964 -0.512284 1.401507 2.531452 -0.536075 -0.533620 -0.663385 -0.319382 -0.259895 0.970293 0.241599 0.600116 0.633808 -0.890610 -0.892760 -0.861951 0.592568 -0.707776 -1.008373 1.266914 1.468979 -0.055387
不好 -0.185409 1.386153 1.635119 1.844034 0.375276 0.175983 0.617912 -0.624588 0.433576 -0.088900 -1.594728 -0.678477 -0.228145 -0.750320 -0.663430 0.413961 -0.504358 -1.271383 -0.094110 0.365786 -0.108640 -0.939592 0.840948 -0.719250 0.840162 0.198155 0.060907 -0.417474 -1.337574 1.172276 0.550666 1.572260
干净 -1.354982 2.416114 2.535652 2.798853 0.535826 0.491988 0.484453 0.473529 0.418831 -0.687321 -1.584379 -0.532921 -0.559389 -1.235990 -0.750218 -0.241398 -0.435435 -1.016481 0.699751 0.164860 0.550684 -1.319431 1.158860 -0.622251 1.312746 0.589834 0.190202 -0.892923 -2.407735 1.467000 0.819998 1.876710
2008 -4.103185 1.991019 -1.278964 -2.474535 0.267332 -1.581595 0.098568 -1.069384 -0.692405 3.689191 -3.047719 -0.682183 2.623680 3.674630 -4.595617 -0.439998 -1.942209 -0.907323 3.236693 -1.153635 0.658143 0.267504 0.612264 1.605262 -1.534144 -1.505416 2.985667 -0.287308 0.089344 -0.031327 2.371209 -2.219923
点 0.183326 -0.372131 -0.278928 -0.951029 -0.296470 -0.667128 0.279517 -0.834001 0.422401 0.988372 -1.121085 -0.523539 0.528174 -0.043588 -3.003767 0.202538 -0.513984 -0.651378 1.054366 -1.402727 -0.559839 -1.163553 1.012922 1.083377 -0.900855 0.368451 1.045545 -0.594063 1.000674 0.125275 0.395487 0.349376
这家 -2.786622 2.046515 -0.708931 0.565334 0.307201 -0.155934 0.445992 -0.301448 -1.723265 1.620654 -0.942780 -0.796020 0.924491 1.855057 -0.316174 -0.363726 -0.692130 -0.569187 0.174446 1.000832 0.058995 0.391089 0.089860 -0.837163 -0.092586 -1.378663 0.693858 -0.477921 -1.515585 0.689925 1.737444 -0.834166
点评 -2.711924 1.336492 -0.924915 -1.851258 -0.267813 -1.030677 0.096259 -0.685102 -0.375922 2.785387 -1.709322 -0.010174 2.158906 3.028630 -2.487593 -0.642829 -1.170219 -0.393833 1.528941 -0.703689 0.493164 0.379535 0.067070 0.964988 -1.072886 -0.888277 1.889815 0.037442 0.527702 -0.491774 1.425164 -1.689441
问题 0.254169 0.199706 -0.200134 0.293128 -0.020895 -0.036875 0.419108 -1.257612 -0.068893 1.095249 -1.427948 -0.456893 0.220623 0.293634 -1.140168 0.816507 -0.521054 -1.365121 0.029572 -0.375287 -0.601949 -0.703374 0.525257 0.163218 -0.068208 -0.595582 0.261987 -0.239011 0.379015 0.674731 0.420939 0.241160
有点 -1.280449 1.648504 2.246356 1.543844 0.357447 0.216161 0.347424 0.181177 0.469226 -0.566226 -1.399256 -0.432495 -0.249643 -0.544295 -1.360833 -0.332088 -0.591411 -0.744416 0.806339 0.255890 0.269213 -0.885344 1.052643 -0.277031 0.585297 0.585294 0.530281 -0.594647 -1.318353 0.897657 0.727160 1.362869
装修 -1.574817 1.517851 1.343572 1.241896 0.293818 0.225925 -0.226307 0.420652 0.618897 -0.453776 -1.125104 -0.236650 -0.055451 -0.376227 -0.770137 -0.635193 -0.744529 -0.628537 1.174804 0.040542 0.650937 -0.695897 0.723270 0.073699 0.934922 0.380251 0.483568 -0.317735 -1.381111 0.676256 0.803320 0.706412
免费 -0.390870 1.390839 -0.587499 1.200027 -0.556104 -0.172814 0.443883 0.162780 0.117682 1.449693 -1.383739 0.273444 -0.148321 -0.603399 -0.726763 0.632114 -0.015237 -0.720034 1.688624 -1.435319 0.918218 -1.146352 0.242562 1.725716 -0.403963 -0.513543 -0.603597 -1.150786 -0.686706 0.686056 0.139386 -0.371953
卫生间 -0.482711 1.951207 2.723276 2.704298 0.274685 0.544878 0.341254 0.292672 1.271837 -0.574465 -2.105314 -0.154005 -0.608281 -1.146504 -1.230135 -0.264973 -0.373345 -1.216647 0.745478 0.129762 0.495185 -1.679281 1.597741 -0.108553 0.904269 0.918316 -0.200932 -0.769447 -1.656322 1.340093 0.615467 2.234634
吃 -0.360499 -0.245845 1.350284 -0.456003 0.740880 -1.085922 1.246883 -1.192515 0.145076 0.610417 -0.818089 -0.580881 0.438807 -0.354991 -2.299816 0.173376 -0.308428 -0.379721 0.290826 0.129007 -0.474042 -1.047775 1.217909 -0.631356 -0.636108 0.483244 1.494686 -0.334510 -0.016846 0.180022 0.296876 1.928753
地方 -0.949143 1.256086 1.317697 0.829930 0.429217 -0.207147 0.693573 -0.129405 -0.416226 0.362879 -1.169474 -0.525328 0.097508 0.208736 -1.298129 -0.047049 -0.214981 -0.382793 0.073284 0.784757 -0.172988 -0.437622 0.779087 -0.663224 -0.249371 -0.027311 0.627434 -0.649812 -0.952239 0.532196 0.704393 0.840376
态度 0.490295 0.378254 0.434434 1.518649 0.396804 -0.259877 0.970694 -1.750482 -0.071169 1.071681 -1.716539 -0.924288 -0.221496 -0.898416 -0.467786 1.721658 -0.564287 -2.198714 -0.577292 -0.125574 -1.076104 -1.555487 0.274678 -0.627535 0.770721 -0.622694 0.150931 -0.468985 -1.123637 1.035267 0.135785 1.301814
已经 0.022536 0.470649 -0.339150 0.254562 -0.141083 -0.091777 0.203528 -0.611221 0.028821 1.279320 -1.263164 -0.175535 0.165667 0.015771 -1.579753 0.458369 -0.466105 -0.933587 0.544515 -0.970961 -0.175086 -0.852049 0.663838 0.778981 -0.441655 -0.332877 0.257701 -0.655894 0.247076 0.682050 0.509112 -0.049499
实在 -0.769880 1.392134 0.746042 1.424993 0.133557 -0.102626 0.624401 -0.289084 0.207577 0.768804 -1.625905 -0.344451 0.078628 0.253595 -0.644088 -0.048739 -0.121405 -0.744875 0.229681 0.772120 -0.050091 -0.824673 0.723674 -0.489245 -0.096869 -0.156628 0.013613 -0.415714 -1.273548 0.703305 0.516247 0.990151
位置 -2.024899 1.771270 2.008020 0.852580 0.707741 -0.359064 0.626235 0.119725 -0.966539 -0.116008 -1.050020 -0.990358 0.177489 0.020705 -1.339565 -0.092257 -0.566327 -0.310076 0.528385 0.841042 -0.106280 -0.093400 0.474062 -1.092950 0.567363 0.007169 1.284338 -0.676937 -1.799809 0.480077 0.973001 0.691398
退房 1.045049 -0.289693 -1.206560 0.003032 -0.447161 -0.360920 0.521550 -1.413947 -0.251176 1.878450 -1.499058 -0.655978 0.178193 -0.632617 -2.436779 1.468942 -0.361004 -1.622446 0.361034 -1.824530 -1.057391 -1.707636 0.662468 1.187825 -0.791178 -0.520114 0.403399 -0.992057 0.770568 0.935543 0.298891 -0.066393
空调 0.896541 1.170874 1.605229 1.271554 -0.239264 0.284082 0.409443 -0.386245 1.243409 0.254136 -2.099382 -0.169432 -0.346845 -0.501312 -1.533550 0.186070 -0.217713 -0.930301 -0.014213 -0.338527 -0.192073 -1.284885 1.474293 0.250594 -0.226490 0.840176 -0.204707 -0.487654 -0.228061 1.006707 0.174162 1.636905
发现 0.701945 0.723898 0.479141 1.320201 -0.285313 0.277696 0.219761 -0.233695 0.603109 0.606058 -1.493157 -0.150314 -0.381075 -1.019547 -1.522002 0.616434 -0.094814 -1.214450 0.317720 -1.166152 -0.198197 -1.566190 0.986755 0.703897 -0.045543 0.199480 -0.167706 -0.809021 -0.147055 1.057286 0.451152 0.653740
选择 -2.236273 1.888478 -0.576460 -0.054027 0.307075 -0.334807 0.394660 -0.367119 -1.475430 1.682986 -1.060469 -0.544829 1.102283 2.027037 -0.948659 -0.472711 -0.686485 -0.088007 0.347704 0.551607 0.299687 0.561965 0.399371 -0.572881 -0.539216 -0.772199 0.878095 -0.552100 -0.947323 0.655135 1.485879 -0.580952
大堂 0.128235 0.670794 0.932279 1.322692 0.132857 0.062548 0.469720 -0.651662 0.031077 0.389087 -1.460817 -0.672111 -0.453411 -1.091841 -1.074082 0.908724 -0.391666 -1.501500 0.059175 -0.162363 -0.578609 -1.424085 0.714259 0.045656 0.414288 -0.190022 0.117769 -0.682847 -0.797987 0.957081 0.496892 0.859208
以后 -1.286272 1.564499 -0.772500 0.720630 -0.099745 -0.037277 0.548844 -0.572797 -1.001909 1.790547 -1.144374 -0.372978 0.758754 1.499635 -0.541814 -0.179312 -0.342629 -0.506975 -0.130662 0.632447 0.025107 -0.041162 0.499600 -0.423471 -0.771266 -0.786506 0.078997 -0.611475 -0.767539 0.994583 1.031356 -0.028855
10 -1.067992 -0.141890 -0.191560 -1.926058 -0.099178 -1.016102 0.079305 -0.006284 -0.283260 1.134221 -0.880592 -0.437459 0.727338 -0.030758 -3.489572 0.339486 -0.630408 0.121663 1.947300 -1.670037 -0.156849 -0.702597 0.920317 1.565918 -1.143719 -0.011566 1.368711 -0.858989 0.894230 0.050359 0.127095 -0.712934
交通 -2.456766 2.099959 3.124880 0.157353 1.471881 -0.376801 0.751073 0.448916 -1.663790 -0.009705 -0.816217 -1.360565 0.735902 0.454548 -2.403637 0.236719 -0.691653 0.434383 0.779248 1.096012 -0.250948 0.352069 0.850502 -1.531750 0.645544 0.473778 2.258627 -1.215470 -1.661736 0.370250 1.505439 0.992676
餐厅 -0.537340 0.377314 1.386187 0.373220 0.691953 -0.542207 0.758880 -0.939417 0.011143 0.243884 -1.080683 -0.756044 0.151983 -0.552801 -1.691760 0.421498 -0.603444 -0.889131 0.336158 0.083145 -0.417678 -0.977739 0.800526 -0.521590 0.168995 0.186698 1.095057 -0.347898 -0.610631 0.547224 0.434155 1.520058
预定 -0.169367 0.524904 -2.114018 0.661739 -0.643877 -0.127765 0.172854 -0.189343 -0.679007 2.373168 -1.039214 -0.037834 -0.053808 -0.282001 -1.278027 1.021874 -0.200569 -1.157615 0.987142 -1.835524 -0.029151 -1.273991 0.014807 1.396488 -0.670993 -1.300209 -0.493803 -1.108664 -0.091720 1.120153 0.552146 -1.342141
问 1.853062 -0.055779 -0.186218 1.088686 -0.303377 -0.076017 0.777489 -1.401120 0.364568 1.725976 -1.958802 -0.371933 -0.507851 -1.316878 -2.098212 1.758068 -0.122173 -1.928077 -0.176255 -1.591063 -1.074649 -2.104897 0.959042 0.974870 -0.690957 -0.486992 -0.286850 -1.049340 0.471225 1.355731 0.048151 0.630843
电话 0.962376 -0.202958 -0.574226 0.231646 -0.286770 -0.138194 0.481494 -1.231918 0.097617 1.915393 -1.749642 -0.212267 -0.029562 -0.581112 -2.193502 1.490492 -0.335639 -1.603971 0.441806 -1.590234 -0.779754 -1.608325 0.710685 1.194063 -0.807352 -0.781751 0.002904 -1.015837 0.760934 0.952955 0.306186 -0.080663
要求 0.475019 0.451745 -0.629133 0.713072 -0.249316 -0.026452 0.256583 -0.639843 0.057189 1.432424 -1.411653 -0.171547 -0.120929 -0.585967 -1.422650 0.962785 -0.261834 -1.331109 0.589324 -1.333833 -0.230486 -1.423630 0.562082 0.927295 -0.211069 -0.524603 -0.171357 -0.823459 0.029640 1.075996 0.343390 -0.123328
建议 -1.349132 1.283452 -0.866259 0.251527 -0.070675 -0.199598 0.481595 -0.565949 -0.998281 1.782616 -1.192993 -0.356784 0.777874 1.575123 -0.826492 0.022659 -0.399483 -0.598770 0.236468 0.288974 -0.045903 0.013801 0.288239 -0.193145 -0.786239 -1.028308 0.299380 -0.483155 -0.446510 0.663891 0.961176 -0.487863
算 -1.894053 1.926876 1.813599 1.497972 0.692883 -0.213307 0.619075 0.203863 -0.553427 -0.064390 -1.041632 -0.695784 -0.086746 -0.361825 -0.974071 -0.249502 -0.425308 -0.473760 0.773992 0.639273 0.278284 -0.592804 0.601534 -0.854745 0.633019 0.037598 0.664326 -0.802965 -2.085138 0.964282 0.835238 1.023413
人员 0.135331 0.415241 0.326460 1.442584 0.745239 0.034908 0.722136 -1.821227 -0.062783 1.003108 -1.684404 -0.715299 -0.069799 -0.741798 -0.329774 1.728738 -0.667149 -2.053966 -0.217946 -0.166191 -0.840936 -1.436817 0.180649 -0.273624 0.963744 -0.729332 0.204504 -0.455798 -0.912277 1.138498 0.320812 0.983154
找 0.882391 0.138197 0.801617 0.968922 0.284935 -0.147517 0.878313 -1.066559 -0.189097 0.805255 -1.458471 -0.658094 -0.512712 -1.213050 -1.698713 1.403734 -0.286640 -1.444002 -0.272687 -0.293971 -0.994933 -1.599088 0.835303 0.067770 -0.170842 -0.337776 0.172076 -0.944892 -0.159738 0.931717 0.279512 0.943109
补充 -2.184498 1.214482 -0.178838 -0.916718 0.168320 -0.623673 0.289707 -0.520804 -0.009892 1.668418 -1.386415 -0.269697 1.314228 1.927161 -1.616984 -0.483820 -0.939354 -0.335313 1.423433 -0.118513 0.302673 0.186287 0.340671 0.471790 -0.624286 -0.485895 1.304527 0.224120 -0.153845 -0.297677 0.979411 -0.657467
希望 -1.392168 1.186522 -1.518167 -0.145968 0.021269 -0.326845 0.517585 -1.129548 -1.263514 2.346882 -1.411166 -0.455731 0.967213 1.990369 -0.868766 0.401459 -0.594240 -0.898144 0.314722 0.112475 -0.196172 0.107045 0.216030 -0.073710 -0.777284 -1.417392 0.437419 -0.460307 -0.294586 0.678031 0.987247 -0.857939
楼 -0.577165 0.905587 -0.017348 0.349588 -0.600034 -0.180178 -0.371179 0.528723 0.684550 0.368515 -1.074986 -0.061520 0.155594 -0.431052 -1.736761 -0.385107 -0.416142 -0.528638 1.383901 -1.245630 0.597176 -0.962655 0.774384 1.178172 -0.023720 0.227610 0.239695 -0.350380 -0.284058 0.660929 0.521932 -0.182384
一点 -0.933686 1.131083 0.759696 0.915026 0.191595 -0.101370 0.412061 -0.203552 -0.095279 0.437130 -1.107301 -0.385958 0.010318 -0.055950 -0.878857 0.082485 -0.422853 -0.763231 0.532893 0.122955 0.046599 -0.713185 0.457852 -0.154362 0.256259 -0.148208 0.338090 -0.454928 -0.985458 0.641545 0.611447 0.515097
朋友 -0.840473 1.058007 -1.081163 0.315176 -0.140981 -0.149619 0.444831 -0.530501 -1.017726 1.907528 -1.097406 -0.412985 0.517873 0.910257 -1.090194 0.313550 -0.409655 -0.697730 0.132252 -0.346814 -0.121833 -0.281128 0.466694 0.171426 -0.792084 -0.962480 0.194021 -0.737617 -0.318183 0.947831 0.949552 -0.552280
特别 -0.869443 1.367133 1.183273 1.369653 0.302145 0.036921 0.572553 -0.533461 -0.098279 0.239640 -1.448586 -0.661910 0.000216 -0.109919 -0.815720 0.293341 -0.450771 -1.066861 0.132317 0.435458 -0.118100 -0.767287 0.672245 -0.607033 0.416940 -0.082472 0.361472 -0.445252 -1.291602 0.937569 0.680115 1.078125
大床 -0.304330 2.481601 -0.478479 2.405739 -0.793712 0.455992 -0.444589 2.230139 0.612839 1.345682 -1.506063 0.652522 -0.714797 -1.512484 -0.922988 -0.170937 0.352222 -0.462624 1.947654 -2.309906 1.554402 -2.089784 0.791776 1.609289 -0.063417 0.293823 -1.397746 -1.646578 -1.610520 1.668882 0.697150 -0.666285
标准 -2.729688 1.608553 0.562239 1.433680 0.376911 -0.048830 -0.121280 0.720848 -0.057541 0.340130 -1.070910 -0.213911 -0.322183 -0.174135 -0.673392 -0.699023 -0.701351 -0.536888 1.635223 0.822352 0.647422 -1.177072 0.453824 0.095495 0.634505 -0.659019 -0.003311 -0.627801 -1.960780 0.660797 1.052232 0.112417
想 0.022225 0.605566 0.043435 0.559037 -0.054807 0.003064 0.521806 -0.702765 -0.159309 1.124265 -1.257877 -0.257624 0.134205 0.100104 -1.350449 0.485271 -0.277760 -0.947003 0.033323 -0.458516 -0.348438 -0.841921 0.766943 0.190331 -0.582348 -0.358774 0.164386 -0.696141 -0.019059 0.887133 0.579680 0.389854
总体 -1.784983 1.937040 0.711823 1.364578 0.282529 0.038373 0.395842 -0.015797 -0.462409 0.542865 -1.118612 -0.480052 0.237740 0.321471 -0.350166 -0.245729 -0.563970 -0.600760 0.440182 0.439407 0.416837 -0.447438 0.523699 -0.552783 0.401888 -0.292396 0.330934 -0.614493 -1.853858 1.036265 0.975440 0.482557
分钟 -0.371816 -0.201373 0.528284 -1.825911 0.005202 -1.156504 0.136416 -0.235744 -0.599829 1.023795 -0.849577 -0.682434 0.434315 -0.061342 -3.979706 0.583354 -0.508080 0.258055 1.553403 -1.251821 -0.670730 -0.589166 0.720788 1.212206 -1.396599 0.111815 1.406987 -1.229993 1.060008 -0.112348 -0.000643 -0.720501
隔音 -0.675714 2.067682 2.658586 2.343948 0.331669 0.208219 0.641955 -0.021593 1.167783 -0.318996 -2.187613 -0.570871 -0.036403 -0.611651 -0.987927 -0.283709 -0.605756 -1.169857 0.351583 0.587308 0.310921 -1.191319 1.581785 -0.979538 0.993444 0.939595 0.101627 -0.543022 -2.130949 1.184233 0.727927 2.526271
时间 0.074146 0.036993 -0.848628 -0.400644 -0.311330 -0.488672 0.356242 -0.987721 -0.320554 1.743083 -1.380781 -0.455871 0.483046 0.125562 -2.293300 0.853089 -0.485592 -1.042675 0.706893 -1.180620 -0.626432 -1.052833 0.601305 0.984520 -0.845337 -0.568362 0.630552 -0.760449 0.657809 0.497622 0.415485 -0.360731
高 -2.105221 1.980055 0.692113 1.176819 0.477694 -0.068995 0.499168 0.133009 -0.475192 0.622232 -1.077570 -0.338993 0.149716 0.433710 -0.417253 -0.554172 -0.435748 -0.305826 0.996777 0.776316 0.361312 -0.438845 0.381690 -0.419120 0.089073 -0.548378 0.215486 -0.599597 -1.828395 0.987398 0.957872 0.292257
第二天 0.805617 0.311444 -0.170400 0.484875 -0.381491 -0.110066 0.504690 -0.777147 0.346015 1.253105 -1.593432 -0.359261 -0.048974 -0.635121 -2.258267 0.840111 -0.137914 -1.244555 0.397836 -1.375555 -0.549394 -1.611715 0.943864 0.862485 -0.713425 -0.005615 0.215376 -0.840913 0.416985 0.907025 0.357694 0.423094
应该 -1.402760 1.205080 0.197965 0.658691 0.279455 -0.097355 0.371846 -0.263741 -0.530657 0.803597 -1.004663 -0.440675 0.177888 0.373734 -0.840003 -0.045865 -0.522139 -0.622144 0.567983 0.285829 0.109318 -0.434296 0.417749 -0.163037 0.011179 -0.543467 0.311573 -0.520983 -0.996611 0.748351 0.807747 0.084945
打电话 1.688146 -0.178681 -0.612435 0.853330 -0.493532 -0.160743 0.711470 -1.425653 0.226656 1.941942 -1.899482 -0.363114 -0.386489 -1.121899 -2.084445 1.811184 -0.189000 -1.966596 0.015881 -1.667794 -1.030020 -2.038930 0.759338 1.124964 -0.787536 -0.723709 -0.304727 -1.026655 0.585440 1.260008 0.066260 0.240104
~ 0.221816 2.621261 1.297474 0.098995 2.194304 -0.375587 1.040039 -1.244319 0.553514 3.508186 -1.903945 1.578562 1.879427 2.898823 -0.495412 -0.662868 -0.979072 1.173950 -1.186313 -0.301161 1.088013 0.423021 2.254476 -0.411569 -2.440284 1.001227 -0.348448 -2.107978 -0.263209 1.620164 0.784385 2.362411
做 -0.416769 0.590841 -0.206118 0.217327 0.109896 -0.251195 0.493264 -0.894131 -0.271719 1.321846 -1.311964 -0.383136 0.387642 0.367461 -1.295115 0.528123 -0.454219 -1.000844 0.373553 -0.292371 -0.301837 -0.677900 0.573778 0.154038 -0.338053 -0.525876 0.414705 -0.423199 -0.112896 0.612220 0.551488 0.190668
订 -0.727648 1.225811 -1.228280 1.061289 -0.446893 0.010864 0.073684 0.584493 -0.435388 1.738962 -0.876456 0.179630 -0.117504 -0.203277 -0.817970 0.243715 -0.036017 -0.541028 0.977516 -1.265643 0.605962 -0.993356 0.219504 0.945078 -0.483025 -0.757783 -0.630220 -1.069837 -0.743676 1.095788 0.696172 -0.906372
星 -2.411717 1.577483 0.916011 1.157482 0.533165 -0.088958 0.123503 0.231163 -0.155581 0.367846 -1.196567 -0.435930 -0.074490 0.229242 -0.441453 -0.587815 -0.688037 -0.593296 1.073636 1.117740 0.383406 -0.801186 0.408361 -0.306932 0.592424 -0.496194 0.313559 -0.391123 -1.840576 0.621459 0.933627 0.436148
反馈 -2.608026 1.110640 -0.584930 -1.600312 0.483777 -1.046446 0.322780 -0.754629 -0.644507 2.187377 -1.432869 -0.619105 1.889615 2.471960 -2.267734 -0.490651 -1.084951 -0.146209 1.846810 -0.034695 0.531017 0.304007 0.028046 0.059060 -0.732208 -1.088517 1.574644 0.201131 -0.125351 -0.509750 1.554346 -1.076564
换 0.511404 1.043935 0.251529 1.535617 -0.347601 0.300948 0.246739 0.056385 0.494984 0.624039 -1.449574 -0.070079 -0.410450 -0.952088 -1.027627 0.441787 0.025825 -1.065376 0.409291 -1.023453 0.077462 -1.516329 0.756965 0.655280 -0.010074 0.060460 -0.420612 -0.816623 -0.517874 1.131110 0.390643 0.495663
看到 -0.294541 0.864117 0.180609 0.577282 -0.173242 -0.119074 0.284491 -0.323131 0.058539 0.835926 -1.317916 -0.347868 0.124816 -0.108285 -1.477502 0.291648 -0.363181 -0.871094 0.559960 -0.645142 -0.047635 -0.865018 0.670602 0.462315 -0.227560 -0.171129 0.350222 -0.444932 -0.312745 0.676971 0.545920 0.157045
性价比 -2.607835 2.332000 1.021017 1.471048 0.636214 -0.214477 0.548792 0.159890 -0.703539 0.726785 -1.256839 -0.395043 0.226615 0.705052 -0.454713 -0.572167 -0.573270 -0.514928 0.750568 1.218876 0.448716 -0.444177 0.441555 -0.991102 0.180495 -0.412190 0.334022 -0.700629 -2.246177 1.002674 1.326292 0.579995
提供 -0.916666 0.750018 -0.276500 0.358574 0.108429 -0.114167 0.338016 -0.636979 -0.491151 1.251429 -1.267555 -0.240531 0.299615 0.450097 -0.951369 0.542881 -0.497319 -0.824785 0.858635 -0.353637 0.065954 -0.523108 0.346959 0.370197 -0.143561 -0.653390 0.283095 -0.614592 -0.383695 0.695550 0.550823 -0.153719
客房 -0.239638 0.704017 0.744376 1.259321 0.168705 0.028150 0.305298 -0.598761 0.265689 0.500197 -1.495603 -0.384969 -0.188348 -0.751426 -1.075637 0.669881 -0.423228 -1.372901 0.435619 -0.328217 -0.250575 -1.280226 0.659273 0.115613 0.451205 -0.215567 0.197418 -0.559065 -0.731683 1.008890 0.414241 0.766299
旧 -1.367587 2.023157 2.257689 2.263474 0.385263 0.388334 0.245966 0.528757 0.638641 -0.700823 -1.504431 -0.353406 -0.413882 -0.948834 -0.859062 -0.459236 -0.440085 -0.939359 0.898124 0.316666 0.524092 -1.259686 1.022786 -0.298757 1.174060 0.523375 0.215294 -0.651681 -1.922612 1.055365 0.853069 1.605680
陈旧 -1.561649 2.095935 2.233490 2.303592 0.629071 0.261943 0.226180 0.412088 0.506193 -0.486208 -1.656263 -0.314860 -0.390235 -0.694235 -0.736180 -0.503285 -0.557293 -0.862285 0.872030 0.627041 0.571464 -1.159300 1.156682 -0.433091 1.256871 0.481077 0.127085 -0.681309 -2.143205 1.083469 0.803022 1.731606
舒服 -0.843412 1.814453 1.417232 2.036684 0.182984 0.257949 0.514197 -0.018064 0.253327 0.070480 -1.548484 -0.438460 -0.261830 -0.499867 -0.772391 -0.050520 -0.261022 -1.030698 0.346018 0.222230 0.302252 -1.089007 0.955513 -0.394376 0.552683 0.153795 0.012228 -0.630056 -1.624352 1.197837 0.747620 1.255334
推荐 -1.803281 1.661715 -0.512547 0.837493 0.156864 -0.149667 0.569510 -0.380257 -1.149769 1.692807 -1.215114 -0.440574 0.489708 1.223491 -0.605879 0.087496 -0.392705 -0.612410 0.334906 0.472128 0.077985 -0.201688 0.124725 -0.396399 -0.507757 -1.133520 0.234056 -0.711930 -1.164415 0.870817 1.142652 -0.373612
满意 -1.235471 1.385217 0.136246 0.944454 0.179243 -0.083868 0.331637 -0.263265 -0.424756 0.789240 -1.218515 -0.488535 0.266780 0.390959 -0.541287 0.092675 -0.440617 -0.708885 0.432290 0.299997 0.140435 -0.473387 0.347414 -0.263507 0.199556 -0.447637 0.287314 -0.428250 -1.187013 0.719969 0.773791 0.128182
走 -0.042593 0.556083 0.897328 -0.023043 0.287477 -0.379400 0.534841 -0.491730 -0.313602 0.712361 -1.127428 -0.577123 0.143314 -0.373526 -2.294050 0.637687 -0.395159 -0.553300 0.387924 -0.609214 -0.420079 -0.739876 0.903507 0.129808 -0.534103 0.042815 0.744693 -0.849205 0.054174 0.667850 0.439974 0.474360
觉得 -1.320625 1.305196 0.513549 0.691612 0.239662 -0.107136 0.459972 -0.276408 -0.293861 0.759669 -1.144065 -0.442342 0.285202 0.452142 -0.901800 -0.052171 -0.466960 -0.622488 0.516536 0.303664 0.083852 -0.457611 0.512514 -0.255889 -0.049555 -0.363739 0.471635 -0.446598 -0.950765 0.665500 0.875163 0.376996
服务态度 -0.666310 1.184691 0.986937 1.456152 0.310898 -0.109557 0.649616 -0.524954 -0.085634 0.383474 -1.378871 -0.670017 -0.044250 -0.258529 -0.512060 0.394776 -0.436755 -1.129253 0.042915 0.475579 -0.269448 -0.856062 0.532658 -0.730941 0.626509 -0.170557 0.270126 -0.469517 -1.430872 0.863088 0.539789 1.042739
很大 -0.909872 1.789812 1.760541 2.135975 0.200994 0.361023 0.278955 0.400686 0.422140 -0.259209 -1.446022 -0.288914 -0.443610 -0.930191 -0.769161 -0.115259 -0.316486 -0.926338 0.657356 -0.013283 0.531906 -1.164395 1.002959 -0.257548 0.860463 0.382073 -0.059900 -0.754154 -1.719970 1.213387 0.686262 1.252793
只能 -0.014324 0.932713 0.770361 1.142856 0.087676 0.006531 0.484783 -0.306335 0.283511 0.635459 -1.466636 -0.291475 -0.262227 -0.650491 -1.447190 0.410993 -0.268802 -0.986548 0.397439 -0.484915 -0.071772 -1.225392 0.959142 0.269015 -0.051806 0.063915 0.046133 -0.765786 -0.560822 0.998350 0.430368 0.851198
真的 -1.155843 1.382075 0.466277 0.977921 0.193518 -0.172943 0.535619 -0.357251 -0.291114 0.795863 -1.301130 -0.487020 0.283038 0.425546 -0.737157 0.018116 -0.394610 -0.759306 0.306356 0.454786 -0.009463 -0.556717 0.491768 -0.449588 0.045530 -0.317687 0.384386 -0.363441 -1.116869 0.645257 0.779706 0.450512
豪华 -1.074371 2.112771 -0.461025 1.976071 -0.679275 0.263233 -0.352026 1.794105 0.245405 1.058061 -1.282870 0.399827 -0.436582 -1.012740 -0.792901 -0.306152 0.124348 -0.413028 1.821391 -1.496565 1.384734 -1.542422 0.537833 1.334170 0.135888 -0.088150 -0.916590 -1.188099 -1.575355 1.273547 0.740048 -0.757478
小时 0.459326 0.082183 -0.051377 -0.197036 -0.248990 -0.331459 0.368384 -0.812795 0.117313 1.498665 -1.633245 -0.265255 0.224562 -0.310229 -2.611836 0.892878 -0.326549 -1.017305 0.671064 -1.352624 -0.586562 -1.384856 0.912094 1.112891 -0.955952 -0.242375 0.452582 -0.997749 0.804898 0.647794 0.356783 0.127658
东西 -0.136579 0.352364 1.109825 0.287038 0.427976 -0.418034 0.820044 -0.657669 0.130895 0.612004 -1.127841 -0.457773 0.155623 -0.363573 -1.934203 0.332031 -0.296558 -0.676709 0.287606 -0.185703 -0.352767 -1.060856 1.059684 -0.208184 -0.404001 0.218255 0.813119 -0.572457 -0.158119 0.650217 0.401404 1.317647
根本 -0.461814 0.918762 0.821407 1.181351 0.183983 -0.035811 0.452125 -0.323651 0.169441 0.601309 -1.467152 -0.359617 -0.271622 -0.610432 -1.301405 0.360960 -0.424419 -1.076130 0.558878 -0.092771 -0.139516 -1.276474 0.873968 0.155563 0.115549 -0.163575 0.074704 -0.681329 -0.805506 0.925504 0.516697 0.803288
四星 -1.970558 1.623245 0.921214 1.525656 0.341983 -0.031381 0.297438 0.193401 -0.154304 0.345314 -1.445665 -0.502039 -0.253312 -0.160273 -0.569887 -0.323163 -0.519768 -0.875204 0.961386 0.980707 0.204342 -1.133643 0.517632 -0.265774 0.572347 -0.511099 0.156418 -0.584741 -1.942062 0.808575 0.951869 0.604529
需要 -0.353354 0.564694 0.040078 0.244070 0.029077 -0.197886 0.426166 -0.647307 -0.309662 1.155233 -1.317274 -0.415128 0.243943 0.007309 -1.703284 0.658623 -0.395100 -0.889559 0.605162 -0.655726 -0.359138 -0.830623 0.605468 0.435886 -0.381035 -0.403244 0.489193 -0.770774 -0.049810 0.736236 0.478145 0.083696
更 -0.839139 1.101121 -0.019615 0.661240 0.086259 -0.150573 0.470566 -0.603208 -0.337138 1.229834 -1.452530 -0.353696 0.332857 0.553924 -1.006376 0.309462 -0.461579 -0.937155 0.492066 -0.024114 -0.033717 -0.622663 0.558345 0.019045 -0.234862 -0.521897 0.233580 -0.557901 -0.620133 0.834910 0.675170 0.232042
地理位置 -1.977605 1.897329 1.635654 0.976457 0.712077 -0.295521 0.611434 -0.009546 -0.738388 0.298114 -1.221175 -0.788623 0.339795 0.251506 -1.192754 -0.091519 -0.626308 -0.420870 0.627981 0.673550 0.112486 -0.248705 0.606623 -0.926699 0.481224 -0.024314 1.027889 -0.706754 -1.727710 0.693034 1.029647 0.778696
味道 -0.742148 1.523523 1.792547 1.771206 0.358335 0.104271 0.526900 -0.175810 0.530111 0.020663 -1.584626 -0.326608 -0.241211 -0.614329 -1.126701 -0.084733 -0.442009 -0.937161 0.613664 0.162314 0.283616 -1.181469 1.191193 -0.293322 0.474922 0.436236 0.163817 -0.688234 -1.364164 1.190850 0.609671 1.663645
里面 -0.505452 1.557786 1.635370 1.806966 0.261091 0.145153 0.524141 -0.038818 0.369272 0.064142 -1.593807 -0.384197 -0.301979 -0.718353 -1.070643 0.013817 -0.321845 -0.951124 0.377827 0.136877 0.161644 -1.198150 1.085787 -0.303721 0.404967 0.305380 0.107688 -0.689994 -1.361859 1.031759 0.600977 1.351617
上网 -0.080976 1.051875 0.352342 1.321797 -0.300332 0.099558 0.375063 -0.067068 0.381401 0.726537 -1.371626 0.121569 -0.426266 -0.832189 -0.923340 0.542244 -0.081463 -0.799479 1.019120 -0.953632 0.392693 -1.207445 0.720957 1.113890 -0.137626 -0.054554 -0.422891 -1.088962 -0.609362 0.930855 0.097686 0.360815
饭店 -1.585821 1.266026 0.661269 0.462994 0.348791 -0.367379 0.459226 -0.304961 -0.549592 0.711212 -1.226522 -0.668764 0.343689 0.525917 -1.265485 -0.070751 -0.574720 -0.520945 0.645729 0.527306 -0.056874 -0.357438 0.515121 -0.391857 -0.011878 -0.326697 0.782881 -0.427006 -0.963683 0.481874 0.788860 0.266693
硬件 -1.998497 1.648479 1.239409 1.420900 0.607785 -0.072024 0.316196 -0.069856 -0.145014 0.161028 -1.425905 -0.573735 0.059582 0.082707 -0.527893 -0.236183 -0.679862 -0.854334 0.794258 0.910180 0.186864 -0.697553 0.535662 -0.558505 0.918267 -0.239692 0.503846 -0.349171 -1.859289 0.686053 0.874918 0.813008
床 -0.630221 1.977251 1.797123 2.410279 0.102060 0.360407 0.331171 0.499317 0.774724 0.003406 -1.751920 -0.116839 -0.544245 -1.017419 -1.071838 -0.096637 -0.174328 -1.011889 0.734006 -0.232573 0.707656 -1.453169 1.240599 -0.010041 0.685429 0.516812 -0.284110 -0.868063 -1.790220 1.332986 0.754431 1.331309
… -1.496460 -0.625355 2.778785 1.111846 0.483390 2.514674 -0.253974 0.053238 1.282141 0.832852 -1.950965 2.213688 1.161998 1.344437 -1.522429 0.504214 1.221952 -1.535725 0.049042 0.225895 -1.563654 -2.280379 -0.146285 0.656234 -1.446779 -1.663470 0.464747 -2.166709 2.012860 0.151614 2.721870 1.602601
早上 0.621154 0.223347 0.556656 0.167821 -0.158620 -0.303964 0.503074 -0.736161 0.336365 0.744144 -1.442479 -0.550417 0.100568 -0.590092 -2.195325 0.607005 -0.275054 -0.929722 0.409962 -0.851420 -0.569839 -1.305267 0.960804 0.466813 -0.466025 0.250896 0.618215 -0.644745 0.253209 0.532609 0.238797 0.853392
送 0.227149 0.408851 0.378037 0.615906 -0.028319 -0.304847 0.696702 -0.859278 0.197696 0.917152 -1.268198 -0.399927 -0.140276 -0.705358 -1.583753 0.660635 -0.169352 -1.112967 0.510262 -0.771342 -0.378807 -1.365371 0.738664 0.423947 -0.344933 -0.066697 0.291369 -0.618625 -0.182153 0.742001 0.172356 0.783033
商务 -0.900793 1.967066 -0.075592 1.910073 -0.427983 0.293123 -0.171993 1.358148 0.167390 1.000250 -1.308196 0.334580 -0.344530 -0.862924 -0.928296 -0.120012 0.039155 -0.563673 1.444393 -1.316751 1.171901 -1.401174 0.695344 1.072199 0.145616 -0.094000 -0.743160 -1.187904 -1.370197 1.347730 0.873741 -0.385901
中 -1.369834 1.250990 0.164208 0.546191 0.146225 -0.224745 0.379180 -0.408049 -0.433411 1.033284 -1.373393 -0.517499 0.384094 0.593617 -1.158530 0.047576 -0.523503 -0.778410 0.727870 0.183470 -0.079899 -0.571053 0.428847 -0.068284 -0.131857 -0.569914 0.523280 -0.446943 -0.789382 0.564593 0.841296 -0.014223
开 0.796069 0.638248 0.972176 0.787436 -0.079476 0.082791 0.398232 -0.611320 0.727021 0.630486 -1.708407 -0.222397 -0.182391 -0.500930 -1.766819 0.542775 -0.308279 -1.018778 0.082368 -0.680593 -0.371080 -1.211626 1.225882 0.416026 -0.391476 0.368621 0.069004 -0.568788 0.116311 0.953753 0.358380 1.127343
房价 -1.316176 1.165119 0.023880 0.704428 0.086848 -0.420946 0.477792 -0.031072 -0.447977 1.078485 -1.092716 -0.333638 0.059778 0.094018 -1.193292 0.046282 -0.362305 -0.591416 1.008903 -0.006276 0.101569 -0.845792 0.512958 0.115161 -0.295732 -0.521870 0.159035 -0.677826 -1.052680 0.813958 0.580702 0.055443
电梯 -0.242423 0.907141 1.314392 1.046100 0.146941 0.070719 0.287042 -0.212864 0.396159 0.078683 -1.353550 -0.336666 -0.135345 -0.826951 -1.547431 0.291272 -0.461562 -0.974710 0.554160 -0.499365 -0.034520 -1.119881 1.019452 0.153242 0.327084 0.258144 0.319449 -0.616992 -0.630073 0.908398 0.563069 1.010743
一家 -1.775899 1.528977 0.290692 0.599899 0.375559 -0.260305 0.433316 -0.251738 -0.722591 1.014749 -1.149281 -0.525508 0.441468 0.797480 -0.862534 -0.151343 -0.551479 -0.533465 0.575149 0.542486 0.081854 -0.283556 0.392389 -0.408307 -0.024201 -0.568069 0.615185 -0.505078 -1.186200 0.594616 1.067177 -0.012001
挺 -1.318661 1.660082 1.721814 1.343583 0.580094 -0.052109 0.561172 -0.062302 -0.131641 0.104742 -1.285351 -0.560737 0.038277 -0.296778 -1.213733 -0.013760 -0.495529 -0.679665 0.547546 0.241446 0.243907 -0.742782 0.881183 -0.587106 0.516980 0.203776 0.648847 -0.682951 -1.554803 0.927472 0.859057 1.128532
不到 -0.613031 0.629231 0.744270 0.754979 0.281146 -0.288184 0.398497 -0.253702 -0.145656 0.608309 -1.276780 -0.440414 -0.354833 -0.667596 -1.455323 0.389992 -0.343876 -0.819388 0.614991 0.186118 -0.305506 -1.324484 0.680245 0.159230 -0.186013 -0.387694 0.267216 -0.806594 -0.734199 0.658870 0.390844 0.464337
门口 -0.498852 0.890272 1.522084 0.340697 0.577623 -0.320512 0.621780 -0.501179 -0.472232 0.337709 -1.150562 -0.723246 0.202180 -0.274352 -1.827529 0.478194 -0.522132 -0.539408 0.214059 -0.023692 -0.448126 -0.499394 0.772555 -0.447750 -0.014630 0.063436 0.955910 -0.731282 -0.565526 0.574617 0.562393 0.832945
很差 -0.872284 1.172135 1.420145 1.342067 0.424254 -0.070344 0.556456 -0.368655 0.352861 0.037095 -1.297225 -0.520457 0.013996 -0.354180 -0.588297 0.038382 -0.454783 -0.869236 0.377949 0.548924 0.005982 -0.785539 0.645647 -0.676849 0.692154 0.133691 0.366111 -0.265740 -1.341155 0.736354 0.506766 1.319479
便宜 -1.679903 1.588664 0.472209 0.815087 0.376664 -0.381509 0.638068 0.017582 -0.722682 0.883479 -0.979728 -0.461905 0.148915 0.384443 -0.945287 -0.204021 -0.336017 -0.325256 0.868399 0.478909 0.172785 -0.451156 0.441930 -0.418248 -0.214736 -0.466641 0.344770 -0.701074 -1.448248 0.869070 0.729562 0.256526
小姐 0.838913 0.129764 -0.317206 0.918079 -0.085623 -0.196420 0.697522 -1.373893 0.040903 1.555104 -1.767002 -0.526651 -0.152512 -0.803214 -1.535940 1.513099 -0.386138 -1.794468 0.099239 -1.070358 -0.820448 -1.647222 0.594288 0.530954 -0.186048 -0.667942 -0.001773 -0.750354 -0.040062 1.137662 0.194243 0.386234
间 -0.787399 1.539155 -0.238006 1.798213 -0.507994 0.113447 -0.148976 1.157681 0.351976 0.974648 -1.263060 0.368376 -0.485911 -1.087157 -0.975959 0.025277 0.025243 -0.689610 1.429571 -1.409848 1.088600 -1.519382 0.626596 1.229029 0.176590 -0.146581 -0.769605 -1.083154 -1.242769 1.252011 0.654642 -0.431929
经理 1.105359 -0.066575 -0.356440 0.555159 -0.164657 -0.291263 0.728341 -1.513955 -0.007409 1.565187 -1.818340 -0.611969 -0.236306 -0.847368 -1.780059 1.551772 -0.363091 -1.872751 0.040453 -0.966231 -0.932395 -1.654360 0.783017 0.675467 -0.436131 -0.692532 0.052324 -0.832574 0.253902 0.996364 0.205353 0.192362
提出 -0.839140 0.542242 -1.644102 -0.934455 -0.341896 -0.597515 0.282540 -1.258160 -0.847198 2.447624 -1.740325 -0.661638 1.139106 1.619669 -2.029327 0.631752 -0.686619 -1.090751 0.894796 -0.795655 -0.406011 -0.310345 0.328698 0.758650 -0.922181 -1.195751 0.967124 -0.290058 0.638585 0.375940 0.847619 -1.278335
真是 -0.640469 1.155502 0.196265 0.757408 -0.003029 -0.220015 0.533613 -0.472995 -0.179033 1.245008 -1.542234 -0.399269 0.207923 0.271956 -1.261819 0.287914 -0.351169 -0.883242 0.395534 -0.068924 -0.145616 -0.861273 0.629778 0.049235 -0.353216 -0.374891 0.292678 -0.602369 -0.678264 0.717910 0.648069 0.245284
声音 0.306453 1.146654 1.868176 1.380136 0.054013 0.271902 0.401609 -0.340178 0.918187 -0.031781 -1.846506 -0.361080 -0.229515 -0.709487 -1.555570 0.169569 -0.401405 -1.052722 0.291353 -0.243991 -0.082453 -1.178464 1.389511 -0.098575 0.186125 0.669734 0.080388 -0.626534 -0.583170 1.115999 0.492279 1.749584
窗户 -0.154969 1.582037 1.758347 1.890901 0.039487 0.313887 0.346316 0.110092 0.767240 -0.024798 -1.760370 -0.260117 -0.369700 -0.909174 -1.307140 0.026936 -0.326363 -1.011114 0.530766 -0.319735 0.284037 -1.312076 1.330918 -0.028949 0.395705 0.616763 -0.051654 -0.754015 -1.161791 1.290753 0.592070 1.496389
12 -0.863800 0.246557 -0.923022 -1.485454 -0.371487 -0.776983 0.048992 -0.607828 -0.170591 1.845621 -1.342417 -0.446305 1.092637 0.945045 -3.038702 0.141994 -0.783763 -0.451137 1.526476 -1.575370 -0.104420 -0.558764 0.692014 1.330467 -1.111160 -0.313654 1.348477 -0.452682 0.897872 0.102666 0.728549 -0.856226
附近 -1.610305 1.328444 1.434834 0.179762 0.695845 -0.406677 0.621712 -0.205348 -0.800880 0.359480 -0.958795 -0.700609 0.453148 0.314624 -1.812011 -0.081819 -0.566715 -0.189958 0.615020 0.360481 -0.080643 -0.079748 0.703281 -0.674791 -0.164234 -0.022936 1.229701 -0.681901 -0.918052 0.501706 0.886864 0.594493
热情 -0.076700 0.554459 0.805004 1.267029 0.471097 -0.063192 0.647586 -1.098883 -0.062783 0.449163 -1.312425 -0.745115 -0.207798 -0.900800 -0.788641 1.088450 -0.526776 -1.563065 -0.060776 -0.140543 -0.624817 -1.206354 0.415339 -0.365002 0.750400 -0.328041 0.382408 -0.439059 -0.932167 0.919436 0.300034 1.076998
吵 -0.308332 1.223893 1.793509 1.233934 0.229369 0.128005 0.384795 -0.091715 0.516780 -0.338053 -1.344583 -0.530533 -0.144770 -0.624902 -1.268759 -0.000744 -0.349492 -0.793032 0.341518 0.048952 -0.052397 -0.898604 0.998189 -0.370480 0.425783 0.587058 0.394059 -0.495914 -1.001392 0.832360 0.542420 1.471193
告诉 0.719410 0.174372 -0.628500 0.774513 -0.263446 -0.167641 0.548661 -0.889516 -0.158310 1.624297 -1.423870 -0.321680 -0.279937 -0.888808 -1.656547 1.313904 -0.243482 -1.490813 0.321221 -1.368448 -0.571986 -1.564841 0.604743 0.887201 -0.487451 -0.651976 -0.198079 -1.012032 0.103519 1.142356 0.245296 0.001348
结帐 0.418744 0.028609 -0.586775 0.171440 -0.185303 -0.308214 0.428894 -1.025606 -0.109160 1.584547 -1.363681 -0.393548 0.069794 -0.529142 -2.032640 1.163777 -0.376185 -1.341843 0.534286 -1.404412 -0.682207 -1.470454 0.597525 0.982375 -0.538012 -0.520605 0.304651 -0.928905 0.397343 0.853755 0.322254 -0.007493
毛巾 -0.121687 1.210688 1.667874 1.776715 0.206981 0.237353 0.563124 -0.365890 0.640109 0.154972 -1.754185 -0.289703 -0.360997 -0.789583 -1.366686 0.300983 -0.317385 -1.243550 0.370706 -0.115802 -0.084058 -1.451925 1.197262 -0.046658 0.304435 0.374679 0.061417 -0.739687 -0.911058 1.127952 0.455611 1.551580
天 -0.443753 0.791457 -0.592467 0.234487 -0.243915 -0.320281 0.309337 -0.223275 -0.232202 1.549532 -1.203461 -0.237658 0.239948 0.166475 -1.724059 0.279709 -0.298339 -0.596924 0.815904 -0.885221 -0.053347 -0.882582 0.675301 0.761116 -0.850233 -0.406253 0.131154 -0.833082 -0.076706 0.790537 0.526559 -0.258553
现在 -0.710286 0.897325 -0.204127 0.285833 0.045051 -0.228560 0.371064 -0.500073 -0.222253 1.438986 -1.309090 -0.200486 0.419951 0.510616 -1.416716 0.194103 -0.450461 -0.727246 0.583077 -0.422305 0.003158 -0.585242 0.633519 0.410620 -0.542720 -0.510798 0.306638 -0.575616 -0.234664 0.691040 0.754648 -0.064345
行李 0.457113 0.302927 0.089086 0.459965 0.030612 -0.200202 0.486034 -1.049381 0.003409 1.230169 -1.548781 -0.498788 0.071602 -0.505478 -1.909734 1.128955 -0.451783 -1.349350 0.308239 -1.031175 -0.583856 -1.283163 0.782516 0.502002 -0.263016 -0.346203 0.385928 -0.743494 0.074539 0.902198 0.342748 0.382655
两个 0.119975 0.773387 0.384097 1.104408 -0.045024 0.044001 0.441751 -0.414269 0.261930 0.908304 -1.448627 -0.222583 -0.181912 -0.683140 -1.399703 0.564211 -0.255295 -1.090050 0.426348 -0.774604 -0.082854 -1.335204 0.896835 0.404582 -0.124377 -0.055023 -0.057322 -0.804036 -0.432715 1.078251 0.452203 0.685232
星级 -1.911577 1.504084 0.368734 1.092870 0.325276 -0.062588 0.325987 -0.078871 -0.481733 0.769593 -1.289329 -0.534312 0.127917 0.320212 -0.529770 -0.154020 -0.582509 -0.821425 0.745268 0.689674 0.135713 -0.670242 0.360787 -0.290339 0.348573 -0.668495 0.361789 -0.489991 -1.518116 0.765273 0.945385 0.217287
感谢您 -2.494166 1.469265 -1.815089 -1.453147 -0.241467 -1.037802 0.244952 -1.114048 -1.299673 3.213811 -2.216110 -0.857834 1.850226 2.732836 -2.924897 0.143877 -1.151341 -0.913204 1.740178 -0.718818 -0.060270 0.109553 0.534889 0.827764 -1.301721 -1.546939 1.746205 -0.443780 0.307655 0.278117 1.551964 -1.934737
地毯 -0.555852 1.664712 1.852287 1.981346 0.118642 0.323900 0.288532 0.175946 0.808928 -0.294932 -1.680431 -0.215665 -0.358489 -0.782277 -1.026146 -0.189649 -0.376062 -1.007364 0.650674 -0.072054 0.353838 -1.253506 1.093865 -0.027875 0.659936 0.616311 0.034598 -0.589007 -1.307393 1.067369 0.554920 1.404478
楼层 -0.021516 1.018673 0.182708 1.397411 -0.357485 0.074436 0.175526 0.007756 0.375377 0.808327 -1.558469 -0.052256 -0.318017 -0.922954 -1.311584 0.490942 -0.198456 -1.167087 0.760831 -1.002612 0.097135 -1.556468 0.706616 0.806668 0.018008 -0.180791 -0.274070 -0.826978 -0.623751 1.170546 0.452045 0.266553
好像 -0.397123 0.888739 0.707037 0.874965 0.124563 -0.062468 0.400326 -0.320874 0.173795 0.519139 -1.236795 -0.330214 -0.006436 -0.346558 -1.217980 0.251677 -0.396112 -0.835461 0.522244 -0.317125 0.010116 -0.928565 0.788116 0.094103 0.039111 -0.013242 0.221342 -0.556032 -0.635720 0.823315 0.491943 0.727814
帮 0.787097 0.326003 -0.317216 0.821492 -0.151044 -0.063938 0.572936 -0.938102 -0.085810 1.453422 -1.471908 -0.303740 -0.163594 -0.611172 -1.474656 1.220149 -0.202036 -1.344761 0.038105 -1.063130 -0.535334 -1.310943 0.675309 0.594484 -0.451661 -0.516094 -0.097080 -0.837533 0.080793 1.082496 0.265638 0.244687
收费 -0.622500 0.745448 0.305596 0.402168 -0.028940 -0.261547 0.323866 -0.172623 -0.025919 0.942212 -1.169402 -0.117850 0.023379 -0.055522 -1.466272 0.304649 -0.324820 -0.506316 0.895432 -0.420659 0.035457 -0.892227 0.712964 0.682157 -0.513520 -0.260853 0.134329 -0.911079 -0.307570 0.586480 0.320356 0.162050
新 -1.242776 1.333055 0.899728 1.051697 0.217265 0.037700 0.105408 0.110687 0.087407 0.218492 -1.193827 -0.377891 -0.004400 -0.231141 -1.018364 -0.175709 -0.521607 -0.734646 0.859676 -0.072867 0.356597 -0.731878 0.650981 0.046165 0.511833 -0.033323 0.374553 -0.492339 -1.104456 0.734515 0.761572 0.477085
唯一 -1.073955 1.184451 1.145092 0.819258 0.360583 -0.162945 0.489653 -0.225272 -0.250605 0.371253 -1.168921 -0.500869 0.163031 -0.004187 -1.231601 0.082624 -0.417070 -0.648033 0.460277 0.244830 -0.043420 -0.600754 0.612831 -0.397798 0.127977 -0.031914 0.665015 -0.572477 -0.972282 0.643743 0.746688 0.733517
客户 -0.917773 0.978670 -0.853457 0.129852 -0.053228 -0.268769 0.338328 -0.574390 -0.675215 1.916204 -1.297112 -0.293686 0.587462 0.850541 -1.340184 0.426280 -0.524162 -0.756459 0.664544 -0.565233 -0.022774 -0.471939 0.386334 0.442289 -0.598907 -0.877682 0.322715 -0.649908 -0.198644 0.762915 0.812882 -0.574463
失望 -1.497847 1.336241 0.138100 0.731708 0.227638 -0.095907 0.293978 -0.200041 -0.430738 0.889581 -1.126748 -0.387135 0.391121 0.662091 -0.674542 -0.199117 -0.489115 -0.596018 0.543158 0.372789 0.171245 -0.313457 0.405230 -0.293854 0.035920 -0.466446 0.404320 -0.382672 -1.002882 0.629032 0.930670 0.099904
情况 -0.492658 0.730102 -0.402576 0.420875 -0.107357 -0.155026 0.399776 -0.705471 -0.365469 1.452344 -1.378123 -0.361784 0.262432 0.262232 -1.352449 0.541376 -0.443290 -0.996279 0.532271 -0.553672 -0.176214 -0.733609 0.568567 0.426404 -0.361534 -0.674061 0.218479 -0.636522 -0.159219 0.811257 0.607270 -0.096035
告知 0.414677 0.266257 -0.871360 0.334197 -0.354063 -0.192275 0.347875 -0.753855 -0.119608 1.835861 -1.467344 -0.154822 0.085969 -0.394734 -1.920349 1.038195 -0.300295 -1.257366 0.629240 -1.590679 -0.367700 -1.404446 0.628346 1.118308 -0.676668 -0.582896 0.050430 -1.027924 0.411535 0.968634 0.450957 -0.325620
宽带 -0.318354 1.171915 0.512794 1.163728 -0.191149 0.034777 0.398704 -0.020348 0.216531 0.651341 -1.278619 -0.026517 -0.256114 -0.526188 -0.868933 0.352427 -0.093908 -0.590952 0.866630 -0.548070 0.306566 -0.968420 0.668792 0.736140 -0.102953 0.018659 -0.215362 -0.982579 -0.750600 0.819148 0.205117 0.405717
机场 -1.006356 0.617453 0.576727 -0.541111 0.310029 -0.520299 0.436263 -0.245025 -0.967500 0.902221 -0.817699 -0.661820 0.454990 0.241637 -2.300364 0.425865 -0.500840 -0.173539 0.766616 -0.378438 -0.351042 -0.186870 0.575890 0.132436 -0.547630 -0.288375 1.138080 -0.840525 -0.062351 0.331644 0.641037 -0.169433
预订 -0.301950 0.606429 -1.278524 0.510953 -0.426748 -0.097858 0.192517 -0.319109 -0.511860 1.815971 -1.100235 -0.139363 0.095039 0.060736 -1.158010 0.686560 -0.240861 -0.950611 0.708036 -1.161649 -0.050817 -0.907274 0.261169 0.902053 -0.547849 -0.859836 -0.159687 -0.848092 -0.063891 0.881614 0.564153 -0.771178
吃饭 -0.981228 0.916123 1.692466 0.315477 0.625058 -0.297576 0.670525 -0.262928 -0.520546 0.152515 -1.080555 -0.718742 0.270177 -0.107030 -1.959387 0.275779 -0.414724 -0.376953 0.441023 0.302210 -0.330507 -0.447505 0.768959 -0.561706 -0.004057 0.162423 1.218122 -0.687380 -0.644870 0.445433 0.760452 0.887336
这种 -0.871025 1.194826 -0.135806 0.694698 0.026137 -0.182451 0.490594 -0.425319 -0.393920 1.318195 -1.396396 -0.379890 0.258034 0.545952 -0.958410 0.190941 -0.360111 -0.808901 0.435821 0.065021 -0.030550 -0.625149 0.444764 0.020534 -0.334597 -0.591134 0.177757 -0.503488 -0.730844 0.703282 0.682577 0.004370
品种 -1.368443 0.997596 1.659879 0.933162 0.713334 -0.680934 0.970457 -0.567740 0.008735 0.211958 -1.238962 -0.657407 0.113628 -0.368515 -1.427972 -0.041766 -0.501210 -0.735443 0.840184 0.637657 0.006756 -0.993833 1.012462 -0.800984 0.353208 0.266886 0.939543 -0.385823 -1.414043 0.601355 0.514719 1.717012
20 -0.761856 0.333237 -0.322177 -0.926955 0.006888 -0.665015 0.228490 -0.110631 -0.359242 1.406003 -0.904498 -0.198321 0.506999 0.220424 -2.291974 0.313501 -0.437611 -0.031506 1.253639 -1.102965 0.055548 -0.584892 0.731814 0.998674 -1.009868 -0.240510 0.638295 -0.841278 0.347382 0.379964 0.222025 -0.536911
水 0.234771 0.907991 1.396731 1.451668 0.112095 0.225158 0.485879 -0.422197 0.601391 0.353661 -1.702312 -0.265651 -0.363519 -0.912556 -1.495620 0.506835 -0.249115 -1.179470 0.299159 -0.499746 -0.151849 -1.460562 1.157655 0.205361 0.093860 0.293514 0.013636 -0.822817 -0.536755 1.080620 0.392024 1.357203
很小 -0.675640 1.757596 1.658185 2.096749 0.142148 0.295776 0.250665 0.520024 0.642926 -0.185948 -1.438180 -0.162920 -0.465309 -0.947283 -0.825576 -0.191091 -0.220576 -0.769547 0.704627 -0.103896 0.525598 -1.265005 1.037116 -0.065136 0.639990 0.516444 -0.193789 -0.747953 -1.547576 1.112850 0.590664 1.238042
安静 -1.210488 1.606115 1.457379 1.133183 0.328556 -0.067171 0.384305 0.111713 -0.012474 0.013930 -1.264012 -0.550008 0.069416 -0.219909 -1.237812 -0.198197 -0.367184 -0.585260 0.638562 0.136576 0.164282 -0.607028 0.686938 -0.405368 0.408598 0.224958 0.628005 -0.534846 -1.297967 0.724050 0.772627 0.845230
近 -1.358660 1.177735 1.159384 0.339222 0.481840 -0.294443 0.428857 -0.079421 -0.639153 0.317522 -0.942753 -0.692063 0.292626 0.085758 -1.640588 0.046221 -0.476046 -0.315227 0.632168 0.189655 -0.078200 -0.286635 0.580018 -0.380891 0.037604 -0.046520 0.972888 -0.676219 -0.867921 0.494465 0.759844 0.420147
总台 0.700036 0.263429 -0.014686 0.812115 -0.122420 -0.116585 0.581418 -1.074208 0.147102 1.325484 -1.665026 -0.447957 -0.187277 -0.778868 -1.748084 1.222713 -0.280180 -1.518996 0.196504 -1.010025 -0.684890 -1.551901 0.714601 0.619575 -0.314312 -0.421661 0.083082 -0.793598 0.054668 1.005811 0.282556 0.441748
当时 -0.106100 0.360968 -0.392819 0.368313 -0.092273 -0.187489 0.364110 -0.721189 -0.189254 1.299239 -1.216763 -0.383502 0.118936 -0.262893 -1.533358 0.736373 -0.451049 -1.115416 0.513547 -0.921826 -0.347002 -1.025187 0.564141 0.599371 -0.325173 -0.496620 0.243666 -0.710555 -0.016449 0.851189 0.521278 0.020652
15 -0.796553 0.316989 -0.476762 -1.212612 -0.133905 -0.768763 0.103626 -0.134848 -0.361007 1.464414 -1.036481 -0.356380 0.658591 0.276553 -2.749902 0.349948 -0.532982 -0.116883 1.424403 -1.335229 -0.019378 -0.602921 0.712835 1.207613 -1.049071 -0.281380 0.872342 -0.786223 0.549941 0.284120 0.336506 -0.822864
热水 0.166544 0.780835 0.858356 0.899891 0.017059 0.039756 0.338939 -0.346934 0.435682 0.537365 -1.473631 -0.321793 -0.124975 -0.572545 -1.508776 0.383308 -0.328744 -0.962956 0.377005 -0.507096 -0.136331 -1.146070 0.965048 0.318861 -0.091122 0.172737 0.096527 -0.614934 -0.309039 0.808660 0.400607 0.890159
30 -0.439791 0.120345 -0.537657 -1.025016 -0.206663 -0.759701 0.285438 -0.535881 -0.191313 1.563049 -1.229486 -0.436083 0.601180 0.268301 -2.800625 0.525074 -0.502551 -0.488157 1.241958 -1.280671 -0.297020 -0.834890 0.805364 1.147686 -1.068722 -0.264873 0.899297 -0.751185 0.697350 0.300274 0.342464 -0.492858
定 -0.787185 1.117548 -0.802952 0.761866 -0.327587 -0.026897 0.102474 0.368201 -0.293997 1.427092 -0.940165 0.002031 0.041012 -0.046161 -0.930833 0.216327 -0.152271 -0.581076 0.926323 -1.012443 0.410605 -0.860034 0.293147 0.778295 -0.353682 -0.624066 -0.249380 -0.797601 -0.628585 0.828420 0.652218 -0.718078
评价 -1.241288 0.927978 -0.472407 0.060450 0.047498 -0.263069 0.240017 -0.427024 -0.476732 1.329061 -1.055696 -0.322568 0.590883 0.929311 -0.939109 0.020774 -0.517567 -0.550613 0.621561 -0.075740 0.061031 -0.241681 0.236453 0.117997 -0.350601 -0.683014 0.461787 -0.326019 -0.428591 0.461899 0.848461 -0.429604
电视 -0.278628 1.262978 1.473753 1.303267 0.293473 0.163896 0.361896 -0.145737 0.587196 0.293684 -1.507290 -0.127514 -0.087416 -0.460885 -1.305594 0.039504 -0.393988 -0.770185 0.444123 -0.237869 0.200869 -1.026371 1.199508 -0.005080 0.139780 0.464307 0.109051 -0.738382 -0.830395 1.024486 0.580696 1.363807
第一次 -1.084943 1.159269 -0.411638 0.589307 -0.085053 -0.087364 0.290513 -0.187339 -0.623846 1.172889 -1.013645 -0.335909 0.304458 0.557886 -0.818703 0.065446 -0.355571 -0.611381 0.454527 -0.086297 0.092069 -0.352865 0.373867 0.082393 -0.309436 -0.654135 0.169703 -0.556713 -0.634998 0.702137 0.824850 -0.314333
最好 -1.487934 1.371749 0.314226 0.708941 0.228069 -0.158442 0.354793 -0.199109 -0.549791 0.802667 -1.120396 -0.535479 0.293465 0.493698 -0.880092 -0.093381 -0.488606 -0.597274 0.540604 0.345411 0.059103 -0.402592 0.409327 -0.264694 0.039033 -0.494598 0.474765 -0.464404 -1.021778 0.635318 0.915502 0.096340
四星级 -1.620962 1.388944 0.459632 0.837516 0.244161 -0.154755 0.272064 -0.065308 -0.284240 0.663526 -1.269220 -0.489587 0.159924 0.302393 -0.810312 -0.150443 -0.528541 -0.692476 0.781679 0.449429 0.161334 -0.624998 0.402115 -0.137516 0.224322 -0.438909 0.435135 -0.416294 -1.257454 0.566248 0.859004 0.153803
少 -0.764014 0.803764 1.325142 1.005959 0.585898 -0.246717 0.693368 -0.455687 -0.045141 0.137477 -1.001077 -0.530298 -0.004588 -0.512105 -1.154847 0.115484 -0.419839 -0.671033 0.425173 0.365474 -0.140455 -0.874006 0.838144 -0.628793 0.314531 0.172241 0.599350 -0.522771 -1.074565 0.733199 0.471359 1.461671
安排 -0.106549 0.755800 -0.473015 0.689225 -0.223042 0.024791 0.194412 -0.322431 -0.129408 1.193945 -1.140099 -0.105227 0.040020 -0.152579 -1.070055 0.501493 -0.279212 -0.879473 0.461231 -0.961737 0.040483 -0.885697 0.479485 0.632974 -0.218422 -0.421681 -0.077278 -0.709611 -0.267133 0.890108 0.515919 -0.156222
请 -0.327723 0.781048 -0.478652 0.442499 -0.110183 -0.173326 0.506544 -0.856427 -0.424261 1.642679 -1.462612 -0.405381 0.284010 0.341917 -1.420705 0.675781 -0.382434 -1.108766 0.314412 -0.482219 -0.385700 -0.827617 0.555989 0.330262 -0.550269 -0.731158 0.258660 -0.649155 -0.134894 0.828119 0.621327 -0.080290
喜欢 -1.005467 1.444355 0.657391 1.054203 0.177224 -0.051873 0.474776 -0.181212 -0.214181 0.699328 -1.361369 -0.448834 0.139802 0.106522 -1.113357 0.039668 -0.438164 -0.768605 0.497587 -0.003288 0.190776 -0.665772 0.751679 -0.149647 0.054801 -0.177629 0.327854 -0.619326 -1.019079 0.889738 0.855553 0.523686
外面 -0.245263 1.029948 1.110903 0.815138 0.063931 -0.131094 0.463550 -0.308055 0.340588 0.430831 -1.498230 -0.390500 -0.000812 -0.283733 -1.651999 0.177581 -0.350262 -0.788682 0.497615 -0.270343 -0.068316 -0.963556 1.017333 0.014635 -0.135953 0.276888 0.433632 -0.590222 -0.517079 0.775909 0.516202 0.963461
11 -0.667764 0.415355 -0.807483 -1.020860 -0.432390 -0.539558 -0.008389 -0.387671 -0.017382 1.585530 -1.265658 -0.338522 0.831400 0.714648 -2.522337 0.098800 -0.614419 -0.483155 1.285404 -1.373618 -0.002602 -0.525287 0.657351 1.257198 -0.914485 -0.282357 0.987764 -0.415528 0.652060 0.200660 0.681222 -0.787581
钱 -0.422976 0.681331 -0.076326 0.250726 -0.027437 -0.383573 0.463845 -0.430910 -0.319438 1.274532 -1.217096 -0.347355 0.159427 0.003372 -1.698693 0.461272 -0.361719 -0.684023 0.660069 -0.616558 -0.181155 -0.885067 0.719144 0.444834 -0.639438 -0.342397 0.305696 -0.780602 -0.163421 0.794005 0.466279 0.075411
直接 0.242834 0.559025 -0.059599 0.736789 -0.075251 -0.041777 0.457845 -0.635718 -0.061203 1.260126 -1.369348 -0.202148 -0.048295 -0.388963 -1.472210 0.802096 -0.308331 -1.102381 0.380902 -0.933613 -0.318493 -1.124150 0.696289 0.560086 -0.371173 -0.391233 0.017076 -0.876650 -0.077763 0.994077 0.401932 0.263289
无法 -0.244133 0.903027 0.509737 0.789871 -0.022043 -0.048812 0.389409 -0.478608 0.197022 0.820388 -1.486490 -0.307671 0.088692 -0.149394 -1.353435 0.389747 -0.340975 -0.982134 0.476784 -0.396722 -0.110560 -0.958644 0.752028 0.204645 -0.136943 -0.113487 0.204412 -0.598910 -0.470837 0.756011 0.478484 0.529622
旁边 -1.057385 1.281674 1.226374 0.616629 0.371278 -0.259531 0.535662 -0.203436 -0.292799 0.470050 -1.274669 -0.595836 0.209952 -0.001300 -1.619406 0.112493 -0.475371 -0.589724 0.604550 0.096017 -0.075634 -0.541647 0.768664 -0.344995 0.000659 0.020116 0.791759 -0.620263 -0.878571 0.696407 0.777140 0.628716
招待所 -1.248547 1.584791 1.236703 1.469511 0.283021 0.009110 0.390113 0.044817 0.105217 0.228975 -1.402099 -0.380025 -0.032270 -0.037354 -0.686739 -0.263857 -0.358332 -0.726463 0.507725 0.590228 0.180533 -0.788359 0.704239 -0.437285 0.338889 -0.006464 0.239091 -0.443414 -1.446244 0.753407 0.714159 0.921453
方面 -1.241209 1.347214 0.514540 0.857873 0.234098 -0.189335 0.448908 -0.413308 -0.410553 0.750558 -1.342592 -0.523278 0.242483 0.359641 -0.868341 0.107023 -0.507942 -0.828860 0.440867 0.351699 -0.040437 -0.495915 0.445129 -0.311112 0.160423 -0.406250 0.486218 -0.439468 -1.068678 0.678866 0.719332 0.352617
本来 -0.509289 1.072656 -0.007754 0.860524 -0.110805 -0.013794 0.354765 -0.183408 -0.119763 1.097126 -1.273511 -0.235395 0.085597 -0.014248 -1.248654 0.209176 -0.295656 -0.805008 0.524264 -0.466501 0.017529 -0.866057 0.677548 0.347839 -0.318133 -0.268691 0.077353 -0.736217 -0.509296 0.887063 0.700895 0.160142
洗澡 -0.090292 1.039255 1.261838 1.153791 0.091154 0.110038 0.360890 -0.211794 0.560398 0.332738 -1.562875 -0.272615 -0.144928 -0.519514 -1.491310 0.224745 -0.284531 -0.894361 0.461472 -0.360808 0.050394 -1.144211 1.078940 0.146949 0.061143 0.354425 0.151487 -0.598104 -0.530922 0.858929 0.482360 1.106952
出租车 -0.553561 0.806938 0.985699 0.356101 0.411500 -0.308964 0.567621 -0.434787 -0.542351 0.590524 -1.092814 -0.658323 0.123950 -0.205682 -1.758723 0.548642 -0.436804 -0.604580 0.345565 -0.063003 -0.409698 -0.587333 0.686840 -0.233850 -0.130178 -0.174715 0.758184 -0.723557 -0.488517 0.604767 0.566036 0.499570
升级 -0.296770 1.279464 -0.531272 1.464891 -0.618125 0.201617 0.025979 0.422769 0.107654 1.203322 -1.432042 0.187815 -0.352863 -0.732920 -0.861210 0.417588 -0.034475 -0.819000 1.169694 -1.283525 0.631887 -1.306331 0.482324 1.172466 -0.110370 -0.344627 -0.671340 -1.062866 -0.777440 1.194982 0.405979 -0.449957
考虑 -1.382106 1.416443 -0.129136 0.432876 0.250193 -0.200572 0.475759 -0.407886 -0.929874 1.293064 -1.055632 -0.438747 0.562013 1.045260 -0.859788 -0.070427 -0.445065 -0.423737 0.281827 0.375985 0.034657 -0.033972 0.491367 -0.402310 -0.361666 -0.586537 0.491748 -0.613488 -0.836496 0.731756 0.962713 -0.045191
贵 -1.365047 1.214976 0.539268 0.704046 0.280004 -0.290799 0.497555 -0.128768 -0.324100 0.637994 -1.010508 -0.427679 0.157858 0.187986 -0.965463 -0.149622 -0.390966 -0.516079 0.745689 0.276141 0.136226 -0.548365 0.518400 -0.204395 -0.015312 -0.283300 0.408630 -0.527258 -1.085458 0.670408 0.671954 0.420510
老 -1.286536 1.424213 1.276369 1.277217 0.456992 0.013026 0.335376 0.042305 -0.033722 0.024394 -1.175871 -0.484974 -0.077379 -0.288744 -0.854634 -0.153723 -0.480934 -0.703098 0.633767 0.406565 0.143968 -0.746262 0.653340 -0.405599 0.642021 0.011476 0.391504 -0.487237 -1.392644 0.743164 0.763538 0.897347
火车站 -1.544661 1.290923 1.382770 0.245288 0.523224 -0.324404 0.501142 0.022873 -0.797451 0.204836 -0.875193 -0.701246 0.336976 0.196336 -1.692552 -0.084758 -0.491030 -0.118744 0.630831 0.313414 -0.051080 -0.043232 0.563033 -0.552313 -0.002703 0.009792 1.135650 -0.642420 -0.908982 0.469770 0.755633 0.387669
一间 -0.140486 1.397836 -0.225720 1.577914 -0.387828 0.238924 0.025638 0.690720 0.230787 1.049876 -1.251709 0.178216 -0.413726 -0.865960 -0.957490 0.239921 0.018163 -0.724835 0.977259 -1.312137 0.604072 -1.431445 0.666663 0.947027 -0.088551 -0.087334 -0.698406 -1.066594 -0.865666 1.247840 0.521796 -0.145427
相当 -1.206323 1.587798 1.258880 1.380784 0.387712 -0.133625 0.629367 -0.291845 -0.204465 0.433079 -1.469356 -0.647773 0.091767 0.029723 -0.858743 0.071604 -0.428300 -0.850664 0.339991 0.590711 -0.036048 -0.691294 0.653393 -0.687560 0.395427 -0.076107 0.481317 -0.518976 -1.517808 0.827522 0.737549 0.972403
值得 -1.446782 1.651770 0.356777 1.080592 0.176421 -0.128915 0.614069 -0.320089 -0.487902 0.950306 -1.332134 -0.447841 0.291303 0.635621 -0.548881 -0.031995 -0.347732 -0.691035 0.375575 0.686587 0.032866 -0.506219 0.396779 -0.510884 -0.128913 -0.508755 0.292501 -0.443552 -1.349495 0.740660 0.825641 0.320809
周围 -1.312459 1.340590 1.798029 0.655515 0.635725 -0.258812 0.573034 -0.054694 -0.411158 0.023945 -1.079229 -0.694110 0.202977 -0.077283 -1.593076 -0.029230 -0.442808 -0.383369 0.507813 0.408736 -0.073245 -0.386422 0.726096 -0.689414 0.209990 0.208415 1.083945 -0.603273 -1.102649 0.547840 0.785862 0.917626
上海 -1.014934 1.021239 -0.044026 0.341907 0.111275 -0.249162 0.410054 -0.425310 -0.461139 1.191483 -1.210985 -0.408185 0.401946 0.450603 -1.384800 0.137304 -0.509394 -0.693322 0.606004 -0.184074 -0.043798 -0.500013 0.561270 0.065242 -0.347778 -0.488871 0.503446 -0.593707 -0.519509 0.715976 0.829750 -0.021659
员工 -0.761661 0.721004 -0.131588 0.278396 0.167074 -0.347636 0.459721 -1.030605 -0.466867 1.280337 -1.539110 -0.683697 0.455486 0.450242 -1.323221 0.702093 -0.663913 -1.215194 0.483202 -0.200355 -0.422908 -0.696883 0.408236 0.023699 -0.036212 -0.710738 0.686449 -0.336072 -0.361723 0.608941 0.631106 -0.031670
坏 0.266159 1.047444 1.160872 1.539337 0.072147 0.194860 0.466769 -0.412705 0.593552 0.489744 -1.752480 -0.217326 -0.366085 -0.876871 -1.456665 0.496900 -0.327589 -1.226442 0.353016 -0.613494 -0.114238 -1.447313 1.168221 0.283982 0.142766 0.260247 -0.089198 -0.852279 -0.595970 1.220614 0.438688 1.237699
还会 -1.687340 1.986366 -0.385432 0.619525 0.392569 -0.145869 0.590938 -0.512594 -1.255278 1.665893 -1.179600 -0.472746 0.783453 1.547150 -0.666381 -0.224007 -0.558035 -0.500158 -0.020018 0.538570 0.163304 0.135782 0.689418 -0.664945 -0.414871 -0.726296 0.417226 -0.835670 -1.137276 1.055628 1.331573 -0.054338
香港 -1.442562 1.608101 0.467047 0.686729 0.244686 -0.171787 0.466392 -0.175160 -0.634088 1.055591 -1.304428 -0.486969 0.412481 0.561675 -1.323123 -0.031789 -0.502340 -0.537973 0.602640 0.076336 0.097002 -0.367309 0.661856 -0.184719 -0.204056 -0.373159 0.589840 -0.727858 -0.980887 0.812257 0.959636 0.121753
联系 -0.558033 0.320580 -1.134894 -0.748411 -0.142608 -0.498424 0.388537 -1.201293 -0.578950 2.436953 -1.517970 -0.335744 0.698931 0.834675 -2.434106 0.884580 -0.701698 -1.146496 1.035749 -1.299908 -0.284564 -0.660983 0.443317 1.109838 -1.005414 -1.071917 0.740235 -0.595982 0.694030 0.470865 0.786091 -0.935050
打车 -1.162463 0.901710 0.971502 -0.205840 0.476483 -0.515628 0.469205 -0.165338 -0.759112 0.630831 -0.857492 -0.657784 0.438392 0.293810 -1.951818 0.228243 -0.507215 -0.094693 0.665852 0.020219 -0.228106 -0.147202 0.644632 -0.221182 -0.283863 -0.083179 1.077954 -0.733431 -0.473391 0.334201 0.670862 0.223677
五星 -1.771732 1.434283 0.428092 0.980328 0.221454 -0.123863 0.235837 0.077076 -0.298104 0.694798 -1.237662 -0.413657 0.059657 0.283742 -0.692156 -0.281446 -0.503113 -0.670344 0.852436 0.627564 0.207999 -0.714779 0.403372 -0.114073 0.180761 -0.542443 0.312823 -0.492728 -1.399776 0.669219 0.891895 0.187739
2007 -1.892313 0.816377 -0.681337 -1.572659 -0.073498 -0.831941 0.021451 -0.581965 -0.180657 2.039118 -1.540951 -0.211499 1.461053 1.843609 -2.735233 -0.197399 -1.063073 -0.474422 1.735850 -0.999942 0.225653 0.013456 0.504300 1.189736 -0.988098 -0.623843 1.587074 -0.271404 0.543658 -0.091460 1.128806 -1.202541
速度 -0.009561 0.755890 0.485416 0.977996 0.044991 -0.103442 0.524701 -0.600722 0.121249 0.784973 -1.318718 -0.308887 -0.062688 -0.573940 -1.158880 0.728564 -0.313646 -1.084536 0.456284 -0.646322 -0.211448 -1.169182 0.680290 0.411835 0.013210 -0.091169 0.113182 -0.771211 -0.484770 0.852439 0.260262 0.682360
电脑 -0.111036 1.132908 0.546026 1.354412 -0.126680 0.100923 0.362632 -0.048445 0.296930 0.826030 -1.491101 -0.068581 -0.295294 -0.771161 -1.283876 0.495801 -0.225470 -0.988597 0.796359 -0.901856 0.208248 -1.356157 0.872719 0.714653 -0.048530 -0.036352 -0.215818 -1.070829 -0.635025 1.070652 0.468381 0.509940
几个 -0.170011 0.679382 0.371866 0.512771 0.102656 -0.162899 0.487539 -0.604440 -0.105129 0.935985 -1.319808 -0.457792 0.130635 -0.159588 -1.587077 0.527061 -0.406125 -0.898303 0.360876 -0.459723 -0.272146 -0.913315 0.773425 0.177853 -0.284769 -0.194791 0.382487 -0.636910 -0.237755 0.768967 0.554107 0.455350
隔壁 -0.196971 1.121531 1.429198 1.234740 0.147569 0.121889 0.460271 -0.326168 0.516705 0.121546 -1.549962 -0.439505 -0.041202 -0.432142 -1.141134 0.134503 -0.375407 -0.948561 0.246130 0.042335 -0.064343 -0.927684 0.972919 -0.358973 0.320415 0.333786 0.179165 -0.489412 -0.853608 0.914259 0.514275 1.340625
服务生 -0.005186 0.610375 0.537267 0.805334 0.203149 -0.135816 0.543066 -0.820640 0.034068 0.857443 -1.413043 -0.466322 -0.008806 -0.492784 -1.400299 0.782628 -0.439515 -1.194688 0.281047 -0.478998 -0.358415 -1.136160 0.743301 0.165793 0.030933 -0.180428 0.307687 -0.665720 -0.407973 0.921821 0.403181 0.738990
投诉 0.224519 0.408054 -0.426692 0.385308 -0.176645 -0.258732 0.562324 -1.046799 -0.155117 1.620929 -1.628414 -0.447844 0.131422 -0.004686 -1.591600 0.983259 -0.374788 -1.327552 0.292762 -0.704299 -0.554662 -1.060637 0.535691 0.543293 -0.574913 -0.680109 0.199102 -0.633051 0.086435 0.782436 0.404378 -0.010787
带 -0.446527 0.813224 0.146410 0.395228 0.062719 -0.110807 0.285095 -0.346979 -0.111537 0.993538 -1.188815 -0.239210 0.202386 0.063500 -1.395329 0.347091 -0.380001 -0.720017 0.547371 -0.616762 0.021721 -0.714929 0.650946 0.391402 -0.302432 -0.237687 0.351347 -0.639902 -0.208792 0.721790 0.570969 0.114639
回来 0.249328 0.544527 0.047948 0.341649 -0.143931 -0.189437 0.474540 -0.750094 0.059005 1.288181 -1.493519 -0.391791 0.106522 -0.180368 -1.937609 0.657813 -0.316652 -1.023556 0.399389 -0.892365 -0.412293 -1.120216 0.829305 0.559645 -0.645669 -0.212994 0.364323 -0.736433 0.130094 0.749772 0.468908 0.297592
家 -1.299391 1.398492 0.199191 0.674190 0.108039 -0.180337 0.417982 -0.331516 -0.431362 0.946174 -1.238551 -0.499462 0.349886 0.561769 -0.942912 -0.052316 -0.473475 -0.697609 0.536962 0.222557 0.128578 -0.438344 0.544775 -0.197078 -0.058523 -0.438685 0.423646 -0.462364 -0.965381 0.701788 0.820510 0.134521
工作 -0.619252 1.001836 -0.079697 0.301259 -0.036382 -0.403825 0.539304 -0.812094 -0.279741 1.410932 -1.670032 -0.556008 0.484819 0.635900 -1.519804 0.415725 -0.471784 -0.984845 0.481979 -0.151878 -0.281142 -0.645121 0.588435 0.101037 -0.435727 -0.486007 0.593481 -0.405450 -0.311251 0.583646 0.560120 0.066850
尤其 -0.864800 1.086134 1.005281 1.169507 0.346873 0.026951 0.395280 -0.328023 0.028329 0.405186 -1.328930 -0.440008 -0.012864 -0.296511 -0.992007 0.281078 -0.514282 -0.984091 0.507628 0.042218 -0.039234 -0.961622 0.632368 -0.186334 0.473807 -0.108757 0.353261 -0.589606 -1.054989 0.833404 0.712159 0.859769
三星 -1.825696 1.435863 0.846505 1.203236 0.400450 0.002056 0.215450 0.180220 -0.199706 0.317092 -1.134468 -0.388630 -0.073132 0.013260 -0.553331 -0.328443 -0.508170 -0.657102 0.844945 0.768617 0.289675 -0.787071 0.454471 -0.304115 0.478938 -0.395523 0.259734 -0.488897 -1.618637 0.702146 0.871826 0.486017
走廊 -0.329832 1.226861 1.412972 1.421261 0.136043 0.125430 0.415652 -0.255672 0.436577 0.151727 -1.592581 -0.414488 -0.199560 -0.661097 -1.358795 0.216866 -0.440194 -1.050456 0.501423 -0.216325 0.021303 -1.149397 1.026222 -0.029956 0.338462 0.270705 0.203964 -0.643178 -0.895333 1.035033 0.552260 1.184159
说明 -0.892874 0.581167 -0.855511 -0.144823 0.160243 -0.283659 0.445874 -0.939421 -0.589437 1.923492 -1.170810 -0.237831 0.471591 0.674293 -1.458287 0.679324 -0.633598 -0.828177 1.134173 -0.791548 0.000597 -0.571074 0.114304 0.684136 -0.466916 -0.950245 0.340583 -0.552399 -0.010115 0.514527 0.709903 -0.456625
确实 -1.047064 1.226435 0.631423 0.798599 0.168283 -0.181450 0.419209 -0.232826 -0.136626 0.647587 -1.278522 -0.462414 0.181709 0.180332 -1.008851 0.015693 -0.440105 -0.697757 0.566733 0.222648 0.054156 -0.595304 0.529868 -0.224004 0.057336 -0.200375 0.394537 -0.424261 -0.982232 0.639714 0.654047 0.415599
标间 -0.588375 1.355188 0.125411 1.396384 -0.260807 -0.001234 0.146855 0.620779 0.174603 0.812444 -1.187180 0.032680 -0.298067 -0.661524 -1.060423 0.057684 -0.021430 -0.585153 0.984700 -0.788463 0.577177 -1.159631 0.664942 0.680186 -0.016822 -0.053833 -0.376556 -0.897156 -1.007177 1.042081 0.511539 0.022206
最差 -1.352680 1.321927 0.201408 0.974223 0.171752 -0.016662 0.337061 -0.082509 -0.448362 0.661444 -0.945651 -0.385362 0.175814 0.383021 -0.372632 -0.177417 -0.363466 -0.582335 0.353303 0.505442 0.150934 -0.396187 0.326141 -0.363991 0.134188 -0.473425 0.175353 -0.386197 -1.183300 0.696433 0.767017 0.220029
五星级 -1.595392 1.312979 0.258530 0.626263 0.163451 -0.261879 0.284113 -0.114016 -0.300042 0.859705 -1.290728 -0.475310 0.282229 0.442725 -0.950019 -0.163111 -0.488224 -0.617736 0.822538 0.390347 0.133751 -0.567892 0.373413 -0.025761 0.005126 -0.493105 0.480560 -0.350429 -1.082176 0.486396 0.823898 0.010539
下午 0.159319 0.312294 -0.597429 -0.098239 -0.313063 -0.388520 0.366065 -0.769737 -0.100733 1.507499 -1.399653 -0.474183 0.328901 -0.073592 -2.127065 0.674213 -0.397459 -0.970785 0.662865 -1.216915 -0.444633 -1.101745 0.657704 0.876339 -0.714874 -0.353769 0.526220 -0.682270 0.381168 0.591992 0.387928 -0.160256
整个 -0.597456 1.136663 0.995754 1.068663 0.148745 0.011154 0.343401 -0.261480 0.205650 0.377259 -1.400305 -0.409863 -0.040620 -0.326680 -1.230012 0.164954 -0.420372 -0.922727 0.512074 -0.154087 -0.001583 -0.963061 0.799629 0.011069 0.243705 0.076415 0.311471 -0.568150 -0.839561 0.796181 0.605695 0.824457
水果 -0.146053 0.811283 0.356673 0.952915 -0.019055 -0.131647 0.668283 -0.612820 0.090588 0.945052 -1.388838 -0.346524 -0.086929 -0.373189 -1.232561 0.480192 -0.248620 -1.089911 0.489180 -0.438279 -0.164831 -1.169585 0.695345 0.294185 -0.229747 -0.203850 0.161877 -0.608299 -0.516780 0.882868 0.389107 0.704771
店 -1.352671 1.134496 -0.367352 0.117282 0.023843 -0.301475 0.412917 -0.563673 -0.773382 1.510739 -1.238681 -0.546329 0.608319 0.920438 -1.514634 0.140231 -0.593313 -0.636421 0.614154 -0.115637 -0.093034 -0.282793 0.484569 0.073357 -0.496617 -0.677477 0.639957 -0.613611 -0.469476 0.690363 0.968514 -0.305009
行政 -0.586063 1.535407 -0.092703 1.464078 -0.413957 0.162957 -0.046088 0.767573 0.229970 0.925107 -1.399707 0.132755 -0.242709 -0.742341 -1.049385 0.029045 -0.098383 -0.667817 1.237451 -1.133287 0.750423 -1.354037 0.708371 1.017464 -0.005913 -0.146225 -0.460866 -0.996176 -1.004884 1.189716 0.579143 -0.194667
倒 -0.608969 1.064656 1.036804 0.893170 0.319864 -0.126183 0.502245 -0.345603 -0.025214 0.528132 -1.283839 -0.409650 0.026428 -0.291457 -1.339970 0.236076 -0.394365 -0.767914 0.443219 -0.120357 -0.047696 -0.846204 0.770984 -0.114409 0.056936 0.004345 0.455664 -0.674527 -0.801818 0.813616 0.584439 0.807604
进行 -0.976212 0.754376 -0.548526 -0.173696 0.017216 -0.400620 0.273338 -0.855329 -0.464164 1.544874 -1.490080 -0.499499 0.682109 0.852150 -1.565497 0.425558 -0.744676 -1.007937 0.803050 -0.449184 -0.159810 -0.449848 0.431707 0.381792 -0.332859 -0.742593 0.759985 -0.341245 -0.027182 0.493510 0.734158 -0.444380
信用卡 0.204466 0.355426 -0.588057 0.352288 -0.231868 -0.193135 0.337063 -0.698359 -0.109028 1.555586 -1.420160 -0.294639 0.026592 -0.335078 -1.824342 0.962493 -0.359884 -1.156236 0.591966 -1.243986 -0.374485 -1.189847 0.636617 0.905306 -0.510002 -0.521945 0.108983 -0.855600 0.226541 0.903164 0.376891 -0.175102
半天 0.353009 0.459625 0.004626 0.531316 -0.115131 -0.241862 0.503999 -0.777360 -0.004034 1.354519 -1.540182 -0.357518 -0.029751 -0.459483 -1.831645 0.866126 -0.336859 -1.165803 0.377191 -0.875006 -0.466534 -1.281753 0.806403 0.625405 -0.514436 -0.355130 0.168136 -0.842173 0.053029 0.850036 0.393131 0.232707
太小 -0.588479 1.267890 0.995702 1.461236 0.137915 0.134818 0.295119 0.189685 0.289585 0.193306 -1.177169 -0.193302 -0.239774 -0.593084 -0.766251 0.003153 -0.184009 -0.651386 0.529570 -0.099108 0.306803 -0.954546 0.736697 -0.081102 0.377347 0.158501 -0.052055 -0.623333 -1.176167 0.888126 0.513833 0.802093
车 -0.456018 0.790302 0.554687 0.334466 0.197347 -0.273777 0.493751 -0.449833 -0.405160 0.850808 -1.204726 -0.529610 0.178288 -0.135561 -1.752442 0.518212 -0.431050 -0.725539 0.467450 -0.399275 -0.306536 -0.706054 0.716531 0.083408 -0.273763 -0.234020 0.553920 -0.725008 -0.321872 0.675378 0.573850 0.333282
出差 -1.193227 1.287454 -0.234090 0.369709 0.035833 -0.242685 0.395121 -0.287375 -0.697136 1.246260 -1.121362 -0.474269 0.500614 0.821130 -1.051897 0.007629 -0.413840 -0.519095 0.387919 0.016263 0.068853 -0.195221 0.463486 -0.087885 -0.418136 -0.524199 0.450921 -0.531380 -0.628031 0.668074 0.886461 -0.216967
打开 0.171014 1.002599 0.982424 1.243193 -0.007482 0.152321 0.343481 -0.309921 0.524264 0.516915 -1.549095 -0.188784 -0.264733 -0.716787 -1.408231 0.393223 -0.317752 -1.031260 0.358759 -0.612470 -0.009739 -1.240007 1.069628 0.306278 -0.004533 0.237274 -0.006616 -0.699515 -0.495100 1.086057 0.426213 0.977572
远 -1.214359 1.260163 1.336260 0.637070 0.465747 -0.215117 0.452845 -0.048152 -0.410713 0.118817 -1.012467 -0.608337 0.171962 -0.034830 -1.346854 -0.047127 -0.437695 -0.388411 0.541524 0.285409 -0.004223 -0.348940 0.626365 -0.453482 0.179649 0.036667 0.792531 -0.567381 -1.021212 0.602614 0.694762 0.662411
睡 -0.226963 1.124216 0.944840 1.093326 0.027550 0.104008 0.397206 -0.177207 0.354367 0.503642 -1.480678 -0.328639 -0.047240 -0.391009 -1.356125 0.201062 -0.278638 -0.917824 0.424661 -0.342977 0.031125 -1.079563 0.948682 0.096866 0.002387 0.177269 0.151134 -0.661277 -0.662505 0.900834 0.611855 0.923565
打扫 0.377979 0.537957 0.414835 1.021886 -0.100881 0.088266 0.333731 -0.493570 0.319594 0.482240 -1.213777 -0.320469 -0.226461 -0.740954 -1.134279 0.571013 -0.235064 -1.100057 0.177511 -0.714687 -0.312061 -1.203081 0.640676 0.312529 0.137126 0.004801 0.024634 -0.553813 -0.283036 0.821432 0.249483 0.693761
分 -0.892326 0.632035 -0.223269 -0.319273 -0.041841 -0.469446 0.307532 -0.569989 -0.163471 1.358652 -1.322442 -0.402168 0.606538 0.512339 -1.961560 0.228554 -0.618193 -0.681956 0.992824 -0.690319 -0.072360 -0.630907 0.635084 0.615273 -0.538733 -0.369889 0.773606 -0.508140 0.051615 0.409851 0.688523 -0.223819
标准间 -0.886496 1.352707 0.229842 1.337915 -0.144065 0.054266 0.089204 0.590614 0.104268 0.658534 -1.144987 0.037423 -0.219727 -0.591206 -0.970396 -0.025313 -0.156733 -0.593189 1.062900 -0.709272 0.604333 -1.081780 0.616895 0.608901 0.131305 -0.082896 -0.255064 -0.841998 -1.060273 0.969937 0.572075 0.036918
主动 0.454163 0.150627 -0.081827 0.527768 0.012883 -0.126460 0.468449 -0.909993 0.003944 1.133001 -1.299522 -0.328272 -0.047463 -0.577049 -1.380144 1.083045 -0.345737 -1.267940 0.214277 -0.920564 -0.521558 -1.191034 0.579913 0.477154 -0.163728 -0.400561 0.134833 -0.651965 0.052899 0.850943 0.252561 0.338124
管理 -0.897662 0.897342 0.252734 0.594407 0.262059 -0.218730 0.443321 -0.655230 -0.340175 0.886415 -1.270580 -0.549570 0.250829 0.306122 -0.933255 0.335127 -0.533217 -0.907503 0.360301 0.193660 -0.242909 -0.591543 0.432707 -0.219089 0.105971 -0.463872 0.451230 -0.360445 -0.728413 0.596590 0.624871 0.288372
肯定 -1.027678 1.220211 -0.059722 0.413389 0.124149 -0.213369 0.473284 -0.529306 -0.545053 1.248276 -1.324928 -0.418957 0.481664 0.795126 -1.095804 0.096339 -0.433197 -0.679330 0.330762 0.130818 -0.091276 -0.362342 0.545759 -0.126713 -0.378716 -0.521365 0.459248 -0.558077 -0.633475 0.667870 0.829989 0.031468
还好 -0.572478 1.042237 0.957492 0.985418 0.228486 -0.078306 0.488322 -0.248463 -0.037971 0.402684 -1.208736 -0.404679 -0.022673 -0.257396 -1.046609 0.229317 -0.273380 -0.724278 0.341439 0.060772 -0.103857 -0.766872 0.635793 -0.194907 0.101468 -0.010865 0.330733 -0.538608 -0.852618 0.696055 0.500174 0.733575
左右 -0.264985 0.258798 -0.402971 -0.565778 -0.186375 -0.513663 0.245717 -0.502667 -0.144334 1.284842 -1.110524 -0.390252 0.484473 0.170131 -2.185232 0.362004 -0.407911 -0.455572 0.881317 -1.047427 -0.241277 -0.746746 0.697919 0.855358 -0.821427 -0.154423 0.654564 -0.618095 0.426569 0.389805 0.343106 -0.215439
海景 -1.279124 1.419217 0.255975 0.756829 0.073927 -0.157492 0.290467 -0.143157 -0.231924 1.055916 -1.395903 -0.376166 0.305239 0.336752 -1.285591 -0.026409 -0.541261 -0.737444 0.793995 -0.124823 0.234535 -0.703355 0.689728 0.146372 -0.065612 -0.350046 0.385345 -0.555891 -0.909687 0.780481 0.902618 0.122582
没什么 -0.762594 1.051948 0.821473 0.666360 0.264540 -0.321476 0.627303 -0.363443 -0.057647 0.565793 -1.219349 -0.475726 0.170725 0.075610 -1.141878 0.026992 -0.299299 -0.583520 0.412180 0.299802 -0.114374 -0.669161 0.636831 -0.348481 -0.143825 -0.026259 0.521344 -0.368696 -0.848529 0.565064 0.478505 0.767081
原因 -0.626297 0.943314 0.005071 0.585640 -0.009287 -0.145068 0.417355 -0.475251 -0.330319 1.093717 -1.282935 -0.420603 0.195979 0.205474 -1.229274 0.346290 -0.371351 -0.873198 0.445359 -0.229724 -0.180548 -0.715416 0.534396 0.163789 -0.281901 -0.422617 0.274343 -0.603225 -0.477260 0.747195 0.624948 0.096474
卫生 -0.742835 1.316476 1.136305 1.430974 0.277395 0.020011 0.488247 -0.329628 0.101782 0.303229 -1.425870 -0.520467 -0.057027 -0.343956 -0.823574 0.193839 -0.392744 -1.007993 0.334094 0.206885 -0.020013 -0.935143 0.702332 -0.370933 0.473356 0.061010 0.294838 -0.539106 -1.258628 0.866368 0.576298 1.045101
出 -0.511863 0.934091 0.363865 0.609061 0.129670 -0.121266 0.446671 -0.557135 -0.137370 1.084347 -1.489070 -0.402666 0.185735 0.053714 -1.616433 0.439023 -0.448438 -0.988206 0.564788 -0.408018 -0.183368 -0.916136 0.754843 0.213852 -0.248435 -0.307665 0.376108 -0.690500 -0.357881 0.813267 0.681556 0.336137
门 0.006438 0.927865 1.132692 1.209187 0.093115 0.125421 0.418206 -0.355684 0.431523 0.370532 -1.493358 -0.325051 -0.209357 -0.653254 -1.351695 0.395151 -0.323899 -1.054950 0.338415 -0.359166 -0.146250 -1.183252 0.955415 0.090951 0.104465 0.184348 0.149422 -0.661297 -0.576013 0.944586 0.465416 1.017124
浴室 -0.457458 1.338486 1.297820 1.403096 0.107070 0.113629 0.345729 -0.012090 0.399160 0.328261 -1.544426 -0.232128 -0.173310 -0.496686 -1.334490 0.058176 -0.300245 -0.855825 0.590581 -0.278058 0.179677 -1.120243 1.016790 0.076231 0.174709 0.256667 0.137966 -0.697418 -0.887805 0.950950 0.598164 0.980117
设备 -1.010372 1.511851 1.210256 1.475893 0.329007 0.086798 0.317939 0.095615 0.199867 0.163154 -1.316404 -0.297830 -0.139866 -0.317682 -0.707691 -0.105234 -0.408024 -0.756292 0.613756 0.235711 0.275137 -0.871483 0.742089 -0.266802 0.548393 0.139368 0.155293 -0.584167 -1.377335 0.866550 0.640942 0.966977
之后 -0.301274 0.863946 -0.016520 0.716473 -0.069775 -0.101767 0.347625 -0.432653 -0.073969 1.177150 -1.382223 -0.266197 0.082709 -0.132489 -1.395056 0.439005 -0.379265 -0.963283 0.531528 -0.662709 -0.076626 -0.960909 0.683889 0.443345 -0.304386 -0.327160 0.141955 -0.717474 -0.343525 0.907583 0.587812 0.121890
房间内 -0.657413 1.262028 1.148994 1.308591 0.178850 0.088372 0.297668 0.000071 0.299144 0.223447 -1.339839 -0.224578 -0.175299 -0.463306 -1.051647 0.055870 -0.324816 -0.800818 0.638519 -0.092398 0.197035 -1.005852 0.846155 0.083368 0.331760 0.167649 0.145369 -0.673438 -0.978234 0.859907 0.542819 0.854074
完全 -0.756705 1.110733 0.470810 0.880111 0.069581 -0.186922 0.445235 -0.360218 -0.024144 0.764823 -1.429394 -0.427289 0.082658 0.034213 -1.073771 0.207921 -0.401208 -0.864689 0.538773 0.051182 -0.046972 -0.872572 0.602231 -0.006084 0.010975 -0.225360 0.305781 -0.455201 -0.849504 0.687717 0.532576 0.419473
不知 -0.654292 0.937051 0.180383 0.554259 0.079536 -0.212950 0.449902 -0.503973 -0.157423 1.092219 -1.369899 -0.356613 0.179028 0.175371 -1.338716 0.323117 -0.440159 -0.833007 0.589978 -0.250208 -0.120788 -0.751056 0.629433 0.216501 -0.296052 -0.392061 0.323095 -0.565584 -0.457767 0.715646 0.589579 0.188961
解决 -0.019578 0.458536 -0.252447 0.302016 -0.047450 -0.180253 0.481348 -0.900320 -0.186411 1.365594 -1.385382 -0.401457 0.226408 0.094150 -1.502474 0.728211 -0.381753 -1.075778 0.374058 -0.596569 -0.372691 -0.852427 0.628915 0.373825 -0.392736 -0.499254 0.271248 -0.556640 0.034547 0.709909 0.442292 0.104277
床单 -0.206528 1.126042 0.997086 1.325963 0.068385 0.065624 0.446391 -0.304014 0.308614 0.451578 -1.519824 -0.342758 -0.179843 -0.570576 -1.244523 0.320075 -0.328981 -1.070003 0.479667 -0.315760 -0.017052 -1.197679 0.880797 0.098080 0.185146 0.135886 0.137319 -0.633492 -0.773179 0.958338 0.465872 0.912991
办法 0.340580 0.593187 0.277387 0.921259 -0.089611 -0.030926 0.556709 -0.683818 0.165596 1.004810 -1.426826 -0.294189 -0.133907 -0.422378 -1.372121 0.676777 -0.268283 -1.081584 0.098901 -0.557594 -0.389389 -1.157322 0.762482 0.324033 -0.313273 -0.207186 -0.004393 -0.623950 -0.207352 0.895439 0.373475 0.635088
套房 -0.863694 1.545293 0.214083 1.409708 -0.167373 0.059544 0.182419 0.387692 0.080288 0.814455 -1.331881 -0.071040 -0.174134 -0.460369 -1.012066 0.017460 -0.213836 -0.721427 0.957841 -0.631314 0.572265 -1.060680 0.706400 0.521901 0.097599 -0.131613 -0.200146 -0.878402 -1.097528 1.073931 0.679929 0.128600
大酒店 -1.339516 1.202163 -0.304467 0.048975 -0.033868 -0.387676 0.285476 -0.338340 -0.453644 1.431852 -1.334667 -0.407383 0.654451 1.003600 -1.359050 -0.037633 -0.541732 -0.530559 0.812289 -0.114251 0.093813 -0.287466 0.459033 0.197096 -0.478581 -0.550986 0.601336 -0.429773 -0.429627 0.451455 0.818400 -0.432689
整体 -1.327480 1.501142 1.052319 1.239122 0.292541 0.019728 0.358375 -0.031553 -0.056392 0.147001 -1.150285 -0.485572 0.059694 0.020034 -0.482087 -0.153877 -0.443238 -0.685921 0.438498 0.534062 0.181372 -0.579047 0.489652 -0.461257 0.534012 -0.047160 0.359686 -0.363021 -1.463336 0.697957 0.705262 0.707352
房费 -0.399126 0.634064 -0.305170 0.207820 -0.074432 -0.338592 0.375930 -0.483522 -0.231721 1.450469 -1.282526 -0.270617 0.243878 0.101008 -1.646187 0.508709 -0.394256 -0.764654 0.698354 -0.732747 -0.173565 -0.938775 0.660824 0.616271 -0.608976 -0.426418 0.315073 -0.764779 -0.060175 0.688000 0.526049 -0.061191
脏 -0.548230 1.455800 1.481196 1.613843 0.239229 0.175088 0.467119 -0.066531 0.418799 0.061707 -1.440375 -0.310481 -0.219892 -0.524383 -0.958821 -0.013276 -0.342394 -0.842368 0.374418 0.134112 0.111638 -1.007740 0.950049 -0.263082 0.371892 0.304776 0.120933 -0.584958 -1.176783 0.947427 0.551179 1.248763
缺点 -0.637553 1.161029 1.248875 1.163482 0.244784 -0.046787 0.455656 -0.112689 0.083093 0.119657 -1.167191 -0.454948 -0.130851 -0.477482 -1.005977 0.112558 -0.283540 -0.691239 0.437672 0.134970 -0.043315 -0.814709 0.677678 -0.294820 0.302477 0.166646 0.339771 -0.519552 -1.066718 0.731518 0.439117 0.938153
这是 -0.757845 0.882520 0.029176 0.459201 0.055908 -0.142826 0.317733 -0.342530 -0.385899 0.956420 -1.103811 -0.374166 0.192975 0.196365 -1.145816 0.247836 -0.374673 -0.684568 0.472378 -0.193208 -0.109087 -0.565403 0.455942 0.120892 -0.220334 -0.472439 0.340010 -0.564146 -0.487708 0.628039 0.637878 -0.040225
改进 -0.746431 0.907185 -0.269926 0.269389 -0.071757 -0.254701 0.411628 -0.728572 -0.420753 1.264506 -1.367374 -0.420989 0.478982 0.843174 -1.030310 0.271676 -0.430389 -0.815223 0.360151 0.063678 -0.171959 -0.399553 0.462065 0.006938 -0.372926 -0.561916 0.391491 -0.330075 -0.325866 0.556960 0.612883 -0.055118
每次 -0.808720 1.121459 0.000160 0.700238 -0.006654 -0.133099 0.381257 -0.345355 -0.409958 1.071972 -1.216673 -0.376708 0.276122 0.280177 -1.131931 0.165617 -0.380053 -0.759377 0.392429 -0.203131 -0.026054 -0.550856 0.570382 0.052700 -0.256384 -0.425129 0.294555 -0.611350 -0.612039 0.798479 0.746043 0.095969
一张 -0.045657 0.907922 0.441321 1.094204 -0.062834 0.012342 0.330010 -0.109178 0.298927 0.820722 -1.359094 -0.112527 -0.198040 -0.686577 -1.396248 0.476799 -0.218264 -0.890964 0.612413 -0.832508 0.147809 -1.249983 0.882603 0.507286 -0.092341 -0.007794 -0.119216 -0.846184 -0.516008 1.048433 0.438466 0.492689
被子 -0.135864 1.174208 1.014757 1.310384 0.069034 0.028162 0.503033 -0.386746 0.366312 0.629717 -1.682307 -0.367798 -0.156971 -0.456471 -1.371002 0.339533 -0.333631 -1.106804 0.365781 -0.302493 -0.078574 -1.226715 1.001237 0.088965 0.036570 0.119724 0.142760 -0.670434 -0.728879 0.986140 0.508683 0.983393
效果 -0.520786 1.334662 1.639250 1.471812 0.292423 0.071739 0.551633 -0.275176 0.673223 0.001182 -1.547317 -0.461629 0.026044 -0.315811 -0.757099 -0.098924 -0.479830 -0.849260 0.297076 0.494558 0.144649 -0.730807 1.007152 -0.634702 0.601431 0.441842 0.124545 -0.335899 -1.225656 0.910069 0.528149 1.615697
意见 -0.828348 0.540905 -1.098653 -0.714937 -0.231625 -0.499814 0.194568 -0.867339 -0.603848 1.851249 -1.383858 -0.386853 0.869168 1.309560 -1.687528 0.360531 -0.529059 -0.715308 0.792195 -0.592882 -0.222889 -0.222957 0.349987 0.611265 -0.843597 -0.868854 0.732273 -0.295570 0.435930 0.285618 0.657916 -0.906519
事情 -0.389050 0.804709 -0.248535 0.371859 -0.068490 -0.241144 0.401905 -0.634463 -0.276126 1.400848 -1.383896 -0.373822 0.297227 0.321293 -1.368746 0.480281 -0.400125 -0.919899 0.446325 -0.480210 -0.175100 -0.722261 0.560219 0.331573 -0.465597 -0.487112 0.288678 -0.609225 -0.202250 0.695752 0.596312 -0.052034
估计 -0.651563 0.930293 0.284456 0.556307 0.084685 -0.123809 0.321977 -0.348322 -0.116399 0.832249 -1.183393 -0.299204 0.157666 0.151812 -1.164232 0.176067 -0.396412 -0.717929 0.478495 -0.203931 -0.025098 -0.641390 0.624969 0.122867 -0.148367 -0.233125 0.299684 -0.487690 -0.489122 0.668090 0.606401 0.266109
门童 -0.135192 0.627818 0.490228 0.723023 0.225883 -0.219620 0.563552 -0.836828 -0.122184 0.838968 -1.369348 -0.586664 0.070396 -0.316481 -1.326315 0.781457 -0.446470 -1.097695 0.189134 -0.299367 -0.450621 -0.981672 0.602339 -0.005229 0.021845 -0.284388 0.422724 -0.583496 -0.489343 0.793076 0.433071 0.610618
算是 -1.358184 1.406170 0.924433 0.954343 0.368329 -0.102720 0.402186 -0.057913 -0.208117 0.377499 -1.113115 -0.463800 0.099549 0.054767 -0.915218 -0.164438 -0.448627 -0.555971 0.662554 0.348606 0.182844 -0.539575 0.581401 -0.340200 0.230051 -0.110091 0.452783 -0.498682 -1.218501 0.696653 0.748809 0.589571
对面 -1.156467 1.325416 1.162479 0.629448 0.386955 -0.262821 0.547701 -0.265532 -0.339916 0.514604 -1.347070 -0.641448 0.280712 0.127256 -1.573862 0.078283 -0.513142 -0.604337 0.585706 0.178581 -0.080176 -0.543516 0.763103 -0.374412 0.022998 -0.033896 0.836631 -0.608594 -0.913049 0.650863 0.794734 0.636009
号 -0.837138 0.510420 -1.016408 -0.779098 -0.356141 -0.574323 0.039904 -0.304765 -0.316976 1.668110 -1.082417 -0.310562 0.782956 0.787884 -2.098010 0.102390 -0.480899 -0.376134 1.206009 -1.105019 0.029570 -0.436087 0.388187 1.015998 -0.859402 -0.455463 0.807003 -0.470716 0.411306 0.206553 0.619631 -0.994703
办理 0.199313 0.345465 -0.573085 0.417263 -0.233196 -0.144191 0.298063 -0.762469 -0.150259 1.281959 -1.253654 -0.387130 0.124624 -0.379121 -1.451466 0.835261 -0.370252 -1.114960 0.365721 -1.023858 -0.462458 -1.103745 0.546316 0.651380 -0.268412 -0.385385 0.219256 -0.760682 0.056794 0.814975 0.370269 -0.008840
冷 -0.017011 0.866869 0.787893 0.859419 -0.018404 0.022229 0.364043 -0.317403 0.363213 0.486868 -1.358173 -0.280083 -0.070332 -0.307025 -1.318974 0.246445 -0.323587 -0.824468 0.339274 -0.372846 -0.101326 -0.964140 0.888034 0.183252 -0.119540 0.171016 0.142550 -0.530820 -0.422525 0.782393 0.453402 0.805352
洗手间 -0.577217 1.459831 1.351643 1.583843 0.184450 0.146066 0.363595 -0.018382 0.358387 0.206084 -1.562522 -0.344161 -0.217907 -0.595368 -1.196223 0.079438 -0.373081 -0.938448 0.593803 -0.145928 0.178746 -1.133582 0.982253 -0.034906 0.385674 0.286700 0.137821 -0.700822 -1.153309 1.041128 0.639914 1.084187
原来 -0.545633 1.042708 0.315384 0.821742 0.003161 -0.115347 0.360262 -0.253181 0.011904 0.907276 -1.380473 -0.306707 0.083044 -0.101296 -1.341577 0.230386 -0.338661 -0.831944 0.617546 -0.436795 0.029632 -0.931426 0.743640 0.285030 -0.158585 -0.170876 0.208422 -0.648028 -0.562774 0.836982 0.611949 0.349650
接待 0.099388 0.438625 0.031892 0.688037 0.069809 -0.212522 0.584279 -1.030565 -0.074340 1.200786 -1.533464 -0.500694 0.100020 -0.255633 -1.326791 0.988366 -0.400936 -1.345084 0.196530 -0.487856 -0.570309 -1.149191 0.502919 0.175004 -0.110352 -0.500057 0.266669 -0.585374 -0.272235 0.828772 0.360780 0.420395
如家 -1.245674 1.205466 0.181314 0.589841 0.151588 -0.145320 0.338324 -0.197849 -0.451944 0.782947 -0.973494 -0.381331 0.290802 0.438864 -0.834240 -0.083997 -0.403305 -0.545790 0.508667 0.198078 0.120932 -0.378963 0.438902 -0.151439 -0.080856 -0.418403 0.350812 -0.484499 -0.859630 0.653946 0.760000 0.110916
半夜 -0.025603 0.838844 0.754949 0.826751 0.001615 -0.029526 0.400384 -0.489646 0.337261 0.625979 -1.520893 -0.386918 0.015240 -0.391774 -1.554940 0.358206 -0.400231 -1.017654 0.435979 -0.519070 -0.154197 -1.073237 0.966069 0.231758 -0.055550 0.091399 0.272439 -0.606496 -0.375941 0.884763 0.523484 0.830203
到达 -0.192800 0.306532 -0.358308 -0.161731 -0.138586 -0.326386 0.208415 -0.420443 -0.326210 1.175609 -0.998631 -0.394333 0.280975 -0.077789 -1.806909 0.587394 -0.380911 -0.675939 0.686999 -0.954953 -0.322022 -0.773637 0.526370 0.683913 -0.466779 -0.348776 0.488597 -0.716600 0.176338 0.517405 0.436014 -0.310634
前 -0.583760 0.736519 -0.291977 0.164338 -0.109609 -0.247998 0.330074 -0.546425 -0.262302 1.372976 -1.347895 -0.348922 0.402205 0.337519 -1.659420 0.363915 -0.503704 -0.836337 0.698903 -0.685264 -0.111650 -0.697169 0.635881 0.515748 -0.519814 -0.420424 0.467550 -0.607879 -0.067537 0.654024 0.648691 -0.179942
check 0.188834 0.365465 -0.098816 0.470590 -0.062229 -0.223536 0.421148 -0.809645 0.011742 1.189070 -1.380503 -0.363026 0.060217 -0.387956 -1.498242 0.831036 -0.351693 -1.151883 0.425425 -0.799989 -0.425326 -1.201991 0.600619 0.544572 -0.231486 -0.328699 0.208566 -0.675855 -0.086101 0.775367 0.293643 0.246192
很近 -1.315926 1.227666 1.007256 0.336891 0.408782 -0.262353 0.405498 -0.117192 -0.580746 0.488807 -1.025040 -0.606386 0.330230 0.237170 -1.593382 0.035964 -0.502743 -0.369892 0.647751 0.153553 -0.019989 -0.277327 0.625928 -0.314983 -0.044701 -0.094052 0.886190 -0.649396 -0.813368 0.519271 0.788926 0.295501
站 -0.454627 0.828624 0.718690 0.351171 0.198083 -0.302449 0.526698 -0.542649 -0.296858 0.914049 -1.440082 -0.548063 0.184527 -0.165294 -2.023961 0.559539 -0.461301 -0.807224 0.601036 -0.457799 -0.303110 -0.833316 0.790486 0.177311 -0.312780 -0.217144 0.666998 -0.790363 -0.310851 0.718975 0.562460 0.377725
光临 -1.062056 1.018100 -0.999033 -0.450970 -0.251201 -0.654552 0.404103 -0.786263 -0.698697 2.040915 -1.672479 -0.498786 0.945578 1.662679 -1.557150 0.188204 -0.477744 -0.688294 0.714185 -0.152965 -0.214678 -0.126016 0.403343 0.301858 -0.954684 -0.831632 0.741085 -0.287803 -0.003203 0.269754 0.679018 -0.909573
舒适 -1.093728 1.493585 0.984761 1.277387 0.241477 0.034089 0.363526 -0.002586 -0.059019 0.366109 -1.312442 -0.398620 0.029163 -0.110900 -0.841633 -0.000359 -0.363151 -0.769685 0.585318 0.101689 0.230808 -0.731148 0.611281 -0.215839 0.401893 -0.028590 0.287548 -0.556473 -1.256484 0.816741 0.721119 0.648533
一股 -0.395960 1.395256 1.482987 1.743558 0.194015 0.204075 0.357321 0.025916 0.501108 -0.034204 -1.455385 -0.303614 -0.340918 -0.831375 -1.024300 0.071882 -0.345633 -0.975538 0.506821 -0.118781 0.157421 -1.192205 1.012616 -0.088322 0.512834 0.339631 0.001898 -0.689345 -1.192172 1.067295 0.504822 1.279655
进 -0.176545 0.910367 0.604289 1.054593 -0.016631 0.076056 0.298673 -0.221781 0.215992 0.600709 -1.294865 -0.215660 -0.132563 -0.512565 -1.249750 0.330429 -0.292459 -0.929894 0.475019 -0.552583 -0.032511 -1.113581 0.761840 0.289874 0.040820 -0.001329 0.072513 -0.684748 -0.531506 0.907456 0.504013 0.578312
找到 -0.083446 0.647158 0.349179 0.684657 0.072283 -0.134506 0.463073 -0.540855 -0.050067 0.912367 -1.280281 -0.363362 -0.059426 -0.393740 -1.422074 0.573108 -0.327761 -0.953676 0.366162 -0.502743 -0.304223 -1.026459 0.665893 0.257944 -0.213538 -0.255848 0.224472 -0.687781 -0.319527 0.809158 0.448858 0.396823
司机 -0.171549 0.580581 0.279358 0.398912 0.135483 -0.249022 0.538569 -0.652815 -0.356366 1.021090 -1.215029 -0.470165 0.074406 -0.188722 -1.578987 0.668453 -0.362123 -0.824454 0.281076 -0.319581 -0.418200 -0.821882 0.636546 0.154342 -0.371152 -0.374314 0.362353 -0.703837 -0.217112 0.695358 0.497380 0.255108
期间 -0.818332 0.888760 -0.550770 0.090895 -0.140951 -0.301110 0.248304 -0.453988 -0.407403 1.455706 -1.269261 -0.355539 0.493542 0.633129 -1.393637 0.254635 -0.444763 -0.709688 0.676147 -0.477576 -0.060117 -0.500056 0.469826 0.430838 -0.506504 -0.569393 0.465905 -0.528467 -0.148832 0.561924 0.668807 -0.414912
丰富 -1.125887 1.157192 1.148476 1.008630 0.425715 -0.401648 0.710652 -0.376433 -0.047615 0.443580 -1.281487 -0.537553 0.082102 -0.203050 -1.094867 0.028398 -0.390179 -0.726493 0.670180 0.412770 0.014632 -0.897489 0.738638 -0.475080 0.216658 0.047802 0.591272 -0.449871 -1.263524 0.637372 0.542861 1.094402
出门 -0.742153 0.951567 0.985014 0.293196 0.347135 -0.326044 0.553601 -0.339463 -0.426012 0.608309 -1.182377 -0.585273 0.215367 -0.023413 -1.804073 0.330058 -0.407554 -0.505455 0.531403 -0.074587 -0.267141 -0.544084 0.694703 -0.164000 -0.195393 -0.057530 0.863739 -0.688537 -0.534608 0.545501 0.562728 0.493109
很快 0.064887 0.561617 0.362807 0.887819 0.046026 -0.050664 0.510940 -0.785577 0.033954 0.824313 -1.319433 -0.368696 -0.046250 -0.503792 -1.199767 0.802416 -0.322926 -1.205179 0.246037 -0.558732 -0.383869 -1.160029 0.627830 0.240271 -0.025753 -0.227668 0.215750 -0.701617 -0.347220 0.888702 0.353064 0.637363
以前 -0.870762 0.955679 -0.026416 0.479436 0.029398 -0.095909 0.292325 -0.297373 -0.240575 0.997719 -1.062520 -0.225621 0.327686 0.471548 -0.936553 0.032362 -0.338605 -0.594140 0.441594 -0.068361 0.027656 -0.450178 0.471104 0.085885 -0.289668 -0.402550 0.266023 -0.461985 -0.445027 0.604160 0.709812 0.100453
之前 -0.652819 0.622276 -0.570422 0.012772 -0.106409 -0.255691 0.272857 -0.476989 -0.387967 1.395307 -1.039275 -0.292243 0.395269 0.417113 -1.382022 0.320862 -0.432398 -0.687988 0.637319 -0.633157 -0.092903 -0.533170 0.435859 0.488967 -0.537797 -0.541725 0.391173 -0.521944 -0.055163 0.550579 0.627206 -0.386364
使用 -0.331404 0.896964 0.445855 0.655534 0.035956 -0.099144 0.376344 -0.391854 0.022336 0.845321 -1.363371 -0.286947 0.087510 -0.094471 -1.367030 0.354264 -0.342628 -0.788035 0.549873 -0.435654 -0.051350 -0.841602 0.727717 0.325857 -0.190493 -0.101102 0.251776 -0.697576 -0.366602 0.730051 0.463879 0.393104
晚 -0.453404 0.636805 -0.066682 0.284258 -0.028649 -0.263119 0.314276 -0.240778 -0.134670 0.955858 -0.988499 -0.286776 0.158516 -0.086368 -1.440372 0.244884 -0.288155 -0.595390 0.656947 -0.591294 -0.036722 -0.777909 0.587532 0.418408 -0.376354 -0.211901 0.293361 -0.658230 -0.224513 0.628311 0.451928 0.085990
距离 -1.236355 1.122090 1.058209 0.412100 0.367006 -0.235031 0.382407 -0.083672 -0.438612 0.363113 -0.990273 -0.578873 0.229600 0.094729 -1.414137 0.060816 -0.449046 -0.361804 0.669164 0.169355 -0.020104 -0.311313 0.529675 -0.267551 0.050015 -0.092211 0.783582 -0.597314 -0.844411 0.494504 0.638462 0.358819
影响 -0.640511 0.901818 0.058564 0.377524 0.043960 -0.194257 0.388607 -0.537022 -0.216420 1.153592 -1.385209 -0.420764 0.323890 0.320114 -1.423911 0.278264 -0.525713 -0.838741 0.570624 -0.366589 -0.086817 -0.615835 0.658706 0.183706 -0.282578 -0.341898 0.413310 -0.554945 -0.302075 0.703233 0.678919 0.123354
条件 -1.156056 1.248569 0.706446 0.988120 0.266440 -0.081250 0.384322 -0.149384 -0.173567 0.574017 -1.185207 -0.369460 0.125153 0.073112 -0.839929 0.004559 -0.392243 -0.681334 0.562575 0.248729 0.068224 -0.641305 0.541641 -0.234188 0.151060 -0.218067 0.323771 -0.536749 -1.095789 0.704258 0.716537 0.541838
放 -0.057932 0.799766 0.798745 0.912004 0.089598 -0.039340 0.433940 -0.350200 0.225330 0.643260 -1.379704 -0.263203 -0.113353 -0.551945 -1.561243 0.434113 -0.285916 -0.860069 0.464678 -0.493500 -0.065603 -1.128796 0.938255 0.270297 -0.138429 0.066596 0.182272 -0.727600 -0.442947 0.884349 0.440671 0.780386
收 -0.358342 0.561406 -0.214688 0.087907 -0.088866 -0.420639 0.404331 -0.508096 -0.223998 1.306262 -1.206559 -0.338113 0.224127 0.063222 -1.713982 0.487648 -0.342217 -0.742056 0.722981 -0.701445 -0.219293 -0.880644 0.614882 0.550011 -0.581678 -0.393715 0.351712 -0.675523 -0.032118 0.614518 0.424777 -0.060207
