5371 20
酒店 0.174855 0.686300 0.518366 0.846661 -1.099291 1.894469 0.003038 0.535686 -0.339968 0.127680 -0.428683 1.046363 0.252005 -0.093733 -0.720621 1.302260 -1.720346 0.985366 -1.013434 1.574028
房间 0.711859 2.240441 0.664693 1.796938 -0.108395 -0.025929 -1.202028 0.901619 -0.360712 -0.669578 -1.537354 -0.005798 0.727663 2.980282 0.640685 1.312281 0.591522 2.057992 1.712245 0.400365
服务 0.675061 0.884681 -0.220310 1.107299 -3.248129 1.016312 0.748581 0.742462 -0.837688 -1.088139 -0.918814 1.729532 0.329457 0.658408 -0.059409 0.241790 -1.901961 1.700000 -0.367402 1.609805
住 -0.084489 1.808524 0.001397 0.167706 0.298994 2.766615 -0.982204 0.142802 0.024787 0.229644 0.333391 -0.408626 0.179586 -0.146137 -0.202249 1.774253 -0.658355 1.426803 -0.769976 1.675171
不错 0.728122 2.131840 0.353027 0.458749 -1.684928 1.830667 -1.071073 0.951606 -1.114279 -0.431212 -1.768922 0.576119 0.470857 1.737966 -1.198122 0.521182 -1.115824 1.689261 0.599002 1.829859
入住 -0.449787 0.328113 -0.132154 1.274029 0.000658 2.129267 0.296292 -0.456448 1.478874 -0.025557 0.234461 0.629263 0.697609 -0.466708 1.204873 1.822105 -1.103876 0.882527 -1.713498 1.032733
说 -0.121682 0.027886 0.913744 1.775813 -0.178564 0.260359 0.897518 -1.143965 -0.007222 -0.677515 -0.598341 2.408313 2.058092 1.060598 2.379384 1.250659 -0.908607 1.542001 -0.007505 -0.368481
前台 0.153894 -0.250965 0.636275 2.292072 -1.481913 -0.235440 1.293209 -1.029560 -0.224836 -1.189309 -1.260535 2.845541 2.232820 1.521204 2.688745 0.664379 -1.243978 1.723630 0.215084 -0.549064
比较 0.928826 2.212101 0.981133 -0.032341 -1.155396 1.532402 -1.746054 1.776842 -0.835968 0.395318 -2.170609 0.331966 0.740231 2.708481 -1.736687 0.175301 -0.507790 1.215196 0.475705 1.564665
早餐 -0.277138 0.500363 -0.452358 -0.492891 -1.040740 0.556672 -0.697156 1.695647 -1.649083 -0.729785 -2.088834 1.387478 1.495902 2.097936 -0.350791 0.197320 0.185522 0.657240 -0.324937 1.289307
感觉 0.395871 2.383589 0.005473 0.552956 -0.803863 1.626860 -1.160622 0.988102 -0.510969 -0.371933 -1.022352 0.010292 -0.137122 1.159902 -0.608661 1.039860 -0.606784 1.849096 0.447088 1.674858
携程 -0.459573 -0.003064 0.737860 2.597722 -0.125980 2.868010 2.023852 -1.158726 1.309480 0.698498 0.527112 1.910201 0.745581 -1.335922 0.428251 2.458664 -2.615973 2.108289 -1.349985 0.977338
服务员 0.265371 -0.065863 0.534691 1.158149 -1.601336 -0.404659 0.609164 -0.501383 -1.044081 -1.538674 -1.521649 2.421637 2.531200 2.386111 2.756614 0.362857 -0.882685 1.180705 0.394635 -0.594455
宾馆 -0.458138 0.663257 -0.079096 0.272758 -0.998084 2.381187 0.196660 1.081949 0.311038 0.177650 -0.319627 0.499153 0.123300 0.280736 -0.013046 1.490103 -1.300034 0.316358 -1.862633 1.690766
! -0.527528 1.322652 -2.109182 -1.767302 0.275224 4.751079 -0.720299 0.682395 -2.418755 -2.325363 -1.654507 3.080001 -1.284180 -0.839655 2.464936 1.429460 0.015654 1.536683 -0.640367 0.862854
设施 0.994380 3.674556 0.661101 0.949618 -1.549456 1.141312 -1.718475 2.157691 -0.635698 -0.452279 -2.178314 0.179151 -0.082867 2.849967 -1.287071 0.747143 -0.136092 2.553075 1.436949 1.807552
月 -2.856009 0.232295 -0.016038 0.452637 1.201740 5.187304 0.144766 1.536769 3.588204 1.662891 -0.711887 1.465186 0.892743 0.782833 2.360999 4.052147 -1.337632 -0.434499 -6.602795 2.652149
方便 1.581847 1.147129 1.983471 -1.748098 -1.021164 1.942657 -1.643223 1.164151 -1.494527 0.348372 -2.128137 0.434925 2.225494 2.817900 -1.603982 -0.771924 -1.579467 -0.962007 -1.306518 1.900415
客人 -0.080554 -0.286217 0.143489 1.505056 -1.312458 1.372839 1.110284 -0.548293 0.528361 -0.384796 -0.120369 1.273684 1.651912 0.064777 1.988811 1.577747 -1.695050 0.496338 -1.737149 0.364021
日 -2.198531 0.212066 -0.146421 0.734227 1.046954 4.145457 0.293822 0.750151 3.364584 1.175341 -0.264881 1.038252 0.656126 0.274716 1.994243 3.768251 -1.703885 -0.486078 -5.525021 1.567256
价格 0.368980 1.358509 0.909287 1.283890 -0.207493 2.337523 -0.450728 0.862180 -0.371311 1.346599 -0.707830 0.877998 0.218131 0.289489 -2.294247 1.169750 -1.306465 1.840806 -0.194136 2.154618
差 0.071864 2.234359 -0.171211 0.376447 -1.953350 1.288878 -0.903300 2.084911 -1.764693 -1.458321 -1.083599 0.892719 0.889529 1.669932 -0.660195 0.624565 0.022496 2.310861 1.371734 1.706312
元 -1.134004 -0.681270 1.063249 1.533152 1.975007 1.000030 0.186192 0.564427 1.644997 2.126409 -1.195810 1.289111 1.255621 1.251324 0.153702 1.654382 -0.084432 0.953947 -2.036613 0.310692
没 -0.286625 0.405938 0.712353 0.586941 -0.013965 0.014523 -0.216588 -0.401373 -0.683463 -0.889632 -1.125698 1.513251 2.320688 2.273749 2.657898 0.881944 -0.026324 0.881515 0.412169 -0.393147
晚上 -0.861492 0.988150 0.378807 0.236251 0.968127 0.063264 -1.590507 0.715118 0.349287 -0.117653 -1.404693 0.455993 1.469128 2.526816 1.949915 0.844804 0.522697 0.251742 -0.098843 -0.408781
房 0.124791 2.709436 0.784521 3.276248 2.456150 1.018383 -0.198959 -1.059706 1.795919 -0.056981 -0.624031 -0.645963 0.174609 2.261572 1.102741 3.785264 0.966416 3.500009 2.194578 0.692556
年 -2.614551 0.823157 -0.257487 -0.160518 0.541812 5.766988 -0.418656 2.350105 3.154592 1.191623 -0.539232 1.401434 0.723752 0.816304 1.270570 4.351616 -2.070077 -0.692953 -6.737422 3.151459
时 -0.222667 -0.399885 0.601892 2.560819 -0.560530 0.332471 1.155746 -1.421091 1.175575 -0.500380 -0.729328 1.884643 2.266613 0.899830 2.974339 1.473080 -1.409482 1.030810 -1.372840 -0.586514
环境 0.921045 2.419571 0.359457 -0.102128 -1.667742 1.951952 -1.409294 1.561190 -1.289562 -0.148392 -1.900043 0.584088 0.190121 1.979316 -1.462627 0.236510 -0.864562 1.543567 0.404862 1.914835
里 0.551771 2.165599 0.787812 0.944336 -0.402325 -0.062676 -1.268935 0.710988 -0.467027 -0.315276 -1.970013 0.338263 1.214930 3.201236 0.915255 0.592308 0.349212 1.472272 1.446972 0.032022
太 0.198020 1.962285 -0.080622 -0.035220 -1.549605 1.272238 -1.062827 1.748999 -1.433635 -1.005022 -1.315500 0.973035 1.035272 1.744971 -0.338862 0.542738 0.173194 1.877424 0.788560 1.349414
知道 0.133408 0.412743 0.814645 1.050118 -0.327537 0.521512 0.301768 -0.524232 -0.323372 -0.362439 -0.763873 1.639598 1.535942 1.044488 1.389255 0.825545 -0.893572 1.200728 -0.045652 0.015750
下次 0.098266 1.518859 -0.265071 0.076530 -0.822243 3.961047 -0.477633 0.192819 -0.688331 -0.367124 0.877949 -0.291552 0.943389 -1.385512 -0.331428 2.121591 -1.815322 1.141290 -1.804939 2.911294
不好 0.461300 1.814113 0.400905 0.565706 -1.409986 0.342412 -0.911155 0.806399 -1.461393 -1.156421 -1.445861 0.710523 1.243937 2.405503 0.422285 0.347922 -0.252272 1.742162 1.523395 0.372224
干净 1.185295 3.133794 0.734727 0.936355 -1.133086 0.801810 -1.810447 1.287561 -0.947936 -0.398661 -2.246752 -0.039951 0.618735 3.294008 -0.789270 0.509046 0.080201 2.327189 1.967920 1.047109
2008 -2.504836 0.940823 -0.477431 -0.360231 0.255065 6.335018 0.063045 1.963085 2.538584 1.648615 -0.882909 1.309544 0.179338 0.933481 1.641887 3.943679 -2.043194 -0.284627 -6.896026 3.256025
点 -1.795037 -0.293161 0.061076 0.456101 0.917330 0.265436 -0.792142 0.591746 1.060248 0.479928 -1.381974 1.710020 1.876636 1.914411 2.487659 0.920727 0.270334 -0.251525 -1.898084 -0.410149
这家 0.145943 1.573969 0.334251 0.319055 -1.104994 3.404954 -0.296864 0.152613 -0.324090 0.372129 0.045838 0.540140 0.166167 -0.883258 -1.350021 1.325218 -2.332716 1.344032 -1.504069 2.398028
点评 -1.686634 0.411994 -0.449064 -0.569019 0.702546 4.162027 0.251833 1.267876 1.806784 0.717443 -0.119373 0.444687 0.379379 -0.605946 0.876368 2.976308 -1.617405 -0.453552 -4.588435 2.016141
问题 -0.181262 0.260151 0.145796 0.708118 -1.075306 0.915287 0.470445 -0.302864 -0.175812 -0.638582 -0.352512 1.448602 1.274511 0.465857 1.859388 0.921141 -1.033887 0.437788 -0.771336 -0.008629
有点 0.336194 2.306247 0.773129 0.318851 -0.678227 0.803617 -1.782169 1.634097 -0.769332 0.047447 -2.074246 0.355134 0.621281 2.941321 -0.596002 0.378641 0.090843 1.179865 0.736920 0.870658
装修 0.191621 2.416922 0.327876 0.700166 -0.442010 0.742244 -1.340995 1.614021 0.352140 0.196890 -1.377725 -0.007776 -0.315309 1.952604 -0.750958 0.727987 0.147361 1.281448 0.181136 1.183179
免费 0.458285 0.956595 0.016257 2.606031 0.306323 1.024565 1.481159 -0.253490 1.337649 0.277242 -1.038335 0.416998 0.020969 1.136248 1.012468 2.443414 0.046717 1.433617 -0.342004 0.762599
卫生间 0.639593 3.040437 0.720969 0.542473 -0.551624 0.327153 -2.158693 1.994029 -1.023010 -0.740900 -2.170508 -0.028925 0.881411 4.016643 0.316701 0.754813 0.764114 1.880618 1.856762 0.631689
吃 -0.732930 -0.324314 -0.275837 -1.118495 -0.677681 0.538886 -0.733602 0.975881 -1.528280 -0.774660 -1.838905 1.611734 2.534075 2.093632 1.006022 0.095031 0.299373 -0.283823 -0.947521 0.684699
地方 0.415945 1.075762 0.771352 -0.576001 -0.501740 1.443276 -0.958767 0.688193 -1.040074 -0.014195 -1.304625 0.748980 1.101741 1.601379 -0.237588 0.321748 -0.493998 0.640162 -0.145662 0.941496
态度 0.792881 0.343930 0.167916 1.259367 -2.682086 0.249912 0.732506 -0.171639 -1.546296 -1.772146 -1.201890 2.361697 1.505931 1.303388 1.418483 0.110318 -1.348081 1.827637 0.412795 0.490362
已经 -0.341443 0.322464 0.536825 1.056625 0.147005 0.980577 0.159254 -0.204719 0.745820 -0.004877 -0.485080 1.070376 1.171922 0.871662 1.642761 1.309901 -0.730698 0.677743 -1.070067 0.211791
实在 -0.115312 1.460753 0.068952 0.247004 -0.631027 1.601441 -0.651942 1.052349 -1.078509 -0.621379 -0.963109 0.906787 0.520169 1.097486 -0.010515 0.887829 -0.149985 1.456678 0.394998 1.114746
位置 1.053027 1.441844 1.169181 -0.623240 -1.225650 1.970129 -1.324473 1.264893 -0.934474 0.587102 -1.908413 0.809979 0.866871 1.750318 -1.645197 -0.212750 -1.200616 0.590715 -0.348944 1.588734
退房 -0.552039 -0.712003 0.568299 1.917719 0.016754 0.348020 0.765728 -1.127745 0.999293 -0.392545 -0.920876 2.172066 2.551799 1.330747 3.231282 1.349923 -0.996270 0.708158 -1.426985 -0.553005
空调 -0.267856 1.699035 0.346656 0.194741 0.285450 0.302403 -1.301055 0.864199 -0.736475 -0.922062 -1.436426 0.720180 1.543098 2.735852 2.259759 0.699166 0.858188 1.034074 1.110944 -0.403299
发现 -0.039877 0.948329 0.690050 1.174132 0.305467 0.046604 -0.594426 -0.209084 0.169629 -0.466112 -1.223088 0.834997 1.454999 2.237403 1.927333 0.999336 0.106625 1.179314 0.561501 -0.399175
选择 0.125477 1.150813 0.210281 -0.126968 -0.630748 3.376591 -0.457798 0.301345 -0.144236 0.312892 0.275316 -0.060621 0.766046 -0.590745 -0.534348 1.655028 -1.651527 0.642775 -1.832168 2.340331
大堂 0.534065 0.954282 0.778876 0.981189 -1.107961 -0.013950 -0.358396 0.144489 -0.743426 -0.447687 -1.420032 1.520105 1.377508 2.243465 1.054994 0.236291 -0.416381 1.144622 0.607296 0.108847
以后 0.053405 0.984680 0.167085 0.601906 -0.341899 2.415412 -0.044649 -0.207080 -0.377800 -0.350919 0.335623 0.276515 0.923254 -0.608255 0.352949 1.647871 -1.459723 1.254806 -0.852855 1.610333
10 -1.600863 -1.034505 0.677326 0.447879 1.793331 1.208838 -0.714380 1.194045 1.630151 1.848182 -1.350645 1.165555 1.497862 1.703709 1.021993 1.276618 -0.305719 -0.735591 -3.597722 0.402805
交通 1.621848 0.664457 2.178614 -1.870725 -1.214620 3.209852 -2.067234 1.650921 -1.230383 1.546099 -2.450948 0.196872 2.508968 2.328006 -2.216261 -0.294572 -1.437631 -0.081644 -0.573306 1.789944
餐厅 0.011264 0.333344 0.245633 -0.115860 -1.370210 0.361469 -0.554256 1.019793 -0.993505 -0.410536 -1.752078 1.408583 1.581736 2.211626 0.424529 0.025962 -0.412552 0.159081 -0.601595 0.749131
预定 -0.296873 0.117213 0.822371 2.648027 0.785776 1.305158 1.060059 -1.413841 1.581381 0.559985 -0.133802 1.423278 1.089704 0.002583 1.423300 2.204856 -1.421651 1.624306 -0.968078 0.260257
问 -0.126058 -0.216414 1.069360 1.715427 -0.011189 -0.008779 0.601535 -1.133637 -0.103447 -0.895180 -1.289163 2.541623 2.698534 2.173802 3.324079 1.040964 -0.614486 1.230504 0.064883 -0.960340
电话 -0.510120 -0.524738 1.019246 1.604502 0.165698 0.336209 0.780516 -1.091143 0.491376 -0.194447 -0.823361 2.266888 2.331337 1.427610 2.904143 1.326351 -1.137187 0.884699 -0.818498 -0.656221
要求 -0.097523 0.248121 0.645582 1.868493 -0.091447 0.389589 0.601436 -0.717154 0.686521 -0.223724 -0.621781 1.263587 1.621567 1.272514 2.155562 1.463704 -0.591575 1.218201 -0.319189 -0.262663
建议 0.006200 0.772880 0.197208 0.479736 -0.467940 2.538805 0.019797 -0.107198 -0.025583 0.219014 0.130084 0.480645 0.827267 -0.515746 0.120978 1.505404 -1.641465 0.822082 -1.379634 1.417981
算 0.935822 1.836714 0.821968 0.273160 -1.121273 1.572053 -1.230501 1.211133 -0.878352 0.236776 -1.773422 0.500853 0.648147 1.979782 -1.579094 0.308590 -0.728458 1.407740 0.412618 1.676567
人员 0.548584 0.573156 0.075675 1.545909 -2.701978 0.302418 0.996162 -0.127499 -1.015649 -1.489932 -1.142383 1.890863 1.466124 1.288045 1.259685 0.417993 -1.568136 1.484963 0.355800 0.453854
找 0.367820 0.078006 1.182853 0.359521 -0.974670 0.056883 0.029688 -0.441893 -1.121652 -0.449838 -1.499431 2.381535 2.399700 2.116317 1.644644 -0.071451 -0.641766 0.873521 0.215540 -0.292428
补充 -1.345112 0.476923 -0.135377 -0.447483 0.350155 2.984933 -0.292769 1.282885 0.704925 0.215247 -0.066092 0.492375 0.095733 0.281819 0.143101 2.145381 -0.731986 0.117669 -2.902341 1.662625
希望 -0.137730 0.343109 -0.077513 0.832512 -1.047668 3.034267 0.769117 -0.359565 0.142292 -0.035637 0.696005 0.765578 1.163957 -1.002617 0.854460 2.069638 -2.097331 0.751050 -2.266627 1.635275
楼 -0.671326 1.231899 0.064240 1.257407 1.001591 0.447142 -0.936663 0.566181 1.275212 0.564322 -1.123482 0.223499 0.162639 1.846376 0.901604 1.561234 0.476047 0.864957 -0.603336 0.261563
一点 0.149207 1.094851 0.416884 0.539726 -0.577763 1.058841 -0.412882 0.651411 -0.274276 -0.032594 -0.974265 0.829094 0.538265 1.194296 -0.008450 0.705591 -0.490060 1.014928 -0.156060 0.659762
朋友 -0.276070 0.452153 0.356716 0.761459 -0.144326 2.200797 0.220212 -0.433568 0.278268 0.095592 0.214284 0.790045 1.202143 -0.290703 0.807979 1.662716 -1.464780 0.946435 -1.398378 1.054747
特别 0.484805 1.479415 0.235260 0.362413 -1.325332 1.125122 -0.813770 0.844718 -1.124640 -0.605518 -1.281897 0.778497 0.892997 1.592631 0.062593 0.438673 -0.778887 1.373665 0.404765 0.900287
大床 0.550209 2.535719 0.964677 3.413162 2.238680 1.330647 -0.048548 -0.567949 1.352813 -0.122709 -1.495190 -0.316809 0.099603 2.182895 0.914029 2.959276 1.100667 3.516606 2.036489 0.285466
标准 -0.096191 2.443628 0.218686 1.035313 -0.460219 1.717880 -0.618909 1.661153 0.028913 0.574689 -1.513995 0.855185 -1.235380 1.317310 -1.672177 1.341059 -0.220742 2.043133 -0.032116 2.036467
想 -0.185828 0.408840 0.544849 0.616365 -0.184188 0.790646 -0.190780 -0.193640 -0.136850 -0.220408 -0.605852 0.994757 1.554928 1.143528 1.368436 0.880615 -0.705187 0.634660 -0.474334 0.250120
总体 0.406425 1.975334 0.273344 0.550636 -1.039990 2.002712 -0.804231 0.820349 -0.828630 -0.224787 -0.923580 0.219991 0.256755 1.084197 -0.822035 0.865892 -0.798277 1.888479 0.239386 1.734444
分钟 -1.043181 -1.397574 1.609742 -0.333282 1.449798 0.868469 -0.427974 0.603373 1.581172 2.019393 -1.774981 1.614033 2.321489 2.235402 1.304313 0.522525 -0.677108 -0.989626 -3.188343 -0.406793
隔音 0.283326 2.950309 0.210987 0.061642 -1.061555 0.872173 -1.985731 2.242647 -1.518831 -1.014768 -1.978163 0.380432 0.934996 3.297756 0.042052 0.576218 0.710664 2.268696 1.746711 0.685801
时间 -0.666208 -0.589051 0.568411 0.795816 0.217105 1.114634 0.266760 -0.312759 0.764940 0.136837 -0.928569 1.809409 1.943190 1.064326 2.242672 1.178966 -0.882669 0.183069 -1.879633 -0.118376
高 0.143573 1.682512 0.562495 0.706127 -0.456695 2.302050 -0.551923 1.161232 -0.527166 0.467301 -0.670081 0.406030 0.249585 0.841572 -1.619088 1.090507 -1.034496 1.539050 0.106956 1.761395
第二天 -0.602026 0.136074 0.610340 1.088050 0.568829 0.430500 -0.208496 -0.381630 0.508567 -0.205849 -1.122287 1.424733 2.066688 1.916203 2.705542 1.353623 -0.240367 0.614713 -0.665491 -0.481551
应该 0.158287 1.251949 0.482544 0.445974 -0.694891 1.606633 -0.389921 0.596655 -0.329357 0.246956 -0.690063 0.650770 0.409511 0.761776 -0.527907 0.895821 -0.956441 1.151444 -0.515609 1.336203
打电话 -0.346575 -0.315239 0.855859 1.733187 0.040532 0.217602 0.689012 -1.223865 0.181891 -0.592267 -1.018435 2.636705 2.357917 1.583509 3.291439 1.183359 -0.980397 1.128826 -0.464885 -0.809756
~ 0.332353 0.946681 1.538924 -2.412093 0.615559 3.900871 0.541637 0.428829 -1.542253 -1.848198 1.735359 -1.324855 3.892993 0.689435 3.146328 1.893774 0.287514 1.327720 0.636814 3.201483
做 -0.166705 0.209186 0.299581 0.705777 -0.656046 1.164478 0.279862 -0.001418 -0.020274 -0.257228 -0.543831 1.164275 1.237255 0.753179 1.051077 1.107788 -0.916536 0.604857 -1.018701 0.524520
订 -0.102141 0.871176 0.640656 2.174850 1.260073 1.409904 0.386386 -0.893602 1.376156 0.535161 -0.138459 0.396684 0.451753 0.280522 0.562488 2.288611 -0.691745 1.846798 -0.257808 0.668780
星 -0.129690 2.000056 0.159004 0.423023 -0.963371 1.677296 -0.568074 1.662682 -0.233235 0.313595 -1.209534 0.979991 -0.769042 0.973988 -1.289223 0.944605 -0.516085 1.551306 -0.424444 2.004129
反馈 -1.141219 1.039973 -0.722912 -0.697468 -0.952887 3.866181 0.016451 1.139598 1.577716 0.845304 -0.151912 0.942143 -0.283854 -0.035038 0.539940 1.646649 -1.367395 -0.352703 -3.993850 2.342469
换 0.237092 1.250905 0.659436 1.574188 0.156523 0.142130 -0.209339 -0.631366 0.036506 -0.592128 -0.987172 0.785462 1.254613 1.842650 1.679810 1.158057 0.004858 1.699695 1.119395 -0.253164
看到 -0.155591 0.693109 0.372695 0.672424 0.016784 0.980958 -0.329159 0.185071 0.242806 -0.112234 -0.811394 0.815368 1.100916 1.219792 1.269049 1.184862 -0.442766 0.715876 -0.762794 0.337567
性价比 0.378129 2.262771 0.558900 -0.033149 -0.872973 3.103672 -0.993603 1.320367 -0.961447 0.270293 -0.783304 0.491269 0.027600 0.763934 -1.629457 1.030098 -0.894464 1.761194 0.023740 2.423699
提供 0.260133 0.458916 0.200534 1.245073 -0.868768 1.327199 0.652043 0.060490 0.276638 -0.086805 -0.683856 0.619953 0.825036 0.643127 0.619226 1.471737 -1.156250 0.748840 -0.841157 0.985323
客房 0.356112 0.918451 0.389868 1.254532 -1.042084 0.348013 -0.126093 0.328839 -0.411943 -0.540307 -1.290249 1.109076 0.824148 1.879719 0.717923 0.798147 -0.531398 1.271313 0.364796 0.394410
旧 0.659501 2.740879 0.758568 0.590365 -0.820681 0.717054 -1.839239 1.716656 -0.833959 -0.111649 -2.036809 0.193208 0.359981 3.048706 -0.999987 0.487893 -0.045185 1.725168 1.321097 1.056292
陈旧 0.603450 2.914886 0.579956 0.772907 -1.052000 0.863908 -1.698380 1.959397 -0.635451 -0.112810 -1.836675 0.139182 0.119998 2.910479 -1.098284 0.732196 0.110331 2.036004 1.468361 1.321959
舒服 0.632613 2.418382 0.323769 0.719206 -0.809313 1.016137 -1.203514 0.836544 -1.038484 -0.656151 -1.426439 0.286575 0.581280 2.230973 -0.070605 0.828832 -0.167799 1.973688 1.227950 0.895340
推荐 0.288040 1.242088 0.420852 0.532034 -0.681299 2.879997 -0.036575 -0.033133 -0.495126 0.054314 -0.141924 0.832152 0.503144 -0.329749 -0.484325 1.423760 -1.898795 1.397565 -0.809242 1.877708
满意 0.228044 1.296943 0.091449 0.576404 -0.954851 1.596236 -0.327253 0.457890 -0.279164 -0.245492 -0.698305 0.480644 0.315251 0.630091 -0.239764 0.888317 -0.945170 1.225199 -0.295376 1.351560
走 0.014866 0.002147 1.117874 -0.103382 0.056106 0.678162 -0.606682 0.317616 -0.219214 0.218050 -1.419728 1.244035 2.062195 2.114041 1.189633 0.419456 -0.438440 0.034065 -0.884806 -0.031236
觉得 -0.079920 1.132930 0.329537 0.239297 -0.435875 1.647696 -0.602568 0.780244 -0.313317 0.015641 -0.690486 0.434429 0.567322 0.937354 -0.250122 1.021432 -0.700053 1.013976 -0.430239 1.189920
服务态度 0.612109 1.200358 0.202908 0.347143 -1.574858 1.014809 -0.421462 0.650632 -1.171761 -0.820154 -1.259069 1.116392 0.783490 1.391681 -0.057672 0.230711 -0.725290 1.496181 0.505144 0.923463
很大 0.700659 2.523216 0.621101 0.785431 -0.620686 0.823468 -1.443667 1.066131 -0.644855 -0.248357 -1.661821 0.052821 0.525720 2.485282 -0.401211 0.728842 0.072919 1.783944 1.377738 0.851858
只能 0.120835 1.051890 0.693621 0.785950 -0.278489 0.568067 -0.475432 0.274038 -0.352017 -0.330991 -1.125433 0.922378 1.429783 1.911971 1.015549 0.886049 -0.243066 1.167768 0.366197 0.358166
真的 0.115938 1.298434 0.160347 0.267208 -0.794260 1.677754 -0.555032 0.611925 -0.658903 -0.352012 -0.716744 0.650187 0.573279 0.849512 -0.020278 0.927528 -0.717009 1.206149 -0.222747 1.177603
豪华 0.347102 2.273048 0.615580 2.712647 1.554892 1.353512 -0.423165 -0.060175 1.413575 0.483043 -1.194431 -0.334114 -0.283334 1.664492 -0.097363 2.573921 0.569105 2.762007 1.148036 0.796055
小时 -0.656517 -0.362281 0.906857 0.969889 0.684114 0.640919 0.146027 -0.412764 0.726930 0.091453 -1.157041 1.684061 2.332846 1.864143 2.617648 1.297219 -0.576260 0.223744 -1.365568 -0.401931
东西 -0.154368 0.185695 0.483878 -0.360391 -0.577238 0.576812 -0.680368 0.634266 -1.010165 -0.425412 -1.610455 1.311158 2.206029 2.083923 1.094438 0.314131 -0.095363 0.197024 -0.343064 0.357860
根本 0.009509 1.244891 0.614383 0.958301 -0.394309 0.715381 -0.387020 0.542321 -0.357776 -0.204532 -1.406966 1.260204 0.987810 1.956788 0.770609 0.914980 -0.221089 1.393860 0.274768 0.468875
四星 0.295363 2.296001 0.526475 0.631989 -1.077357 1.417656 -0.780730 1.389183 -0.604450 0.213403 -1.630655 1.118253 -0.240729 1.649063 -1.222157 0.696850 -0.504352 1.895523 0.205872 1.654268
需要 -0.146465 0.019840 0.657634 0.756096 -0.207318 1.168851 0.132150 -0.018183 0.296337 0.065935 -0.830255 1.100310 1.608518 1.144744 1.357313 1.086379 -0.971443 0.440934 -1.274108 0.361047
更 0.022203 0.863284 0.163968 0.799464 -0.980206 1.669340 0.017167 0.457665 -0.222903 -0.320566 -0.599053 0.973758 0.963671 0.764296 0.612225 1.230177 -1.049915 1.000837 -0.748305 0.999530
地理位置 0.838396 1.610746 0.849550 -0.352788 -1.245492 2.216702 -1.156402 1.244285 -0.972985 0.206582 -1.540401 0.573092 0.888246 1.638593 -1.200269 0.355380 -1.130003 0.943782 -0.249757 1.843659
味道 0.341057 2.025854 0.399023 0.612214 -0.755617 0.759608 -1.239093 1.211014 -1.034057 -0.581927 -1.680606 0.641578 1.082609 2.572008 0.214425 0.719175 0.093241 1.617431 0.981652 0.837408
里面 0.536960 1.967194 0.628306 0.499594 -0.568030 0.704872 -1.209214 0.913881 -0.879537 -0.460163 -1.659726 0.583865 0.941197 2.475919 0.331575 0.670785 0.054320 1.548798 1.059844 0.628114
上网 0.477098 1.179270 0.493946 1.832614 0.040228 0.346400 0.426822 0.094277 0.426555 -0.016060 -1.322917 0.213630 0.661934 1.912958 1.004354 1.663551 0.112599 1.299565 0.409484 0.515075
饭店 0.033958 0.981507 0.383406 -0.052790 -0.795876 1.901898 -0.628233 1.036595 -0.392656 0.226158 -0.988362 0.779424 0.602061 0.933785 -0.352543 0.817435 -0.892620 0.566594 -1.070316 1.392236
硬件 0.415066 2.012838 0.281321 0.455937 -1.571917 1.660608 -0.747400 1.495269 -0.677289 -0.092735 -1.330634 0.774147 -0.161017 1.426544 -1.248149 0.758606 -0.810615 1.461585 0.032844 1.748149
床 0.589190 2.794920 0.604996 0.967731 -0.110551 0.925253 -1.564684 1.078156 -0.601174 -0.511771 -1.814124 0.108502 0.640186 3.128198 0.229701 1.180158 0.521428 2.151779 1.700154 0.701095
… -0.418146 -0.243337 3.242069 -1.629347 1.899782 2.755019 -0.427490 -2.484578 -1.784501 0.716529 -1.980780 0.279590 2.459101 2.212442 -0.606720 1.569763 -3.912599 0.064461 1.630626 -0.672607
早上 -0.490833 0.026828 0.535817 0.559934 0.250041 0.211625 -0.585312 0.249025 0.024880 -0.210473 -1.526880 1.487122 1.907295 2.233654 1.958846 0.723759 -0.161022 0.274606 -0.647858 -0.369611
送 -0.177096 0.179423 0.217167 0.974383 -0.403935 0.340605 -0.012767 -0.118763 -0.315587 -0.524267 -1.278449 1.541751 1.722847 1.660779 1.597319 0.881070 -0.419725 0.645656 -0.545084 0.208016
商务 0.444310 2.199144 0.667683 2.464845 1.178812 1.291929 -0.407434 -0.131420 1.073553 0.255444 -1.099509 -0.323539 0.142672 1.797637 0.130414 2.426252 0.358475 2.526526 1.138878 0.851564
中 -0.109539 0.919593 0.259533 0.346451 -0.676287 1.930169 -0.219687 0.601582 -0.204344 -0.039424 -0.907929 1.098401 0.466329 0.692854 0.157255 0.992327 -1.112221 0.873972 -0.966105 1.142154
开 -0.249289 0.775943 0.572706 0.531982 0.292974 0.182749 -0.699771 0.240631 -0.332737 -0.632519 -1.317085 1.047322 1.823650 2.550412 2.385782 0.879849 0.250187 0.733755 0.344337 -0.433534
房价 -0.147236 0.960187 0.405166 0.954992 -0.116047 1.715084 -0.299738 0.654568 -0.047713 0.493043 -0.785048 1.008044 0.484713 0.648546 -0.348665 1.192923 -0.703607 1.345581 -0.675778 1.211956
电梯 0.173270 1.178903 0.670398 0.658278 -0.331517 0.232305 -0.824239 0.599135 -0.312700 -0.228693 -1.542943 0.768412 1.369874 2.532085 1.000124 0.658820 0.119339 0.834550 0.291777 0.144087
一家 0.185896 1.308912 0.380416 0.047904 -0.848962 2.270694 -0.401854 0.740878 -0.367486 0.105125 -0.731515 0.716810 0.377708 0.514541 -0.532601 0.917633 -1.201878 0.919568 -0.855532 1.707485
挺 0.734755 1.709758 0.765489 -0.148847 -0.980877 1.409100 -1.380318 1.149619 -0.914195 -0.031251 -1.739760 0.386313 1.057642 2.290743 -0.513395 0.431774 -0.381989 1.042414 0.368998 1.243558
不到 -0.032563 0.870390 0.841462 0.433315 -0.457230 0.655602 -0.379893 0.580580 -0.476079 0.237609 -1.681783 1.758590 0.841767 1.800631 0.218669 0.366849 -0.469376 1.120460 -0.157629 0.467716
门口 0.549934 0.577605 1.066683 -0.329025 -0.801619 0.934170 -0.678032 0.562576 -0.729579 0.071728 -1.570670 1.124087 1.725660 2.011606 0.367324 0.017671 -0.779676 0.252170 -0.403943 0.444972
很差 0.290970 1.617662 0.097762 0.356317 -1.345300 0.808282 -0.842263 1.112339 -1.270107 -0.757719 -1.425039 0.784115 0.722791 1.821895 -0.353300 0.404222 -0.229951 1.481972 0.900991 0.941814
便宜 0.125838 1.263654 0.543647 0.523783 -0.403535 2.201633 -0.568528 0.821241 -0.456567 0.450543 -0.718319 0.759576 0.590316 0.606573 -1.119638 0.940696 -1.029907 1.396547 -0.305455 1.624314
小姐 -0.081409 -0.027296 0.504599 1.706810 -0.831775 0.230882 0.702833 -0.658130 -0.182850 -0.926743 -1.110829 2.333989 2.070733 1.657441 2.499704 1.007994 -0.981254 1.287676 -0.335776 -0.255222
间 0.210462 1.960948 0.685814 2.464317 1.201023 0.789994 -0.335838 -0.146339 1.168140 0.346456 -1.086357 0.068290 0.260729 1.873375 0.384025 2.292829 0.302294 2.384913 0.982614 0.549278
经理 0.074888 -0.133089 0.945616 1.412455 -0.902597 0.209931 0.700242 -0.944434 -0.179563 -0.461390 -1.028794 2.484376 2.444013 1.539750 2.683195 0.981479 -1.037792 0.871348 -0.634734 -0.342832
提出 -0.718872 -0.358230 0.001894 0.996386 -0.568032 2.656432 0.880034 -0.330880 1.134619 0.213616 -0.134725 1.551411 1.319572 -0.139133 2.075193 2.046914 -1.812535 0.046177 -3.020137 0.841995
真是 -0.138168 0.893710 0.355191 0.384629 -0.237913 1.767908 -0.215229 0.252363 -0.300405 -0.257297 -0.861357 1.024038 0.925747 0.894726 0.751995 1.242570 -0.750841 0.997953 -0.594877 0.850816
声音 0.105879 1.829551 0.500508 0.419239 -0.192461 0.402723 -1.414744 1.076365 -0.841491 -0.693238 -1.550331 0.493092 1.480684 2.910663 1.231528 0.786340 0.440440 1.214968 1.085851 0.106192
窗户 0.319355 2.057364 0.618732 0.822878 -0.027405 0.441518 -1.288110 0.844598 -0.528716 -0.523851 -1.601468 0.320850 1.218501 2.840664 0.939804 0.971719 0.381903 1.611799 1.234404 0.213515
12 -1.747097 -0.363787 0.069294 0.625302 1.322198 1.693931 -0.268974 0.597716 1.975039 0.856625 -0.672584 1.173008 1.247859 1.012230 2.107884 2.068428 -0.519357 -0.491734 -3.271881 0.405845
附近 0.428524 0.897595 0.975996 -0.648511 -0.807273 1.879867 -1.093919 1.098890 -0.779662 0.491181 -1.490156 0.767276 1.425804 1.794776 -0.715623 0.262611 -0.969016 0.150056 -0.839677 1.351452
热情 0.631726 0.599007 0.418277 1.046512 -2.073891 0.212490 0.171784 0.134603 -1.072323 -1.053737 -1.334678 1.624608 1.369030 1.641990 0.821863 0.133360 -1.071092 1.308479 0.429395 0.438123
吵 0.105803 1.551606 0.446461 0.079266 -0.327069 0.582325 -1.387297 1.192978 -0.741116 -0.237633 -1.525828 0.570913 1.029694 2.353879 0.337553 0.409114 0.069382 0.821719 0.540341 0.438276
告诉 -0.095858 -0.061207 0.880506 1.766693 -0.078294 0.383855 0.668355 -0.845360 0.375982 -0.236551 -0.848066 1.835496 1.944753 1.247932 2.077993 1.247422 -0.921585 1.127975 -0.488707 -0.220417
结帐 -0.329211 -0.427108 0.741792 1.520984 -0.121709 0.504300 0.598230 -0.561669 0.620890 -0.114290 -1.013160 1.792059 2.011804 1.338177 2.081470 1.209625 -0.916019 0.788254 -1.148777 -0.205000
毛巾 0.442672 1.557236 0.738450 0.585197 -0.673970 0.407036 -0.981756 0.898963 -0.751622 -0.614497 -1.645129 0.768780 1.289441 2.662839 0.770270 0.618837 -0.005121 1.322772 0.812773 0.272219
天 -0.653754 0.396437 0.416921 1.040127 0.850628 1.441363 -0.101956 -0.072677 0.757676 0.329988 -0.559733 0.894274 1.085306 0.675982 1.336999 1.669370 -0.486641 0.943786 -1.233786 0.489596
现在 -0.268790 0.654577 0.409346 0.673781 -0.080805 1.568728 -0.000745 0.079603 0.216409 0.020785 -0.423295 0.885190 1.076359 0.719414 0.887816 1.393408 -0.766198 0.825198 -0.871543 0.767893
行李 -0.070006 0.159148 0.785654 1.024916 -0.423481 0.429834 0.197363 -0.197338 0.115130 -0.377142 -1.116979 1.622075 2.081696 1.954676 2.241020 1.001163 -0.609532 0.743293 -0.601775 -0.166541
两个 -0.003903 0.830481 0.495434 1.183401 -0.140267 0.564554 -0.228750 -0.033509 -0.018830 -0.373934 -1.023517 0.912589 1.426645 1.671696 1.298772 1.139452 -0.219418 1.223821 0.208870 0.151420
星级 0.107261 1.671967 0.258641 0.672650 -0.858865 1.785201 -0.357857 0.893043 -0.296520 0.113530 -0.937790 0.796833 -0.035978 0.749838 -0.705592 1.097447 -0.894092 1.441260 -0.388413 1.616425
感谢您 -1.157565 0.119468 0.003434 0.632679 -0.339693 4.404440 0.544473 0.382864 1.626021 0.775522 -0.051479 1.277994 1.153315 -0.367742 1.588997 2.931084 -2.284780 -0.156386 -4.694146 2.002697
地毯 0.429818 2.357261 0.480032 0.677185 -0.287571 0.675840 -1.473156 1.325580 -0.512575 -0.397515 -1.597701 0.097603 0.572147 2.753536 0.264110 0.869756 0.416557 1.577858 1.053051 0.560731
楼层 0.180496 1.127445 0.627689 1.842227 0.136428 0.460100 -0.079535 -0.205365 0.405626 -0.065908 -1.216647 0.871319 0.844746 1.877903 1.188971 1.454181 -0.188559 1.671535 0.452399 0.089074
好像 0.113677 1.124583 0.461508 0.660331 -0.458109 0.733219 -0.563305 0.524187 -0.403292 -0.247702 -1.082320 0.716569 0.934324 1.692371 0.513510 0.727198 -0.338872 1.090056 0.176107 0.550210
帮 0.106787 -0.009057 0.725445 1.385430 -0.398190 0.310701 0.594954 -0.841356 0.085291 -0.562145 -0.785134 1.564070 1.995822 1.373579 2.137088 1.124772 -0.848905 1.022232 -0.188287 -0.241200
收费 -0.094263 0.485077 0.676910 0.805673 0.209084 0.962309 -0.039209 0.410231 0.140413 0.478133 -1.078689 0.824064 1.041224 1.287589 0.637667 1.157996 -0.379333 0.760594 -0.727371 0.537420
新 0.325038 1.704149 0.547776 0.712206 -0.623824 0.995750 -0.905191 0.964639 -0.093200 0.103720 -1.241796 0.464228 0.295726 1.808121 -0.396131 0.754117 -0.325761 1.259094 0.199144 0.959663
唯一 0.300385 1.147423 0.526894 0.099805 -0.746920 1.226824 -0.764544 0.805925 -0.662968 -0.100653 -1.333189 0.669022 0.930237 1.638931 -0.127865 0.520257 -0.533027 0.853034 -0.108963 0.922796
客户 -0.219248 0.267847 0.453997 1.098515 -0.291751 1.942057 0.558499 -0.268087 0.527937 0.115235 -0.170412 1.051526 1.123640 0.138726 1.028680 1.715075 -1.419069 0.792076 -1.516198 0.927933
失望 -0.076067 1.311562 0.168815 0.421177 -0.644564 1.897381 -0.410399 0.662516 -0.150469 -0.012953 -0.508606 0.505631 0.254590 0.477831 -0.345018 1.116056 -0.895593 1.028925 -0.695346 1.369165
情况 -0.061644 0.406539 0.523219 1.052859 -0.455399 1.494397 0.361015 -0.130534 0.316515 0.001110 -0.449546 1.121930 1.211391 0.659368 1.185554 1.421765 -1.140799 0.882236 -1.112586 0.596883
告知 -0.353109 -0.141792 0.815794 1.833403 0.392695 0.746643 0.695483 -0.895206 0.988097 -0.035313 -0.748653 1.591059 2.008176 1.256652 2.428389 1.725861 -0.849850 0.960285 -0.976390 -0.245446
宽带 0.357774 1.001734 0.482497 1.412695 0.010412 0.616583 0.210448 0.125863 0.231713 -0.045280 -1.220144 0.308864 0.696889 1.715891 0.873035 1.427462 0.030221 1.164234 0.231357 0.552631
机场 0.074482 -0.118864 1.073775 -0.188292 -0.059171 1.710483 -0.500672 0.522330 0.280462 0.996312 -1.121985 0.913838 1.490328 1.091858 0.057443 0.573278 -1.110407 -0.274595 -1.849377 0.729834
预订 -0.199865 0.198792 0.563355 1.910618 0.263705 1.228603 0.765746 -0.770102 1.049263 0.245822 -0.264224 1.075811 0.966288 0.201746 1.183717 1.763348 -1.195527 1.199353 -0.939124 0.406905
吃饭 0.477265 0.558853 1.102332 -0.867193 -0.658721 1.334634 -1.119676 0.897312 -0.858439 0.456659 -1.750225 0.833365 1.734315 2.111066 -0.272823 -0.030160 -0.724907 -0.051286 -0.603532 0.805431
这种 -0.045920 0.861167 0.269603 0.643543 -0.465149 1.757501 -0.005692 0.197572 -0.165097 -0.094212 -0.586443 0.945469 0.704654 0.529546 0.432951 1.202240 -1.040531 1.014689 -0.757530 0.894401
品种 0.005271 1.207695 -0.108911 0.044272 -1.442171 1.012771 -0.977435 1.606321 -1.349836 -0.556411 -1.985323 1.263290 1.193603 2.318223 -0.533842 0.399153 -0.030723 1.011169 -0.180096 1.344598
20 -0.859665 -0.488585 0.741896 0.523179 1.133070 1.182257 -0.258591 0.590702 0.954161 1.079448 -0.854188 0.874224 1.433361 1.264294 1.002364 1.203206 -0.294048 -0.050943 -2.161078 0.476421
水 0.226552 1.232873 0.792141 0.675922 -0.199294 0.364706 -0.869161 0.655536 -0.414086 -0.455686 -1.537778 0.824688 1.506109 2.699106 1.215896 0.761822 -0.040650 1.100039 0.569351 0.066743
很小 0.523236 2.416228 0.548245 0.841983 -0.127194 0.712221 -1.366913 0.980264 -0.458244 -0.288304 -1.590592 0.095142 0.479280 2.542340 -0.092599 0.906819 0.425320 1.834222 1.473337 0.671186
安静 0.535367 1.756084 0.656578 0.119459 -0.625423 1.275222 -1.299035 1.018749 -0.610789 0.023747 -1.552065 0.315544 0.764600 2.138504 -0.395456 0.513188 -0.396174 1.001135 0.280694 1.017325
近 0.398505 0.760509 0.888556 -0.238754 -0.504305 1.595727 -0.949434 0.874149 -0.421717 0.481200 -1.357134 0.627920 1.168633 1.594678 -0.573437 0.368921 -0.821236 0.320966 -0.712068 1.076090
总台 -0.087368 0.102204 0.706465 1.319123 -0.478509 0.316115 0.349741 -0.520628 -0.062756 -0.550272 -1.199260 1.982386 1.935382 1.733390 2.271921 0.914672 -0.784658 0.989612 -0.259650 -0.309362
当时 -0.327400 0.128669 0.566825 1.226474 0.019533 0.770540 0.239868 -0.233259 0.466970 -0.016184 -0.682928 1.285914 1.432003 1.006845 1.490760 1.215448 -0.755639 0.801340 -0.917755 0.189277
15 -1.041353 -0.599007 0.717242 0.580849 1.340146 1.419926 -0.323515 0.558013 1.401412 1.293403 -0.982596 1.086440 1.431950 1.363418 1.276886 1.387468 -0.453365 -0.262607 -2.706404 0.379629
热水 -0.049986 0.888112 0.611022 0.579045 0.079608 0.451457 -0.690320 0.469448 -0.125920 -0.328015 -1.272953 0.830843 1.312260 2.312524 1.366221 0.760664 0.042371 0.817569 0.122926 0.020164
30 -1.062964 -0.580305 0.536657 0.599549 0.857367 1.174601 -0.160425 0.427461 1.082693 0.837859 -1.001834 1.389436 1.650250 1.236297 1.597445 1.291664 -0.568045 -0.221619 -2.487764 0.202475
定 -0.103269 0.872617 0.507719 1.596240 0.732317 1.362645 0.124255 -0.375487 0.860328 0.332038 -0.415769 0.488361 0.444938 0.554628 0.549901 1.850663 -0.526345 1.507572 -0.334023 0.675145
评价 -0.284662 0.699650 0.048158 0.392079 -0.430709 1.909260 -0.073975 0.465433 0.175729 0.068037 -0.244135 0.618163 0.483880 0.113093 0.153743 1.293917 -0.999695 0.697647 -1.305018 1.262678
电视 0.258122 1.698833 0.655244 0.436335 -0.187475 0.702190 -1.010806 0.916298 -0.532942 -0.503281 -1.258535 0.345449 1.255520 2.471201 0.779666 0.884557 0.258708 1.370407 0.910914 0.554350
第一次 -0.064029 0.956542 0.309276 0.721839 -0.247700 1.712669 -0.151119 0.020494 0.161579 0.142786 -0.337714 0.496056 0.575289 0.230318 0.221809 1.283180 -1.039120 0.982037 -0.834302 1.038411
最好 0.143235 1.242742 0.392162 0.411989 -0.617693 1.684742 -0.425469 0.505017 -0.213807 0.068127 -0.788577 0.645907 0.406036 0.727707 -0.323043 0.871139 -0.956985 1.004683 -0.532956 1.278852
四星级 0.073419 1.607758 0.375166 0.426150 -0.722418 1.730545 -0.576702 0.996729 -0.220523 0.186214 -1.101589 0.794757 0.032203 1.027707 -0.615651 0.931502 -0.764771 1.242616 -0.415321 1.428759
少 0.169924 0.897582 0.312870 0.068500 -0.991492 0.640627 -0.682439 1.005413 -1.052751 -0.418024 -1.431629 1.033324 1.348312 1.769745 -0.119917 0.250642 -0.247928 0.824101 0.058365 0.802450
安排 -0.002370 0.522394 0.520686 1.541905 0.099072 0.876892 0.386572 -0.612323 0.724570 -0.019587 -0.403330 0.776919 1.078404 0.769843 1.366442 1.482257 -0.716332 1.110330 -0.424995 0.245379
请 -0.019005 0.309314 0.565899 0.852877 -0.484632 1.437438 0.261753 -0.355440 -0.038920 -0.191978 -0.610761 1.294744 1.502729 0.716854 1.317016 1.273715 -1.194129 0.824174 -0.950255 0.501210
喜欢 0.363727 1.527423 0.446913 0.501018 -0.733900 1.457511 -0.748556 0.661207 -0.543952 -0.193004 -1.075115 0.537424 0.852491 1.487034 -0.005040 0.899579 -0.661563 1.217994 -0.027199 1.125209
外面 -0.095108 1.107733 0.502369 0.241242 -0.124798 0.866441 -0.897204 0.674827 -0.425007 -0.299802 -1.381509 0.802179 1.370058 2.122912 1.097375 0.837728 -0.073083 0.774680 -0.004443 0.284077
11 -1.349024 -0.032781 0.106959 0.733386 1.132973 1.569807 -0.222218 0.441882 1.677689 0.666820 -0.604169 0.861172 1.040952 0.983962 1.878264 1.953059 -0.453660 -0.193381 -2.584943 0.389277
钱 -0.224378 0.241123 0.576689 0.777844 0.071062 1.174706 -0.038603 0.105031 0.045106 0.089339 -0.899527 1.335423 1.468754 1.074825 1.162720 1.135112 -0.670473 0.767365 -0.956377 0.369342
直接 0.082134 0.339193 0.837144 1.218032 -0.104989 0.697755 0.177551 -0.359058 0.212568 -0.114582 -0.862704 1.157752 1.718881 1.453923 1.565654 1.113293 -0.740690 0.920107 -0.357158 0.085551
无法 -0.108118 0.828005 0.416807 0.729252 -0.231083 0.918161 -0.307881 0.363192 -0.037353 -0.247686 -0.934815 0.874347 1.173687 1.495727 1.119236 1.111024 -0.412407 0.845874 -0.284978 0.348355
旁边 0.373599 1.187795 0.717509 -0.125607 -0.592203 1.523077 -1.012572 0.860741 -0.655994 0.040560 -1.406545 0.783078 1.109945 1.723732 -0.080738 0.515734 -0.602360 0.710888 -0.256587 0.941366
招待所 0.305986 1.907723 0.359440 0.304799 -0.753512 1.396655 -0.947196 1.190416 -0.744881 -0.225375 -1.259451 0.544097 0.242082 1.578719 -0.596568 0.717140 -0.361190 1.400586 0.303487 1.267369
方面 0.343764 1.160156 0.329889 0.439755 -1.071789 1.613562 -0.308062 0.649565 -0.519462 -0.137982 -0.919508 0.798400 0.496068 0.892388 -0.234929 0.772495 -0.999676 0.958124 -0.435455 1.228965
本来 -0.157624 0.822755 0.566535 0.889909 0.130288 1.257962 -0.346009 0.105752 0.157013 0.002368 -0.836038 0.794988 1.089449 1.182259 0.907584 1.286683 -0.544999 1.058416 -0.469303 0.501046
洗澡 0.052381 1.313856 0.631274 0.397772 -0.106464 0.583677 -1.083106 0.801772 -0.388787 -0.384764 -1.431729 0.532783 1.360123 2.571775 1.023459 0.810160 0.088651 0.947987 0.410341 0.214797
出租车 0.405119 0.420095 1.059790 0.029844 -0.625211 1.175528 -0.498208 0.367241 -0.417541 0.303490 -1.245205 1.092097 1.555472 1.569686 0.332603 0.295146 -0.893047 0.276488 -0.738159 0.532427
升级 0.402221 1.283271 0.545285 2.391417 0.424947 0.827015 0.445612 -0.622521 0.916341 0.009951 -0.956593 0.392662 0.226537 1.207046 0.786878 2.087077 -0.399293 1.943979 0.527123 0.480566
考虑 0.190740 0.823696 0.332747 0.223326 -0.652001 2.273397 -0.241476 0.185171 -0.260942 0.055785 -0.080564 0.354919 1.067532 0.060210 0.095038 1.145886 -1.241304 0.720971 -1.067256 1.417293
贵 -0.039324 1.148615 0.291541 0.375870 -0.525296 1.509943 -0.556207 0.955024 -0.341613 0.177105 -0.962110 0.766946 0.513052 1.077623 -0.498516 0.836940 -0.652247 0.985983 -0.464782 1.191397
老 0.474690 1.740102 0.475283 0.354713 -0.912259 1.031180 -0.983190 1.130936 -0.605161 -0.056586 -1.312822 0.524489 0.352771 1.711959 -0.716486 0.393859 -0.460983 1.186670 0.395395 1.114982
火车站 0.441312 0.847842 0.968648 -0.631519 -0.457046 1.722861 -1.213836 1.080981 -0.538865 0.725413 -1.522715 0.612943 1.006590 1.618611 -0.901227 0.132242 -0.897086 0.075151 -0.939546 1.163289
一间 0.136774 1.314855 0.715327 2.027216 0.864168 0.801511 -0.063746 -0.303408 0.718124 -0.044678 -0.888225 0.266216 0.742461 1.559704 1.012061 1.815057 0.197858 1.960223 0.740016 0.201129
相当 0.545915 1.587407 0.423167 0.126824 -1.316787 1.533585 -0.816698 1.033205 -1.066834 -0.423637 -1.411407 0.793931 0.813268 1.648054 -0.382130 0.508144 -0.717240 1.289909 0.273989 1.311399
值得 0.212471 1.338232 0.164724 0.124369 -0.832557 2.370913 -0.545862 0.621522 -0.854247 -0.238091 -0.772918 0.685013 0.386990 0.560307 -0.445321 0.992843 -1.023343 1.358597 -0.288828 1.521275
周围 0.507435 1.203008 0.850648 -0.554102 -0.806833 1.508642 -1.219617 1.194716 -0.848533 0.219093 -1.686684 0.610304 1.081464 2.067451 -0.697238 0.190148 -0.523990 0.422060 -0.312132 1.147049
上海 -0.125692 0.814872 0.379337 0.488572 -0.290154 1.795849 -0.240955 0.420629 0.050599 0.079421 -0.563626 0.802572 0.931807 0.760052 0.367902 1.216789 -0.899361 0.797932 -1.014852 1.044574
员工 0.008339 0.290247 0.211781 0.707015 -1.276168 1.564936 0.366915 0.207015 -0.125303 -0.343057 -0.778753 1.490402 1.133824 0.720951 1.040722 1.011970 -1.392760 0.597365 -1.373317 0.851249
坏 0.230747 1.321801 0.745475 1.066302 -0.284081 0.318938 -0.579854 0.309382 -0.432576 -0.609340 -1.305559 0.874432 1.609986 2.531544 1.556598 1.007710 -0.040305 1.447258 0.835175 0.098378
还会 0.320657 1.352967 0.308576 0.277490 -0.897195 2.942966 -0.480515 0.060047 -0.649871 -0.202419 0.298509 0.051440 1.286646 -0.254994 0.090868 1.547620 -1.434198 1.209686 -1.068559 2.029689
香港 0.129070 1.124485 0.673380 0.231651 -0.423301 2.050503 -0.601158 0.599701 -0.185986 0.208585 -0.779131 0.488822 1.013038 1.040462 0.006292 1.153004 -0.936295 0.874312 -0.833608 1.384109
联系 -0.857996 -0.383255 0.617790 1.148361 -0.060446 1.831261 0.969181 -0.459199 1.157276 0.272269 -0.255497 1.761068 1.730758 0.523654 2.193897 1.930628 -1.485435 0.319293 -2.460297 0.344444
打车 0.183737 0.148755 1.090150 -0.447439 -0.222998 1.573774 -0.775525 0.745282 -0.214992 0.752806 -1.359011 0.851929 1.517583 1.527965 -0.117710 0.284946 -0.829467 -0.043241 -1.217067 0.734972
五星 0.023618 1.686109 0.262740 0.533292 -0.633825 1.633940 -0.496246 0.996702 -0.208595 0.209118 -1.060509 0.772642 -0.149495 0.939582 -0.697108 1.045164 -0.577999 1.392254 -0.415705 1.509078
2007 -1.553653 0.089642 -0.018186 0.023843 0.736165 3.085983 0.041279 0.955773 1.625690 1.005556 -0.468989 0.716486 0.586258 0.518861 1.146546 2.359620 -1.082373 -0.261563 -3.931817 1.340913
速度 0.200963 0.622957 0.485873 1.221560 -0.484761 0.553543 0.170798 0.053505 -0.047110 -0.461424 -1.170065 0.965642 1.312561 1.758175 1.286856 0.987138 -0.374669 0.950670 -0.080759 0.256829
电脑 0.345177 1.216313 0.817215 1.560903 0.069611 0.684122 -0.069669 -0.002564 0.234617 -0.052169 -1.260772 0.581687 1.175721 2.056338 1.026052 1.469236 -0.201293 1.377471 0.373861 0.322308
几个 -0.044442 0.545923 0.490852 0.454058 -0.345790 0.944776 -0.296663 0.197520 -0.304753 -0.280879 -0.942119 1.065949 1.464272 1.451763 1.152887 0.864599 -0.562072 0.688410 -0.479714 0.367830
隔壁 0.147721 1.550930 0.406711 0.306053 -0.606735 0.630634 -1.089540 0.976677 -0.822232 -0.511651 -1.324438 0.543595 1.231071 2.169955 0.604894 0.579652 0.019980 1.232453 0.806095 0.358156
服务生 -0.009503 0.462307 0.485136 0.840788 -0.715459 0.700053 -0.001256 0.141723 -0.292884 -0.477485 -0.980599 1.226274 1.545968 1.584624 1.333335 0.857978 -0.700800 0.883562 -0.372260 0.260125
投诉 -0.161919 0.121252 0.524058 1.148129 -0.351297 0.959729 0.464475 -0.440129 0.092184 -0.299491 -0.657018 1.706076 1.594838 0.959422 1.958970 1.245769 -1.050777 0.853817 -0.890487 0.102018
带 -0.063672 0.641391 0.521677 0.762614 -0.107822 1.072059 -0.204577 0.159981 0.203495 -0.032519 -0.805483 0.697188 1.158822 1.313172 1.016498 1.218328 -0.532545 0.675113 -0.647314 0.540834
回来 -0.323640 0.294241 0.673197 0.777732 0.137320 0.869753 -0.208494 -0.059964 0.141036 -0.141418 -1.025452 1.267594 1.762648 1.702942 1.855744 1.211053 -0.488667 0.624148 -0.743592 0.045157
家 0.072143 1.230026 0.332526 0.475138 -0.773561 1.758888 -0.429919 0.635943 -0.291052 -0.049295 -0.746345 0.667571 0.679646 0.918687 -0.008200 1.086095 -0.854784 1.041572 -0.623539 1.246091
工作 -0.172319 0.402535 0.135500 0.414621 -0.664751 1.934831 0.025816 0.279769 -0.144726 -0.287661 -0.713408 1.217407 1.100299 0.685040 1.234816 1.245852 -1.099374 0.582390 -1.431569 0.760801
尤其 0.386331 1.466631 0.436702 0.727588 -1.003901 0.971337 -0.567575 0.701208 -0.581050 -0.339994 -1.311558 0.754018 0.816147 1.818051 0.116578 0.704560 -0.565593 1.405695 0.355261 0.853856
三星 0.154048 1.917224 0.410431 0.520054 -0.683251 1.515332 -0.689455 1.128778 -0.366271 0.266023 -1.185167 0.656126 -0.205951 1.283235 -1.048753 0.865202 -0.450150 1.498391 -0.060522 1.481668
走廊 0.301917 1.668859 0.600621 0.674167 -0.469359 0.486160 -1.085842 0.881766 -0.710491 -0.457267 -1.611465 0.672122 1.148193 2.546309 0.706002 0.675261 0.078267 1.330497 0.879750 0.338862
说明 -0.421911 0.056219 0.257827 1.295870 -0.541635 1.972802 1.079802 -0.064044 0.921578 0.400898 -0.282590 1.316215 0.942593 0.238910 1.187289 1.776056 -1.761021 0.640458 -2.094002 0.899702
确实 0.135556 1.270962 0.318201 0.375193 -0.605500 1.376913 -0.565558 0.782924 -0.471111 -0.135935 -0.955252 0.690162 0.566275 1.269547 0.015439 0.826278 -0.539362 1.067782 -0.169444 1.003424
标间 0.195640 1.546694 0.559980 1.635458 0.697765 0.845654 -0.535210 0.190940 0.448923 0.222785 -1.051706 0.176028 0.464029 1.590120 0.166644 1.632692 0.156271 1.824395 0.653867 0.607659
最差 0.113530 1.337407 0.103209 0.531057 -0.562693 1.588819 -0.339378 0.497547 -0.239081 -0.015985 -0.493701 0.371159 -0.019206 0.242283 -0.585619 0.895554 -0.819651 1.188764 -0.307812 1.345699
五星级 -0.088564 1.435066 0.164684 0.425021 -0.711650 1.795532 -0.413010 0.903261 -0.118914 0.118774 -1.001400 0.887621 0.073993 0.882957 -0.415570 1.003119 -0.769214 1.146486 -0.698000 1.460996
下午 -0.731238 -0.119626 0.366798 1.111931 0.421982 0.856064 0.055366 -0.141694 0.953908 0.071144 -0.858761 1.370488 1.499225 1.231197 2.101694 1.377319 -0.618975 0.327488 -1.561057 -0.050374
整个 0.180870 1.504076 0.422982 0.582598 -0.590492 0.908723 -0.828643 0.724450 -0.475186 -0.285291 -1.366547 0.697281 0.799842 1.915336 0.413768 0.744947 -0.301421 1.227279 0.340100 0.668286
水果 0.080205 0.598640 0.357200 0.875444 -0.460550 0.690250 -0.098063 0.036279 -0.324153 -0.459633 -1.136207 1.083960 1.308033 1.450103 1.109292 1.067556 -0.472975 0.894352 -0.173128 0.520698
店 -0.187842 0.686151 0.358852 0.441604 -0.402970 2.193397 -0.186042 0.347533 0.082678 0.251566 -0.416061 0.817697 0.986489 0.358465 0.332545 1.399369 -1.240973 0.727321 -1.449108 1.298868
行政 0.191368 1.489954 0.493026 2.097500 0.909653 0.890137 -0.074598 -0.062470 0.925900 0.181399 -1.120077 0.215569 0.265048 1.636265 0.706795 2.009576 0.172161 1.853495 0.520414 0.450972
倒 0.372285 1.023873 0.666455 0.261313 -0.635474 1.070221 -0.716115 0.674637 -0.596414 -0.152991 -1.360801 0.736106 1.228871 1.890694 0.275338 0.577277 -0.472752 0.822480 -0.037350 0.743701
进行 -0.354834 0.240513 0.198090 0.886703 -0.654755 1.801159 0.302859 0.259187 0.577157 0.049908 -0.496233 1.180061 1.036144 0.557553 1.128741 1.539325 -1.214431 0.431012 -1.818883 0.810944
信用卡 -0.357117 -0.145662 0.705063 1.381014 0.070525 0.877878 0.536918 -0.517983 0.675505 0.010202 -0.716270 1.414603 1.611717 1.057826 1.980960 1.469004 -0.779217 0.840556 -1.052405 -0.073143
半天 -0.200427 0.188070 0.826410 0.979182 -0.028608 0.726806 0.076855 -0.324918 0.100067 -0.260755 -1.064186 1.573459 1.857190 1.649726 1.990659 1.122652 -0.551805 0.794205 -0.512025 -0.136131
太小 0.314269 1.579196 0.480252 0.618715 -0.301672 0.741066 -0.820028 0.675598 -0.414563 -0.229743 -1.184403 0.358525 0.658370 1.787704 -0.062767 0.688532 0.062799 1.369216 0.877178 0.635678
车 0.114512 0.379444 0.909989 0.319360 -0.390645 1.121173 -0.378606 0.292205 -0.146059 0.150270 -1.119800 1.130670 1.627071 1.571996 0.782446 0.663996 -0.839489 0.441199 -0.818454 0.390349
出差 -0.003395 0.979500 0.251170 0.395640 -0.219518 2.039150 -0.381429 0.233406 -0.006895 0.067737 -0.320181 0.317494 0.675717 0.329729 0.180256 1.336500 -0.895363 0.869461 -0.920965 1.262555
打开 0.141143 1.123071 0.646561 0.785744 -0.096015 0.426462 -0.605968 0.389508 -0.325899 -0.447441 -1.196507 0.728084 1.373201 2.195376 1.374565 1.015247 -0.025370 1.155923 0.406325 0.060319
远 0.419016 1.089492 0.846036 -0.208887 -0.528281 1.254329 -1.074402 1.050532 -0.505216 0.251295 -1.331385 0.493363 0.972583 1.794005 -0.408440 0.321945 -0.556430 0.452798 -0.362710 0.930273
睡 -0.012190 1.305061 0.477862 0.495544 -0.011064 0.744072 -0.956805 0.528129 -0.417531 -0.295461 -1.298212 0.641239 1.157630 2.130675 0.909182 0.909990 -0.065576 1.116520 0.420708 0.325265
打扫 0.012559 0.596000 0.457449 1.016896 -0.239322 0.041327 -0.154471 -0.239815 0.034506 -0.518551 -1.032899 1.100753 1.327909 1.532398 1.648634 0.699206 -0.244856 1.043282 0.263304 -0.263037
分 -0.614351 0.244604 0.349720 0.574180 0.005621 1.518121 -0.069030 0.517010 0.547202 0.334549 -0.808436 1.064784 1.114492 0.981309 1.054785 1.397177 -0.879701 0.392440 -1.747614 0.694197
标准间 0.096506 1.532473 0.519351 1.450197 0.519348 1.022299 -0.506678 0.338841 0.609400 0.317853 -0.935830 0.151428 0.243237 1.388444 -0.078581 1.538888 -0.110642 1.574264 0.283420 0.762184
主动 0.010974 0.089044 0.504497 1.166811 -0.634791 0.383001 0.501704 -0.324272 -0.022574 -0.501264 -0.858228 1.385096 1.570266 1.283041 1.673441 0.877237 -0.754429 0.837724 -0.383586 0.004499
管理 0.054864 0.779527 0.228016 0.517927 -1.070919 1.432640 -0.012816 0.483959 -0.333288 -0.271267 -0.681320 1.000402 0.672288 0.615085 0.256564 0.837325 -1.095267 0.843961 -0.774442 1.005878
肯定 -0.121401 0.830951 0.269472 0.219413 -0.465280 2.110146 -0.283169 0.322589 -0.263481 -0.067799 -0.354630 0.669471 0.909377 0.392507 0.498596 1.223408 -1.020108 0.735660 -1.049670 1.142662
还好 0.257197 1.017894 0.489300 0.222637 -0.618437 0.997263 -0.605981 0.551524 -0.678140 -0.268789 -1.147616 0.768638 0.955343 1.534136 0.291325 0.553321 -0.415031 0.832622 0.044603 0.710086
左右 -0.850018 -0.230125 0.431029 0.670947 0.713818 0.880530 -0.291148 0.286625 0.872099 0.484451 -0.911326 1.157564 1.437004 1.278942 1.517642 1.080676 -0.426773 0.056541 -1.674124 0.122257
海景 -0.064330 1.325786 0.328063 0.728402 -0.106182 1.750702 -0.600223 0.599903 0.136911 0.058842 -0.847127 0.551174 0.746512 1.178305 0.470292 1.543275 -0.614313 1.124523 -0.695523 1.110469
没什么 0.048777 1.050231 0.210973 0.006494 -0.611296 1.224648 -0.717575 0.787360 -0.713133 -0.210054 -1.151909 0.776429 0.797528 1.388109 0.000029 0.611916 -0.398192 0.814018 -0.224198 0.912852
原因 -0.010826 0.728447 0.508775 0.712230 -0.287079 1.455631 -0.176917 0.136803 -0.082644 -0.016308 -0.761811 0.951473 1.059968 0.938418 0.724614 1.131436 -0.905907 0.851118 -0.691831 0.649840
卫生 0.472667 1.620673 0.374430 0.588392 -0.959306 1.029987 -0.820861 0.785061 -0.699091 -0.483523 -1.364167 0.692690 0.812939 1.800474 0.110016 0.669161 -0.356265 1.493902 0.534185 0.878021
出 -0.015521 0.764423 0.660595 0.644362 -0.310456 1.260359 -0.250611 0.333464 -0.111348 -0.145459 -1.022792 0.978620 1.363495 1.574818 1.053142 1.137092 -0.673101 0.841361 -0.546835 0.494815
门 0.224019 1.168191 0.696835 0.662461 -0.367056 0.398779 -0.687832 0.448966 -0.495934 -0.430880 -1.414113 0.876426 1.314404 2.314479 1.079531 0.712346 -0.115946 1.062575 0.523688 0.065573
浴室 0.221249 1.551046 0.683488 0.612222 -0.159701 0.909894 -0.918881 0.801310 -0.328169 -0.276818 -1.374238 0.503590 0.983182 2.288534 0.617290 1.011310 -0.075826 1.200785 0.425794 0.507845
设备 0.383040 1.815910 0.412952 0.528673 -0.705486 1.148174 -0.827132 1.085692 -0.496935 -0.258959 -1.231546 0.398315 0.396402 1.743194 -0.365422 0.803325 -0.173646 1.462025 0.523236 1.079586
之后 -0.099902 0.712142 0.600186 1.113318 0.022960 1.041293 -0.073443 0.022690 0.245893 -0.113014 -0.889459 0.971132 1.256278 1.388703 1.302274 1.311699 -0.562594 1.038849 -0.485831 0.344641
房间内 0.304156 1.566390 0.537727 0.752418 -0.510105 0.758129 -0.779494 0.819381 -0.372265 -0.219561 -1.341072 0.581491 0.716596 2.062055 0.239834 0.873041 -0.178902 1.250209 0.451910 0.655898
完全 -0.031823 1.001359 0.189425 0.483636 -0.574340 1.332040 -0.306979 0.553100 -0.354724 -0.329721 -0.978991 0.994840 0.546546 1.032598 0.448735 0.920387 -0.587429 1.103114 -0.303215 0.809574
不知 -0.038265 0.654758 0.529346 0.766487 -0.447655 1.174170 -0.078465 0.212932 -0.077120 -0.070998 -0.840001 1.006076 1.119224 1.159481 0.803491 1.033898 -0.770604 0.853075 -0.578481 0.613144
解决 -0.207981 0.152140 0.441476 0.794462 -0.459723 1.167689 0.314595 -0.170716 -0.015832 -0.277781 -0.524427 1.275826 1.419667 0.882374 1.535990 1.128937 -0.887061 0.557811 -0.954624 0.294949
床单 0.352428 1.406433 0.651940 0.777886 -0.428327 0.650189 -0.745358 0.579206 -0.466735 -0.459524 -1.345157 0.722867 1.194291 2.220228 0.876762 0.859056 -0.157650 1.298954 0.523767 0.339730
办法 -0.010858 0.499291 0.664918 0.783361 -0.262692 0.514396 -0.024418 -0.199489 -0.313538 -0.579489 -0.920432 1.294536 1.721732 1.568564 1.653184 0.936901 -0.309449 0.982782 0.107298 0.005272
套房 0.276792 1.645352 0.546889 1.481913 0.362513 1.231434 -0.520307 0.285862 0.341838 0.118653 -1.011274 0.260283 0.533333 1.525784 0.225152 1.668375 -0.136117 1.746654 0.403480 0.836048
大酒店 -0.353269 0.822272 0.200336 0.405254 -0.169754 2.341944 -0.230293 0.507477 0.381755 0.280099 -0.392574 0.636742 0.562470 0.336243 0.378598 1.551953 -1.012543 0.640138 -1.617231 1.278571
整体 0.294307 1.539544 0.267009 0.356123 -0.904160 1.239105 -0.765699 0.896736 -0.634388 -0.189053 -1.044576 0.453917 0.303950 1.326810 -0.422675 0.617743 -0.504563 1.195070 0.138370 1.083561
房费 -0.325419 0.234473 0.561150 0.970109 0.110585 1.247286 0.075182 -0.043412 0.355505 0.122320 -0.805314 1.194223 1.425099 1.071013 1.262552 1.360500 -0.760779 0.817911 -0.998630 0.411360
脏 0.404387 1.814991 0.527629 0.491342 -0.590198 0.740047 -1.102600 0.952589 -0.797240 -0.489171 -1.417941 0.466661 0.896569 2.221941 0.200736 0.641951 -0.011775 1.445246 0.914740 0.631901
缺点 0.456284 1.260802 0.463783 0.243815 -0.685761 0.891843 -0.819220 0.777091 -0.745591 -0.222820 -1.380824 0.668898 0.786201 1.708119 -0.051518 0.424064 -0.277514 1.014495 0.399937 0.702205
这是 0.021195 0.737550 0.429258 0.563884 -0.362855 1.326543 -0.127269 0.268900 0.024613 0.115481 -0.794203 0.868799 0.706268 0.796958 0.289360 0.915215 -0.814649 0.797665 -0.722962 0.826488
改进 -0.081037 0.474998 0.070063 0.514862 -0.700831 1.767139 0.080778 0.236497 -0.031110 -0.201537 -0.299873 0.895154 0.726484 0.189746 0.665460 1.204263 -1.071332 0.607536 -1.162186 0.839034
每次 0.044703 0.828524 0.394229 0.713945 -0.358466 1.489547 -0.271977 0.238414 0.009339 -0.075492 -0.623260 0.623577 1.002278 0.861243 0.508541 1.193799 -0.807362 0.907526 -0.735627 0.916031
一张 0.144060 0.996017 0.735073 1.244674 0.188418 0.522298 -0.245444 0.050222 0.133445 -0.194161 -1.134126 0.729883 1.307540 1.956459 1.223424 1.258733 -0.044092 1.313439 0.309836 0.177966
被子 0.145739 1.336635 0.528404 0.659062 -0.413876 0.842184 -0.717795 0.489375 -0.528521 -0.597185 -1.294511 0.953101 1.262091 2.111999 1.204071 0.928217 -0.157897 1.301103 0.438720 0.352092
效果 0.254683 1.854469 0.226512 0.225980 -0.860638 0.618947 -1.255796 1.374743 -1.076610 -0.767353 -1.273808 0.475423 0.981931 2.154605 0.173704 0.562545 0.307241 1.562971 1.129887 0.676079
意见 -0.549856 -0.134197 0.123811 0.567034 -0.191899 2.156825 0.476325 0.002016 0.890024 0.292705 -0.096519 0.949049 0.999578 -0.025433 1.313588 1.612529 -1.380046 -0.030604 -2.359128 0.691536
事情 -0.185778 0.468543 0.340376 0.768584 -0.253263 1.435092 0.080575 0.037634 0.145242 -0.047342 -0.520652 0.970396 1.075971 0.662371 1.035697 1.301540 -0.848325 0.758075 -0.975323 0.561100
估计 -0.039559 0.901768 0.362634 0.435594 -0.254696 1.232161 -0.389148 0.487462 -0.146251 -0.094156 -0.739891 0.696095 0.830774 1.147073 0.472579 0.996973 -0.516768 0.853633 -0.454403 0.720940
门童 0.231906 0.459668 0.561068 0.715303 -0.963940 0.693785 0.009446 0.128733 -0.556335 -0.568083 -1.102851 1.368378 1.434332 1.539055 1.059400 0.612090 -0.789219 0.905709 -0.216788 0.319840
算是 0.299953 1.490610 0.476318 0.252129 -0.807551 1.520181 -0.757497 0.985112 -0.576176 0.028052 -1.144479 0.547914 0.517787 1.331240 -0.640592 0.718599 -0.643709 1.115296 -0.078932 1.318145
对面 0.276126 1.118368 0.696083 -0.112693 -0.571680 1.567861 -0.960899 0.895624 -0.493044 0.182564 -1.404717 0.691072 1.096129 1.768549 -0.060177 0.625322 -0.668224 0.584829 -0.522223 0.956676
号 -1.083912 -0.039061 0.197825 0.715983 0.868687 1.874724 -0.015519 0.140429 1.525252 0.686335 -0.366260 0.773276 0.889760 0.469744 1.338102 1.865246 -0.700797 0.020581 -2.475201 0.573151
办理 -0.126248 -0.021814 0.512061 1.452536 -0.168362 0.565187 0.419623 -0.651962 0.547921 -0.279189 -0.605138 1.342921 1.677725 0.935741 1.880038 1.102067 -0.860326 0.767736 -0.871648 0.003675
冷 -0.135996 1.036560 0.356370 0.513395 -0.053232 0.580725 -0.678223 0.438014 -0.317120 -0.405620 -1.065282 0.692336 1.165298 1.894680 1.254472 0.819368 0.005427 0.862906 0.135163 0.144788
洗手间 0.446110 1.813233 0.672119 0.697228 -0.478975 0.751930 -1.112810 0.882144 -0.497010 -0.352863 -1.543710 0.429518 0.954440 2.462194 0.394694 0.857380 -0.065313 1.426500 0.796087 0.601862
原来 -0.007225 1.016139 0.558404 0.881489 -0.074417 1.093548 -0.378549 0.350378 0.031657 -0.118783 -1.008848 0.834889 1.045654 1.510619 0.855501 1.218377 -0.403726 1.091859 -0.229082 0.531933
接待 0.005755 0.110992 0.447520 1.038239 -0.926801 0.593054 0.410263 -0.215077 -0.230123 -0.630269 -0.929089 1.694979 1.563343 1.246229 1.553548 0.801802 -0.981021 0.937861 -0.473861 0.147364
如家 -0.029002 0.929454 0.261656 0.480380 -0.428432 1.734674 -0.302893 0.525391 -0.029825 0.139675 -0.511442 0.594869 0.446194 0.482729 -0.102676 1.038082 -0.863413 0.900316 -0.812848 1.165739
半夜 -0.099728 0.980037 0.478723 0.665771 -0.171934 0.666042 -0.626606 0.499673 -0.222067 -0.362175 -1.203216 0.857908 1.345951 1.942226 1.270190 0.948982 -0.143168 0.914708 0.010442 0.209280
到达 -0.270810 0.006832 0.652653 0.908317 0.172002 0.868016 0.012729 -0.072792 0.618590 0.309263 -0.849028 1.043602 1.299790 1.080973 1.184428 0.950682 -0.645420 0.411967 -1.093380 0.194141
前 -0.353608 0.352101 0.383791 0.874314 0.066119 1.373394 0.021501 0.020154 0.455319 -0.005266 -0.538584 0.978780 1.220607 0.890124 1.347958 1.426449 -0.721295 0.653961 -1.219990 0.469357
check -0.190133 0.187141 0.521267 1.134757 -0.220890 0.594429 0.206498 -0.123872 0.154333 -0.372840 -1.005749 1.453992 1.473657 1.465264 1.652407 0.988085 -0.565921 0.849365 -0.604670 0.080501
很近 0.341482 0.952145 0.807539 -0.117865 -0.554971 1.680276 -0.914021 0.878023 -0.383051 0.388937 -1.322420 0.639818 1.042574 1.515540 -0.377613 0.560339 -0.852226 0.510812 -0.670907 1.047005
站 0.016025 0.396764 0.931043 0.360784 -0.266994 1.292511 -0.373115 0.405021 -0.089149 0.210538 -1.226444 1.199690 1.744661 1.771875 0.959482 0.884204 -0.826720 0.431521 -1.020623 0.473262
光临 -0.500418 0.186520 -0.064329 0.378498 -0.315503 2.765469 0.200162 0.184023 0.269565 0.054273 -0.068669 0.891673 0.875487 -0.054975 1.167554 1.822753 -1.303817 0.278528 -2.233862 1.140120
舒适 0.439441 1.576100 0.394130 0.503686 -0.722995 1.276358 -0.752795 0.684592 -0.377910 -0.134985 -1.195007 0.327522 0.582407 1.588251 -0.157296 0.810680 -0.484063 1.206668 0.263551 0.990032
一股 0.404444 1.880833 0.560667 0.888213 -0.378006 0.527446 -1.074099 0.781720 -0.438046 -0.360218 -1.522125 0.430269 0.869825 2.409439 0.447413 0.834079 0.100015 1.540095 0.973988 0.493103
进 0.037706 0.921804 0.525940 0.891964 -0.127567 0.544638 -0.409260 0.199555 0.075635 -0.134545 -1.067095 0.735498 1.008663 1.607750 0.890790 0.921391 -0.277892 1.025225 0.045435 0.235026
找到 0.059736 0.514019 0.733088 0.681494 -0.317419 0.771775 -0.113963 -0.006208 -0.139022 -0.153665 -0.949259 1.217410 1.424605 1.410220 1.068877 0.810641 -0.585134 0.816398 -0.271232 0.291460
司机 0.131198 0.371237 0.800540 0.429030 -0.460896 0.959006 -0.055786 0.022283 -0.300724 -0.039872 -0.982210 1.336662 1.578800 1.295786 0.894015 0.645690 -0.860006 0.645467 -0.580893 0.351983
期间 -0.385085 0.344562 0.299631 0.707889 -0.054754 1.827557 0.107496 0.052395 0.523337 0.240176 -0.329036 0.852075 0.904736 0.362274 0.930153 1.445355 -0.986360 0.527910 -1.589076 0.799161
丰富 0.150214 1.203318 0.131687 0.170950 -0.949030 1.168524 -0.786929 1.090532 -0.915291 -0.332813 -1.539423 0.989507 0.895446 1.743737 -0.324284 0.529248 -0.331881 1.094953 -0.102570 1.130744
出门 0.262526 0.518258 0.835936 -0.102148 -0.412155 1.341104 -0.656969 0.646234 -0.423615 0.233477 -1.345719 0.941284 1.502036 1.720926 0.296340 0.504827 -0.681486 0.277444 -0.736832 0.669594
很快 0.155497 0.418941 0.537932 1.076573 -0.637138 0.506825 0.209905 -0.160638 -0.167388 -0.508486 -0.960001 1.103212 1.427946 1.526782 1.385513 0.884092 -0.614294 0.909278 -0.209675 0.227462
以前 -0.162393 0.847608 0.295998 0.513217 -0.287955 1.532897 -0.262296 0.291238 -0.021024 -0.046206 -0.501564 0.531125 0.698757 0.597862 0.303014 1.175599 -0.770515 0.836132 -0.728195 0.980025
之前 -0.433801 0.240263 0.324944 0.869673 0.111759 1.362609 0.208165 -0.087304 0.514137 0.132301 -0.345656 0.888650 0.935424 0.456497 0.992550 1.375778 -0.804207 0.653853 -1.231589 0.572363
使用 0.104230 0.674918 0.579316 0.737464 -0.242461 1.032612 -0.111015 0.198767 0.065043 -0.122017 -0.894834 0.689497 1.247424 1.399356 1.061484 1.108450 -0.454762 0.790700 -0.412451 0.485118
晚 -0.307680 0.355450 0.412601 0.766464 0.262497 0.905818 -0.245282 0.210137 0.356709 0.247167 -0.846487 0.837958 1.070728 1.129672 0.772173 1.047434 -0.382650 0.641722 -0.817877 0.416234
距离 0.251574 0.832458 0.719306 -0.095121 -0.528935 1.513037 -0.752500 0.912679 -0.315808 0.459267 -1.136053 0.616008 0.812615 1.332054 -0.474651 0.480712 -0.816110 0.412814 -0.788400 0.977483
影响 -0.172601 0.736216 0.449862 0.597065 -0.282573 1.338378 -0.237964 0.310985 0.116546 -0.054310 -0.694905 0.862663 1.132158 1.084250 0.900458 1.207774 -0.706568 0.734118 -0.764114 0.631740
条件 0.216263 1.366259 0.446820 0.521382 -0.643522 1.362687 -0.649510 0.753980 -0.446686 -0.039861 -1.052625 0.620429 0.582252 1.242750 -0.304093 0.816952 -0.551049 1.194080 0.023712 1.066712
放 0.059147 0.790560 0.695673 0.539402 -0.166208 0.672382 -0.558041 0.378019 -0.254808 -0.224546 -1.194973 0.831776 1.464553 2.004737 1.079589 0.819706 -0.183254 0.838266 -0.022995 0.288742
收 -0.304387 0.148778 0.562724 0.865716 0.032015 1.024173 0.090184 0.102569 0.288220 0.164188 -0.922062 1.314753 1.390953 1.124305 1.192320 1.116610 -0.682607 0.655778 -1.150732 0.314562
价钱 0.209626 1.249747 0.481501 0.496920 -0.461640 1.531575 -0.607428 0.726891 -0.384136 0.097012 -0.881522 0.591007 0.628288 1.135655 -0.258182 0.939924 -0.655285 1.083355 -0.189390 1.148610
真 -0.058436 0.661620 0.481741 0.397938 -0.241009 1.393642 -0.237061 0.248407 -0.204077 -0.060727 -0.829258 0.904589 1.003669 1.041926 0.611726 1.059591 -0.743703 0.823020 -0.520956 0.656130
遇到 -0.092378 0.497674 0.271354 0.589881 -0.420457 1.358468 0.098740 0.022075 0.021099 -0.081059 -0.476945 0.883296 0.744259 0.429025 0.680401 1.047366 -0.909431 0.716113 -0.852617 0.678708
每天 -0.164276 0.515069 0.348688 0.650618 -0.141565 0.916008 -0.218115 0.353755 0.066403 -0.036056 -1.027633 0.815863 1.105467 1.350840 0.876562 1.051232 -0.412810 0.620689 -0.747844 0.543046
解释 -0.095409 0.236513 0.612524 1.036741 -0.323283 0.928634 0.240871 -0.225837 0.109398 -0.185063 -0.777435 1.427136 1.555130 1.179560 1.558188 1.133840 -0.797484 0.807516 -0.722345 0.190760
买 0.042821 0.413775 0.678204 0.240224 -0.383407 1.151421 -0.423910 0.328144 -0.351979 -0.004343 -1.183432 1.096726 1.603557 1.518656 0.760914 0.690249 -0.635612 0.490239 -0.639889 0.533550
太差 0.028699 1.123951 0.035807 0.163580 -0.716505 1.102216 -0.587137 0.780639 -0.574484 -0.343995 -0.777122 0.602633 0.341538 0.877215 -0.091984 0.542629 -0.350185 0.980254 0.106150 0.871844
温馨 0.240091 1.378490 0.349561 0.670914 -0.593645 1.175313 -0.618986 0.573294 -0.240572 -0.195645 -1.089984 0.489840 0.560047 1.476437 0.184077 0.942753 -0.427860 1.134830 -0.034237 0.822031
十分 0.154559 0.720016 0.516340 0.258000 -0.688389 1.592030 -0.352156 0.479607 -0.273816 -0.029292 -0.885746 0.861611 1.209127 1.126626 0.386622 0.850578 -0.899560 0.627548 -0.789442 0.906635
一晚 -0.194038 0.865113 0.382594 0.663449 0.065330 1.552016 -0.431287 0.341779 0.134511 0.066615 -0.739949 0.553866 0.931438 1.001015 0.571055 1.328496 -0.524100 0.930727 -0.706485 0.879532
只好 -0.197175 0.375223 0.677446 0.863189 0.059874 1.006698 -0.053546 -0.062109 0.148368 -0.037891 -0.904890 1.226127 1.515919 1.406392 1.484629 1.198932 -0.658125 0.733096 -0.779332 0.210225
特色 0.065489 1.135773 0.234234 0.347774 -0.289547 1.376194 -0.489867 0.588790 -0.305681 -0.115891 -0.999838 0.619630 0.545605 1.235986 0.228249 0.962400 -0.336444 0.933572 -0.277021 0.911040
所谓 0.038842 1.247514 0.352303 0.868078 -0.001210 1.179297 -0.390869 0.416707 0.040717 0.010782 -0.928588 0.552833 0.403481 1.203264 0.197025 1.198138 -0.308735 1.224615 -0.063082 0.793176
有人 -0.120062 0.645645 0.540516 0.692938 -0.264376 0.965029 -0.266646 0.293656 -0.064225 -0.158272 -0.979360 1.063987 1.348706 1.522020 1.186021 1.022276 -0.560307 0.765918 -0.539393 0.344907
休息 -0.103382 0.629700 0.338880 0.410437 -0.180113 0.828775 -0.416166 0.325862 -0.025349 -0.087477 -0.814681 0.615489 1.030993 1.183960 0.861465 0.849635 -0.354861 0.563442 -0.380099 0.373161
质量 0.075843 1.213009 0.231062 0.178197 -0.739299 1.203470 -0.709103 1.049728 -0.639200 -0.183749 -1.143039 0.718950 0.716997 1.473510 -0.142549 0.672699 -0.374050 0.982531 -0.119683 0.991817
普通 0.174296 1.361765 0.509878 1.175600 0.157772 1.097955 -0.421622 0.413042 0.299089 0.195997 -0.959429 0.357433 0.358304 1.429910 0.026195 1.331835 -0.139105 1.501250 0.228909 0.768127
消费 -0.286000 0.117515 0.631481 0.956594 0.045276 0.975087 0.149491 -0.059628 0.364080 0.140357 -0.750064 1.174381 1.571696 1.056756 1.329082 1.184285 -0.722669 0.656816 -1.045982 0.269555
不太 0.321269 0.741911 0.557956 0.102115 -0.574007 0.848466 -0.612294 0.539044 -0.506623 -0.051661 -1.119745 0.552836 1.068514 1.511595 0.179157 0.404279 -0.410380 0.585990 -0.002654 0.501956
同事 -0.155502 0.618946 0.373444 0.817346 -0.099156 1.096957 -0.077286 0.002932 0.215416 -0.057842 -0.570140 0.717165 1.040415 0.947681 0.929661 1.160526 -0.635392 0.886599 -0.618749 0.497599
过来 -0.118452 0.087362 0.623449 0.830065 -0.183219 0.683212 0.162834 -0.245830 0.128686 -0.177594 -0.766375 1.226153 1.627132 1.236019 1.553146 0.955038 -0.710289 0.589397 -0.721150 0.107496
停车 0.156656 0.479358 0.421351 0.138099 -0.478489 1.175387 -0.238629 0.411719 -0.289051 0.062787 -0.916989 0.728822 0.919997 0.965099 0.320435 0.635411 -0.642401 0.474997 -0.625066 0.640006
处理 -0.201578 0.144680 0.480579 0.948626 -0.382985 1.078141 0.325087 -0.248029 0.144772 -0.239906 -0.689639 1.396063 1.435266 1.014598 1.631146 1.192313 -0.926158 0.688755 -0.898753 0.192213
中午 -0.705641 -0.132342 0.441518 0.750052 0.293073 0.916817 -0.050785 0.041932 0.750442 0.217162 -0.873195 1.277423 1.446959 1.179341 1.694803 1.219991 -0.647239 0.174914 -1.523294 0.125544
噪音 0.028749 1.280617 0.335392 0.190072 -0.255255 1.161028 -0.867770 0.889484 -0.269155 -0.170376 -1.002361 0.457209 0.776401 1.596698 0.420323 0.841909 -0.188234 0.725205 -0.133202 0.684326
马路 0.114704 1.183967 0.570542 0.202867 -0.193955 0.988172 -0.998940 0.831597 -0.374438 0.050051 -1.258074 0.502239 0.910346 1.849956 0.171516 0.676069 -0.189523 0.789301 0.061419 0.577270
淋浴 0.323774 1.475766 0.559744 0.490772 -0.373841 0.698335 -0.949282 0.874398 -0.529589 -0.380696 -1.300303 0.457732 0.943891 2.217274 0.528430 0.732950 0.030353 1.203748 0.621412 0.467311
一位 -0.173621 0.068423 0.397544 0.865708 -0.566761 1.022711 0.313081 -0.005350 0.139841 -0.154868 -0.700804 1.306839 1.377085 0.878185 1.236681 1.021530 -0.985288 0.578596 -1.115228 0.411635
市中心 0.549364 0.968749 0.822271 -0.294484 -0.730180 1.634277 -0.879856 0.917838 -0.551315 0.384825 -1.345622 0.562415 1.001745 1.445052 -0.668993 0.308508 -0.826508 0.382947 -0.512610 1.138307
接受 -0.065575 0.704529 0.448149 0.766706 -0.265366 1.257934 -0.094653 0.225701 0.023543 0.041241 -0.666306 0.908520 0.962769 0.910711 0.567863 1.121492 -0.706603 0.945881 -0.490520 0.671463
行 0.178356 0.971754 0.348784 0.436525 -0.503780 0.934679 -0.458001 0.500414 -0.370651 -0.156890 -0.940454 0.592093 0.641686 1.206770 0.132075 0.613840 -0.453461 0.840411 -0.036431 0.696168
极差 0.059614 0.998119 0.301401 0.497569 -0.596148 0.685207 -0.525235 0.617543 -0.421905 -0.322124 -1.056639 0.681531 0.807119 1.476933 0.405839 0.654439 -0.210522 0.936857 0.191680 0.489679
取消 -0.255138 0.152519 0.575022 1.049385 -0.006924 1.358755 0.350985 -0.325543 0.453886 0.139930 -0.417003 1.178349 1.231729 0.486696 1.182578 1.412781 -1.117570 0.720954 -1.119123 0.452028
不足 0.100499 0.941352 0.475890 0.489698 -0.473003 0.950111 -0.504429 0.641220 -0.216942 -0.036249 -1.090186 0.696479 0.934735 1.527583 0.340739 0.738536 -0.464023 0.769395 -0.226308 0.609482
市区 0.111385 0.727744 0.670979 0.044602 -0.283152 1.731475 -0.594256 0.637473 -0.027243 0.505227 -1.001248 0.653107 0.971993 1.113947 -0.084493 0.769955 -0.872175 0.415209 -1.036797 1.010899
浴缸 0.302655 1.349173 0.544151 0.583098 -0.227307 0.545061 -0.820841 0.752595 -0.341153 -0.288062 -1.171824 0.348518 0.855154 2.021624 0.503185 0.711370 0.056635 1.036383 0.549018 0.387659
印象 -0.012872 0.868063 0.222658 0.155707 -0.559977 1.606859 -0.295507 0.533890 -0.179559 -0.143402 -0.492841 0.572313 0.701999 0.710763 0.315317 0.913875 -0.731768 0.712892 -0.710389 1.058344
确认 -0.311375 0.138360 0.498159 1.361724 0.200324 1.088596 0.469845 -0.472714 0.484884 -0.126949 -0.654546 1.471785 1.312879 0.879767 1.727770 1.538431 -0.799865 0.997368 -0.789371 0.105353
自助 -0.344407 0.522069 0.060423 0.186376 -0.443985 1.131667 -0.401482 0.866174 -0.365385 0.010018 -1.068278 0.952143 0.986113 1.217265 0.196208 0.792634 -0.298320 0.554635 -0.885413 0.942270
楼下 0.114899 0.864587 0.679040 0.281060 -0.223641 1.139790 -0.730688 0.671299 -0.247284 0.142064 -1.236734 0.653991 1.140534 1.711159 0.310021 0.784030 -0.421568 0.623409 -0.283905 0.629851
优点 0.414762 0.967683 0.582552 0.072823 -0.549108 1.051202 -0.693976 0.670350 -0.402060 0.116198 -1.124782 0.464041 0.674126 1.364953 -0.329184 0.410714 -0.509860 0.630156 -0.090109 0.777629
清楚 0.053217 0.708765 0.520288 0.702037 -0.294253 0.788078 -0.194350 0.204702 -0.150098 -0.277849 -0.745914 0.777364 1.253529 1.305784 0.995529 0.877218 -0.442187 0.845566 -0.111216 0.297121
坐 0.022290 0.574259 0.688162 0.296917 -0.266724 1.338858 -0.378748 0.433339 -0.118910 0.129940 -1.064912 0.988205 1.269021 1.401577 0.727124 0.872450 -0.702337 0.567052 -0.859019 0.600727
工作人员 -0.059941 0.502250 0.457571 0.871157 -0.421527 1.023658 0.096168 0.005398 -0.005801 -0.247214 -0.728985 1.067279 1.167108 1.010890 1.047293 1.053396 -0.773496 0.855727 -0.581992 0.439703
网上 -0.326063 0.438404 0.340801 0.796324 0.272907 1.553705 0.128950 0.021253 0.573987 0.211776 -0.233435 0.607253 0.626789 0.262393 0.556617 1.450817 -0.791305 0.754478 -1.033028 0.705317
整洁 0.657934 1.700645 0.507260 0.476572 -0.904652 0.978120 -0.916830 0.776193 -0.679409 -0.296154 -1.265568 0.360845 0.608243 1.768252 -0.328325 0.564203 -0.369881 1.362377 0.682763 0.944979
― -0.272329 0.748999 0.488775 0.711233 -0.224990 1.429666 -0.239316 0.325318 0.434952 0.369114 -0.704522 0.715650 0.729893 0.928743 0.479007 1.379857 -0.826999 0.624482 -1.118187 0.729073
刚 -0.052673 0.864321 0.463975 0.748641 -0.139521 0.945505 -0.388145 0.311031 0.134158 -0.060568 -0.861108 0.704853 0.923916 1.336362 0.768231 0.988716 -0.414333 0.875726 -0.428728 0.488663
面积 0.263020 1.693145 0.532991 0.989645 -0.204232 1.109113 -0.759809 0.771433 -0.039921 -0.017745 -1.305220 0.431887 0.634304 1.918934 0.025185 1.137235 -0.156151 1.482688 0.360253 0.828734
北京 0.005431 0.654382 0.343687 0.186441 -0.295144 1.346239 -0.286888 0.357269 -0.144442 0.051222 -0.458813 0.534486 0.731667 0.610441 0.225449 0.828572 -0.612161 0.609650 -0.625267 0.950046
步行 -0.214496 0.035891 0.995983 -0.087141 0.239510 1.301969 -0.807883 0.862707 0.189314 0.939228 -1.409376 0.935907 1.420722 1.770555 0.197438 0.517319 -0.648354 -0.048372 -1.639198 0.608489
过去 -0.107259 0.326745 0.604442 0.534019 -0.112534 0.918653 -0.062451 0.067134 0.091626 0.003745 -0.743896 0.974032 1.204214 1.116373 0.984924 0.892919 -0.625028 0.579972 -0.659455 0.282529
有个 0.206707 0.999163 0.609818 0.300407 -0.293735 1.171567 -0.608502 0.476576 -0.292482 -0.010550 -1.084659 0.634788 1.040685 1.592492 0.411272 0.797340 -0.510654 0.772083 -0.176779 0.632094
两天 -0.302118 0.666216 0.311929 0.784007 0.171790 1.332661 -0.209587 0.139848 0.379700 0.084972 -0.617990 0.638658 0.858009 0.835536 0.871176 1.330527 -0.504767 0.805063 -0.902534 0.613340
是否 -0.108613 0.268439 0.593663 1.011992 -0.148556 0.996256 0.214805 -0.154171 0.160034 -0.130597 -0.724924 1.200751 1.384025 1.052993 1.416257 1.164361 -0.802855 0.790019 -0.704387 0.205476
明显 0.082273 1.114640 0.478707 0.711049 -0.374361 1.098935 -0.479075 0.509106 -0.157601 -0.109704 -0.993339 0.674655 0.843679 1.480765 0.520988 1.010242 -0.516073 1.041851 -0.134824 0.658014
洗 0.158546 0.823473 0.592285 0.576330 -0.431921 0.535798 -0.447335 0.324805 -0.435703 -0.373918 -1.133730 0.847497 1.318000 1.860116 0.993705 0.677190 -0.325750 0.907301 0.232020 0.207695
机会 0.056415 0.662297 0.235287 0.269607 -0.585361 1.982374 -0.090514 0.105389 -0.304186 -0.133230 -0.060159 0.457398 0.973919 0.072020 0.298437 1.187092 -1.100853 0.674525 -1.004061 1.212532
网络 0.019676 0.759536 0.367441 0.870534 -0.374855 0.925940 -0.054990 0.186772 -0.021790 -0.194536 -0.725714 0.774291 0.819477 1.040468 0.752625 0.989926 -0.504816 0.988763 -0.274187 0.480107
25 -0.829594 -0.135907 0.192536 0.319090 0.551067 1.655414 -0.086750 0.422972 0.915190 0.555929 -0.435883 0.809565 0.859823 0.545070 1.068909 1.376855 -0.633581 -0.108995 -2.231684 0.680167
睡觉 -0.230031 0.864257 0.378905 0.345212 -0.039516 0.843581 -0.659327 0.517377 -0.252664 -0.182500 -1.038005 0.760253 1.078626 1.686181 1.062466 0.864659 -0.161764 0.644934 -0.192252 0.321304
快 -0.110798 0.533379 0.484457 0.565574 -0.166507 1.041487 -0.285686 0.264326 0.044340 -0.086647 -0.884179 0.882635 1.194862 1.335087 0.999622 0.921738 -0.502872 0.613479 -0.638849 0.391025
登记 -0.127684 0.143307 0.468138 1.085845 -0.393634 0.673139 0.267686 -0.329408 0.283947 -0.283483 -0.712738 1.281829 1.417478 1.051873 1.607728 0.985964 -0.792566 0.705505 -0.768995 0.085973
换房 -0.028378 0.538663 0.548957 1.182795 -0.112660 0.500629 0.066048 -0.252986 0.108336 -0.338692 -0.881528 1.087522 1.346889 1.483158 1.555550 1.059149 -0.423691 1.022950 -0.055959 -0.013780
水平 0.119368 1.141666 0.277268 0.334785 -0.797595 1.147666 -0.446900 0.798496 -0.518582 -0.164729 -0.932624 0.732162 0.475211 1.134721 -0.176551 0.634474 -0.490059 1.033978 -0.145138 1.031057
霉味 0.291479 1.584604 0.469256 0.712643 -0.258693 0.673075 -0.848400 0.665913 -0.328095 -0.276407 -1.258728 0.448248 0.774902 2.003782 0.430949 0.826038 -0.021609 1.338072 0.596513 0.491434
低 0.073034 1.193439 0.376083 0.558020 -0.265612 1.368300 -0.546730 0.629722 -0.205845 0.043130 -0.798835 0.492355 0.572619 1.075405 -0.170896 0.960274 -0.491688 1.118752 -0.119952 0.935893
地铁 0.199988 0.563947 0.817619 -0.222703 -0.325568 1.501900 -0.751894 0.737015 -0.236655 0.376878 -1.132596 0.669950 1.227937 1.434081 0.036822 0.569615 -0.671767 0.187380 -0.865999 0.806047
到位 0.229350 0.854891 0.201535 0.420917 -1.113346 1.017623 -0.242883 0.679500 -0.517101 -0.278052 -0.995660 0.794226 0.636268 1.152231 0.093769 0.530555 -0.746936 0.807892 -0.217361 0.844554
刷卡 -0.316308 0.046306 0.603783 0.896172 -0.075328 1.081163 0.237580 -0.179382 0.413776 0.043222 -0.693427 1.207555 1.468646 1.003752 1.541298 1.273331 -0.797425 0.583233 -1.199945 0.182217
介绍 0.015979 0.619460 0.460106 0.502062 -0.284706 1.392060 -0.072388 0.167616 -0.053426 0.036261 -0.575083 0.768358 0.925592 0.755221 0.430328 1.057933 -0.853706 0.784495 -0.703135 0.789123
期待 -0.482476 0.158740 -0.010432 0.310694 -0.213132 2.302358 0.203660 0.042286 0.434402 0.035602 -0.016916 0.734052 0.921834 -0.039307 1.135070 1.753877 -1.100745 0.227564 -2.131572 1.031720
意识 0.147061 0.626511 0.099000 0.605440 -1.356682 0.954932 0.087469 0.499883 -0.548605 -0.569692 -0.749405 0.934075 0.865362 0.855336 0.441326 0.604750 -0.918707 0.755639 -0.432199 0.849549
离开 -0.343763 0.204016 0.356592 0.560734 -0.065347 1.091205 -0.005395 0.156235 0.450471 0.110511 -0.624768 0.929988 1.007599 0.828671 1.020629 1.021363 -0.676386 0.342450 -1.230462 0.387713
马桶 0.219126 1.327569 0.614574 0.458846 -0.265576 0.794322 -0.790724 0.666974 -0.432848 -0.341125 -1.132356 0.426717 1.159846 1.983499 0.678280 0.828525 -0.125182 1.050334 0.411724 0.488475
中心 0.131226 0.688591 0.611557 0.412054 -0.453881 1.081834 -0.352275 0.403765 -0.238124 -0.006964 -1.009168 0.956307 1.000210 1.301917 0.346379 0.719275 -0.658516 0.712454 -0.413246 0.585460
菜 -0.146359 0.457957 0.266640 0.275931 -0.455866 0.818362 -0.324834 0.487229 -0.480873 -0.336707 -1.072877 1.113041 1.343098 1.465580 0.913839 0.724879 -0.365890 0.548287 -0.454085 0.482874
便利 0.690031 1.099862 1.008200 -0.415365 -0.671043 1.538497 -0.882184 0.733258 -0.765111 0.100436 -1.252143 0.503757 1.192497 1.674662 -0.580138 0.197561 -0.946630 0.251498 -0.585486 1.226707
城市 0.035617 0.998485 0.391045 0.334557 -0.507988 1.574505 -0.403803 0.633724 -0.189015 0.113883 -0.771856 0.669046 0.685681 0.992893 0.011599 0.909062 -0.791608 0.831124 -0.642665 1.048079
回 -0.170916 0.472998 0.466410 0.655852 -0.135252 0.922876 -0.119766 -0.016818 0.087450 -0.152622 -0.826834 1.022521 1.270456 1.186931 1.211124 1.028252 -0.592904 0.658018 -0.633383 0.321460
听 0.033095 0.826953 0.387102 0.474191 -0.364633 0.909847 -0.343048 0.314786 -0.408298 -0.286887 -0.805752 0.856041 1.052148 1.285372 0.771034 0.806500 -0.445879 0.893938 -0.067355 0.431210
一楼 0.183654 0.891034 0.559885 0.603505 -0.337227 0.699525 -0.438544 0.343760 -0.259458 -0.158030 -1.088986 0.781019 1.034677 1.603298 0.561703 0.716407 -0.304017 0.900147 0.054777 0.466477
停车场 0.283458 1.103388 0.494532 0.210080 -0.495330 1.190074 -0.608100 0.602370 -0.445198 -0.066103 -1.000184 0.544962 0.800390 1.415990 0.159835 0.721686 -0.511194 0.804766 -0.143109 0.765191
提前 -0.291159 -0.009256 0.498569 0.734993 0.038278 0.984093 0.262534 -0.225853 0.439332 0.105255 -0.545250 1.064186 1.142027 0.688223 1.236091 1.026991 -0.776732 0.528570 -0.983703 0.214765
地点 0.346431 1.049930 0.539012 -0.017213 -0.612938 1.288759 -0.782940 0.811834 -0.494607 0.073032 -1.141743 0.530795 0.821622 1.415390 -0.218365 0.505667 -0.570509 0.682282 -0.274013 0.924394
手续 -0.266567 0.003298 0.378891 1.257836 0.017763 0.676818 0.238491 -0.401811 0.592502 -0.090583 -0.534913 1.047498 1.356491 0.799757 1.597516 1.104190 -0.680345 0.651698 -0.948416 0.082793
购物 0.453177 0.790945 0.937866 -0.346964 -0.577970 1.888699 -0.976533 0.924961 -0.457494 0.527184 -1.386638 0.641320 1.331980 1.583529 -0.471185 0.529901 -0.835576 0.376123 -0.712864 1.116045
好象 0.018783 0.730827 0.452568 0.445883 -0.364554 0.981836 -0.363419 0.412342 -0.231821 -0.108831 -0.886067 0.853212 0.992814 1.232315 0.536539 0.782211 -0.498177 0.728972 -0.337446 0.580660
不住 0.017247 0.730329 0.210977 0.293238 -0.454389 1.437646 -0.148956 0.136764 -0.309312 -0.223124 -0.223277 0.444360 0.796536 0.395003 0.435625 0.922888 -0.687934 0.762735 -0.512321 0.862707
简单 0.109129 0.982933 0.301438 0.363508 -0.534686 0.877215 -0.438705 0.675794 -0.314980 -0.157836 -0.818810 0.521131 0.572791 1.144099 -0.053183 0.614209 -0.307789 0.821388 -0.039150 0.753773
锦江 -0.028928 0.855469 0.317069 0.360186 -0.338977 1.587196 -0.355466 0.547252 0.038080 0.200447 -0.470982 0.379188 0.444247 0.568332 -0.021605 1.003099 -0.715396 0.675733 -0.837932 1.008392
适合 0.107477 0.938465 0.412662 0.255409 -0.316536 1.334492 -0.573607 0.607136 -0.172280 0.066190 -0.839926 0.441532 0.701022 1.112453 0.055593 0.790565 -0.468211 0.694370 -0.433938 0.854945
当天 -0.284736 0.170613 0.363819 0.901282 -0.057594 0.900050 0.161192 -0.178116 0.418042 -0.004888 -0.585068 1.101985 1.183738 0.776851 1.260580 1.083496 -0.721093 0.587715 -0.901306 0.238045
不行 0.041094 0.811039 0.592460 0.684262 -0.284699 0.737856 -0.381139 0.296742 -0.241702 -0.199231 -1.045847 0.852649 1.181540 1.575814 0.810671 0.805958 -0.402569 0.913265 0.003543 0.366057
酒店设施 0.224073 1.080499 0.381990 0.213045 -0.543083 0.962218 -0.630139 0.785760 -0.336140 -0.070247 -0.872324 0.412010 0.448042 1.137793 -0.274102 0.493967 -0.377485 0.797437 -0.019091 0.832912
块 -0.414659 0.264564 0.458130 0.426268 0.128026 1.123977 -0.222801 0.384024 0.302475 0.240672 -0.859790 0.977644 1.205644 1.201092 0.957072 1.078632 -0.506322 0.313397 -1.259358 0.455202
注意 -0.050566 0.367785 0.523449 0.662026 -0.182509 0.925928 -0.062256 -0.006968 0.144064 -0.018013 -0.724449 0.864238 1.139379 1.005398 0.960708 0.936531 -0.661410 0.606510 -0.691248 0.373173
周到 0.203569 0.897794 0.274953 0.655472 -1.007445 1.054668 -0.170690 0.399506 -0.484017 -0.388106 -0.900181 0.823139 0.821214 1.063151 0.313765 0.731238 -0.852742 0.964655 -0.242760 0.804675
住宿 -0.034020 0.685493 0.319911 0.363700 -0.386998 1.265992 -0.265040 0.474029 0.016190 0.040554 -0.698432 0.636727 0.692823 0.906550 0.303117 0.867766 -0.671354 0.608057 -0.719911 0.779334
不算 0.186111 1.181690 0.472631 0.368166 -0.416581 1.231351 -0.627022 0.752398 -0.386534 0.063380 -0.953895 0.495607 0.575730 1.228326 -0.375206 0.677360 -0.456611 0.949060 0.005933 0.951399
得到 -0.080805 0.462875 0.412801 0.703775 -0.417072 1.107523 0.021553 0.102418 0.022557 -0.148031 -0.625253 1.001623 1.152469 0.902895 0.982714 1.029418 -0.737516 0.703145 -0.702289 0.485048
飞机 -0.357701 0.269665 0.419426 0.554827 0.003880 0.904446 -0.208997 0.208537 0.233105 0.005678 -0.856122 1.010007 1.237869 1.196956 1.156029 0.961888 -0.523593 0.385667 -0.885942 0.232120
郁闷 -0.090289 0.581211 0.306251 0.407632 -0.102718 1.059610 -0.247956 0.230617 -0.104818 -0.121168 -0.600059 0.656552 0.877930 0.922970 0.707503 0.883126 -0.393919 0.687949 -0.431134 0.574932
简陋 0.298227 1.466407 0.401230 0.402046 -0.617992 0.899119 -0.817727 0.947024 -0.529085 -0.215334 -1.102250 0.396597 0.592770 1.666863 -0.268107 0.612887 -0.161372 1.131226 0.442361 0.869731
24 -0.580746 0.205443 0.175747 0.260968 0.497000 1.227334 -0.095979 0.321755 0.849489 0.354531 -0.412285 0.445606 0.568933 0.696147 0.859469 1.151114 -0.336372 0.084463 -1.404484 0.574147
是不是 0.051436 0.542361 0.566465 0.768449 -0.301195 0.956827 -0.036571 -0.014519 -0.141918 -0.172079 -0.731538 1.039625 1.243188 1.068569 0.895669 0.946613 -0.716097 0.839687 -0.365427 0.404093
周边 0.351976 0.977381 0.632513 -0.181976 -0.685170 1.410265 -0.786064 0.837933 -0.592305 0.082532 -1.206116 0.579151 0.948744 1.514096 -0.260105 0.399300 -0.631163 0.510437 -0.391899 1.011416
主要 0.256276 0.858713 0.419041 0.125480 -0.430731 1.219036 -0.554584 0.487304 -0.384295 0.035946 -0.786923 0.431152 0.730302 0.956593 -0.146744 0.552005 -0.523062 0.694039 -0.194132 0.813773
反映 -0.114318 0.292324 0.328402 0.770719 -0.431400 1.090782 0.223965 -0.044832 0.087003 -0.138179 -0.525687 1.004393 1.020099 0.718592 1.071428 1.024392 -0.858450 0.563261 -0.865895 0.393022
公司 -0.051283 0.673617 0.525647 0.623983 -0.275675 1.653121 -0.179967 0.256944 0.092549 0.114158 -0.720809 0.859659 1.122113 0.947247 0.674393 1.242209 -0.856973 0.748189 -0.940571 0.833601
点多 -0.536057 0.216206 0.315374 0.432386 0.290918 0.706495 -0.274797 0.226275 0.425720 0.128438 -0.796540 0.850870 1.143705 1.277492 1.401758 0.911977 -0.215709 0.204619 -0.961675 0.056811
听到 0.103825 1.084173 0.468973 0.516735 -0.348078 0.458310 -0.662931 0.568260 -0.424465 -0.396628 -1.079233 0.640733 1.123358 1.791256 0.805028 0.629614 -0.063984 0.963083 0.450647 0.203020
象 0.064029 1.062587 0.457185 0.562328 -0.385708 1.013488 -0.489463 0.491333 -0.267365 -0.139145 -0.973079 0.659214 0.843376 1.415621 0.435638 0.857776 -0.442912 0.934803 -0.098361 0.609349
通知 -0.299379 0.034662 0.569276 1.049687 0.048328 0.794402 0.247740 -0.250862 0.433862 0.027260 -0.657501 1.319460 1.391979 1.008172 1.567215 1.114527 -0.773485 0.607724 -0.973708 0.064653
房卡 -0.097591 0.302937 0.469749 0.854627 -0.299667 0.623714 0.024166 -0.049671 0.005810 -0.275455 -0.887032 1.125958 1.362082 1.292334 1.367497 0.902608 -0.514661 0.761136 -0.445983 0.105571
回答 -0.039812 0.312733 0.561971 0.930778 -0.252857 0.573175 0.178239 -0.175972 0.014292 -0.260431 -0.772576 1.208016 1.312783 1.204803 1.330990 0.866416 -0.580940 0.811991 -0.257331 0.051398
宽敞 0.428546 1.476411 0.513126 0.582560 -0.528495 0.831940 -0.806632 0.665840 -0.346323 -0.110085 -1.227310 0.438638 0.558813 1.684950 -0.075012 0.658220 -0.270029 1.177257 0.420930 0.712066
路 0.002921 0.467882 0.725332 0.123276 -0.198556 1.374410 -0.417325 0.483427 -0.014333 0.290003 -0.919210 0.796949 1.169989 1.262293 0.402099 0.799429 -0.715253 0.344487 -0.995082 0.677897
开门 -0.030577 0.447009 0.565321 0.644258 -0.209596 0.678496 -0.196785 0.122328 -0.118708 -0.168534 -0.883768 0.894737 1.279197 1.462694 1.145432 0.841946 -0.494165 0.652391 -0.325875 0.137537
弄 0.062564 0.854078 0.499222 0.583163 -0.220948 1.060348 -0.367863 0.367573 -0.146682 -0.210849 -0.884471 0.797633 1.087819 1.384879 0.800115 0.980804 -0.409254 0.913878 -0.178921 0.544291
层 -0.320930 0.814244 0.265873 0.667647 0.398567 1.278254 -0.408016 0.317636 0.503334 0.235529 -0.709487 0.381191 0.596938 1.076443 0.688941 1.354900 -0.243376 0.747385 -0.692442 0.593571
更好 -0.037244 0.459691 0.003257 0.315019 -0.657647 1.507017 0.125816 0.286233 -0.228502 -0.282884 -0.261267 0.615178 0.653869 0.226724 0.509216 0.954025 -0.868140 0.615365 -0.783369 0.915028
字 0.037621 1.043677 0.228771 0.267384 -0.525177 1.196499 -0.397979 0.590606 -0.486216 -0.350083 -0.719817 0.690277 0.743891 1.003075 0.349859 0.802103 -0.345499 1.049100 -0.100843 0.812544
糟糕 0.060055 0.969063 0.297897 0.414628 -0.442543 1.053126 -0.387545 0.489318 -0.235457 -0.196084 -0.747057 0.491824 0.615024 0.997611 0.199434 0.783930 -0.468539 0.856906 -0.177999 0.735372
早 -0.190813 0.467973 0.373172 0.479818 -0.152274 1.032060 -0.222978 0.368471 -0.021871 0.094587 -0.821255 0.842678 0.920885 1.069260 0.533024 0.881853 -0.530089 0.583840 -0.684699 0.563946
后面 0.013843 0.675092 0.406231 0.429283 -0.288573 0.850003 -0.326337 0.303301 -0.165292 -0.125710 -0.848417 0.738111 0.920380 1.209967 0.606071 0.756671 -0.410629 0.689800 -0.294007 0.469464
热 -0.144921 0.621715 0.422841 0.417023 0.022494 0.655724 -0.462661 0.382615 -0.122515 -0.192330 -0.927296 0.741530 1.161197 1.592851 1.074912 0.797182 -0.200136 0.596903 -0.195510 0.171897
空间 0.299620 1.445390 0.483392 0.574204 -0.273321 0.908214 -0.748054 0.595941 -0.363181 -0.202096 -1.127037 0.356957 0.641171 1.681904 0.131876 0.802063 -0.142588 1.210366 0.522925 0.617101
事 -0.214314 0.367727 0.478367 0.714449 -0.214488 0.943261 -0.013817 0.068551 0.082351 -0.154560 -0.754003 1.053139 1.326642 1.159212 1.280016 1.091470 -0.614607 0.620402 -0.726253 0.278754
够 0.171476 1.162487 0.323959 0.404387 -0.322161 0.780455 -0.551412 0.607234 -0.265131 -0.113934 -0.996969 0.475086 0.440245 1.298717 0.017089 0.645062 -0.176752 1.027060 0.221032 0.670505
提醒 -0.130060 0.395185 0.525279 0.640150 -0.212962 1.135321 -0.068014 0.116963 0.151256 0.000253 -0.725464 0.966770 1.195010 1.052492 0.923286 1.058447 -0.750717 0.607688 -0.854782 0.451044
准备 -0.039151 0.552861 0.314054 0.743058 -0.226675 0.830698 -0.078085 0.130594 0.069364 -0.169626 -0.802590 0.864289 0.951356 1.158453 0.996507 0.986466 -0.463191 0.726916 -0.424168 0.348477
几次 0.025276 0.729650 0.374008 0.619196 -0.331791 1.019626 -0.210715 0.169894 -0.142053 -0.217194 -0.687900 0.761872 0.986248 1.034495 0.773036 0.960052 -0.598326 0.862532 -0.404573 0.529976
国际 -0.211385 0.670258 0.340922 0.478679 -0.150532 1.677673 -0.180957 0.363133 0.266164 0.169237 -0.600352 0.732249 0.780922 0.728264 0.574993 1.285363 -0.796251 0.661752 -1.185114 0.897021
旅游 -0.050161 0.680359 0.469240 0.364985 -0.311583 1.456343 -0.206550 0.337294 0.074822 0.140013 -0.632535 0.632059 0.860196 0.856353 0.339047 0.979318 -0.768905 0.565014 -0.884810 0.871004
我订 0.146151 0.954878 0.443575 1.062904 0.185855 0.746174 -0.242677 0.070822 0.264995 -0.017255 -0.834081 0.472930 0.581796 1.251398 0.482250 1.104800 -0.112116 1.216281 0.260436 0.386363
结账 -0.238591 0.160262 0.577188 0.723188 -0.067799 0.918391 0.000491 -0.003974 0.203849 -0.059303 -0.887110 1.177827 1.455010 1.276638 1.290336 1.065151 -0.696834 0.534380 -0.908321 0.191078
发生 -0.289510 0.343395 0.299887 0.642524 -0.209079 1.536440 0.060231 0.203292 0.314018 0.015288 -0.493144 0.919994 1.061112 0.719622 1.070444 1.296189 -0.851832 0.512154 -1.303539 0.614196
不想 -0.111670 0.696995 0.367692 0.544937 -0.208441 1.252735 -0.226294 0.262482 -0.071444 -0.131345 -0.703018 0.853561 0.961669 0.963785 0.718727 1.060427 -0.608140 0.845087 -0.612701 0.642444
电视机 0.147491 1.235281 0.493219 0.548477 -0.326889 0.876950 -0.631962 0.661403 -0.207649 -0.144287 -1.033312 0.492701 0.816863 1.680657 0.363419 0.892942 -0.215319 0.999787 0.154738 0.623431
及时 -0.094428 0.287438 0.307648 0.668538 -0.473427 0.980060 0.142592 0.006845 0.052541 -0.223316 -0.582482 0.955953 1.124581 0.857034 1.126971 0.960698 -0.718127 0.563511 -0.835507 0.384917
搞 -0.070036 0.512763 0.377579 0.690865 -0.211442 0.873866 -0.059562 0.069277 0.020467 -0.119430 -0.669393 0.888870 1.022539 1.007696 0.917688 0.963442 -0.512791 0.746105 -0.437385 0.333605
培训 -0.052606 0.259794 0.126975 0.473096 -0.848899 1.218683 0.178826 0.234951 -0.151763 -0.253988 -0.554095 0.973533 0.824452 0.549849 0.788756 0.848845 -0.955706 0.480278 -1.035265 0.701901
规定 -0.274479 0.197829 0.464686 0.780775 -0.187172 1.212205 0.202336 -0.035568 0.305980 0.043668 -0.650957 1.256703 1.265182 0.830016 1.234815 1.123444 -0.900477 0.638565 -1.125570 0.427467
价位 0.131064 1.091167 0.311852 0.241646 -0.561960 1.467976 -0.568653 0.696336 -0.374363 0.037267 -0.840097 0.530360 0.548944 0.987378 -0.194447 0.776541 -0.625768 0.865317 -0.359947 1.110744
不太好 0.256625 1.045724 0.419392 0.197431 -0.633611 0.788576 -0.666037 0.639684 -0.604374 -0.211553 -1.017995 0.591549 0.771187 1.435592 0.025157 0.423860 -0.309088 0.803689 0.206550 0.618752
稍微 0.129914 1.080928 0.299132 0.354466 -0.322686 0.868358 -0.698139 0.722447 -0.357104 -0.134058 -0.999611 0.606131 0.608952 1.336745 0.066944 0.630417 -0.233062 0.915237 0.060132 0.626793
家具 0.244428 1.635027 0.502742 0.457518 -0.391801 0.936266 -0.938569 0.973685 -0.341140 -0.110778 -1.223884 0.309283 0.580836 1.901248 -0.081244 0.798664 -0.078066 1.195095 0.372048 0.821364
地段 0.172891 0.810596 0.423155 0.084131 -0.476465 1.383930 -0.513721 0.661543 -0.342222 0.083578 -0.798994 0.562695 0.668509 0.929036 -0.191998 0.611748 -0.614353 0.659612 -0.430647 0.936547
前面 -0.051408 0.704953 0.364096 0.438545 -0.244775 1.064217 -0.257669 0.325890 -0.078678 -0.127214 -0.664989 0.673871 0.820789 1.001697 0.543506 0.908753 -0.536297 0.674853 -0.497713 0.588447
携程网 -0.289891 0.181528 0.255344 0.633981 -0.050354 1.394153 0.239174 0.071115 0.548622 0.209927 -0.279905 0.755980 0.638331 0.235838 0.656554 1.157629 -0.831457 0.447813 -1.222997 0.613393
游泳池 0.159866 1.084936 0.441120 0.473683 -0.401700 0.962163 -0.523095 0.582080 -0.323311 -0.124461 -1.062661 0.631792 0.784255 1.490251 0.339850 0.787358 -0.350710 0.907031 -0.019041 0.645870
跑 0.022961 0.518928 0.556440 0.550152 -0.274674 0.829387 -0.261010 0.158217 -0.155838 -0.178699 -0.941497 0.959444 1.286104 1.438028 0.987321 0.811851 -0.475087 0.711048 -0.310558 0.291756
挂 0.092509 0.880829 0.535234 0.529198 -0.408881 0.885281 -0.389431 0.460551 -0.266583 -0.145149 -0.958912 0.836257 0.925066 1.457218 0.591263 0.770774 -0.400696 0.858075 -0.147861 0.509240
三星级 0.083596 1.067091 0.280033 0.410528 -0.504750 1.031733 -0.384176 0.528038 -0.187557 -0.026450 -0.783498 0.629708 0.286390 0.891275 -0.042238 0.662815 -0.499840 0.892445 -0.206422 0.808259
礼貌 0.143457 0.444931 0.394765 0.737273 -0.816705 0.575634 0.102904 0.079487 -0.285815 -0.425739 -0.821120 1.043634 1.080364 1.142400 0.874426 0.632866 -0.663657 0.832922 -0.230379 0.369789
实际 -0.086091 0.682809 0.336112 0.591456 -0.179513 1.210018 -0.169175 0.399091 0.126679 0.198020 -0.667948 0.692336 0.580581 0.823184 0.245436 0.956181 -0.532342 0.812237 -0.572257 0.685362
看看 -0.106609 0.588645 0.410879 0.696028 -0.179130 1.159436 -0.077900 0.146998 0.118029 -0.041372 -0.716326 0.902595 1.004733 1.029222 0.850004 1.066858 -0.591688 0.753237 -0.611503 0.476795
合作 -0.755261 0.036712 0.439959 0.734725 -0.038028 2.381299 0.647832 0.103047 0.981636 0.571870 -0.041895 1.125868 1.013353 0.032870 1.061782 1.899118 -1.608580 0.311362 -2.600508 0.986981
押金 -0.243772 0.155104 0.520879 0.923089 -0.084637 0.834474 0.115876 -0.135255 0.279726 -0.051315 -0.756635 1.187443 1.409509 1.062684 1.477010 1.080887 -0.661737 0.669030 -0.896190 0.109999
授权 -0.393243 -0.114761 0.621263 0.984238 0.065066 0.977863 0.268724 -0.235318 0.437257 0.024848 -0.663620 1.238433 1.528777 0.884349 1.627285 1.299785 -0.687974 0.593410 -1.223932 0.026005
相对 0.230229 1.124675 0.380002 0.257770 -0.510352 1.052268 -0.631721 0.744078 -0.350081 0.085387 -0.901685 0.410623 0.392412 1.114671 -0.398594 0.496287 -0.444719 0.833198 0.031293 0.873718
厕所 0.175132 1.123882 0.539220 0.468130 -0.216914 0.691905 -0.659098 0.514421 -0.387436 -0.248874 -1.059203 0.509366 0.968899 1.683769 0.561544 0.719346 -0.166630 0.982647 0.358950 0.397151
内部 0.190879 1.048767 0.297685 0.377210 -0.623189 0.976453 -0.534031 0.655179 -0.272943 -0.108600 -0.910563 0.461609 0.497854 1.170170 -0.028772 0.638532 -0.419038 0.852647 -0.006191 0.781227
不便 -0.035400 0.458648 0.367956 0.154028 -0.266800 1.617581 -0.215727 0.367011 0.074907 0.138350 -0.526999 0.617802 0.817697 0.627006 0.467619 0.992960 -0.741835 0.250123 -1.214010 0.799517
100 -0.157034 0.397920 0.429056 0.551669 0.101301 1.085738 -0.200155 0.300880 0.007498 0.308079 -0.695611 0.763664 0.769003 0.736572 0.284988 0.835681 -0.431528 0.697021 -0.586462 0.595520
那天 -0.191422 0.521685 0.438698 0.590394 -0.091272 1.156739 -0.265566 0.237244 0.110024 -0.025007 -0.826231 0.862771 1.196536 1.170659 1.068609 1.100515 -0.577682 0.581634 -0.833961 0.451394
加 -0.055504 0.560955 0.424400 0.737533 -0.050634 0.596487 -0.239558 0.210615 -0.075281 -0.135321 -0.872738 0.817143 1.033033 1.358634 0.953779 0.894717 -0.181732 0.851127 -0.131407 0.190623
询问 -0.153717 0.191564 0.524390 0.915270 -0.175743 0.720532 0.147944 -0.164850 0.128464 -0.221252 -0.722832 1.217314 1.326621 1.140857 1.443223 0.993553 -0.579585 0.703866 -0.599361 0.072589
发票 -0.159032 0.173885 0.581406 0.770970 -0.163062 0.798821 0.128716 -0.082437 0.172731 -0.026264 -0.783482 1.122516 1.329989 1.147482 1.183925 0.969801 -0.659384 0.606684 -0.721487 0.145544
不用 0.024920 0.534608 0.509689 0.635352 -0.244514 0.931925 -0.044221 0.070212 -0.124516 -0.224317 -0.733140 0.939323 1.279978 1.176753 1.038133 0.940619 -0.588847 0.861246 -0.327564 0.368862
写 -0.217583 0.386421 0.432386 0.654598 -0.043336 1.245569 -0.024782 0.115527 0.236800 0.094670 -0.545272 0.821196 1.010553 0.827561 0.843638 1.190911 -0.716624 0.568740 -0.910039 0.513546
千万 0.035387 0.841550 0.309039 0.385193 -0.287225 1.433196 -0.261675 0.250668 -0.187152 -0.128792 -0.442968 0.475597 0.738785 0.579246 0.330201 1.035598 -0.645230 0.858324 -0.443612 0.902922
顾客 -0.057543 0.542415 0.398032 0.639519 -0.462607 1.265633 -0.034962 0.166029 0.014731 -0.097175 -0.654175 0.972987 1.042682 0.927469 0.816516 1.040089 -0.837094 0.774257 -0.791207 0.600363
一句 -0.159384 0.349038 0.452851 0.638661 -0.141993 1.025876 0.007962 0.034668 0.070078 -0.077899 -0.600403 0.940132 1.204804 0.954071 1.052521 1.052696 -0.623214 0.639555 -0.796379 0.405243
交涉 -0.062572 0.442023 0.556411 0.916444 -0.207270 0.912174 0.106595 -0.102922 0.159158 -0.072726 -0.716127 1.064287 1.215637 1.082948 1.133160 1.033015 -0.676713 0.821066 -0.509447 0.342958
超市 0.229751 0.638561 0.612143 -0.265541 -0.489452 1.240433 -0.706383 0.670743 -0.542531 0.149019 -1.098282 0.598547 1.051327 1.332497 -0.069780 0.362203 -0.521927 0.251996 -0.476845 0.801861
设计 0.218084 1.287751 0.387085 0.384924 -0.506012 0.968224 -0.674640 0.708474 -0.335007 -0.168391 -1.059373 0.494372 0.600228 1.573805 0.230140 0.674536 -0.211519 0.961610 0.143736 0.685783
正在 -0.094964 0.489479 0.354185 0.523698 -0.212947 0.844713 -0.175833 0.237289 0.106614 -0.104367 -0.696673 0.757491 0.917697 1.038631 0.828210 0.881037 -0.473704 0.531336 -0.573218 0.348265
住店 -0.104811 0.424404 0.350780 0.480231 -0.344320 1.397582 0.010778 0.255994 0.141131 -0.040668 -0.584137 0.844098 1.099853 0.830901 0.956969 1.065169 -0.749732 0.566274 -1.025949 0.668184
凌晨 -0.377605 0.394284 0.332333 0.543848 0.059475 1.070567 -0.217994 0.339320 0.346962 0.049983 -0.776563 0.847870 1.002813 1.071571 1.027406 1.082411 -0.505334 0.493599 -0.916978 0.437957
感到 -0.069508 0.624678 0.203358 0.598490 -0.457575 1.246751 -0.067282 0.336058 0.084262 -0.091997 -0.588705 0.709782 0.730212 0.765281 0.657648 1.042176 -0.708246 0.692796 -0.755045 0.669525
能够 -0.093723 0.409919 0.213091 0.678226 -0.330355 1.424708 0.176132 0.106096 0.295810 0.052488 -0.244199 0.592671 0.713984 0.236232 0.539695 1.186563 -0.942519 0.522479 -1.053471 0.765653
宝贵意见 -0.421979 0.200234 0.021013 0.425746 -0.281427 2.058949 0.193127 0.162216 0.558544 0.192589 -0.224378 0.763991 0.721030 0.019905 0.957625 1.403694 -1.070719 0.098167 -1.964029 0.862454
没想到 -0.081700 0.644701 0.448987 0.458792 -0.122210 1.159684 -0.173036 0.192567 -0.050409 -0.048007 -0.587471 0.601170 0.811988 0.831435 0.502898 0.932545 -0.603166 0.746386 -0.394979 0.578361
严重 -0.044834 0.885020 0.377751 0.505711 -0.282454 1.129128 -0.434346 0.530579 -0.113257 -0.076905 -0.889849 0.736580 0.883115 1.274961 0.627733 0.939414 -0.439336 0.771990 -0.354244 0.592016
保安 -0.061906 0.333325 0.526500 0.496978 -0.251732 0.921130 -0.110634 0.199619 -0.067943 -0.127717 -0.849031 1.044825 1.271403 1.298919 1.160871 0.871131 -0.598896 0.544149 -0.628123 0.247810
一条 0.033333 0.795043 0.565538 0.462324 -0.204797 0.973655 -0.509663 0.495739 -0.154770 -0.055135 -1.007809 0.806840 1.099397 1.534603 0.711978 0.898309 -0.385471 0.768345 -0.351088 0.475539
尊敬 -0.768918 0.068052 0.127445 0.330177 0.051013 2.280973 0.218513 0.349642 1.030394 0.490622 -0.266576 0.857587 0.883902 0.258461 1.186322 1.706032 -1.046045 0.012269 -2.567760 1.001079
宾客 -0.645244 0.204058 0.189145 0.463072 -0.107200 2.202720 0.142979 0.432619 0.843683 0.390606 -0.454545 0.927361 0.912347 0.486323 1.136905 1.693260 -1.051016 0.108534 -2.354152 1.022923
这点 0.099561 0.686561 0.380488 0.541227 -0.262485 1.072712 -0.208936 0.252866 -0.047495 -0.057889 -0.739401 0.718815 0.794597 0.955144 0.490399 0.858885 -0.544566 0.809571 -0.367692 0.500647
不值 -0.001045 0.823299 0.279217 0.294749 -0.216146 1.275679 -0.396919 0.511099 -0.315743 0.021880 -0.709629 0.608701 0.441316 0.778787 -0.072910 0.740867 -0.420608 0.833270 -0.226649 0.766736
不远 0.198857 0.679067 0.681652 -0.156682 -0.361466 1.494906 -0.618427 0.648016 -0.360325 0.247569 -1.096698 0.615464 1.117699 1.328707 -0.017896 0.583004 -0.653549 0.351505 -0.700378 0.883620
刷 -0.196090 0.221185 0.607347 0.792327 -0.077272 0.976391 0.067514 -0.021595 0.304193 0.039427 -0.779594 1.106920 1.325369 1.129372 1.323109 1.169167 -0.665134 0.612137 -0.920014 0.271350
不爽 -0.083485 0.569678 0.211391 0.327830 -0.166036 1.069275 -0.178362 0.257773 -0.122746 -0.186333 -0.670796 0.768903 0.731042 0.829282 0.706426 0.863791 -0.402712 0.682560 -0.498200 0.502972
反正 -0.075815 0.882393 0.271283 0.190490 -0.281153 1.466573 -0.396734 0.409911 -0.246846 -0.080905 -0.680440 0.610437 0.711970 0.857071 0.406743 0.957236 -0.574881 0.742374 -0.521420 0.757496
水准 0.010179 0.999896 0.213198 0.423477 -0.657901 1.321627 -0.330364 0.755623 -0.261856 -0.063735 -0.807863 0.694841 0.393953 0.903387 -0.062980 0.801401 -0.595814 0.849896 -0.449230 1.029429
慢 0.086372 0.652703 0.444835 0.567130 -0.381884 0.694111 -0.184321 0.253850 -0.179374 -0.196071 -0.842950 0.725103 0.956720 1.293231 0.704104 0.727567 -0.337962 0.728661 -0.134485 0.367426
愉快 -0.310039 0.313505 0.163385 0.412369 -0.150720 1.486428 0.003200 0.120728 0.261839 0.056273 -0.384867 0.735017 0.736810 0.477935 0.826394 1.144239 -0.746683 0.389804 -1.190308 0.635951
档次 0.141672 1.235234 0.282547 0.396469 -0.560906 1.173865 -0.512385 0.639077 -0.376518 -0.101676 -0.845553 0.529757 0.420092 1.047382 -0.142374 0.744447 -0.512357 1.036235 0.014379 0.880976
窗外 -0.021653 0.976117 0.390589 0.411064 -0.073098 1.021344 -0.579298 0.538700 -0.106029 -0.070301 -0.864749 0.497820 0.852876 1.409235 0.608712 0.924867 -0.189969 0.813550 -0.138876 0.559399
地铁站 0.167048 0.382979 0.760615 -0.225899 -0.119905 1.209661 -0.596135 0.603548 -0.158446 0.394171 -1.009038 0.554082 1.059259 1.306281 0.011697 0.411801 -0.578716 0.078406 -0.880649 0.655547
