5371 25
酒店 -0.267538 -0.345953 -1.353533 0.300450 -0.684890 -1.732257 -0.027645 -0.153762 0.687020 -0.480657 0.755082 0.154758 0.714390 -0.945345 1.775233 0.278895 -0.612687 1.162413 1.048071 -0.366473 -0.658948 -1.003393 0.104389 -0.277348 0.873529
房间 0.350039 0.562471 0.433736 -1.804153 0.689885 -1.659552 1.727314 1.432023 1.569699 -1.628203 -1.786081 -0.879474 0.949955 0.875153 0.700532 0.123922 -2.339321 0.337456 0.373927 -0.364853 -0.957686 0.321326 0.786969 -0.509925 0.843886
服务 0.166383 -0.370487 -1.003705 0.493670 0.271445 -1.435074 1.276359 0.695008 1.664883 -0.701277 1.804594 -0.690613 0.713015 -0.464733 1.821952 0.915468 -0.560803 0.761299 0.279451 -0.128858 -0.694717 -1.539826 0.272786 -1.133100 1.249393
住 -0.167100 0.238918 -1.529167 -0.730734 -0.333122 -1.964316 -1.070314 0.073471 -0.423890 -1.112843 0.259725 0.073232 0.665703 -0.422590 2.530924 -0.382921 -0.828511 1.158939 1.816078 -0.601445 -0.566567 -0.184393 0.277373 0.332152 0.361637
不错 0.656142 -0.353498 -0.671554 -0.635587 0.687930 -1.322379 1.254952 1.149345 1.273349 -1.314216 0.327424 -1.071014 0.860437 0.502326 3.272454 0.602199 -1.279546 0.955358 1.496755 -0.201162 -1.319424 -0.898350 0.263719 -1.086556 0.531381
入住 -0.431915 0.213456 -1.226820 0.409447 -1.058000 -2.813536 -0.802854 -0.374543 -0.302821 -0.082665 0.362368 0.341812 0.696019 -1.881808 0.677991 -0.488705 -0.940557 0.298169 0.055149 -0.299598 -0.089182 -0.864901 0.465333 0.879928 0.802578
说 -1.047693 0.353090 0.572023 0.372310 -0.198939 -2.698880 0.539882 0.521423 0.851899 0.046639 -1.277558 0.720940 2.134105 -1.269781 -0.972128 0.036519 -1.695191 -0.189574 -1.475496 0.817049 -0.471821 -0.752068 0.027530 -0.784488 1.909361
前台 -0.480146 0.121681 0.800511 0.601472 0.176520 -2.947487 1.506370 0.517035 1.870028 0.102143 -0.682836 0.203492 2.089057 -1.282911 -1.199763 0.486509 -1.831109 -0.372903 -1.832761 0.771424 -0.469027 -1.486866 0.582579 -1.114203 2.295824
比较 0.682581 -0.230797 -0.543218 -0.805885 0.742712 -0.434795 1.993027 1.710004 1.081630 -1.513486 -0.548488 -1.308903 0.322733 0.651327 3.459141 0.225852 -1.749546 0.408646 1.640624 -0.381880 -1.784442 -0.980578 -0.642581 -1.171948 -0.295687
早餐 -0.517402 -0.253124 0.069276 0.237537 0.614517 -0.044384 1.627895 1.487369 0.146323 -1.429264 -0.332029 -0.528819 0.686906 0.344761 2.423640 -0.565971 -1.210858 0.292051 0.254040 0.296144 -1.136421 -0.483986 -1.182236 -1.067795 0.564154
感觉 0.421498 -0.148822 -0.753453 -1.159828 0.444614 -1.389626 0.593805 0.893873 1.009149 -1.620947 0.243202 -0.794550 0.705388 0.363303 2.562795 -0.001798 -1.209269 1.222900 1.333861 -0.370149 -0.822759 0.107480 0.495273 -0.452817 0.707148
携程 -0.780353 0.386993 -1.302007 1.028958 -1.194175 -4.130451 -1.368270 -1.268387 -0.732295 0.180332 0.663901 0.934465 1.235229 -1.964179 0.388151 0.355825 -1.089701 1.459077 0.248589 -0.338850 -0.578790 -1.242178 0.899331 1.150194 1.998512
服务员 -0.750300 0.130986 0.949566 0.253933 0.518453 -1.716095 1.868443 1.319324 1.884109 -0.409348 -1.086577 -0.083728 2.208831 -0.851470 -0.606260 0.122571 -1.748698 -0.652340 -1.793008 1.009540 -0.330872 -0.946545 -0.337214 -1.540971 1.815562
宾馆 -0.471170 0.289071 -1.976899 0.676209 -0.523296 -1.633847 -0.070648 0.129161 -0.345280 -0.817966 0.929094 -0.418658 0.358404 -1.055469 1.998297 -0.329680 -0.924839 0.554533 0.240557 -0.706757 -0.570967 -1.147535 -0.411660 0.408410 0.164423
! -2.806240 -0.432383 -0.905197 0.597966 -0.283338 -1.010392 -1.800449 1.394753 1.472721 -2.031146 1.694944 0.378819 2.234059 -1.121217 3.607654 -0.424576 0.315284 2.109380 -0.655306 0.674925 0.728412 1.857191 0.615791 -0.383724 3.610225
设施 1.013767 0.188457 -0.309764 -1.834408 1.253070 -1.173424 2.248556 1.958815 1.996141 -2.092888 -0.634207 -1.846249 0.626678 1.217450 3.199594 0.425600 -2.254544 1.202883 1.645615 -0.552960 -1.861063 -0.311479 0.614969 -0.977699 0.542961
月 -2.160622 0.647296 -4.547931 2.362952 -2.595103 -4.361763 -1.101461 -0.271221 -2.459448 -1.253196 0.476347 -0.535604 0.145848 -5.274948 2.879153 -2.609301 -2.281609 0.296721 -0.922115 -1.616898 -0.868367 -1.697963 -1.796912 2.687930 0.207835
方便 -0.087656 -0.421570 -0.762007 0.529942 0.913698 -0.010007 2.052743 1.238992 0.160003 -0.461634 -0.239463 -0.923440 0.236669 -0.279452 4.145500 -0.490189 -1.707820 -1.181297 1.242357 0.428456 -1.880253 -1.894398 -2.224711 -1.502646 -1.577723
客人 -1.125388 0.076365 -1.058900 0.910518 -0.852946 -2.283919 -0.160367 -0.045278 0.565749 -0.021801 0.366366 0.118478 1.132344 -2.037434 -0.230204 -0.256091 -1.320986 0.124525 -0.939680 0.121144 0.036952 -1.380752 -0.083911 0.269704 1.292349
日 -1.858869 0.707985 -3.736379 2.112505 -2.477627 -3.703703 -1.057606 -0.272321 -2.007531 -0.669392 0.379095 -0.160412 -0.032100 -4.639852 1.750353 -2.009288 -1.949478 0.318854 -0.780496 -1.143561 -0.659961 -1.871861 -0.996038 2.389046 0.456085
价格 0.260220 -0.115795 -0.729248 -0.557639 -0.031637 -1.754146 0.137028 0.134417 -0.718700 -0.905396 0.140584 -0.110227 0.351969 0.153939 3.098285 0.210807 -1.049287 1.587331 2.043775 -0.778636 -1.829295 -0.683221 -0.095471 -0.106993 0.572273
差 0.309584 0.162312 -0.366199 -0.833233 1.003832 -0.572842 1.345327 1.516086 1.595705 -2.143430 1.116486 -0.702526 1.000628 0.944960 2.842363 0.355217 -1.486898 1.132392 1.017728 0.609101 -0.686681 -0.566405 0.182891 -1.756468 1.251712
元 -1.218227 0.522082 -0.051067 0.900403 -0.880297 -2.408267 0.048964 0.254296 -2.201127 -0.176190 -1.899632 0.067484 -0.102755 -1.457031 0.897612 -1.081588 -1.487726 -0.070809 -0.091224 -0.809264 -1.667317 -0.983408 -0.849506 1.314556 0.148153
没 -1.172169 0.454809 0.584280 -0.155232 0.183730 -1.504524 0.902504 1.189274 0.945708 -0.737839 -1.555344 0.297811 2.039674 -0.721226 -0.388858 -0.398550 -1.815186 -0.300681 -1.489378 0.911680 -0.317727 -0.126415 -0.466963 -0.846641 1.424441
晚上 -0.522128 0.315616 0.007056 -0.601467 -0.336778 -0.649902 1.220309 1.444058 0.353238 -1.297504 -1.779395 -0.507543 0.721311 -0.680351 0.135031 -1.175179 -2.153392 -0.361929 -0.728110 0.038047 -0.201819 0.285349 -0.782524 0.112521 0.388304
房 -0.296394 1.266622 0.163932 -2.048313 0.612805 -4.453871 0.010050 0.259108 -0.012708 -2.007145 -3.284244 -0.163053 1.082682 1.200883 -0.185768 -0.260960 -2.958575 0.235952 0.291223 -0.695447 -1.217788 1.016192 3.230851 1.415558 1.178918
年 -2.010226 0.517005 -5.150955 2.441417 -2.820457 -3.791331 -1.310090 0.079472 -2.124059 -1.663603 1.174325 -0.741571 0.187176 -5.216232 4.125414 -2.547547 -1.945554 0.707745 -0.564020 -1.403424 -1.127110 -2.258605 -2.105444 2.414500 0.226957
时 -0.989057 0.273087 0.054349 0.683688 -0.907719 -3.220186 0.777327 0.173022 0.765625 0.339358 -0.917877 0.411694 1.689180 -2.197258 -1.386727 -0.240045 -1.907046 -0.414362 -1.725124 0.429531 -0.225195 -1.266965 0.285560 0.112915 1.825152
环境 0.667891 -0.294773 -0.847719 -0.712387 0.656136 -0.869137 1.363355 1.328970 1.323308 -1.592798 0.526755 -1.208120 0.612456 0.460100 3.525219 0.382591 -1.312528 1.081357 1.743150 -0.233226 -1.313540 -0.689318 0.029397 -1.123426 0.377199
里 0.175436 0.128686 0.453556 -1.464707 0.864813 -0.931011 2.013920 1.724370 1.604663 -1.413303 -1.807637 -1.212617 1.104504 0.551189 0.957772 -0.053353 -2.265367 0.110917 0.027600 -0.078318 -0.896937 0.076527 -0.062483 -0.638125 0.741920
太 0.022203 0.102333 -0.375495 -0.900724 0.685667 -0.423035 1.530562 1.889206 1.308852 -1.853629 0.303047 -0.634221 0.963616 0.709560 2.313785 0.065991 -1.709641 0.791274 0.810303 0.572953 -0.887003 -0.402737 -0.186346 -1.469312 0.988042
知道 -0.742135 0.159640 0.171952 0.082635 -0.147024 -1.725085 0.570476 0.558612 0.748738 -0.363170 -0.890238 0.176972 1.523582 -0.759767 -0.029403 -0.062513 -1.405684 0.296697 -0.618453 0.479618 -0.448728 -0.454642 -0.164738 -0.593863 1.372605
下次 -0.480981 0.387569 -2.443532 0.151148 -0.760609 -2.168373 -1.637846 -0.274142 -0.343687 -0.751100 2.007064 0.753179 1.290658 -1.076550 3.151767 -0.446150 -0.620395 1.394024 1.755607 0.151108 -0.639025 -1.444522 -0.021159 -0.221454 0.352110
不好 0.160457 -0.039250 0.215089 -1.012370 1.001505 -0.857192 1.594055 1.415977 1.947027 -1.494335 -0.339833 -0.819139 1.181434 0.603120 1.413802 0.334592 -1.811114 0.239993 0.248586 0.406219 -0.524730 -0.371349 0.328877 -1.469491 0.976712
干净 0.796962 -0.010166 0.397183 -1.806933 1.396178 -1.129881 2.289400 1.925360 1.773233 -1.799278 -1.289570 -1.426398 0.941407 1.313040 2.609038 0.425411 -2.267151 0.447670 1.325444 -0.228405 -1.576648 -0.104851 0.435116 -1.059804 0.458927
2008 -2.677343 1.055993 -5.179241 2.444269 -1.982102 -3.691098 -1.154395 0.344223 -2.343999 -1.629219 1.602956 -0.738766 0.114485 -5.177494 3.943421 -2.283439 -2.031970 1.119385 -0.478451 -1.725631 -0.919932 -1.956118 -2.299816 1.750944 0.545381
点 -1.141660 0.252690 -0.118029 0.740916 -1.158285 -1.331325 1.032092 1.013923 -0.693241 -0.508938 -1.413312 -0.137740 0.622128 -2.045948 -0.008926 -1.398913 -1.658877 -0.599648 -1.287300 0.293490 -0.096637 -0.440149 -1.521693 0.553236 0.583902
这家 0.182378 -0.214374 -2.054378 0.106920 -0.783127 -1.962980 -0.809163 -0.287104 0.110937 -0.472774 1.724775 0.019763 0.860389 -1.106507 3.022449 0.254638 -0.357742 1.685174 2.011882 -0.151557 -0.669821 -1.424949 -0.139805 -0.380389 0.677843
点评 -1.059961 0.406889 -3.234533 1.722576 -1.664518 -2.300558 -1.655030 -0.406023 -1.602713 -0.693813 1.057848 -0.030120 0.075599 -3.477908 2.901306 -1.683913 -0.831516 0.971902 -0.442018 -0.897080 -0.535313 -0.833039 -1.372463 1.674038 0.416123
问题 -0.921435 0.173717 -0.473369 0.246646 -0.508758 -1.494651 0.099052 0.414032 0.965238 -0.236952 0.246713 -0.119912 1.213202 -1.377086 -0.013330 -0.100854 -1.011067 0.140574 -0.821935 0.349602 -0.072649 -0.862058 -0.261657 -0.253177 1.261315
有点 0.323386 -0.066154 -0.093932 -1.232381 0.644035 -0.539689 1.804507 1.727316 1.186697 -1.641376 -1.025870 -1.256896 0.592893 0.489966 2.287994 -0.106010 -1.920107 0.571434 0.858075 -0.305965 -1.102203 -0.109288 -0.389235 -0.724239 0.207427
装修 0.687719 0.257677 -0.577613 -1.147430 0.334247 -1.119205 1.137675 0.898871 0.912917 -1.396242 -0.580680 -1.345638 0.023027 0.165929 1.585687 -0.020374 -1.450687 0.777695 1.002880 -0.882767 -0.929863 -0.097918 0.372713 0.055354 0.151665
免费 -0.573032 0.411067 -0.082530 -0.350069 0.261635 -2.895560 0.356784 0.231652 -0.622209 -0.516225 -0.921344 -0.233185 0.914240 -0.299118 0.129464 -0.148664 -2.130998 -0.135633 -0.452274 -1.036908 -0.909311 -0.588544 1.333974 1.324544 1.034316
卫生间 0.325515 0.403073 0.385805 -2.047521 1.268097 -0.951200 2.411157 2.330687 1.917867 -2.190641 -1.889311 -1.536522 1.048147 1.254264 1.994400 -0.102206 -2.621451 0.464421 0.492285 -0.142636 -1.211821 0.400544 0.088520 -1.030958 0.599814
吃 -1.160263 -0.253074 -0.056647 0.836818 0.005754 0.204437 1.260424 1.566726 -0.232152 -0.966651 -0.511280 0.003756 1.279022 -0.592618 1.637214 -0.872862 -1.121453 -0.332355 -0.583161 1.043391 -0.667813 -0.746667 -2.091245 -1.181960 0.414717
地方 -0.277312 -0.158494 -0.528368 -0.192131 0.265522 -0.427180 0.850321 1.178025 0.661222 -1.037364 -0.351024 -0.407643 0.813346 -0.075578 2.286761 -0.125003 -1.136806 0.393991 0.725588 0.232839 -0.912743 -0.537038 -0.768698 -1.018221 0.243489
态度 -0.139520 -0.352263 0.453707 0.379431 0.674291 -1.687905 1.817994 1.024061 2.101909 -0.306062 0.447039 -0.044644 1.733110 -0.465335 0.458435 0.740200 -1.234621 -0.079697 -0.886722 1.079898 -0.611900 -1.361739 0.293539 -2.065126 1.842723
已经 -0.742537 0.332862 -0.491792 0.240378 -0.513836 -2.024701 0.348371 0.362079 0.162206 -0.262802 -0.627799 0.051561 0.945705 -1.410737 0.023121 -0.374161 -1.407881 0.060213 -0.595983 0.021390 -0.345492 -0.656413 -0.239005 0.190160 0.854322
实在 -0.237569 0.056500 -0.337811 -0.582867 0.310026 -0.938384 0.477151 1.052553 0.880489 -1.468992 0.035016 -0.263669 1.075498 0.184832 1.993347 -0.082284 -1.170142 0.935948 0.505635 0.200098 -0.591578 -0.108169 -0.040988 -0.834486 1.129242
位置 0.332804 -0.321664 -0.907207 -0.048217 0.270216 -0.429834 1.483832 1.286960 0.777165 -0.948821 -0.069857 -0.913315 0.336574 -0.094574 3.244215 0.109094 -1.273858 0.380732 1.538921 -0.194594 -1.427585 -1.231289 -0.969171 -1.159683 -0.280502
退房 -1.254292 0.274162 0.117411 0.949052 -0.877867 -2.820998 0.844766 0.621997 0.308205 0.138731 -1.177910 0.535272 1.599724 -2.304208 -0.963685 -0.728681 -1.841039 -0.582360 -1.950922 0.580354 -0.176507 -1.119614 -0.616482 -0.025852 1.516567
空调 -0.661143 0.510772 0.513010 -1.380511 0.509617 -0.617189 1.473851 2.017168 1.443861 -1.541510 -1.697718 -0.651711 1.519400 0.031383 0.363451 -0.630201 -2.381557 -0.144102 -0.752697 0.316005 -0.293701 0.550898 -0.293643 -0.651641 0.911023
发现 -0.455495 0.273721 0.488635 -0.649543 0.103911 -1.771425 1.272707 1.157935 0.971433 -0.876010 -1.837542 -0.307904 1.365267 -0.396021 -0.162689 -0.392824 -2.035637 -0.147293 -0.872289 0.337808 -0.478827 0.119852 0.170827 -0.247628 1.151527
选择 -0.398141 0.102353 -2.176599 0.228138 -0.726608 -1.844430 -1.056624 -0.085844 -0.422333 -0.509658 1.455346 0.287356 0.801600 -1.227125 3.030385 -0.361801 -0.595205 1.013443 1.687482 -0.244691 -0.598235 -1.332938 -0.426298 -0.083556 0.079011
大堂 -0.254189 -0.097437 0.332959 -0.354211 0.246912 -1.307866 1.586225 1.135468 1.633969 -0.678684 -0.795912 -0.511951 1.402905 -0.347841 0.513433 0.325214 -1.476318 0.194115 -0.370526 0.180560 -0.626761 -0.529676 -0.166110 -1.088214 1.104995
以后 -0.297172 0.249342 -1.301288 -0.060171 -0.427564 -1.939375 -0.931243 -0.076571 0.026888 -0.590655 0.947970 0.630280 1.266812 -0.615228 1.787728 -0.153730 -0.904970 1.050646 0.998473 0.275716 -0.488504 -0.930463 0.140497 -0.261762 0.789986
10 -1.316986 0.325180 -0.943963 1.450538 -1.539068 -1.407840 0.306402 0.499334 -1.847194 -0.158426 -1.325072 -0.109207 -0.359523 -2.679043 0.772694 -1.407855 -1.674107 -0.521969 -1.029644 -0.833014 -1.312075 -1.204995 -2.013474 1.100442 -0.106350
交通 0.401800 -0.105649 -1.697708 0.385026 0.292129 0.039992 1.426798 1.772220 0.295648 -0.925014 -0.383989 -0.467341 0.307017 -0.202019 4.226009 0.189031 -1.584210 -0.175162 1.986284 -0.195958 -1.884955 -2.388983 -1.752889 -1.732077 -1.316289
餐厅 -0.448927 -0.132011 -0.224050 0.300657 0.265784 -0.381120 1.640344 1.314620 0.624349 -0.937165 -0.462536 -0.646170 0.881096 -0.497421 1.419034 -0.304975 -1.280910 -0.170700 -0.283259 0.270362 -0.848671 -0.910976 -1.211563 -1.032776 0.354064
预定 -0.736514 0.312606 -0.352670 0.428411 -0.899100 -3.709721 -0.423420 -0.594979 -0.415297 0.159956 -0.956644 0.651833 1.145376 -1.577026 -0.731820 -0.060975 -1.602429 0.355294 -0.424006 -0.264455 -0.633536 -0.824378 0.882607 1.016968 1.706046
问 -1.271757 0.312026 0.856791 0.483511 -0.100658 -2.580544 1.064823 0.986759 1.171583 -0.072832 -1.755847 0.457677 2.333135 -1.487414 -1.050406 -0.209899 -2.126232 -0.444379 -1.994735 0.898738 -0.396582 -0.732655 -0.220849 -0.877312 2.051888
电话 -1.314043 0.280484 0.103967 0.840437 -0.614044 -2.597504 0.463784 0.598813 0.356979 0.074692 -1.305793 0.510758 1.786375 -1.910820 -0.895866 -0.405445 -1.890626 -0.399918 -1.963360 0.644507 -0.411449 -0.873849 -0.519054 -0.170297 1.664873
要求 -0.702063 0.475173 -0.041548 0.057398 -0.255840 -2.498160 0.498740 0.442882 0.434488 -0.251105 -1.154224 0.088239 1.280892 -1.133055 -0.470899 -0.234251 -1.759280 -0.136421 -0.930030 0.093834 -0.498401 -0.686988 0.283354 0.198520 1.215479
建议 -0.523123 0.044601 -1.416800 0.190868 -0.715112 -1.833468 -0.797413 -0.040894 0.021534 -0.296560 0.759840 0.239007 0.985550 -0.980283 1.703422 -0.084750 -0.887027 0.958254 0.735299 0.040419 -0.512315 -0.994334 0.010816 0.031858 0.823013
算 0.456444 -0.074211 -0.558654 -0.668928 0.639425 -0.915433 1.281882 1.210204 0.690912 -1.310412 -0.236348 -0.874312 0.541264 0.501601 3.147107 0.233391 -1.369898 0.599952 1.566993 -0.301345 -1.509040 -0.723162 -0.305841 -0.934201 -0.037562
人员 0.116611 0.007909 0.072075 0.281590 0.605695 -1.954003 1.463714 0.728308 2.097654 -0.329283 0.489082 -0.373867 1.657256 -0.460930 0.332127 0.870539 -1.150822 -0.055410 -0.849749 0.637285 -0.415433 -1.772195 0.296699 -1.573143 1.497916
找 -0.837803 -0.075206 0.552846 0.308026 0.166281 -1.204951 1.506180 1.170715 1.305108 -0.170168 -1.221016 0.078848 1.647740 -0.764614 0.092835 0.169405 -1.551391 -0.234154 -0.890519 0.788356 -0.706713 -0.986916 -0.923479 -1.571565 1.149774
补充 -0.844469 0.086479 -2.290695 1.054228 -1.138930 -1.575248 -0.512742 0.001826 -0.951338 -1.075581 0.900475 -0.134598 0.195652 -2.277501 2.486342 -0.916386 -0.591481 0.818090 0.306041 -0.267070 -0.450559 -0.740946 -1.039574 0.587066 0.377423
希望 -1.049682 0.169803 -1.978772 0.707509 -1.059812 -2.554700 -1.408240 -0.406314 -0.189109 0.013652 1.498942 0.466665 1.219206 -1.823689 1.643752 -0.146450 -0.794108 0.908356 0.422080 -0.105663 -0.229988 -1.627099 -0.076160 0.270044 1.103340
楼 -0.201234 0.506472 -0.477256 -0.588949 -0.304156 -1.546152 0.681938 0.479744 -0.033043 -1.129853 -1.654469 -0.743918 0.286233 -0.719262 0.306325 -0.892562 -1.681953 -0.009571 -0.112747 -0.846243 -0.719688 0.188780 0.311754 0.880723 0.374185
一点 -0.052144 -0.023041 -0.415769 -0.218525 0.101424 -1.140879 0.712515 0.669472 0.583292 -0.770697 -0.326971 -0.414421 0.574471 -0.407039 1.416337 -0.006745 -1.163274 0.472723 0.285765 -0.151565 -0.726313 -0.523831 -0.275888 -0.415402 0.600627
朋友 -0.729084 0.199054 -1.263535 0.462297 -0.733237 -2.174881 -0.614711 -0.209693 -0.146149 -0.307481 0.435372 0.571318 1.142714 -1.488665 1.086949 -0.286524 -0.924615 0.608662 0.405669 0.095242 -0.408452 -0.952468 -0.136427 -0.003007 0.940908
特别 0.081276 -0.220333 -0.366868 -0.481877 0.422355 -0.921233 1.098924 1.105107 1.371504 -1.175664 0.074758 -0.653295 1.022828 -0.003560 2.039070 0.209803 -1.342962 0.631520 0.654525 0.171650 -0.769951 -0.645779 -0.147794 -1.042643 0.831502
大床 -0.001481 0.870634 0.749994 -1.725722 0.973354 -3.683740 0.269384 0.242598 0.239958 -1.606187 -3.053958 -0.209008 1.108885 0.594460 0.297853 -0.307599 -3.035985 0.684441 0.410743 -0.767336 -1.405467 0.907538 2.930727 1.322033 1.248079
标准 0.362905 0.454057 -0.900826 -0.966463 0.213314 -1.611304 0.746473 0.682382 0.834904 -1.680803 -0.330027 -0.861095 0.204823 0.294528 2.389964 0.389232 -1.001008 1.838797 1.517538 -0.973848 -1.366820 -0.232781 0.565080 -0.108514 0.538950
想 -0.772780 0.132447 -0.285543 0.128712 -0.291319 -1.493581 0.423694 0.656361 0.490472 -0.470270 -0.609784 0.102442 1.278747 -0.938726 0.399953 -0.347124 -1.424214 0.086110 -0.430173 0.427815 -0.357755 -0.576379 -0.475558 -0.379456 0.966790
总体 0.382225 -0.138586 -0.816834 -0.698578 0.390987 -1.505662 0.593027 0.817424 0.787524 -1.297674 0.260528 -0.502453 0.810350 0.234845 2.657258 0.258701 -1.130935 1.117475 1.465825 -0.247529 -0.932935 -0.294274 0.432708 -0.694057 0.564541
分钟 -1.508731 0.308520 -0.628317 1.912906 -1.263244 -1.284454 0.928925 0.846614 -1.352715 0.406158 -1.880235 -0.224106 -0.106599 -2.534961 0.711866 -1.365583 -1.594684 -1.442209 -1.021174 -0.315081 -1.084145 -1.763309 -2.281724 0.484272 -0.642126
隔音 0.398388 -0.053220 0.031364 -1.822706 1.135222 -0.350415 2.377142 2.341833 1.993724 -2.698460 -0.717088 -1.505587 0.908646 1.094321 2.283221 -0.129180 -2.790765 0.510802 0.908369 0.311028 -1.041325 0.164270 0.257942 -1.545436 1.004063
时间 -1.214367 0.236078 -0.438525 0.966417 -0.927572 -2.188831 0.354244 0.482599 0.060007 -0.092502 -0.686968 0.172001 1.109623 -2.081218 -0.037158 -0.649975 -1.568279 -0.248802 -1.246492 0.279432 -0.413867 -1.063262 -0.771043 0.179929 1.040233
高 0.295794 0.144834 -0.794853 -0.574133 0.060337 -1.406070 0.217810 0.691199 0.033678 -1.146366 0.243948 -0.538364 0.602073 0.031735 2.844789 0.198317 -1.056916 1.259540 1.724618 -0.484540 -1.259612 -0.607598 -0.066530 -0.280462 0.390934
第二天 -1.149350 0.296896 0.192858 0.188528 -0.470922 -1.943362 0.833335 1.054765 0.424527 -0.575190 -1.582760 0.162670 1.621677 -1.270426 -0.219776 -0.705257 -1.883405 -0.353120 -1.372944 0.580003 -0.203734 -0.243328 -0.437518 -0.173523 1.273241
应该 -0.128788 0.083959 -0.767347 -0.087331 -0.094854 -1.437872 0.249481 0.469162 0.382592 -0.644476 0.146382 -0.287989 0.715457 -0.521292 1.737984 0.044799 -0.886644 0.773856 0.728696 -0.205826 -0.824718 -0.735416 -0.101432 -0.353310 0.523821
打电话 -1.322528 0.260457 0.575214 0.570144 -0.352044 -2.607744 0.824392 0.783063 0.953936 0.023380 -1.397312 0.533264 2.137527 -1.640865 -1.161612 -0.210045 -1.908184 -0.401195 -2.005425 0.758636 -0.347274 -0.702353 -0.229519 -0.599061 2.130356
~ -2.543024 2.735158 -0.867739 0.246212 1.973622 -2.553593 -1.311656 1.584087 -1.903497 -1.008560 1.252436 2.855762 2.541343 0.453341 3.499280 -0.787039 -2.026106 -1.540385 0.247217 2.521273 -1.127330 -0.565474 -0.325575 -1.439319 -2.025646
做 -0.878814 0.145232 -0.698833 0.496040 -0.421610 -1.598172 0.092675 0.409488 0.380319 -0.401088 0.053617 0.022706 1.097392 -1.241116 0.651262 -0.317914 -1.159890 0.235749 -0.523148 0.256008 -0.351354 -0.840622 -0.407259 -0.257591 0.927471
订 -0.331797 0.360860 -0.379742 -0.286875 -0.365512 -2.974306 -0.457133 -0.278667 -0.481369 -0.470490 -1.047647 0.366807 0.892910 -0.534688 0.218284 -0.120684 -1.559356 0.527183 0.388488 -0.364322 -0.800369 -0.239909 1.162753 0.877101 1.083888
星 0.302888 0.265805 -0.955662 -0.608073 0.207325 -1.361225 0.540441 0.903415 0.903514 -1.387142 0.313803 -0.792689 0.249685 0.023403 2.616345 0.467658 -0.641247 1.568801 1.389306 -0.566983 -1.082793 -0.626697 0.047804 -0.549156 0.418452
反馈 -1.244785 0.540744 -3.475558 1.188513 -1.134501 -1.631907 -1.053750 0.339664 -1.214971 -1.168017 1.547799 -0.788638 -0.057725 -2.392644 2.657991 -1.183200 -0.843803 0.597372 0.008842 -1.165776 -0.466482 -1.403388 -1.345278 1.022378 -0.054972
换 -0.255129 0.342346 0.573688 -0.835625 0.423278 -1.899445 0.958223 0.983822 1.010175 -0.868627 -1.651627 -0.185242 1.433360 -0.038291 -0.036311 -0.054587 -1.965285 0.062815 -0.533219 0.245960 -0.551328 0.130146 0.531936 -0.341543 1.146139
看到 -0.642368 0.194059 -0.532006 -0.044471 -0.223435 -1.581484 0.434645 0.576624 0.446936 -0.692768 -0.661987 -0.158276 0.946095 -0.911398 0.790112 -0.439635 -1.400851 0.168015 -0.225455 -0.092906 -0.485510 -0.443626 -0.088224 -0.017560 0.834542
性价比 0.146354 -0.120692 -1.179479 -0.658332 0.203076 -1.396305 0.307840 0.668221 0.183165 -1.518278 0.700634 -0.396633 0.733118 0.091082 3.630204 0.050964 -1.082568 1.522776 1.881557 -0.241532 -1.347753 -0.472378 -0.144522 -0.745108 0.562321
提供 -0.438316 0.151364 -0.912373 0.347652 -0.167327 -1.877376 0.064295 0.193065 0.195600 -0.393665 0.347093 -0.247948 0.783167 -0.829786 1.091619 -0.065815 -1.158287 0.296938 0.043607 -0.369391 -0.595394 -1.246710 0.120438 0.208238 0.667956
客房 -0.105188 0.191202 0.017413 -0.249445 0.319310 -1.645660 1.189170 0.955094 1.322128 -0.750468 -0.786722 -0.580144 1.090673 -0.260489 0.638109 0.191681 -1.643781 0.137650 -0.374383 0.045603 -0.752293 -0.726637 0.237109 -0.680002 0.919787
旧 0.785243 0.056422 0.089415 -1.546293 0.934797 -0.907280 1.905384 1.659685 1.482200 -1.742092 -1.109448 -1.451738 0.493850 0.934363 2.452358 0.290415 -1.903683 0.804590 1.199132 -0.374311 -1.302071 -0.031162 0.071190 -0.764573 0.371257
陈旧 0.784937 0.340988 0.024379 -1.627209 1.174207 -1.132456 2.007712 1.778532 1.644524 -1.834993 -0.944347 -1.281316 0.567788 1.120098 2.537384 0.431349 -2.031406 0.776806 1.406652 -0.346155 -1.351328 -0.313046 0.246613 -0.934650 0.260803
舒服 0.263538 -0.012764 -0.028261 -1.307578 0.834803 -1.251475 1.247501 1.316487 1.395177 -1.552866 -0.857492 -0.801857 1.078900 0.679875 1.979993 0.123810 -1.760834 0.673747 0.942345 -0.038196 -0.989918 -0.053797 0.370468 -0.904288 0.808153
推荐 -0.298015 -0.133097 -1.378092 -0.039786 -0.400198 -2.082987 -0.685727 0.054416 0.110982 -0.643328 0.820559 0.277366 1.098475 -0.587669 2.385503 0.144839 -0.875407 1.321587 1.224432 -0.004988 -0.775336 -0.792303 0.207284 -0.225225 0.945635
满意 -0.009118 0.008318 -0.934325 -0.185226 0.043614 -1.400496 0.086579 0.409170 0.497553 -0.827979 0.537239 -0.263918 0.738530 -0.290213 1.954680 0.073656 -0.946599 0.802519 0.824775 -0.188702 -0.684332 -0.742546 0.201675 -0.332207 0.537084
走 -0.879621 0.117747 -0.264029 0.513514 -0.234819 -1.058167 1.030747 1.012103 0.224248 -0.376884 -1.236556 -0.074494 0.896247 -1.095761 0.763600 -0.513963 -1.619786 -0.522306 -0.592414 0.223679 -0.814862 -1.020104 -1.165279 -0.596093 0.254057
觉得 -0.086134 -0.010101 -0.733184 -0.287413 -0.027875 -1.220929 0.336286 0.636417 0.373452 -0.967814 0.095338 -0.295678 0.765954 -0.381655 1.922049 -0.122042 -1.128401 0.767212 0.646778 -0.062013 -0.798633 -0.476411 -0.234638 -0.432933 0.583356
服务态度 0.098677 -0.151035 -0.184152 -0.330966 0.412000 -1.054285 1.172862 1.038373 1.308205 -0.915036 0.151932 -0.437218 0.937184 0.019148 1.603469 0.322885 -1.151626 0.544161 0.430002 0.256134 -0.752921 -0.606219 0.116024 -1.203521 0.971070
很大 0.466657 0.076763 0.043020 -1.636879 0.950094 -1.085828 1.590153 1.505627 1.481434 -1.627771 -1.110822 -1.184162 0.901155 0.915087 1.914228 0.119077 -1.941431 0.601600 1.012755 -0.213566 -1.117226 0.036447 0.434829 -0.737875 0.528178
只能 -0.509815 0.301409 -0.010502 -0.397271 0.255980 -1.434600 0.988619 1.002279 0.760069 -0.906853 -1.085282 -0.224759 1.179716 -0.323497 0.795936 -0.190159 -1.695766 0.133338 -0.194301 0.150848 -0.710890 -0.377422 -0.139261 -0.494575 0.792850
真的 -0.205976 0.009417 -0.743832 -0.295346 0.048732 -1.194751 0.307121 0.695808 0.615954 -1.014555 0.173396 -0.260997 0.931564 -0.308152 1.875412 -0.059524 -1.040495 0.785742 0.610629 0.078929 -0.605119 -0.473373 -0.066117 -0.596476 0.755357
豪华 0.222671 0.575902 0.036851 -1.439329 0.544397 -3.138453 0.208542 0.184879 0.098674 -1.539245 -2.277602 -0.468678 0.666066 0.501062 0.702930 -0.123546 -2.392845 0.845863 0.849377 -0.974660 -1.291272 0.413672 2.270599 1.101919 0.955649
小时 -1.296810 0.412132 -0.185200 0.773722 -0.678463 -2.031360 0.714167 0.920691 0.031870 -0.243675 -1.399401 0.124754 1.329497 -1.782077 -0.170555 -0.758814 -1.884145 -0.621281 -1.598456 0.405451 -0.584071 -0.804810 -0.941992 0.025522 0.857963
东西 -0.819752 -0.026377 0.047387 0.192755 0.300075 -0.453422 1.280486 1.418238 0.486850 -0.974467 -0.921876 -0.103556 1.256668 -0.349386 1.306592 -0.428457 -1.421245 -0.223820 -0.371004 0.641318 -0.753481 -0.589657 -1.175957 -1.064771 0.587674
根本 -0.306810 0.270070 -0.025172 -0.516042 0.248399 -1.467879 1.171144 1.169519 1.088347 -0.998734 -0.934713 -0.380046 1.124244 -0.217548 1.009640 0.032001 -1.616900 0.450277 -0.048132 0.071353 -0.832076 -0.394246 -0.147515 -0.685978 0.967072
四星 0.387819 0.161145 -0.591628 -0.931530 0.334318 -1.507288 0.943484 1.150321 1.386705 -1.478383 -0.208112 -0.826750 0.677874 0.207759 2.473312 0.589284 -1.143826 1.644329 1.432027 -0.443250 -1.175323 -0.508003 0.135403 -0.768554 0.758866
需要 -0.850625 0.182379 -0.547322 0.549299 -0.449439 -1.816745 0.315942 0.559962 0.038773 -0.215324 -0.548536 -0.015542 0.885129 -1.348941 0.702912 -0.481068 -1.474939 -0.089314 -0.585353 0.056243 -0.622568 -1.011845 -0.581833 0.025272 0.585752
更 -0.589625 0.170681 -0.864323 0.067032 -0.217945 -1.736542 0.133573 0.502712 0.572570 -0.670182 0.309480 -0.151271 1.088255 -0.831957 1.301847 -0.088989 -1.260035 0.553404 0.152507 -0.014702 -0.531174 -0.916337 -0.034906 -0.237006 0.988700
地理位置 0.188032 -0.154664 -1.123495 -0.196405 0.347576 -0.861610 1.140214 1.195450 0.672891 -1.200040 0.239466 -0.723168 0.530476 -0.059571 3.326525 0.060799 -1.333320 0.574580 1.449646 -0.167939 -1.323522 -1.082434 -0.606843 -1.012737 -0.042462
味道 -0.010734 0.188082 0.038248 -1.137683 0.767275 -0.902873 1.589466 1.620955 1.270059 -1.667159 -0.920356 -0.907002 1.085186 0.543600 1.923813 -0.081681 -1.824177 0.438182 0.538327 0.052004 -1.007868 -0.054781 -0.135616 -0.856331 0.626878
里面 0.002863 0.148905 0.071679 -1.140483 0.770556 -1.025857 1.443060 1.525637 1.369531 -1.536853 -1.008988 -0.775886 1.098676 0.550801 1.815324 0.012201 -1.836913 0.518983 0.620154 0.041142 -0.946389 -0.000509 0.134185 -0.909443 0.737767
上网 -0.219245 0.476435 0.433351 -0.656556 0.526831 -2.066177 1.106773 0.772874 0.100878 -0.716577 -1.265882 -0.432319 0.840370 -0.057691 0.291771 -0.340524 -1.937239 -0.386233 -0.560952 -0.471314 -1.008340 -0.347939 0.554119 0.378292 0.709438
饭店 -0.332193 -0.016857 -1.110182 0.067805 -0.153901 -1.123585 0.427994 0.722886 0.503678 -0.908891 0.338640 -0.422630 0.627253 -0.619520 2.276783 -0.090896 -0.887161 0.780131 0.750686 -0.198792 -0.814058 -0.855080 -0.465204 -0.505770 0.424937
硬件 0.480468 0.090328 -0.786628 -0.690148 0.426460 -1.162219 1.039262 1.096496 1.257485 -1.398072 0.332570 -0.967631 0.463354 0.261121 2.609592 0.499804 -1.119458 1.168095 1.295799 -0.404756 -1.047711 -0.738015 0.128539 -0.860824 0.473398
床 0.157293 0.329774 0.153368 -1.755503 1.063887 -1.476421 1.598613 1.660552 1.498520 -1.965412 -1.658393 -1.026952 1.059501 0.935748 1.806396 -0.064514 -2.324079 0.468835 0.754710 -0.131692 -1.176672 0.323516 0.620793 -0.716844 0.813655
… 0.867111 -1.842290 0.887543 2.206094 -0.869661 -1.052255 -0.088049 1.690773 -0.632659 -0.095852 -1.829106 -0.180692 1.959016 0.605679 2.391569 -0.370906 -2.856168 0.774911 -2.561913 3.190900 -1.787840 0.402249 -2.832339 -0.859923 -0.054258
早上 -0.951744 0.132952 0.112520 0.239399 -0.268830 -1.144215 1.191672 1.278911 0.355261 -0.707047 -1.337953 -0.191292 1.070162 -1.013509 0.239095 -0.722043 -1.770072 -0.433819 -1.147901 0.314415 -0.413134 -0.363980 -0.899855 -0.292950 0.796698
送 -0.831697 0.161470 0.285669 0.143535 -0.015837 -1.449765 1.039553 0.975460 0.408361 -0.676059 -0.815857 -0.075434 1.415936 -0.767354 0.387684 -0.360266 -1.472243 -0.169981 -0.834282 0.309741 -0.492004 -0.492301 -0.462204 -0.490276 1.153361
商务 0.150006 0.510331 -0.127743 -1.272429 0.494169 -2.846131 0.368958 0.326888 0.251621 -1.371288 -1.843769 -0.450718 0.809633 0.364408 0.849336 -0.146552 -2.272500 0.585000 0.713629 -0.688336 -1.232466 0.103692 1.813585 0.686653 0.776813
中 -0.388157 -0.028048 -1.026765 0.049971 -0.305682 -1.496926 0.200999 0.578261 0.472430 -0.756615 0.185684 -0.350133 0.813634 -0.825371 1.865016 -0.097005 -1.069638 0.876034 0.494981 -0.159339 -0.710274 -0.759978 -0.270248 -0.220462 0.777055
开 -0.814870 0.480705 0.284180 -0.597906 0.184289 -1.101905 1.146601 1.510862 0.895818 -1.013531 -1.511282 -0.344544 1.348175 -0.489297 0.116584 -0.544818 -2.081945 -0.289738 -0.914405 0.320193 -0.393365 0.082625 -0.490279 -0.447129 0.792264
房价 -0.384240 0.165575 -0.580529 -0.215252 -0.233718 -1.757342 0.257711 0.496410 -0.084896 -0.865774 -0.317512 -0.147544 0.615424 -0.540330 1.765330 -0.200619 -1.239739 0.842031 0.604419 -0.421528 -1.036783 -0.545110 -0.125186 0.002453 0.814040
电梯 -0.181832 0.240515 0.065095 -0.758578 0.395288 -1.088093 1.508924 1.279337 1.103410 -1.129056 -1.294700 -0.754743 0.942947 -0.024045 0.848685 -0.221734 -1.878923 -0.023184 -0.059825 -0.106671 -0.815643 -0.280623 -0.158882 -0.612895 0.617998
一家 -0.171136 0.027424 -1.291405 -0.069671 -0.179896 -1.322558 0.129237 0.531834 0.419944 -0.911314 0.601691 -0.320418 0.699195 -0.565413 2.438160 -0.000387 -0.848899 0.990333 1.086049 -0.219221 -0.780814 -0.793801 -0.201964 -0.384748 0.450865
挺 0.134465 0.001782 -0.607859 -0.598102 0.586307 -0.957247 1.286996 1.328308 0.899947 -1.316166 -0.468404 -0.756879 0.791575 0.145144 2.500805 0.002544 -1.623142 0.358208 0.920269 -0.113671 -1.154891 -0.735939 -0.382789 -0.970140 0.153735
不到 -0.364323 0.193360 0.163379 -0.097067 0.109646 -1.296944 1.183114 1.152583 1.004519 -0.793533 -1.058633 -0.297589 0.942657 -0.363839 0.924962 0.184057 -1.216278 0.463980 -0.092902 0.110644 -0.852042 -0.678357 -0.507422 -0.919217 0.763125
门口 -0.444161 -0.074566 -0.337177 0.218786 0.156220 -0.704951 1.279387 1.134662 0.712472 -0.515590 -0.591273 -0.336409 0.833948 -0.564920 1.482574 -0.146206 -1.387888 -0.319573 0.010474 0.259886 -0.846290 -1.022308 -0.974831 -1.016589 0.130769
很差 0.189053 -0.094420 -0.218864 -0.687109 0.653187 -0.551028 1.218384 1.274041 1.268922 -1.387349 -0.012276 -0.772534 0.761818 0.510688 1.871065 0.222522 -1.351888 0.508992 0.547434 0.187011 -0.693329 -0.373817 0.043387 -1.085227 0.731355
便宜 -0.153790 0.061078 -0.755765 -0.206802 -0.006756 -1.359592 0.221348 0.572658 -0.126174 -0.970343 0.124191 -0.223753 0.641167 -0.214872 2.609726 -0.053004 -1.057750 0.963087 1.303059 -0.231112 -1.200644 -0.694931 -0.313689 -0.306354 0.465711
小姐 -0.881856 0.207673 0.330832 0.494376 -0.108680 -2.491116 1.004813 0.718354 1.165008 -0.230357 -0.840808 0.200931 1.764567 -1.419250 -0.489848 -0.027475 -1.677103 -0.247997 -1.435710 0.577078 -0.408507 -0.998779 0.012505 -0.778150 1.884663
间 -0.073428 0.585983 -0.056905 -1.093409 0.358979 -2.920274 0.493367 0.359724 0.247188 -1.310554 -2.021081 -0.456811 0.758236 0.271816 0.297478 -0.121618 -2.198032 0.334248 0.303604 -0.599690 -1.121237 0.134933 1.648853 0.664901 0.842543
经理 -1.258897 0.235346 0.100063 0.584234 -0.281257 -2.325180 0.796693 0.755792 1.034582 -0.073407 -0.949794 0.274291 1.961876 -1.682042 -0.500481 -0.164882 -1.628411 -0.278394 -1.551852 0.544926 -0.210554 -0.943067 -0.386389 -0.816126 1.606127
提出 -1.523021 0.319019 -1.963292 1.350371 -1.500600 -2.843105 -0.869923 -0.212197 -0.100166 0.075485 0.750084 0.121060 1.035866 -2.970649 0.582251 -0.742963 -1.202544 0.324617 -0.919377 -0.246447 -0.134012 -1.683807 -0.385150 0.834168 1.233981
真是 -0.717515 0.115464 -0.690751 0.089225 -0.207240 -1.649452 0.187061 0.705216 0.424540 -0.837987 -0.208017 -0.076566 1.132534 -0.804078 1.494500 -0.297206 -1.258487 0.548714 0.020256 0.160617 -0.593658 -0.487914 -0.216307 -0.293604 0.941490
声音 -0.375644 0.299089 0.273876 -1.245744 0.611659 -0.707274 1.669779 1.866672 1.457113 -1.699622 -1.406721 -0.813669 1.313147 0.302309 0.889651 -0.419688 -2.421478 0.016102 -0.267265 0.321860 -0.552968 0.250040 -0.248219 -0.913487 0.844043
窗户 -0.079955 0.244128 0.354528 -1.441855 0.722354 -1.185682 1.672058 1.688843 1.405109 -1.694655 -1.671157 -0.883997 1.205754 0.538348 1.203651 -0.287785 -2.413935 0.174750 0.105462 0.040816 -0.873250 0.275857 0.267413 -0.637526 0.894634
12 -1.400988 0.457391 -1.472207 1.226044 -1.615766 -2.243968 -0.052271 0.347186 -1.146127 -0.365091 -0.609580 0.094625 0.387354 -2.949301 0.490016 -1.432308 -1.695857 -0.179779 -1.167792 -0.434727 -0.398255 -1.027979 -1.363101 1.139306 0.574434
附近 -0.276364 -0.073844 -1.063237 0.109395 0.096155 -0.571059 0.924683 1.063009 0.201054 -0.869098 -0.129682 -0.527196 0.543724 -0.473630 2.710352 -0.275042 -1.293945 0.147176 0.903935 -0.092426 -1.178666 -1.131092 -1.184474 -0.805029 -0.288964
热情 -0.006022 -0.217703 0.154866 0.046754 0.451418 -1.418624 1.529404 0.893319 1.681083 -0.523455 -0.052865 -0.388826 1.318614 -0.243693 0.740772 0.542660 -1.215034 0.107105 -0.365403 0.494950 -0.630271 -1.111220 0.100982 -1.301336 1.199574
吵 -0.081155 0.062524 0.042628 -0.801884 0.484360 -0.411299 1.516414 1.538460 1.053392 -1.431106 -0.951883 -0.780184 0.815068 0.207364 1.400765 -0.227110 -1.742804 0.077009 0.219519 0.107648 -0.604828 0.023242 -0.431043 -0.796634 0.542181
告诉 -0.928368 0.286000 0.208364 0.441064 -0.339516 -2.625338 0.554759 0.354583 0.430476 0.006876 -1.149423 0.462737 1.600324 -1.375830 -0.598666 -0.150400 -1.692760 -0.200436 -1.212690 0.372602 -0.559869 -0.860253 0.036978 -0.206762 1.537425
结帐 -1.034499 0.196671 0.114847 0.686551 -0.562700 -2.449554 0.693102 0.547136 0.266287 0.014463 -1.025317 0.274642 1.368167 -1.742806 -0.323606 -0.470244 -1.677423 -0.319741 -1.425214 0.299255 -0.468687 -1.025098 -0.407613 -0.112168 1.281937
毛巾 -0.208829 0.160253 0.315464 -0.938737 0.698982 -1.085602 1.561789 1.649902 1.428176 -1.327390 -1.190415 -0.731064 1.272786 0.317965 1.313080 -0.057695 -1.959899 0.286697 -0.085067 0.281853 -0.798978 -0.137485 -0.161154 -0.997359 0.954788
天 -0.939692 0.414170 -0.602018 0.164195 -0.568921 -2.188800 -0.156513 0.370235 -0.325683 -0.596294 -0.716482 0.236902 0.995703 -1.192906 0.658220 -0.646880 -1.443549 0.323444 -0.301832 -0.104406 -0.590948 -0.423686 -0.057583 0.443293 0.891555
现在 -0.767645 0.368069 -0.804581 0.234641 -0.359597 -1.822925 -0.028211 0.434479 -0.001369 -0.592560 -0.154023 0.127077 1.000241 -1.035867 1.046144 -0.349773 -1.243750 0.389476 -0.108814 0.099810 -0.572967 -0.631416 -0.251667 -0.016005 0.732150
行李 -0.926365 0.208001 -0.129826 0.429318 -0.186134 -2.021810 1.003536 0.805304 0.793489 -0.356070 -0.980199 0.009286 1.460063 -1.361633 0.032409 -0.315747 -1.745914 -0.401100 -1.089869 0.361193 -0.448804 -0.961519 -0.350012 -0.416322 1.101077
两个 -0.478951 0.324605 0.140370 -0.412310 0.172617 -1.769587 0.987907 0.890311 0.734398 -0.829576 -1.169697 -0.233117 1.237197 -0.455916 0.328419 -0.233253 -1.831590 -0.024384 -0.457310 0.147264 -0.626052 -0.377393 0.154474 -0.298346 1.006039
星级 0.181549 0.104913 -0.953753 -0.417836 -0.003543 -1.622127 0.349195 0.607770 0.753075 -1.072683 0.261449 -0.581685 0.601996 -0.297767 2.177380 0.275250 -0.975818 1.279561 1.157475 -0.347855 -0.902123 -0.768770 0.117314 -0.333850 0.647909
感谢您 -1.832767 0.341079 -3.396368 1.766494 -2.131354 -3.427868 -1.475661 -0.304970 -0.834520 -0.327851 1.359794 -0.003272 0.793166 -3.841377 2.162072 -1.150476 -1.385660 0.775323 -0.284567 -0.629690 -0.467296 -2.126626 -0.775058 1.281281 0.955551
地毯 0.189314 0.247424 0.174515 -1.457988 0.891283 -0.951537 1.570876 1.617571 1.584975 -1.664871 -1.145908 -1.096585 0.875937 0.707391 1.683499 -0.015873 -1.951592 0.507404 0.488099 -0.174046 -0.904523 0.241922 0.229317 -0.661852 0.694945
楼层 -0.353865 0.342453 0.160928 -0.541165 0.090978 -2.192431 0.863936 0.670451 0.725357 -0.836176 -1.545661 -0.402380 1.162847 -0.443313 0.159528 -0.252567 -1.973548 0.081063 -0.453042 -0.251909 -0.814795 -0.128024 0.623115 0.114354 1.104797
好像 -0.258460 0.137258 -0.189656 -0.443687 0.267668 -1.190057 0.994076 1.015496 0.777526 -0.976569 -0.689032 -0.526879 0.928966 -0.142556 1.144503 -0.125156 -1.541056 0.235233 0.080204 0.027396 -0.753212 -0.410603 -0.193282 -0.508701 0.710766
帮 -0.877782 0.225281 0.219368 0.268860 -0.110690 -2.285040 0.668955 0.555784 0.793239 -0.138705 -1.034948 0.349850 1.701589 -1.053715 -0.499149 -0.078942 -1.738210 -0.322882 -1.139624 0.537807 -0.416708 -0.815321 0.121239 -0.485753 1.426842
收费 -0.610334 0.273272 -0.069507 -0.002607 -0.056997 -1.604556 0.560507 0.768377 -0.058494 -0.539003 -0.900075 -0.138958 0.739354 -0.664533 0.845575 -0.353392 -1.480181 0.091289 -0.333906 -0.179522 -0.913932 -0.570112 -0.317410 0.035353 0.610563
新 0.210221 0.193302 -0.505881 -0.697834 0.295226 -1.260833 0.955767 0.904511 0.711126 -1.139473 -0.565484 -0.806359 0.424589 -0.047253 1.782166 0.025440 -1.409894 0.599264 0.766597 -0.462241 -0.972495 -0.380765 0.079458 -0.225191 0.327656
唯一 -0.137083 -0.035998 -0.451712 -0.273800 0.264331 -0.870979 0.978941 0.993363 0.731155 -1.026557 -0.263252 -0.468295 0.768009 -0.101845 1.963996 -0.077192 -1.323105 0.411762 0.537869 0.074671 -0.855583 -0.592804 -0.400280 -0.759398 0.476575
客户 -0.896850 0.256873 -1.272212 0.598450 -0.797828 -2.431958 -0.433830 -0.075854 -0.136276 -0.314712 0.221497 0.278625 0.997112 -1.663809 0.864854 -0.342212 -1.211138 0.489784 -0.120474 -0.134573 -0.486999 -1.048834 -0.047710 0.383465 1.015193
失望 -0.069294 0.108400 -1.105181 -0.097646 -0.189503 -1.443553 0.065744 0.375547 0.265514 -0.882731 0.463748 -0.292187 0.589807 -0.490215 1.896993 -0.050459 -0.895961 0.939603 0.818702 -0.183505 -0.660576 -0.689485 -0.064055 -0.223309 0.539756
情况 -0.753645 0.190290 -0.744304 0.322103 -0.535738 -2.139056 0.090469 0.277167 0.362698 -0.338383 -0.106530 0.057552 1.138131 -1.233394 0.593612 -0.186749 -1.373565 0.333831 -0.253471 0.047819 -0.547875 -0.980849 -0.059153 -0.015381 1.070127
告知 -1.143520 0.433293 -0.085945 0.471671 -0.595693 -2.896488 0.307666 0.379296 0.099313 -0.141787 -1.299302 0.335686 1.455732 -1.683198 -0.515507 -0.511132 -1.937196 -0.246049 -1.283192 0.228823 -0.498965 -0.776563 0.023720 0.304515 1.332318
宽带 -0.223959 0.377710 0.169628 -0.540388 0.390176 -1.862529 0.885724 0.775335 0.125162 -0.793637 -1.017083 -0.402180 0.793662 -0.071694 0.731987 -0.288119 -1.752298 -0.106642 -0.194256 -0.473858 -0.963611 -0.390313 0.437785 0.279232 0.634123
机场 -0.658797 0.021155 -1.107598 0.927049 -0.621149 -0.993360 0.518459 0.609422 -0.451427 -0.129072 -0.426402 -0.132038 0.298969 -1.358361 1.637682 -0.513279 -1.175093 -0.236531 0.133982 -0.231620 -1.012351 -1.506214 -1.342808 -0.180341 -0.190981
预订 -0.601154 0.207758 -0.551543 0.328738 -0.740363 -2.744343 -0.264683 -0.200183 -0.161234 -0.040568 -0.513759 0.348605 0.976118 -1.331336 -0.149452 -0.188818 -1.403640 0.280746 -0.424205 -0.157730 -0.443230 -0.812073 0.383788 0.667935 1.207653
吃饭 -0.286511 -0.184114 -0.593024 0.304952 0.105298 -0.282712 1.329908 1.309328 0.463323 -0.751529 -0.691890 -0.498324 0.622270 -0.487377 2.125242 -0.212636 -1.398180 -0.170824 0.354069 0.167720 -1.050143 -1.115705 -1.358380 -1.078594 -0.168912
这种 -0.592439 0.126990 -0.853623 0.099455 -0.271416 -1.668520 -0.088999 0.373476 0.348191 -0.673162 0.193907 -0.062264 0.985149 -0.820162 1.451794 -0.109980 -1.023697 0.767498 0.246987 -0.004059 -0.535487 -0.668401 -0.071491 -0.189810 0.887272
品种 -0.269152 -0.108749 -0.359788 -0.225319 0.436266 -0.478773 1.452719 1.591144 0.651333 -1.562035 -0.021264 -0.828357 0.832834 0.160993 2.643601 -0.175300 -1.385804 0.632077 0.645616 0.082500 -1.109789 -0.680812 -0.712398 -1.037101 0.543256
20 -1.081319 0.353249 -0.724761 0.856936 -0.881764 -1.612216 0.078660 0.355206 -1.047794 -0.169663 -0.865000 0.109725 0.206761 -1.774195 0.664030 -0.855298 -1.314821 -0.277489 -0.669571 -0.451257 -0.990198 -0.931970 -0.965987 0.630744 0.149596
水 -0.395920 0.295242 0.293459 -0.722393 0.435695 -1.344525 1.441398 1.435759 1.079646 -1.095280 -1.416019 -0.558910 1.230903 -0.067810 0.774849 -0.246348 -2.021492 0.002672 -0.435893 0.188980 -0.746681 -0.182780 -0.226602 -0.674448 0.865990
很小 0.257556 0.222291 0.251489 -1.513969 0.916909 -1.123052 1.472872 1.455414 1.173928 -1.655017 -1.436859 -0.901059 0.879448 0.864078 1.602929 -0.009476 -2.049187 0.417183 0.714667 -0.136231 -1.093767 0.216159 0.528020 -0.511802 0.566423
安静 0.174150 0.059371 -0.408262 -0.713477 0.496099 -0.867702 1.282372 1.230404 0.841612 -1.283848 -0.623125 -0.917228 0.618565 0.160503 2.102572 -0.064679 -1.590444 0.349961 0.840282 -0.228625 -1.043261 -0.331949 -0.186144 -0.587951 0.238524
近 -0.216762 -0.072611 -0.833449 0.214024 -0.040336 -0.744612 0.941668 0.927449 0.221063 -0.716494 -0.285502 -0.479313 0.435752 -0.501634 2.235206 -0.250537 -1.230152 0.100275 0.642940 -0.137457 -1.009594 -1.063877 -0.888923 -0.624272 -0.062761
总台 -0.910267 0.210364 0.166237 0.322835 -0.182132 -2.121517 0.894673 0.816310 0.883445 -0.327572 -1.100484 0.043194 1.614944 -1.230420 -0.285845 -0.235664 -1.718478 -0.227266 -1.304411 0.423925 -0.444437 -0.728681 -0.228327 -0.484486 1.426061
当时 -0.728764 0.198766 -0.313662 0.390588 -0.489221 -2.028852 0.447051 0.349179 0.268418 -0.224103 -0.664850 0.149111 1.101941 -1.348834 0.044527 -0.335508 -1.438560 -0.020488 -0.708308 0.079462 -0.502074 -0.787466 -0.252899 -0.022648 1.059127
15 -1.236522 0.346207 -0.958411 1.084540 -1.142606 -1.802339 0.010262 0.332981 -1.199090 -0.170795 -0.985455 0.049007 0.189711 -2.190223 0.693257 -1.077129 -1.475326 -0.403248 -0.746304 -0.544656 -0.960370 -1.041769 -1.122077 0.817841 0.112662
热水 -0.513715 0.375541 0.109459 -0.407656 0.145477 -1.267195 1.164031 1.200736 0.753006 -0.904011 -1.258859 -0.383710 1.063687 -0.413438 0.467738 -0.408509 -1.751001 -0.173714 -0.553008 0.129520 -0.585268 -0.201115 -0.321691 -0.378175 0.718120
30 -1.334468 0.305247 -0.823919 1.104645 -1.195569 -1.822935 0.263917 0.479805 -0.929831 -0.154274 -0.947849 0.082780 0.533816 -2.302863 0.397982 -1.094645 -1.521506 -0.375428 -1.125717 -0.289136 -0.694691 -1.063956 -1.307132 0.685359 0.439917
定 -0.322907 0.253408 -0.357392 -0.297319 -0.223240 -2.423910 -0.115528 -0.019491 -0.217901 -0.622018 -0.885531 0.080345 0.770778 -0.591971 0.551854 -0.206487 -1.496388 0.523221 0.217659 -0.330580 -0.756339 -0.210862 0.803640 0.608135 0.941746
评价 -0.360882 0.102373 -1.196290 0.196061 -0.450887 -1.584864 -0.207385 0.101345 0.055617 -0.563178 0.484522 -0.033269 0.610305 -1.010501 1.413280 -0.235148 -0.791692 0.722624 0.438732 -0.181187 -0.523878 -0.710750 -0.123824 0.027076 0.671405
电视 -0.255667 0.448919 0.090946 -1.013107 0.732641 -1.148985 1.341761 1.509590 0.899023 -1.369575 -1.115052 -0.486998 1.114666 0.390222 1.281950 -0.223152 -2.089941 -0.001805 0.131263 0.213080 -0.862801 -0.073996 -0.027421 -0.746112 0.448244
第一次 -0.356805 0.088437 -0.939394 -0.019647 -0.387653 -1.663205 -0.218382 0.131911 0.116026 -0.587883 0.222743 0.047587 0.786596 -0.747271 1.274004 -0.154951 -0.885711 0.735038 0.559809 -0.143676 -0.544119 -0.638521 0.067546 -0.009917 0.709763
最好 -0.135233 0.068441 -0.893296 -0.134474 -0.142775 -1.321526 0.275952 0.559815 0.413235 -0.758447 0.120718 -0.331411 0.710510 -0.484817 1.819200 -0.036090 -0.956249 0.731101 0.753400 -0.170924 -0.743544 -0.710553 -0.164516 -0.286423 0.477166
四星级 -0.011890 0.110627 -0.957820 -0.302009 -0.008775 -1.379821 0.444765 0.703666 0.626376 -1.089439 0.156523 -0.581629 0.524902 -0.405619 2.112776 0.070379 -1.057216 0.996681 0.868325 -0.375320 -0.850512 -0.630048 -0.088484 -0.302436 0.563113
少 -0.129143 -0.034334 -0.134533 -0.239699 0.409420 -0.516070 1.254006 1.180398 0.634201 -1.140132 -0.362405 -0.511726 0.709867 0.122068 1.733440 -0.193832 -1.315975 0.314547 0.390568 0.203669 -0.853039 -0.541390 -0.625279 -0.965707 0.501411
安排 -0.512265 0.300362 -0.252515 0.010242 -0.185084 -2.182446 0.318858 0.274277 0.326292 -0.345921 -0.717065 0.038806 1.068444 -0.914084 -0.011554 -0.181754 -1.493964 0.001868 -0.419638 -0.046188 -0.426829 -0.583607 0.376289 0.165558 0.989385
请 -0.856716 0.162118 -0.650046 0.344330 -0.497327 -2.132045 0.084553 0.381223 0.449524 -0.326966 -0.200796 0.152415 1.352114 -1.289971 0.647743 -0.215115 -1.354301 0.308078 -0.428073 0.189838 -0.435506 -0.892414 -0.179019 -0.191744 1.167576
喜欢 -0.169472 0.082939 -0.665156 -0.468318 0.193364 -1.385735 0.628679 0.831586 0.708741 -1.044478 -0.220683 -0.472959 0.940606 -0.229386 1.884642 -0.120290 -1.439768 0.537551 0.684391 -0.057872 -0.845851 -0.573980 -0.063106 -0.495367 0.618920
外面 -0.580769 0.192896 -0.086887 -0.526025 0.235530 -1.012467 1.138292 1.379396 0.830218 -1.189833 -1.070089 -0.480494 1.114963 -0.234457 1.147489 -0.397707 -1.827250 0.045466 -0.220066 0.207337 -0.703186 -0.170614 -0.447307 -0.574701 0.742817
11 -1.168046 0.444239 -1.310577 0.890971 -1.339022 -2.099355 -0.152537 0.198424 -0.927616 -0.385891 -0.622600 0.037841 0.423151 -2.486892 0.354597 -1.270596 -1.526994 -0.092937 -0.942656 -0.449101 -0.359442 -0.729360 -0.891472 1.171141 0.506012
钱 -0.903731 0.206776 -0.421010 0.306783 -0.379981 -1.753374 0.259785 0.551382 0.001850 -0.477902 -0.578190 0.098904 0.998147 -1.048886 0.889153 -0.414252 -1.330192 0.172450 -0.268975 0.071999 -0.732468 -0.764925 -0.466660 -0.120838 0.827909
直接 -0.750324 0.330928 -0.008325 0.130303 -0.090974 -1.997363 0.640760 0.626518 0.438311 -0.378491 -0.954625 0.123090 1.257892 -0.919114 0.172094 -0.267076 -1.715114 -0.170521 -0.667151 0.246507 -0.564268 -0.704827 -0.113413 -0.233506 0.960874
无法 -0.473463 0.207172 -0.145433 -0.307838 0.054766 -1.441033 0.921875 1.006511 0.742427 -0.912466 -0.807788 -0.349227 1.089715 -0.505549 0.656593 -0.297683 -1.672284 0.145003 -0.350523 0.143176 -0.551025 -0.323994 -0.072261 -0.338252 0.898025
旁边 -0.369711 -0.000448 -0.688173 -0.078193 0.081359 -0.954740 0.966768 1.095449 0.568868 -0.934939 -0.400739 -0.488982 0.805832 -0.464623 2.058099 -0.229160 -1.491513 0.225258 0.491830 0.020777 -0.931746 -0.798782 -0.671233 -0.744253 0.333509
招待所 0.164718 0.064468 -0.436426 -0.804690 0.481726 -0.914026 0.935515 1.159016 1.016701 -1.383119 -0.193423 -0.737393 0.670654 0.375601 2.214645 0.130651 -1.282962 0.877228 0.938976 -0.121211 -0.873586 -0.271055 0.015868 -0.718354 0.524472
方面 -0.189096 -0.026199 -0.913645 -0.098143 -0.038121 -1.311693 0.454343 0.622416 0.800896 -0.857716 0.374890 -0.474338 0.736228 -0.468454 1.870427 0.067802 -0.961333 0.714178 0.568385 -0.123499 -0.689188 -0.777551 -0.093344 -0.501351 0.668664
本来 -0.500205 0.230542 -0.483286 -0.190797 -0.173484 -1.865200 0.279089 0.576839 0.313168 -0.822245 -0.654361 -0.085703 1.018660 -0.680069 0.975201 -0.336817 -1.522233 0.428797 -0.006213 0.033541 -0.655829 -0.406168 -0.032915 -0.051970 0.851023
洗澡 -0.291012 0.270113 0.118278 -0.760942 0.447936 -0.989013 1.428383 1.450576 1.055794 -1.212747 -1.288533 -0.688725 1.027876 0.035790 1.010849 -0.314855 -1.914492 -0.006204 -0.227823 0.153924 -0.713625 -0.107659 -0.301040 -0.632935 0.655195
出租车 -0.612067 0.014266 -0.523135 0.337091 -0.083989 -0.999798 1.038797 0.957967 0.448703 -0.492801 -0.685229 -0.266499 0.806133 -0.788030 1.277260 -0.187118 -1.405879 -0.176626 -0.008186 0.107635 -0.857821 -1.136694 -0.960174 -0.713264 0.315558
升级 -0.199036 0.433640 0.120351 -0.604952 0.224299 -2.784953 0.393795 0.162887 0.239104 -0.846527 -1.453979 -0.277336 0.954070 -0.185399 0.094893 -0.180962 -1.954452 0.220871 -0.165072 -0.616800 -0.836960 -0.162441 1.392726 0.742224 1.110253
考虑 -0.470010 0.234438 -1.302533 0.105439 -0.377494 -1.592680 -0.442774 0.226978 -0.112559 -0.502115 0.653746 0.159999 0.875075 -0.838216 2.057295 -0.216883 -0.815728 0.609720 0.902940 -0.024157 -0.584710 -0.963104 -0.294838 -0.226543 0.348817
贵 -0.093347 0.047259 -0.689246 -0.224104 0.033903 -1.109353 0.528864 0.762016 0.240286 -1.040950 -0.018682 -0.471939 0.602067 -0.261276 2.126047 -0.120956 -1.086475 0.712733 0.826177 -0.208965 -0.932573 -0.574174 -0.354634 -0.358692 0.470559
老 0.372120 0.093572 -0.378300 -0.764183 0.511652 -0.865686 1.262958 1.128703 1.030947 -1.224618 -0.296508 -0.867290 0.502148 0.289810 2.033816 0.197411 -1.341994 0.662119 0.995924 -0.266425 -1.042197 -0.526533 -0.101160 -0.717309 0.300616
火车站 -0.183043 -0.129144 -0.868175 0.191971 -0.033850 -0.506662 0.823519 0.909680 0.175579 -0.683060 -0.228211 -0.516544 0.277016 -0.433156 2.528455 -0.224004 -1.100482 0.104361 0.877523 -0.200226 -1.123170 -1.015000 -1.047415 -0.638571 -0.276054
一间 -0.269594 0.510463 0.167278 -0.792451 0.246653 -2.448196 0.458132 0.407554 0.310173 -0.883652 -1.657221 -0.115377 1.036859 -0.067457 0.166847 -0.165372 -2.005969 0.269416 -0.030899 -0.261171 -0.816441 0.061726 1.190722 0.420983 0.959055
相当 0.069300 -0.070227 -0.578474 -0.402622 0.430820 -0.995734 1.041864 1.135129 1.071019 -1.165504 -0.001799 -0.624987 0.861329 0.083180 2.299262 0.179761 -1.341873 0.606061 0.795072 0.056474 -0.925305 -0.682602 -0.143815 -0.954109 0.609543
值得 -0.239377 -0.118010 -0.999406 -0.139149 0.063501 -1.273739 0.113071 0.626380 0.458312 -1.059035 0.632804 -0.237324 1.005674 -0.315248 2.503614 0.044047 -0.898962 1.066414 0.960849 -0.001402 -0.683255 -0.523123 -0.052369 -0.545525 0.826422
周围 -0.023170 -0.117186 -0.757557 -0.134566 0.304720 -0.450083 1.196640 1.218210 0.595151 -1.048287 -0.375848 -0.703481 0.532978 -0.133246 2.581216 -0.161255 -1.337394 0.180151 0.874112 -0.028607 -1.135440 -0.796966 -0.892512 -0.927365 -0.116399
上海 -0.568165 0.154975 -0.993005 0.118434 -0.368874 -1.565394 0.080601 0.460647 0.120461 -0.691396 0.061260 -0.047354 0.876215 -0.967460 1.499263 -0.335710 -1.156661 0.496742 0.287814 -0.070946 -0.663593 -0.768678 -0.369486 -0.177157 0.618856
员工 -0.650171 0.031649 -1.053169 0.571449 -0.413749 -1.794211 0.331532 0.521343 0.794465 -0.423167 0.442779 -0.285912 1.005734 -1.350555 1.151282 -0.050147 -1.121839 0.400207 -0.244795 0.027159 -0.438491 -1.378143 -0.279585 -0.381687 1.059030
坏 -0.401140 0.423486 0.363740 -0.790801 0.493723 -1.677024 1.448565 1.355809 1.216194 -1.045157 -1.474529 -0.384562 1.490602 -0.055603 0.460200 -0.185308 -2.169758 -0.108114 -0.504155 0.340755 -0.744599 -0.223865 0.054085 -0.682515 0.962950
还会 -0.452170 0.318815 -1.656169 -0.096793 -0.438284 -2.039197 -0.776301 0.223377 -0.173445 -0.597470 1.050814 0.314153 1.308633 -0.865167 2.838202 -0.235992 -0.862783 0.795322 1.366887 0.157692 -0.642401 -1.236034 -0.248949 -0.526010 0.342817
香港 -0.352095 0.138519 -1.070771 -0.026294 -0.147007 -1.626868 0.277193 0.668837 0.174608 -0.843701 -0.047276 -0.217651 0.807070 -0.714144 2.249997 -0.272231 -1.355209 0.544567 0.765236 -0.083602 -0.953941 -0.931067 -0.413400 -0.341735 0.329677
联系 -1.455614 0.430778 -1.456402 1.358941 -1.205102 -2.769952 -0.322171 0.004199 -0.550540 0.063172 -0.070244 0.352297 1.112813 -2.579666 0.353225 -0.765832 -1.421247 0.032213 -1.111994 -0.076545 -0.381291 -1.333359 -0.766593 0.661798 1.079011
打车 -0.487931 0.006376 -0.852409 0.595612 -0.218968 -0.725018 0.767236 0.902161 -0.138978 -0.448827 -0.445629 -0.254925 0.390305 -0.928351 1.934773 -0.362392 -1.218773 -0.202872 0.320388 -0.073075 -0.986729 -1.211558 -1.252618 -0.556930 -0.206286
五星 0.070986 0.168778 -0.971664 -0.464366 0.012967 -1.499827 0.298496 0.653054 0.722696 -1.198480 0.176640 -0.547012 0.523149 -0.206995 2.199680 0.219817 -0.881390 1.333967 1.135463 -0.421629 -0.889209 -0.600676 0.134854 -0.310840 0.604137
2007 -1.439083 0.480946 -2.502274 1.464253 -1.408385 -2.234026 -0.669723 -0.032583 -1.387736 -0.635791 0.465760 -0.143731 0.196574 -3.134887 1.855124 -1.342584 -1.187174 0.409380 -0.516724 -0.677747 -0.520299 -1.099377 -1.366283 1.139083 0.388288
速度 -0.419302 0.184417 0.206256 -0.157888 0.200180 -1.779775 1.117733 0.837537 0.712348 -0.582895 -0.747478 -0.215497 1.116999 -0.528984 0.458087 -0.136746 -1.669455 -0.214875 -0.560049 0.108938 -0.694146 -0.639554 0.037915 -0.415270 0.952942
电脑 -0.320111 0.361634 0.130994 -0.631744 0.355827 -2.094369 1.060181 0.926526 0.626080 -0.919683 -1.424069 -0.424376 1.089428 -0.245032 0.543947 -0.236195 -2.107332 -0.000017 -0.294313 -0.179878 -0.928127 -0.394463 0.424142 -0.038328 0.856966
几个 -0.672249 0.147848 -0.355269 0.115398 -0.164256 -1.371071 0.655612 0.827039 0.520313 -0.633088 -0.611831 -0.126260 1.087117 -0.846349 0.824304 -0.338660 -1.440242 0.007128 -0.344057 0.224447 -0.573290 -0.646661 -0.470059 -0.460927 0.757278
隔壁 -0.095000 0.093992 -0.028857 -0.928273 0.516710 -0.676795 1.458931 1.444548 1.268842 -1.384094 -0.751801 -0.760574 0.923367 0.286670 1.189264 -0.143631 -1.923411 0.173954 0.122112 0.299607 -0.600757 -0.178121 -0.128634 -0.948767 0.758508
服务生 -0.544413 0.174597 -0.081123 0.147049 0.002126 -1.604033 0.953881 0.828774 0.778925 -0.584631 -0.628374 -0.191924 1.181284 -0.813305 0.472688 -0.147309 -1.501907 -0.079434 -0.622901 0.275452 -0.582309 -0.797348 -0.316574 -0.567953 0.945568
投诉 -1.091033 0.238656 -0.441355 0.561386 -0.489757 -2.199486 0.285339 0.452459 0.402629 -0.270699 -0.521152 0.190474 1.421505 -1.593101 0.170291 -0.324911 -1.524386 0.020115 -0.996949 0.223749 -0.363635 -0.880407 -0.372556 -0.183369 1.325451
带 -0.598013 0.254708 -0.496048 0.057823 -0.124430 -1.674420 0.508474 0.614976 0.273151 -0.558081 -0.561599 -0.129416 0.952646 -0.868505 0.873917 -0.345228 -1.479558 0.040525 -0.191603 -0.027859 -0.688601 -0.690376 -0.205517 -0.113998 0.591186
回来 -0.952171 0.284594 -0.190111 0.224998 -0.321819 -1.840873 0.672154 0.852306 0.353187 -0.494173 -1.003893 0.085779 1.333605 -1.247557 0.333455 -0.543472 -1.736002 -0.157783 -0.885107 0.290213 -0.429429 -0.553027 -0.541267 -0.206439 1.025171
家 -0.241518 0.083196 -0.947396 -0.224593 -0.168008 -1.539902 0.231455 0.588757 0.446697 -0.880947 0.187692 -0.302633 0.804791 -0.603713 1.838818 -0.111118 -1.114241 0.760345 0.660487 -0.161439 -0.670004 -0.722654 -0.124533 -0.306732 0.660002
工作 -0.961090 0.146728 -0.993180 0.472632 -0.515898 -1.824438 -0.008576 0.545649 0.474758 -0.580752 0.220940 -0.112039 1.104248 -1.407709 1.225929 -0.329553 -1.162744 0.398533 -0.298924 0.049719 -0.385780 -0.934230 -0.273423 -0.165841 1.019483
尤其 0.101978 0.032088 -0.322551 -0.532840 0.400214 -1.284607 1.123428 1.038106 1.142496 -1.066736 -0.327351 -0.643666 0.927617 0.001503 1.628082 0.144391 -1.485874 0.535313 0.450068 0.024093 -0.840592 -0.590485 0.009940 -0.806535 0.723879
三星 0.217776 0.145532 -0.681636 -0.649161 0.277797 -1.181507 0.646071 0.846200 0.888495 -1.270610 -0.063034 -0.682387 0.446285 0.124114 2.152158 0.302942 -0.957807 1.190647 1.128225 -0.400399 -0.973643 -0.477289 0.035107 -0.514816 0.498782
走廊 -0.127048 0.197694 0.133505 -1.043674 0.580031 -1.145864 1.558994 1.510490 1.350733 -1.411096 -1.242253 -0.863512 1.109058 0.255255 1.227456 -0.117756 -2.047742 0.215058 0.080667 0.044739 -0.838834 -0.110026 0.001965 -0.780287 0.770152
说明 -0.990082 0.384814 -1.273355 0.924032 -0.767475 -2.579060 -0.126350 -0.038550 -0.342731 -0.083329 0.301296 0.009568 0.949221 -1.647098 0.622388 -0.211185 -1.289067 0.200219 -0.571417 -0.321747 -0.434073 -1.355292 -0.257381 0.610008 1.005808
确实 -0.224141 0.076492 -0.620944 -0.298655 0.146828 -1.099104 0.630516 0.859730 0.682311 -1.074098 -0.055238 -0.470498 0.717019 -0.198307 1.800674 -0.040252 -1.134691 0.588663 0.516715 -0.060988 -0.731399 -0.473940 -0.123824 -0.567056 0.590774
标间 -0.136178 0.402135 -0.045739 -0.880275 0.278736 -2.020587 0.565299 0.559009 0.310420 -1.120072 -1.402898 -0.382090 0.728679 0.130372 0.787673 -0.149704 -1.808933 0.419221 0.369923 -0.410753 -0.947267 -0.027919 0.892606 0.206229 0.806054
最差 0.028652 0.034338 -0.846642 -0.344917 -0.043651 -1.173835 0.068110 0.346690 0.467477 -0.857355 0.422506 -0.274641 0.595008 -0.169143 1.759843 0.091303 -0.755720 0.959329 0.978682 -0.138074 -0.630746 -0.512593 0.204117 -0.287942 0.557968
五星级 -0.135160 0.110863 -1.066128 -0.147831 -0.130179 -1.437713 0.359599 0.652320 0.495453 -0.995647 0.162789 -0.539226 0.545310 -0.624504 2.061033 -0.012666 -0.959576 0.958406 0.777190 -0.366817 -0.847941 -0.741503 -0.200601 -0.245243 0.496617
下午 -1.058474 0.253020 -0.415196 0.601953 -0.792431 -2.100903 0.338486 0.513155 -0.002606 -0.315205 -0.826318 0.164874 1.035703 -1.753743 0.016392 -0.673876 -1.549015 -0.081007 -1.015512 0.103961 -0.311472 -0.663711 -0.527128 0.277336 1.080843
整个 -0.091472 0.099852 -0.087408 -0.707753 0.382456 -1.159948 1.234745 1.187497 1.064148 -1.131889 -0.770847 -0.709094 0.929162 0.002422 1.351249 -0.076295 -1.614415 0.362250 0.240859 -0.030883 -0.801705 -0.248276 -0.062620 -0.586101 0.689037
水果 -0.718477 0.113501 -0.169946 0.008762 0.025336 -1.483560 0.693215 0.798395 0.446315 -0.796703 -0.445877 -0.116428 1.242092 -0.535651 0.871565 -0.274711 -1.373263 0.163180 -0.391482 0.123290 -0.545949 -0.384214 -0.089773 -0.310835 1.030968
店 -0.633551 0.125696 -1.414401 0.376297 -0.685476 -1.856885 -0.276380 0.221250 -0.034414 -0.599358 0.405378 0.075120 0.858756 -1.320377 1.739412 -0.388788 -1.112500 0.631485 0.404479 -0.184552 -0.576464 -1.051996 -0.418299 0.032324 0.645022
行政 -0.145748 0.535279 0.025311 -0.800967 0.287907 -2.538226 0.519873 0.384814 0.223288 -0.976159 -1.661237 -0.369386 0.900586 -0.147629 0.434535 -0.280023 -2.074161 0.328753 0.058916 -0.598696 -1.015998 -0.043004 1.237864 0.674685 0.912720
倒 -0.315716 0.111512 -0.207145 -0.248518 0.271636 -1.148458 1.035770 1.024927 0.689500 -0.858491 -0.753120 -0.393925 0.903088 -0.234339 1.358958 -0.166328 -1.532903 0.083086 0.108429 0.116744 -0.849940 -0.575613 -0.363515 -0.634269 0.488452
进行 -0.896645 0.207671 -1.367164 0.688012 -0.810456 -2.023771 -0.145721 0.190717 0.292673 -0.328761 0.443525 -0.189608 0.759827 -1.829944 0.956991 -0.339949 -1.107870 0.419138 -0.365023 -0.195803 -0.360033 -1.242458 -0.269431 0.217141 0.933510
信用卡 -1.005591 0.337646 -0.309382 0.496969 -0.536915 -2.463868 0.293710 0.295778 0.170245 -0.096384 -0.848891 0.270211 1.232118 -1.620945 -0.117863 -0.400769 -1.622513 -0.034514 -0.930105 0.057189 -0.439125 -0.841100 -0.149833 0.208886 1.130658
半天 -0.981850 0.257216 -0.045483 0.233990 -0.216362 -1.899749 0.730377 0.879622 0.573470 -0.500364 -1.092763 0.032468 1.368163 -1.170151 0.267532 -0.404230 -1.718568 -0.148978 -0.903493 0.316882 -0.533438 -0.632966 -0.415510 -0.384017 1.102598
太小 0.134658 0.109069 0.031858 -0.837935 0.572684 -0.981734 1.113572 1.071624 0.800771 -1.159703 -0.899489 -0.616225 0.717682 0.401686 1.292076 -0.019450 -1.598112 0.305217 0.494439 -0.019904 -0.836024 -0.145562 0.210539 -0.515020 0.532174
车 -0.604829 0.044426 -0.476868 0.240655 -0.205998 -1.313031 0.816003 0.811195 0.455130 -0.529295 -0.638293 -0.206001 0.880496 -0.868498 1.080966 -0.253573 -1.468087 -0.079266 -0.116710 0.097431 -0.771563 -0.954618 -0.670435 -0.481979 0.528787
出差 -0.427231 0.161374 -1.107558 0.026171 -0.320164 -1.586822 -0.195827 0.302605 0.076357 -0.624954 0.220193 0.018772 0.790736 -0.819792 1.645161 -0.289851 -0.960825 0.547516 0.552585 -0.117559 -0.592349 -0.715918 -0.114528 -0.060246 0.510611
打开 -0.442113 0.296461 0.169075 -0.705138 0.322814 -1.380643 1.141962 1.225407 0.938916 -1.014131 -1.268467 -0.394214 1.211629 -0.127238 0.607627 -0.290748 -1.943061 -0.034746 -0.367017 0.236827 -0.636469 -0.106348 -0.063381 -0.509507 0.851852
远 -0.086259 -0.004617 -0.677472 -0.127653 0.181478 -0.707736 1.012406 0.989320 0.426089 -0.827347 -0.307997 -0.594852 0.385245 -0.237793 2.185215 -0.103106 -1.255984 0.188910 0.764237 -0.161585 -1.030013 -0.866784 -0.736135 -0.655598 -0.058348
睡 -0.350988 0.148757 -0.040504 -0.594351 0.223407 -1.266631 1.062838 1.263641 0.822624 -1.218112 -1.046835 -0.469458 1.071392 -0.113504 1.089356 -0.300866 -1.870485 0.160491 -0.116561 0.202737 -0.690588 -0.128550 -0.173871 -0.519092 0.770356
打扫 -0.341831 0.097245 0.346211 -0.201250 0.089343 -1.432384 0.981028 0.843993 0.923787 -0.497329 -0.966987 -0.178919 1.175545 -0.514608 -0.013789 -0.088135 -1.464807 -0.061826 -0.677462 0.323596 -0.384835 -0.285487 0.010415 -0.407638 1.057591
分 -0.820179 0.279675 -1.086688 0.536067 -0.639148 -1.771068 0.217524 0.468586 -0.207912 -0.555173 -0.269576 -0.162869 0.633713 -1.611649 1.105411 -0.669514 -1.344936 0.229112 -0.317110 -0.231972 -0.629381 -0.869696 -0.707186 0.279930 0.596707
标准间 -0.063356 0.370648 -0.294651 -0.655701 0.152306 -1.971795 0.476277 0.474657 0.179554 -0.993639 -1.157108 -0.414822 0.572274 -0.043942 0.857809 -0.186297 -1.625426 0.437935 0.378951 -0.478804 -0.935190 -0.160214 0.718707 0.318492 0.595542
主动 -0.687434 0.116820 -0.048384 0.412112 -0.184447 -1.793373 0.731195 0.547620 0.721143 -0.174964 -0.560260 0.063335 1.253390 -1.035705 -0.143499 -0.085906 -1.381555 -0.196314 -0.939075 0.385178 -0.376564 -0.927202 -0.117933 -0.427690 1.096370
管理 -0.357838 0.037095 -0.842035 0.170724 -0.229237 -1.350041 0.341061 0.465025 0.613842 -0.612657 0.327052 -0.251887 0.764975 -0.826815 1.360164 -0.005692 -0.922241 0.566940 0.233704 -0.054327 -0.528944 -0.918138 -0.205110 -0.394016 0.755328
肯定 -0.580897 0.161794 -1.121395 0.134778 -0.359300 -1.593468 -0.245768 0.449338 0.173147 -0.634504 0.412034 0.040818 1.029067 -0.872611 1.806170 -0.239654 -0.959818 0.605309 0.440998 0.059637 -0.512013 -0.783837 -0.293009 -0.298658 0.624000
还好 -0.263141 0.006397 -0.245691 -0.200581 0.254119 -0.888076 0.909463 0.975375 0.715354 -0.852837 -0.411779 -0.435038 0.802064 -0.119137 1.429880 -0.030201 -1.225644 0.199961 0.178302 0.124430 -0.675817 -0.452684 -0.291465 -0.683203 0.540811
左右 -1.029971 0.292777 -0.504582 0.609232 -0.797202 -1.633315 0.330808 0.596291 -0.478434 -0.325483 -0.882226 0.082892 0.601987 -1.665579 0.367099 -0.863124 -1.479639 -0.234854 -0.784155 -0.091821 -0.550027 -0.655567 -0.874008 0.395722 0.557153
海景 -0.369592 0.269994 -0.980181 -0.271968 -0.193889 -1.855874 0.266140 0.590952 0.336166 -0.998197 -0.258502 -0.317931 0.861566 -0.678073 1.709365 -0.321922 -1.400790 0.680345 0.529853 -0.225411 -0.813346 -0.590577 0.075092 -0.063036 0.728594
没什么 -0.302365 -0.054971 -0.477233 -0.193760 0.144733 -0.725828 0.804993 0.966804 0.523991 -1.054216 -0.193890 -0.448830 0.773244 -0.174731 1.897418 -0.193531 -1.121713 0.415642 0.442731 0.072162 -0.737111 -0.426264 -0.464330 -0.646319 0.503506
原因 -0.552386 0.130057 -0.610822 0.084678 -0.293254 -1.674464 0.279208 0.530240 0.395187 -0.565605 -0.183553 -0.084342 0.967741 -0.882761 1.097857 -0.213267 -1.239241 0.428342 0.036002 0.022145 -0.571515 -0.686486 -0.189776 -0.227048 0.825658
卫生 0.070085 0.005173 -0.204234 -0.665411 0.527416 -1.115227 1.183055 1.179172 1.238474 -1.154873 -0.266891 -0.662980 0.956828 0.196257 1.783167 0.171677 -1.408034 0.545077 0.552624 0.073790 -0.817251 -0.410401 0.107773 -0.863753 0.786206
出 -0.639036 0.211241 -0.636872 0.021213 -0.206748 -1.772033 0.554854 0.758306 0.521057 -0.755960 -0.510753 -0.268038 1.064708 -0.933982 1.163829 -0.351621 -1.618322 0.242808 -0.187154 0.032338 -0.698492 -0.757178 -0.355341 -0.298933 0.795786
门 -0.206935 0.145957 0.167553 -0.673143 0.420901 -1.165168 1.369285 1.336196 1.129843 -1.120685 -1.209392 -0.603801 1.139338 0.048976 0.998069 -0.166582 -1.908771 0.109419 -0.166314 0.176101 -0.730307 -0.210155 -0.129131 -0.688859 0.752554
浴室 -0.209416 0.238600 -0.097436 -0.810283 0.391288 -1.299329 1.191692 1.332857 1.000116 -1.270204 -1.151994 -0.720302 1.019134 0.050160 1.432907 -0.220171 -1.865170 0.344367 0.138987 -0.005284 -0.876365 -0.145416 -0.044183 -0.508492 0.695032
设备 0.160349 0.139448 -0.234701 -0.824622 0.538714 -1.096506 1.070557 1.087287 0.998887 -1.240777 -0.443303 -0.758813 0.691847 0.326136 1.733726 0.107248 -1.509775 0.604315 0.695632 -0.182972 -0.919900 -0.305179 0.239986 -0.535573 0.545365
之后 -0.618397 0.253785 -0.297250 -0.085392 -0.172016 -1.979026 0.497237 0.574982 0.471777 -0.646511 -0.752627 -0.069692 1.177436 -0.891264 0.528506 -0.318797 -1.600255 0.194235 -0.315272 0.060252 -0.609497 -0.516109 0.054540 -0.096569 1.007288
房间内 -0.088275 0.195533 -0.161505 -0.669389 0.365599 -1.305417 1.115051 1.113986 0.852410 -1.072776 -0.839657 -0.648526 0.783278 -0.018171 1.351030 -0.101368 -1.649357 0.308706 0.246939 -0.152238 -0.875393 -0.336598 -0.043563 -0.426557 0.560821
完全 -0.401310 0.051700 -0.490998 -0.161458 0.004762 -1.401250 0.511322 0.788739 0.757290 -0.913185 -0.122393 -0.309368 0.901058 -0.517686 1.392661 -0.069977 -1.154699 0.621754 0.178008 0.006481 -0.587829 -0.386226 0.001796 -0.376159 0.967073
不知 -0.579004 0.202492 -0.519010 0.049524 -0.166370 -1.649666 0.474888 0.652021 0.414350 -0.664219 -0.351494 -0.150277 0.976009 -0.800179 1.043169 -0.171282 -1.348671 0.345433 -0.081698 0.002992 -0.637308 -0.664327 -0.202259 -0.262130 0.827121
解决 -0.875487 0.183086 -0.564066 0.400596 -0.458101 -1.802985 0.189161 0.429452 0.428230 -0.330409 -0.183912 0.073041 1.195935 -1.282738 0.405569 -0.299402 -1.257604 0.132038 -0.611936 0.199534 -0.362148 -0.834343 -0.292056 -0.175153 1.054642
床单 -0.312695 0.220227 0.075369 -0.667380 0.437798 -1.363424 1.110057 1.194238 1.045033 -1.045751 -1.018336 -0.508618 1.070492 -0.050569 0.978319 -0.092720 -1.730677 0.205708 -0.097516 0.088914 -0.729735 -0.193995 0.052781 -0.558516 0.837034
办法 -0.760486 0.215678 0.174818 -0.160592 0.028192 -1.563133 0.742239 0.914646 0.857571 -0.669112 -1.032231 0.071096 1.521093 -0.632236 0.215090 -0.196662 -1.585756 -0.004002 -0.681446 0.425987 -0.456387 -0.290868 -0.192788 -0.602437 1.163061
套房 -0.098623 0.348494 -0.247272 -0.800563 0.236401 -2.060987 0.611723 0.632385 0.454536 -1.106010 -1.129727 -0.435289 0.872243 -0.027640 1.078918 -0.176439 -1.823749 0.451359 0.454268 -0.390019 -0.970799 -0.188927 0.716243 0.152908 0.766836
大酒店 -0.760582 0.264539 -1.495040 0.350653 -0.652432 -1.865391 -0.421899 0.254534 -0.150617 -0.637183 0.417296 -0.015538 0.668301 -1.322078 1.715981 -0.453640 -1.006200 0.677495 0.336449 -0.259484 -0.520445 -0.812286 -0.205951 0.269827 0.599202
整体 0.229083 -0.069916 -0.522282 -0.621086 0.385897 -0.956673 0.838559 0.928884 0.971793 -1.164845 0.079265 -0.690478 0.636986 0.183374 2.097682 0.215863 -1.019958 0.800080 0.922526 -0.155337 -0.761020 -0.367594 0.084768 -0.682208 0.563486
房费 -0.880661 0.315524 -0.455305 0.329843 -0.460849 -2.012933 0.306817 0.566813 -0.010102 -0.469345 -0.733110 0.076442 1.047376 -1.210639 0.654339 -0.512500 -1.536541 0.102435 -0.487303 0.044147 -0.689068 -0.708422 -0.405589 0.059897 0.828731
脏 -0.010479 0.112020 -0.000796 -0.924380 0.654640 -0.936209 1.311183 1.399061 1.161241 -1.387231 -0.810524 -0.775331 0.940432 0.405852 1.826072 0.026200 -1.711870 0.415538 0.493354 0.076611 -0.905957 -0.147563 -0.051558 -0.849386 0.587959
缺点 -0.041798 0.024042 -0.107266 -0.501515 0.416331 -0.811174 1.134054 1.098794 0.849914 -1.040007 -0.551646 -0.608225 0.746224 0.091791 1.568108 -0.042182 -1.398670 0.258731 0.351101 -0.002199 -0.812033 -0.358945 -0.163637 -0.701415 0.507823
这是 -0.454034 0.062073 -0.684847 0.146645 -0.275853 -1.483430 0.249268 0.460456 0.379640 -0.503582 -0.081097 -0.121046 0.809505 -0.871821 1.139502 -0.141430 -1.016547 0.491185 0.115682 -0.063760 -0.569639 -0.656004 -0.200630 -0.202440 0.703570
改进 -0.761486 0.135395 -1.072281 0.351566 -0.545939 -1.552483 -0.294182 0.222406 0.306603 -0.495138 0.508577 -0.046360 0.877804 -1.191667 1.159870 -0.269640 -0.913940 0.552025 0.011988 -0.058548 -0.289942 -0.829658 -0.234317 -0.034282 0.875563
每次 -0.414131 0.122901 -0.749186 -0.038394 -0.229611 -1.659433 0.211973 0.414182 0.335547 -0.688225 -0.206502 -0.064579 0.888606 -0.751488 1.162302 -0.257818 -1.235763 0.465242 0.264652 -0.028113 -0.604867 -0.654949 -0.036689 -0.128352 0.703134
一张 -0.472016 0.376191 0.102988 -0.556184 0.302705 -1.904777 0.902925 0.888751 0.599260 -0.863149 -1.423958 -0.232507 1.072790 -0.252047 0.479644 -0.255987 -1.947157 -0.016341 -0.288877 0.008687 -0.824854 -0.282204 0.252819 -0.187523 0.786896
被子 -0.457809 0.205589 0.022804 -0.658541 0.388240 -1.426565 1.092744 1.343989 1.122269 -1.194760 -1.013181 -0.426052 1.324458 -0.141521 1.156690 -0.136955 -1.878281 0.254291 -0.113282 0.206182 -0.717512 -0.199144 -0.086340 -0.710368 0.976956
效果 0.127584 0.059561 0.004198 -1.215454 0.756179 -0.530804 1.561062 1.592188 1.515724 -1.721979 -0.421272 -0.854307 0.839978 0.763365 1.598302 0.065515 -1.894959 0.428119 0.514215 0.262035 -0.680411 -0.039214 0.112985 -1.197031 0.817318
意见 -1.118608 0.234560 -1.659109 1.025766 -1.206538 -1.987021 -0.720882 -0.069200 -0.231814 -0.099823 0.513106 0.087441 0.665685 -2.170644 0.736009 -0.582703 -0.919311 0.366034 -0.482160 -0.255434 -0.174828 -1.181753 -0.455081 0.675803 0.821441
事情 -0.811613 0.171954 -0.707115 0.278840 -0.416817 -1.856898 0.071049 0.414683 0.280929 -0.512312 -0.203800 0.030030 1.096475 -1.211303 0.872085 -0.317579 -1.274534 0.303151 -0.269809 0.069282 -0.444120 -0.732458 -0.190497 -0.075496 0.961980
估计 -0.425149 0.186920 -0.535141 -0.148533 -0.047783 -1.300756 0.403576 0.649755 0.455831 -0.770463 -0.256203 -0.233659 0.864722 -0.571056 1.181627 -0.188809 -1.182005 0.387876 0.080052 -0.006550 -0.584962 -0.500757 -0.193388 -0.276866 0.655686
门童 -0.403218 0.022952 -0.162028 0.097844 0.147618 -1.499965 1.098119 0.880496 1.014588 -0.627330 -0.455515 -0.246804 1.169404 -0.596817 0.802830 0.048085 -1.412505 -0.004819 -0.355077 0.299730 -0.605329 -0.914482 -0.190013 -0.801904 0.909780
算是 0.063334 0.020215 -0.654307 -0.418164 0.243170 -1.017415 0.750563 0.866406 0.550200 -1.099952 -0.014209 -0.579680 0.560151 -0.015936 2.228113 0.024541 -1.147509 0.704907 0.965253 -0.201942 -0.980745 -0.554395 -0.187269 -0.549690 0.390256
对面 -0.278373 0.029558 -0.800172 -0.151865 0.087501 -0.987078 0.922086 1.099531 0.575222 -1.000922 -0.361446 -0.547468 0.774047 -0.420140 2.105198 -0.219914 -1.491518 0.308843 0.572903 -0.046800 -0.921506 -0.800541 -0.637832 -0.639890 0.323847
号 -1.035635 0.318431 -1.432902 0.896728 -1.191091 -1.968844 -0.379550 0.003232 -0.882439 -0.275508 -0.206015 0.066618 0.338432 -2.132280 0.676825 -0.982648 -1.173168 0.040782 -0.485847 -0.393457 -0.413222 -0.907355 -0.556646 0.994825 0.396901
办理 -0.749442 0.260251 -0.183766 0.338986 -0.532037 -2.233449 0.493308 0.341196 0.373180 -0.093941 -0.645976 0.254402 1.117959 -1.364465 -0.114529 -0.403843 -1.462455 -0.202258 -0.778310 0.198536 -0.362053 -0.864203 0.001684 -0.034240 1.113506
冷 -0.515280 0.288155 -0.020014 -0.449144 0.143708 -1.151983 0.895984 1.128922 0.674940 -0.963841 -0.999346 -0.337843 1.048911 -0.429163 0.698623 -0.363045 -1.673568 0.047835 -0.350707 0.138764 -0.487864 -0.124991 -0.325275 -0.353810 0.729259
洗手间 -0.019815 0.185118 -0.019725 -1.022598 0.612222 -1.223079 1.431460 1.420797 1.319427 -1.404640 -1.044193 -0.806838 1.036212 0.306593 1.596532 -0.024727 -1.923528 0.351044 0.376249 -0.001543 -0.928190 -0.163797 0.097991 -0.734950 0.749549
原来 -0.445633 0.238679 -0.353658 -0.270416 -0.063255 -1.670787 0.641218 0.784994 0.494724 -0.842033 -0.754491 -0.304606 0.980615 -0.576220 0.998650 -0.320497 -1.625816 0.314155 -0.048537 -0.039030 -0.710469 -0.423600 -0.062904 -0.192390 0.828491
接待 -0.579321 0.084060 -0.155464 0.436647 -0.130835 -1.809765 0.775958 0.625706 0.876766 -0.308590 -0.343977 0.011214 1.265662 -1.041275 0.288494 -0.018023 -1.340485 -0.061861 -0.784775 0.372424 -0.486078 -0.956368 -0.221042 -0.662074 1.147564
如家 -0.223740 0.094737 -0.935155 -0.084973 -0.218757 -1.284086 0.096894 0.390916 0.171009 -0.698904 0.203649 -0.225598 0.586602 -0.603494 1.658701 -0.167645 -0.919567 0.677765 0.656440 -0.215016 -0.658734 -0.661352 -0.202301 -0.166299 0.467521
半夜 -0.472749 0.221914 -0.145663 -0.442766 0.100772 -1.310843 0.968902 1.130193 0.821013 -1.045083 -0.900154 -0.383025 1.058230 -0.427706 0.804938 -0.365015 -1.751008 0.093668 -0.316019 0.144891 -0.556577 -0.291608 -0.217421 -0.440361 0.839127
到达 -0.666673 0.201400 -0.438381 0.482794 -0.557788 -1.712658 0.383173 0.394267 -0.038764 -0.161706 -0.735514 0.043467 0.695558 -1.355350 0.197955 -0.435181 -1.324415 -0.168866 -0.599976 -0.070394 -0.534554 -0.867708 -0.445662 0.165453 0.592878
前 -0.805723 0.217138 -0.770299 0.245818 -0.452115 -1.857603 0.164485 0.456430 0.135369 -0.611435 -0.379765 0.005906 0.971942 -1.255494 0.839696 -0.487969 -1.351356 0.237002 -0.282944 0.039551 -0.516877 -0.664025 -0.275930 0.023828 0.876412
check -0.771389 0.228711 -0.101281 0.292740 -0.228735 -1.907637 0.718168 0.671293 0.548369 -0.428682 -0.745876 -0.026344 1.184381 -1.096910 0.251723 -0.299628 -1.504974 -0.095288 -0.811615 0.191036 -0.536238 -0.701824 -0.165276 -0.307273 1.080761
很近 -0.252039 -0.029123 -0.954698 0.083277 -0.080314 -0.931244 0.755269 0.884143 0.299378 -0.770608 -0.244222 -0.440276 0.501339 -0.556733 2.210330 -0.233259 -1.302648 0.208578 0.664686 -0.173000 -1.024144 -0.973394 -0.732913 -0.543060 0.030266
站 -0.820554 0.148832 -0.582726 0.353588 -0.220060 -1.537116 0.772898 0.857901 0.404299 -0.537651 -0.723174 -0.241067 0.981666 -1.050845 1.163432 -0.380181 -1.598363 -0.126853 -0.314413 0.083426 -0.817945 -1.008140 -0.762542 -0.438863 0.549711
光临 -1.255049 0.218442 -1.760022 0.905056 -1.044999 -2.067957 -0.981237 0.101061 -0.195047 -0.303213 0.808480 0.103048 0.900934 -2.000437 1.612953 -0.550456 -0.835837 0.524428 -0.121928 -0.163326 -0.205808 -1.144719 -0.350312 0.371680 0.863026
舒适 0.106051 -0.001996 -0.465381 -0.637900 0.407853 -1.178354 0.846250 0.985282 0.869503 -1.123979 -0.313663 -0.695254 0.698479 0.132160 1.869920 0.060727 -1.415305 0.537223 0.726999 -0.167885 -0.887183 -0.417621 0.138901 -0.491094 0.493081
一股 -0.010098 0.200407 0.213122 -1.088345 0.634433 -1.179463 1.434956 1.332783 1.218585 -1.310567 -1.298138 -0.797409 0.940416 0.367725 1.190351 -0.066293 -1.929189 0.251956 0.273824 -0.050666 -0.878058 0.003064 0.165380 -0.527804 0.693989
进 -0.272775 0.179944 -0.042370 -0.370262 0.089278 -1.439588 0.865914 0.852504 0.706925 -0.755768 -0.982152 -0.364040 0.938110 -0.373221 0.609081 -0.203200 -1.561184 0.122943 -0.169324 0.028248 -0.611102 -0.264261 0.007449 -0.248194 0.758998
找到 -0.613583 0.152044 -0.136034 0.075973 -0.026690 -1.508442 0.802321 0.824645 0.613293 -0.546619 -0.758728 -0.082854 1.169076 -0.745491 0.647684 -0.194492 -1.471818 0.051094 -0.406084 0.230219 -0.628843 -0.650794 -0.386414 -0.540882 0.850938
司机 -0.788575 0.082170 -0.285452 0.351289 -0.157126 -1.431759 0.685111 0.718797 0.500219 -0.381803 -0.612410 -0.017127 1.086513 -0.916027 0.688265 -0.184075 -1.352869 -0.073935 -0.413783 0.237494 -0.610191 -0.932776 -0.584112 -0.611045 0.765498
期间 -0.849275 0.245843 -1.071826 0.448161 -0.677418 -1.947505 -0.202808 0.188773 -0.109273 -0.426039 -0.011852 0.075040 0.769831 -1.477151 0.918274 -0.510239 -1.159077 0.343679 -0.160295 -0.159538 -0.508987 -0.825683 -0.190998 0.313055 0.703685
丰富 -0.239859 -0.077865 -0.458147 -0.221905 0.294566 -0.828687 1.013826 1.169715 0.555206 -1.219136 -0.119938 -0.625098 0.770759 -0.010519 2.262391 -0.142126 -1.232173 0.553613 0.553234 -0.022973 -0.978834 -0.568196 -0.459808 -0.758540 0.581285
出门 -0.418460 -0.009124 -0.557099 0.208670 0.026183 -0.913420 0.879412 0.985698 0.415693 -0.694360 -0.496982 -0.327789 0.753478 -0.595024 1.752446 -0.249163 -1.372274 0.004651 0.165064 0.095601 -0.888279 -0.897547 -0.814377 -0.658656 0.256159
很快 -0.488038 0.097377 0.060428 0.048566 0.026245 -1.699814 0.937145 0.723245 0.747760 -0.471859 -0.618138 -0.154245 1.211897 -0.743088 0.307776 -0.187453 -1.506835 -0.164670 -0.752957 0.227474 -0.554108 -0.696948 -0.091674 -0.459611 1.014055
以前 -0.283995 0.151137 -0.766266 -0.050718 -0.244276 -1.462760 0.046237 0.342002 0.142627 -0.661719 0.025585 -0.068803 0.762503 -0.612451 1.278619 -0.199171 -1.009034 0.577914 0.332482 -0.004157 -0.573034 -0.558973 -0.080377 -0.135882 0.612050
之前 -0.723433 0.213425 -0.769638 0.345799 -0.573798 -1.826580 -0.068594 0.154666 -0.089176 -0.354852 -0.198863 0.178203 0.823512 -1.245186 0.643507 -0.394842 -1.070222 0.302799 -0.194192 -0.032610 -0.414398 -0.641808 -0.174121 0.205519 0.810115
使用 -0.533823 0.335306 -0.331405 -0.124996 0.013098 -1.591730 0.668206 0.798577 0.381284 -0.602847 -0.660564 -0.163115 0.953723 -0.655390 0.782565 -0.256013 -1.537884 -0.044278 -0.288085 0.016234 -0.665702 -0.631999 -0.154629 -0.201105 0.563958
晚 -0.550177 0.186619 -0.351116 0.125603 -0.318791 -1.542461 0.428879 0.531238 0.031584 -0.516174 -0.679945 -0.055566 0.754450 -0.861775 0.624116 -0.415130 -1.292320 0.101101 -0.213609 -0.069742 -0.594119 -0.540627 -0.305950 0.072050 0.657334
距离 -0.147005 -0.038194 -0.782099 0.095426 -0.007871 -0.792035 0.728717 0.758064 0.259505 -0.676229 -0.210973 -0.469427 0.365908 -0.468781 1.992124 -0.190007 -1.133290 0.227944 0.588398 -0.242841 -0.939226 -0.905466 -0.650218 -0.439954 0.037257
影响 -0.616490 0.178957 -0.725549 0.060209 -0.307709 -1.615507 0.346064 0.632587 0.368670 -0.662138 -0.237697 -0.154127 0.916734 -0.985805 1.022605 -0.333303 -1.433988 0.242826 -0.070977 -0.009948 -0.540537 -0.727920 -0.328057 -0.109860 0.718489
条件 -0.007265 0.009491 -0.540259 -0.420526 0.176861 -1.154800 0.710258 0.843399 0.616548 -1.047401 -0.127563 -0.459717 0.725011 -0.102178 1.864352 -0.011976 -1.247683 0.676692 0.695148 -0.081234 -0.878694 -0.491751 -0.069796 -0.540768 0.533160
放 -0.470794 0.233267 -0.035158 -0.289153 0.181519 -1.305784 1.085676 1.068759 0.679098 -0.810540 -1.136874 -0.353575 1.016805 -0.420090 0.746767 -0.280626 -1.748762 -0.102774 -0.334563 0.113506 -0.737641 -0.455651 -0.326160 -0.460597 0.652027
收 -0.859570 0.217828 -0.419035 0.435755 -0.486914 -1.825286 0.287177 0.496195 -0.086474 -0.336138 -0.674423 0.060843 0.865828 -1.288759 0.607622 -0.473439 -1.340274 0.054357 -0.490049 -0.008992 -0.624353 -0.797705 -0.487850 0.067336 0.762311
价钱 -0.193505 0.085989 -0.669387 -0.359677 0.095186 -1.239637 0.485588 0.687781 0.319705 -0.942251 -0.102419 -0.323810 0.719096 -0.198570 1.987251 -0.121703 -1.182887 0.686109 0.765568 -0.181680 -0.867620 -0.528019 -0.200565 -0.392987 0.509729
真 -0.480989 0.090748 -0.576482 0.077213 -0.145079 -1.290846 0.404093 0.706926 0.362025 -0.723476 -0.275024 -0.189882 0.878150 -0.652099 1.330895 -0.248522 -1.209643 0.375280 0.011317 0.100028 -0.657093 -0.575463 -0.388105 -0.377450 0.656359
遇到 -0.539676 0.073010 -0.681602 0.155728 -0.340533 -1.550093 0.079341 0.360533 0.377486 -0.467224 0.139731 -0.032685 0.844702 -0.850032 1.020048 -0.113466 -0.970389 0.452489 0.017823 0.014059 -0.434887 -0.683362 -0.129118 -0.167901 0.815789
每天 -0.622484 0.205877 -0.404894 0.096853 -0.150302 -1.439221 0.558116 0.682335 0.059154 -0.695671 -0.576950 -0.202343 0.823681 -0.714809 0.969289 -0.462705 -1.396629 0.106477 -0.226784 -0.075013 -0.706400 -0.553014 -0.358247 -0.041650 0.608392
解释 -0.876406 0.231400 -0.384007 0.303277 -0.319773 -1.957808 0.469729 0.559481 0.420571 -0.378355 -0.550068 0.084475 1.250003 -1.209521 0.425924 -0.261901 -1.490092 0.076807 -0.662346 0.186585 -0.516387 -0.840229 -0.311544 -0.261591 1.005707
买 -0.628192 0.091597 -0.392760 0.233017 -0.042070 -1.253736 0.767088 0.917292 0.364350 -0.654123 -0.649141 -0.141672 1.011059 -0.766639 1.221761 -0.314932 -1.457995 0.046230 -0.172599 0.223505 -0.763788 -0.773677 -0.670042 -0.575205 0.596712
太差 -0.063882 0.048919 -0.378890 -0.442910 0.265329 -0.715277 0.543035 0.810279 0.758560 -0.983478 0.115049 -0.417310 0.654015 0.083525 1.451124 0.049286 -0.907882 0.596646 0.499869 0.047310 -0.511822 -0.252891 0.059078 -0.582003 0.666910
温馨 -0.093442 0.009031 -0.436585 -0.452191 0.244261 -1.337841 0.775903 0.876210 0.763077 -0.999499 -0.300377 -0.590824 0.781683 -0.173795 1.656120 -0.021516 -1.328037 0.461326 0.471452 -0.192027 -0.729899 -0.374730 0.059909 -0.379151 0.637038
十分 -0.421763 0.106417 -0.811431 0.101447 -0.067328 -1.310972 0.589455 0.753636 0.504140 -0.719679 -0.086416 -0.287580 0.844033 -0.762166 1.538585 -0.193116 -1.305454 0.223186 0.188732 0.038499 -0.695310 -0.954393 -0.406763 -0.509053 0.503847
一晚 -0.485413 0.177645 -0.670767 -0.094531 -0.197884 -1.612374 0.259533 0.559932 0.163019 -0.800631 -0.417150 -0.159434 0.846372 -0.708999 1.237590 -0.394662 -1.380102 0.391738 0.144183 -0.096602 -0.676243 -0.506818 -0.100025 -0.014247 0.632778
只好 -0.812338 0.236721 -0.352086 0.170837 -0.267769 -1.775482 0.458165 0.670775 0.319493 -0.529887 -0.880453 0.023203 1.131478 -1.043032 0.548845 -0.421155 -1.564525 0.048755 -0.555771 0.151833 -0.579481 -0.606747 -0.328390 -0.122553 0.924961
特色 -0.390563 0.122085 -0.553481 -0.250130 0.070149 -1.311461 0.433238 0.763281 0.522690 -0.974979 -0.267858 -0.367631 0.820351 -0.321131 1.585058 -0.205244 -1.210445 0.519603 0.317474 -0.061062 -0.687253 -0.386268 0.022268 -0.277351 0.705617
所谓 -0.285697 0.259653 -0.435230 -0.395548 0.046618 -1.578253 0.453923 0.639933 0.452539 -0.994161 -0.678926 -0.351248 0.760873 -0.277401 1.163752 -0.182411 -1.370420 0.528580 0.291348 -0.231994 -0.753356 -0.300495 0.233043 -0.043827 0.642819
有人 -0.651500 0.195057 -0.356034 -0.013935 -0.106744 -1.486560 0.649069 0.858670 0.540099 -0.781412 -0.613836 -0.238356 1.069644 -0.753101 0.889987 -0.350088 -1.545811 0.095837 -0.309724 0.140487 -0.582960 -0.555973 -0.316590 -0.370869 0.847457
休息 -0.523283 0.147035 -0.399881 -0.041331 -0.219772 -1.172750 0.520421 0.680407 0.351544 -0.611530 -0.448745 -0.216971 0.815943 -0.719266 0.716625 -0.382950 -1.251299 0.051956 -0.274074 0.072588 -0.380600 -0.413625 -0.322422 -0.123745 0.565177
质量 -0.154937 0.051773 -0.475877 -0.393831 0.206056 -0.895525 0.886853 1.030728 0.633417 -1.153826 -0.145748 -0.608942 0.645819 -0.076524 1.777712 -0.152209 -1.300290 0.525902 0.488524 -0.017303 -0.800585 -0.401833 -0.277611 -0.548744 0.540173
普通 -0.049058 0.270835 -0.255980 -0.641412 0.292788 -1.647651 0.607896 0.642126 0.402700 -1.044847 -0.884342 -0.476356 0.638015 0.009785 1.163293 -0.090057 -1.540713 0.473521 0.478709 -0.365885 -0.907956 -0.209029 0.492008 0.007912 0.628928
消费 -0.865733 0.245077 -0.393600 0.420217 -0.414681 -1.855920 0.331412 0.497117 -0.047538 -0.273200 -0.663048 0.134204 0.981212 -1.284475 0.547675 -0.486764 -1.453705 -0.006308 -0.550463 0.081530 -0.665937 -0.834165 -0.473456 0.026436 0.746351
不太 -0.079566 0.006194 -0.234902 -0.266865 0.277591 -0.673898 0.977720 1.002357 0.613188 -0.817873 -0.555222 -0.474576 0.629734 -0.054131 1.406624 -0.070077 -1.282763 0.071921 0.278527 0.055263 -0.777625 -0.561285 -0.451451 -0.686143 0.215639
同事 -0.562254 0.236771 -0.564457 0.069812 -0.260211 -1.674080 0.232560 0.401441 0.158257 -0.540782 -0.382065 -0.000303 0.866788 -0.890426 0.770517 -0.350316 -1.268733 0.193573 -0.140397 0.026397 -0.531532 -0.587049 -0.113531 -0.056064 0.715447
过来 -0.776317 0.191218 -0.311410 0.324506 -0.251415 -1.663783 0.548709 0.602310 0.299349 -0.313687 -0.650547 0.038676 1.130100 -1.104709 0.376558 -0.334884 -1.413796 -0.141215 -0.622932 0.206249 -0.533270 -0.770985 -0.425270 -0.261820 0.841293
停车 -0.412413 0.053007 -0.438371 0.141765 -0.051298 -1.091224 0.535354 0.661895 0.375883 -0.536306 -0.251593 -0.180691 0.724592 -0.587725 1.229787 -0.153934 -1.058497 0.159299 0.062823 0.033101 -0.645917 -0.695024 -0.349747 -0.390194 0.472382
处理 -0.878996 0.225107 -0.451754 0.423869 -0.413797 -1.954440 0.289662 0.464395 0.463479 -0.348183 -0.400856 0.064372 1.207019 -1.292494 0.329209 -0.285872 -1.406942 0.053946 -0.789506 0.184629 -0.392441 -0.792118 -0.206091 -0.141496 1.105770
中午 -0.830207 0.144478 -0.465324 0.569335 -0.684939 -1.810818 0.437824 0.536193 -0.013032 -0.341011 -0.725393 0.000617 0.911267 -1.534027 0.328112 -0.633591 -1.493711 -0.120697 -0.845300 0.115945 -0.402204 -0.747349 -0.693761 0.174106 0.752645
噪音 -0.263316 0.167031 -0.518610 -0.489518 0.094958 -0.894688 0.760762 0.983371 0.701467 -1.089637 -0.396200 -0.571704 0.667403 -0.267207 1.422730 -0.240054 -1.338653 0.380682 0.284582 -0.157256 -0.593883 -0.219620 -0.244710 -0.327612 0.480338
马路 -0.155805 0.111008 -0.317357 -0.465453 0.254818 -0.882863 0.996268 1.090068 0.630133 -1.026865 -0.738537 -0.566884 0.672123 -0.126345 1.474421 -0.239491 -1.516562 0.192823 0.339055 -0.049567 -0.757233 -0.375425 -0.262265 -0.466861 0.337167
淋浴 -0.142997 0.217619 -0.015243 -0.750954 0.516460 -1.050411 1.278059 1.298915 1.035691 -1.174638 -0.973081 -0.621429 0.950061 0.198418 1.270782 -0.117525 -1.689259 0.198174 0.157865 0.079670 -0.774986 -0.208781 -0.103377 -0.690232 0.590088
一位 -0.799977 0.164967 -0.554997 0.501847 -0.395241 -1.785755 0.371174 0.449252 0.345687 -0.289063 -0.286981 0.030070 1.012563 -1.258253 0.475192 -0.288834 -1.289114 0.038506 -0.620018 0.107050 -0.477470 -0.949797 -0.294782 -0.200630 0.924395
市中心 -0.006769 -0.102125 -0.778250 -0.020903 0.130440 -0.682784 0.956177 0.960327 0.462221 -0.792600 -0.161614 -0.557100 0.438391 -0.287193 2.333225 -0.088446 -1.207944 0.191003 0.797967 -0.110745 -1.044561 -0.990026 -0.727449 -0.734743 -0.070204
接受 -0.473029 0.137883 -0.490279 -0.039518 -0.157108 -1.600645 0.276063 0.507816 0.354548 -0.631522 -0.300560 -0.112475 0.883235 -0.669725 0.987096 -0.173203 -1.254061 0.397077 0.004837 -0.003282 -0.600731 -0.563244 -0.094191 -0.163075 0.826614
行 -0.117368 0.035864 -0.344578 -0.261054 0.211067 -0.992687 0.665421 0.739962 0.599444 -0.799562 -0.212600 -0.374484 0.708930 -0.138759 1.406510 -0.039572 -1.092180 0.344251 0.337650 -0.007690 -0.672571 -0.442019 -0.082052 -0.486375 0.484890
极差 -0.142535 0.095569 -0.070894 -0.469288 0.323526 -0.926433 0.927954 0.898178 0.859219 -0.932117 -0.451705 -0.462025 0.799461 -0.016339 0.969959 -0.026334 -1.353868 0.202043 0.064669 0.101974 -0.550964 -0.303135 0.031193 -0.574064 0.692979
取消 -0.857226 0.233984 -0.713336 0.482679 -0.572719 -2.092782 -0.095374 0.235537 0.039609 -0.256677 -0.271618 0.266308 1.078799 -1.395418 0.530793 -0.351430 -1.264779 0.291545 -0.415944 0.064625 -0.412541 -0.796926 -0.241375 0.151688 0.987622
不足 -0.285752 0.116651 -0.375758 -0.261403 0.109219 -1.130010 0.855388 0.865793 0.585063 -0.886962 -0.514993 -0.465733 0.758523 -0.359800 1.276667 -0.170582 -1.410901 0.264574 0.146336 -0.079853 -0.711190 -0.518377 -0.275055 -0.381326 0.564967
市区 -0.464559 0.089809 -0.985994 0.179372 -0.286197 -1.205920 0.439100 0.684993 0.043368 -0.613753 -0.216857 -0.268885 0.563558 -0.815314 1.849098 -0.308887 -1.202983 0.253520 0.470279 -0.196506 -0.868331 -0.951472 -0.642791 -0.227136 0.164006
浴缸 -0.104284 0.222841 0.052155 -0.809685 0.505579 -1.000592 1.150468 1.164973 0.964016 -1.058409 -1.012043 -0.606866 0.900432 0.218136 1.058375 -0.112088 -1.582866 0.202731 0.095817 -0.014224 -0.724395 -0.120490 -0.017937 -0.510581 0.596688
印象 -0.439950 0.165494 -0.895829 0.087696 -0.087850 -1.245433 0.229880 0.626233 0.235423 -0.747609 0.211937 -0.227001 0.716486 -0.688211 1.604165 -0.260435 -1.031892 0.386631 0.312343 0.001622 -0.605347 -0.690995 -0.305608 -0.331047 0.426015
确认 -0.896740 0.280450 -0.246704 0.313976 -0.432955 -2.390055 0.168426 0.316688 0.198034 -0.326441 -0.829345 0.263527 1.230780 -1.244549 0.129331 -0.321968 -1.522614 0.108616 -0.736979 0.103962 -0.551283 -0.581562 0.083391 0.147530 1.302829
自助 -0.461262 0.039671 -0.599155 0.159308 -0.065584 -0.786656 0.683741 0.855740 0.030566 -0.931357 -0.157592 -0.440936 0.531546 -0.511563 1.676509 -0.407876 -1.108602 0.337775 0.192259 -0.053337 -0.770784 -0.631222 -0.696594 -0.304993 0.356378
楼下 -0.305847 0.119495 -0.541716 -0.132252 0.043614 -1.120202 0.860633 0.927903 0.433894 -0.914146 -0.571692 -0.419858 0.781731 -0.453874 1.502922 -0.276487 -1.496337 0.164824 0.189024 -0.065393 -0.824022 -0.602349 -0.467287 -0.409945 0.359448
优点 0.012668 -0.018280 -0.445869 -0.195947 0.235884 -0.623116 0.825344 0.787837 0.495253 -0.731053 -0.254182 -0.531704 0.418141 -0.065443 1.696860 -0.051493 -1.064222 0.231005 0.594292 -0.139426 -0.836915 -0.600856 -0.359742 -0.548163 0.091710
清楚 -0.489620 0.242047 -0.164761 -0.225702 0.084822 -1.282378 0.714682 0.772429 0.629698 -0.665169 -0.640076 -0.157324 1.033111 -0.452931 0.590674 -0.207643 -1.473293 -0.006471 -0.280670 0.243493 -0.488907 -0.480841 -0.171830 -0.467861 0.728040
坐 -0.708360 0.153916 -0.552374 0.282456 -0.219532 -1.424443 0.638546 0.814560 0.292176 -0.593097 -0.608982 -0.199132 0.907994 -0.949724 1.195889 -0.372604 -1.441232 -0.006093 -0.188043 0.033990 -0.731531 -0.860697 -0.635434 -0.316523 0.572628
工作人员 -0.572788 0.184504 -0.391063 0.158065 -0.170629 -1.765533 0.478220 0.560929 0.540693 -0.458690 -0.381439 -0.062557 1.060649 -0.918837 0.607487 -0.157950 -1.318085 0.133866 -0.396908 0.118439 -0.522222 -0.746175 -0.102453 -0.303222 0.980521
网上 -0.544373 0.231713 -0.822768 0.237907 -0.490859 -1.665882 -0.221098 0.045391 -0.254927 -0.424266 -0.052419 0.111843 0.612799 -1.021301 0.920517 -0.352053 -0.906246 0.421584 0.143477 -0.162951 -0.496814 -0.557860 -0.048980 0.301785 0.582496
整洁 0.197854 0.041522 -0.201465 -0.755332 0.583354 -0.988537 1.154727 1.073714 0.998114 -1.090757 -0.439474 -0.725490 0.754527 0.302604 1.781614 0.133376 -1.392915 0.410777 0.673303 -0.095274 -0.911366 -0.369728 0.045126 -0.720779 0.465589
― -0.476975 0.276518 -0.929837 0.007507 -0.476688 -1.480222 0.125480 0.500539 -0.050695 -0.724484 -0.472176 -0.306705 0.856071 -1.156556 1.002632 -0.468482 -1.408010 0.427218 -0.125723 -0.165088 -0.449322 -0.681055 -0.457165 0.112805 0.711010
刚 -0.431401 0.194802 -0.350250 -0.194190 -0.107505 -1.525348 0.518996 0.665505 0.424238 -0.705367 -0.674470 -0.246932 0.822030 -0.640415 0.863012 -0.287393 -1.394956 0.219598 -0.082753 -0.076540 -0.618475 -0.430558 -0.079674 -0.069503 0.709004
面积 -0.049143 0.252489 -0.211585 -0.743587 0.350906 -1.635534 1.038941 1.022775 0.756433 -1.213849 -1.016227 -0.703415 0.753379 0.027935 1.391252 -0.092915 -1.798008 0.402129 0.421854 -0.245732 -1.008933 -0.311895 0.297234 -0.231636 0.644177
北京 -0.410872 0.168476 -0.805302 0.125057 -0.173554 -1.130022 0.065826 0.402300 0.009590 -0.545896 0.168714 -0.044837 0.639731 -0.659395 1.409575 -0.258174 -0.792305 0.342111 0.379300 -0.024326 -0.554813 -0.632270 -0.398900 -0.221835 0.265198
步行 -0.669027 0.072522 -0.721207 0.687446 -0.455965 -0.884103 0.747247 0.780999 -0.322915 -0.383300 -0.736943 -0.322372 0.232195 -1.207114 1.538310 -0.575940 -1.354245 -0.273828 -0.028966 -0.250983 -1.117609 -1.185074 -1.272004 -0.181089 -0.126196
过去 -0.571867 0.192238 -0.318265 0.159960 -0.152583 -1.420493 0.447110 0.603862 0.279725 -0.420089 -0.606455 -0.016025 0.916232 -0.823760 0.673135 -0.276511 -1.251167 0.047221 -0.264448 0.074718 -0.577955 -0.609823 -0.364780 -0.261104 0.635120
有个 -0.316747 0.106175 -0.428570 -0.148690 0.063731 -1.198053 0.756352 0.890757 0.543745 -0.816431 -0.550424 -0.388266 0.847038 -0.403932 1.371640 -0.201499 -1.432241 0.203131 0.104345 0.024146 -0.744461 -0.552539 -0.330397 -0.467142 0.505108
两天 -0.584930 0.223981 -0.699651 0.040582 -0.376084 -1.662178 0.029755 0.332397 0.030737 -0.602030 -0.345467 -0.015838 0.803647 -0.930070 0.894750 -0.403105 -1.195447 0.333482 -0.030056 -0.079825 -0.529376 -0.555123 -0.086809 0.134778 0.690041
是否 -0.834341 0.259268 -0.279881 0.198065 -0.264557 -1.900575 0.391562 0.579613 0.420894 -0.391264 -0.630406 0.015654 1.192879 -1.059117 0.356135 -0.310846 -1.475671 0.050268 -0.633367 0.174624 -0.491982 -0.650579 -0.166079 -0.155665 1.053093
明显 -0.255251 0.137846 -0.410819 -0.347068 0.095090 -1.409426 0.727433 0.849200 0.668848 -0.890030 -0.523825 -0.468483 0.849146 -0.356306 1.243956 -0.127976 -1.460822 0.381848 0.154377 -0.058346 -0.720021 -0.480366 -0.065950 -0.302472 0.662929
洗 -0.467435 0.167481 -0.011262 -0.302569 0.185794 -1.235550 0.935926 1.026893 0.772917 -0.805570 -0.830322 -0.300627 1.089948 -0.270756 0.810936 -0.202243 -1.522763 0.097410 -0.286453 0.246683 -0.575801 -0.348343 -0.234261 -0.579255 0.762971
机会 -0.511284 0.182616 -1.113030 0.138287 -0.356611 -1.519701 -0.358764 0.256568 0.063201 -0.486949 0.522426 0.119346 0.957394 -0.836939 1.677467 -0.232081 -0.866611 0.543991 0.549692 0.073975 -0.464221 -0.883188 -0.278657 -0.246438 0.503559
网络 -0.351949 0.152208 -0.311528 -0.150948 -0.012910 -1.475609 0.577189 0.603309 0.488159 -0.626478 -0.437871 -0.211077 0.831205 -0.512379 0.737168 -0.185325 -1.287607 0.172818 -0.147005 0.003259 -0.555216 -0.452881 -0.017659 -0.206205 0.752468
25 -1.000010 0.177865 -1.143309 0.870282 -0.923673 -1.513970 -0.212601 0.168514 -0.672779 -0.258364 -0.136053 0.047354 0.377362 -1.814295 0.888189 -0.811092 -0.969419 0.052264 -0.481682 -0.295952 -0.453830 -0.764209 -0.739761 0.597753 0.392180
睡觉 -0.517342 0.164729 -0.244724 -0.324163 0.003038 -1.136479 0.795030 1.037055 0.573358 -0.983790 -0.811458 -0.365337 0.927571 -0.479174 0.849922 -0.362608 -1.575604 0.148721 -0.264649 0.076384 -0.466098 -0.200884 -0.349783 -0.294493 0.732767
快 -0.565581 0.188341 -0.388524 0.061677 -0.180123 -1.453838 0.657321 0.749741 0.348655 -0.623736 -0.619535 -0.170699 0.848770 -0.863299 0.837242 -0.366431 -1.413950 0.009492 -0.296546 0.021355 -0.605519 -0.607696 -0.390716 -0.182820 0.653167
登记 -0.671433 0.159361 -0.341287 0.350634 -0.371930 -1.926850 0.481821 0.429553 0.517744 -0.209066 -0.421761 0.068406 1.102809 -1.228430 0.172742 -0.222191 -1.279251 -0.022613 -0.670159 0.164037 -0.367653 -0.845518 -0.142392 -0.217896 1.000967
换房 -0.548271 0.251291 0.008088 -0.091640 0.006599 -1.761779 0.707269 0.692686 0.659167 -0.523042 -0.951458 -0.059336 1.200093 -0.682712 0.123611 -0.153109 -1.520503 -0.020229 -0.589172 0.195362 -0.488782 -0.434454 0.026929 -0.293399 1.014095
水平 -0.124446 0.125210 -0.486386 -0.329400 0.217020 -1.054340 0.713710 0.833424 0.662437 -0.942710 -0.067214 -0.446579 0.640771 -0.115210 1.563367 0.024896 -1.111222 0.562823 0.444353 -0.055522 -0.775025 -0.477539 -0.087030 -0.539882 0.500041
霉味 -0.073163 0.245618 0.067607 -0.879599 0.479242 -1.193373 1.081730 1.145944 0.971479 -1.183790 -1.046636 -0.655079 0.907533 0.204181 1.116332 -0.066769 -1.649088 0.314642 0.180358 -0.054626 -0.778010 -0.016784 0.208263 -0.435693 0.704685
低 -0.191162 0.157333 -0.444455 -0.369692 0.124926 -1.262411 0.468323 0.713034 0.389316 -0.899916 -0.299277 -0.340527 0.724917 -0.164945 1.529176 -0.078634 -1.176394 0.534304 0.527535 -0.123723 -0.752714 -0.379675 -0.026393 -0.277664 0.574934
地铁 -0.392258 0.053225 -0.782485 0.243771 -0.096566 -0.904861 0.712303 0.825346 0.205132 -0.587930 -0.359975 -0.307002 0.535078 -0.710839 1.745806 -0.264173 -1.224577 0.021892 0.319367 -0.072458 -0.841955 -0.965115 -0.820006 -0.478455 0.057947
到位 -0.148400 0.021147 -0.540738 -0.030237 0.127068 -1.095169 0.637740 0.703797 0.717429 -0.754473 0.185479 -0.456863 0.707473 -0.330741 1.424701 0.090854 -0.979077 0.364573 0.241606 0.011843 -0.594683 -0.758682 -0.112468 -0.542831 0.592127
刷卡 -0.930509 0.259166 -0.549647 0.512286 -0.512332 -1.934794 0.319722 0.440375 0.120792 -0.278228 -0.544308 0.103978 1.049799 -1.508530 0.394319 -0.455748 -1.401505 -0.006765 -0.696746 0.099026 -0.448243 -0.892890 -0.465977 -0.046131 0.843109
介绍 -0.441069 0.112834 -0.736383 0.107927 -0.195997 -1.472622 0.205971 0.409639 0.211884 -0.504947 -0.063512 -0.076431 0.808285 -0.725004 1.293803 -0.144010 -1.101708 0.375582 0.265041 -0.031384 -0.668561 -0.719034 -0.205950 -0.234554 0.587972
期待 -1.167971 0.274827 -1.608943 0.865147 -0.855972 -1.854798 -0.852620 -0.045238 -0.288305 -0.231340 0.558448 0.053007 0.734644 -1.807238 1.279766 -0.575472 -0.897085 0.525682 -0.159007 -0.252158 -0.279233 -1.019487 -0.287522 0.477130 0.771046
意识 -0.206823 0.032906 -0.666527 0.144181 0.070126 -1.200324 0.607872 0.607119 0.811137 -0.668656 0.377229 -0.354335 0.803676 -0.506811 1.236342 0.100276 -1.019690 0.332831 0.086290 0.105811 -0.489261 -1.037501 -0.129766 -0.619643 0.672028
离开 -0.747187 0.140647 -0.733528 0.489907 -0.553925 -1.566372 0.199176 0.363205 -0.002085 -0.288397 -0.239124 -0.013470 0.703627 -1.351656 0.584971 -0.443396 -1.070037 0.013943 -0.456292 -0.021629 -0.396985 -0.788526 -0.425487 0.111539 0.649614
马桶 -0.205031 0.257997 -0.049033 -0.609453 0.415307 -1.095900 1.077956 1.230144 0.757667 -1.061776 -0.896005 -0.487012 0.948571 0.086323 1.295045 -0.150025 -1.687720 0.166179 0.099648 0.173286 -0.805255 -0.224581 -0.235364 -0.605523 0.468101
中心 -0.282719 0.076129 -0.483893 0.029462 -0.048210 -1.200713 0.678384 0.730841 0.511475 -0.624560 -0.437652 -0.315940 0.748963 -0.526017 1.160893 -0.157746 -1.244994 0.241201 0.113131 -0.003199 -0.693898 -0.658427 -0.325549 -0.410074 0.519171
菜 -0.662690 0.065394 -0.234952 0.117834 0.016471 -1.053519 0.780168 0.895992 0.475286 -0.773965 -0.491946 -0.172565 1.071010 -0.619627 0.979230 -0.324898 -1.269315 0.120551 -0.332364 0.232839 -0.603441 -0.523070 -0.579437 -0.534502 0.749671
便利 -0.066013 -0.122831 -0.687127 0.016251 0.385278 -0.775616 0.956071 0.867314 0.394093 -0.692235 -0.087335 -0.611271 0.495516 -0.242522 2.622490 -0.189603 -1.250582 -0.046675 0.824583 0.072499 -1.174902 -0.926859 -0.845356 -0.769343 -0.320269
城市 -0.318856 0.069076 -0.865148 -0.006777 -0.131757 -1.278492 0.423536 0.609998 0.353153 -0.778291 -0.007794 -0.352824 0.651703 -0.586586 1.657015 -0.190992 -1.135590 0.533983 0.400555 -0.133708 -0.727123 -0.732879 -0.385688 -0.315915 0.458379
回 -0.664416 0.166526 -0.405179 0.165246 -0.241904 -1.588698 0.414730 0.618196 0.343205 -0.497701 -0.546088 -0.062899 1.047173 -0.978819 0.650145 -0.306805 -1.316988 0.104950 -0.372014 0.123630 -0.472565 -0.601861 -0.328358 -0.158063 0.830813
听 -0.419397 0.109789 -0.182511 -0.200592 0.080955 -1.173520 0.669986 0.784698 0.644633 -0.735620 -0.479376 -0.154932 0.966853 -0.391269 0.802493 -0.138184 -1.326268 0.163259 -0.124230 0.216368 -0.511641 -0.378290 -0.152899 -0.511945 0.787888
一楼 -0.304785 0.104135 -0.136710 -0.224268 0.172316 -1.233909 0.944742 0.868904 0.559502 -0.763297 -0.755770 -0.344708 0.874859 -0.327099 1.006410 -0.192719 -1.430533 0.101557 -0.010291 0.028780 -0.746957 -0.504248 -0.230248 -0.446906 0.599184
停车场 -0.245493 0.096030 -0.415644 -0.263081 0.159358 -1.106804 0.738418 0.896018 0.612491 -0.879696 -0.435057 -0.389940 0.779116 -0.211813 1.466373 -0.124520 -1.316170 0.242809 0.300257 -0.029640 -0.715103 -0.512310 -0.169878 -0.461644 0.482257
提前 -0.747687 0.157600 -0.459011 0.519496 -0.503335 -1.635775 0.143671 0.331727 -0.001349 -0.209027 -0.371579 0.165959 0.822513 -1.204367 0.311377 -0.352464 -1.075465 -0.009278 -0.539871 0.142727 -0.363566 -0.654846 -0.299246 0.089274 0.745620
地点 -0.105751 -0.000645 -0.574151 -0.164876 0.130228 -0.819935 0.791406 0.877542 0.520159 -0.848505 -0.280344 -0.467082 0.591952 -0.261077 1.770321 -0.096255 -1.174082 0.280202 0.551055 -0.119862 -0.792277 -0.628906 -0.438608 -0.575903 0.266431
手续 -0.651625 0.212356 -0.287192 0.361938 -0.551109 -1.919107 0.255342 0.195611 0.199510 -0.109558 -0.459501 0.208646 0.872892 -1.285237 -0.008399 -0.404840 -1.194708 -0.069044 -0.646272 0.066485 -0.326013 -0.701202 -0.056151 0.130403 0.850819
购物 -0.211281 0.016642 -0.949858 0.125494 -0.022675 -0.856814 0.879453 1.023626 0.253687 -0.812067 -0.367479 -0.423483 0.513329 -0.566668 2.269306 -0.242347 -1.409029 0.147726 0.695761 -0.154318 -1.093631 -1.150391 -0.869436 -0.634487 -0.048372
好象 -0.398520 0.077053 -0.354094 -0.141419 0.020446 -1.116564 0.582668 0.783995 0.444655 -0.732845 -0.373337 -0.267317 0.784868 -0.445551 1.208770 -0.227934 -1.199827 0.289434 0.046746 0.049739 -0.598408 -0.443229 -0.300075 -0.381919 0.627461
